SNNS network definition file V1.4-3D
generated at Tue Jun  2 21:59:44 2015

network name : number
source files :
no. of units : 554
no. of connections : 58600
no. of unit types : 0
no. of site types : 0


learning function : Std_Backpropagation
update function   : Topological_Order


unit default section :

act      | bias     | st | subnet | layer | act func     | out func
---------|----------|----|--------|-------|--------------|-------------
 0,00000 |  0,00000 | h  |      0 |     1 | Act_Logistic | Out_Identity 
---------|----------|----|--------|-------|--------------|-------------


unit definition section :

no. | typeName | unitName | act      | bias     | st | position | act func | out func | sites
----|----------|----------|----------|----------|----|----------|----------|----------|-------
  1 |          | in       | 255,00000 |  0,40490 | i  |  1, 1, 1 |||
  2 |          | in       | 255,00000 |  0,53233 | i  |  2, 1, 1 |||
  3 |          | in       | 254,00000 | -0,25243 | i  |  3, 1, 1 |||
  4 |          | in       | 255,00000 |  0,77964 | i  |  4, 1, 1 |||
  5 |          | in       | 254,00000 |  0,65555 | i  |  5, 1, 1 |||
  6 |          | in       | 252,00000 | -0,37764 | i  |  6, 1, 1 |||
  7 |          | in       | 255,00000 | -0,09631 | i  |  7, 1, 1 |||
  8 |          | in       | 255,00000 |  0,03668 | i  |  8, 1, 1 |||
  9 |          | in       | 254,00000 | -0,62063 | i  |  9, 1, 1 |||
 10 |          | in       | 254,00000 | -0,04956 | i  | 10, 1, 1 |||
 11 |          | in       | 254,00000 | -0,08372 | i  |  1, 2, 1 |||
 12 |          | in       | 254,00000 | -0,03648 | i  |  2, 2, 1 |||
 13 |          | in       | 255,00000 |  0,96692 | i  |  3, 2, 1 |||
 14 |          | in       | 205,00000 | -0,48086 | i  |  4, 2, 1 |||
 15 |          | in       | 18,00000 | -0,16696 | i  |  5, 2, 1 |||
 16 |          | in       | 13,00000 | -0,30658 | i  |  6, 2, 1 |||
 17 |          | in       | 60,00000 | -0,71029 | i  |  7, 2, 1 |||
 18 |          | in       | 189,00000 |  0,19496 | i  |  8, 2, 1 |||
 19 |          | in       | 255,00000 |  0,38085 | i  |  9, 2, 1 |||
 20 |          | in       | 255,00000 | -0,10416 | i  | 10, 2, 1 |||
 21 |          | in       | 254,00000 |  0,33530 | i  |  1, 3, 1 |||
 22 |          | in       | 255,00000 |  0,26562 | i  |  2, 3, 1 |||
 23 |          | in       | 103,00000 | -0,22441 | i  |  3, 3, 1 |||
 24 |          | in       |  1,00000 |  0,55381 | i  |  4, 3, 1 |||
 25 |          | in       |  0,00000 |  0,15469 | i  |  5, 3, 1 |||
 26 |          | in       |  0,00000 | -0,15964 | i  |  6, 3, 1 |||
 27 |          | in       | 21,00000 |  0,65969 | i  |  7, 3, 1 |||
 28 |          | in       | 173,00000 |  0,01818 | i  |  8, 3, 1 |||
 29 |          | in       | 255,00000 | -0,38086 | i  |  9, 3, 1 |||
 30 |          | in       | 255,00000 |  0,44075 | i  | 10, 3, 1 |||
 31 |          | in       | 255,00000 |  0,21171 | i  |  1, 4, 1 |||
 32 |          | in       | 167,00000 |  0,52202 | i  |  2, 4, 1 |||
 33 |          | in       |  0,00000 |  0,27625 | i  |  3, 4, 1 |||
 34 |          | in       |  6,00000 |  0,00953 | i  |  4, 4, 1 |||
 35 |          | in       | 145,00000 |  0,53459 | i  |  5, 4, 1 |||
 36 |          | in       | 204,00000 | -0,80103 | i  |  6, 4, 1 |||
 37 |          | in       | 225,00000 | -0,87960 | i  |  7, 4, 1 |||
 38 |          | in       | 244,00000 | -0,71599 | i  |  8, 4, 1 |||
 39 |          | in       | 255,00000 |  0,02193 | i  |  9, 4, 1 |||
 40 |          | in       | 253,00000 |  0,81263 | i  | 10, 4, 1 |||
 41 |          | in       | 255,00000 | -0,57614 | i  |  1, 5, 1 |||
 42 |          | in       | 25,00000 |  0,91408 | i  |  2, 5, 1 |||
 43 |          | in       |  2,00000 | -0,88626 | i  |  3, 5, 1 |||
 44 |          | in       | 163,00000 |  0,95196 | i  |  4, 5, 1 |||
 45 |          | in       | 255,00000 | -0,36078 | i  |  5, 5, 1 |||
 46 |          | in       | 255,00000 |  0,26155 | i  |  6, 5, 1 |||
 47 |          | in       | 255,00000 |  0,17734 | i  |  7, 5, 1 |||
 48 |          | in       | 255,00000 | -0,75938 | i  |  8, 5, 1 |||
 49 |          | in       | 254,00000 | -0,33275 | i  |  9, 5, 1 |||
 50 |          | in       | 255,00000 | -0,06297 | i  | 10, 5, 1 |||
 51 |          | in       | 177,00000 | -0,91240 | i  |  1, 6, 1 |||
 52 |          | in       |  0,00000 | -0,71116 | i  |  2, 6, 1 |||
 53 |          | in       | 175,00000 |  0,02692 | i  |  3, 6, 1 |||
 54 |          | in       | 255,00000 |  0,78329 | i  |  4, 6, 1 |||
 55 |          | in       | 235,00000 | -0,76171 | i  |  5, 6, 1 |||
 56 |          | in       | 231,00000 | -0,39135 | i  |  6, 6, 1 |||
 57 |          | in       | 255,00000 | -0,63563 | i  |  7, 6, 1 |||
 58 |          | in       | 255,00000 | -0,79808 | i  |  8, 6, 1 |||
 59 |          | in       | 254,00000 | -0,59289 | i  |  9, 6, 1 |||
 60 |          | in       | 255,00000 | -0,27719 | i  | 10, 6, 1 |||
 61 |          | in       | 119,00000 |  0,64715 | i  |  1, 7, 1 |||
 62 |          | in       |  0,00000 |  0,97674 | i  |  2, 7, 1 |||
 63 |          | in       | 161,00000 |  0,23992 | i  |  3, 7, 1 |||
 64 |          | in       | 119,00000 | -0,79061 | i  |  4, 7, 1 |||
 65 |          | in       | 42,00000 |  0,82086 | i  |  5, 7, 1 |||
 66 |          | in       | 43,00000 | -0,36335 | i  |  6, 7, 1 |||
 67 |          | in       | 97,00000 |  0,63964 | i  |  7, 7, 1 |||
 68 |          | in       | 244,00000 |  0,70722 | i  |  8, 7, 1 |||
 69 |          | in       | 255,00000 |  0,82123 | i  |  9, 7, 1 |||
 70 |          | in       | 254,00000 |  0,01894 | i  | 10, 7, 1 |||
 71 |          | in       | 134,00000 | -0,52559 | i  |  1, 8, 1 |||
 72 |          | in       |  0,00000 | -0,99067 | i  |  2, 8, 1 |||
 73 |          | in       |  4,00000 |  0,95972 | i  |  3, 8, 1 |||
 74 |          | in       |  0,00000 | -0,83272 | i  |  4, 8, 1 |||
 75 |          | in       | 20,00000 |  0,59571 | i  |  5, 8, 1 |||
 76 |          | in       | 25,00000 | -0,37643 | i  |  6, 8, 1 |||
 77 |          | in       |  0,00000 | -0,18771 | i  |  7, 8, 1 |||
 78 |          | in       | 68,00000 |  0,68651 | i  |  8, 8, 1 |||
 79 |          | in       | 252,00000 | -0,07572 | i  |  9, 8, 1 |||
 80 |          | in       | 255,00000 |  0,69183 | i  | 10, 8, 1 |||
 81 |          | in       | 134,00000 |  0,97471 | i  |  1, 9, 1 |||
 82 |          | in       |  0,00000 |  0,86673 | i  |  2, 9, 1 |||
 83 |          | in       | 24,00000 | -0,53017 | i  |  3, 9, 1 |||
 84 |          | in       | 62,00000 |  0,32595 | i  |  4, 9, 1 |||
 85 |          | in       | 202,00000 | -0,80650 | i  |  5, 9, 1 |||
 86 |          | in       | 204,00000 | -0,49607 | i  |  6, 9, 1 |||
 87 |          | in       | 159,00000 | -0,34239 | i  |  7, 9, 1 |||
 88 |          | in       |  0,00000 | -0,58890 | i  |  8, 9, 1 |||
 89 |          | in       | 131,00000 | -0,61186 | i  |  9, 9, 1 |||
 90 |          | in       | 255,00000 |  0,63492 | i  | 10, 9, 1 |||
 91 |          | in       | 123,00000 | -0,29799 | i  |  1,10, 1 |||
 92 |          | in       |  0,00000 |  0,20370 | i  |  2,10, 1 |||
 93 |          | in       | 215,00000 | -0,45033 | i  |  3,10, 1 |||
 94 |          | in       | 239,00000 | -0,84602 | i  |  4,10, 1 |||
 95 |          | in       | 255,00000 |  0,36511 | i  |  5,10, 1 |||
 96 |          | in       | 255,00000 |  0,84497 | i  |  6,10, 1 |||
 97 |          | in       | 255,00000 | -0,80647 | i  |  7,10, 1 |||
 98 |          | in       | 99,00000 | -0,69828 | i  |  8,10, 1 |||
 99 |          | in       |  0,00000 |  0,04154 | i  |  9,10, 1 |||
100 |          | in       | 255,00000 | -0,25809 | i  | 10,10, 1 |||
101 |          | in       | 169,00000 |  0,37712 | i  |  1,11, 1 |||
102 |          | in       |  0,00000 | -0,34053 | i  |  2,11, 1 |||
103 |          | in       | 246,00000 | -0,59936 | i  |  3,11, 1 |||
104 |          | in       | 255,00000 | -0,06663 | i  |  4,11, 1 |||
105 |          | in       | 253,00000 | -0,16415 | i  |  5,11, 1 |||
106 |          | in       | 255,00000 |  0,92059 | i  |  6,11, 1 |||
107 |          | in       | 255,00000 | -0,11720 | i  |  7,11, 1 |||
108 |          | in       | 103,00000 |  0,63948 | i  |  8,11, 1 |||
109 |          | in       |  0,00000 |  0,77545 | i  |  9,11, 1 |||
110 |          | in       | 252,00000 | -0,74610 | i  | 10,11, 1 |||
111 |          | in       | 255,00000 |  0,18107 | i  |  1,12, 1 |||
112 |          | in       |  0,00000 |  0,55046 | i  |  2,12, 1 |||
113 |          | in       | 11,00000 |  0,66703 | i  |  3,12, 1 |||
114 |          | in       | 229,00000 | -0,53926 | i  |  4,12, 1 |||
115 |          | in       | 255,00000 |  0,84296 | i  |  5,12, 1 |||
116 |          | in       | 252,00000 | -0,31322 | i  |  6,12, 1 |||
117 |          | in       | 225,00000 |  0,06570 | i  |  7,12, 1 |||
118 |          | in       |  0,00000 |  0,82926 | i  |  8,12, 1 |||
119 |          | in       | 23,00000 |  0,60786 | i  |  9,12, 1 |||
120 |          | in       | 255,00000 |  0,28247 | i  | 10,12, 1 |||
121 |          | in       | 255,00000 |  0,21120 | i  |  1,13, 1 |||
122 |          | in       | 164,00000 |  0,10719 | i  |  2,13, 1 |||
123 |          | in       |  0,00000 | -0,23531 | i  |  3,13, 1 |||
124 |          | in       | 23,00000 |  0,81033 | i  |  4,13, 1 |||
125 |          | in       | 225,00000 | -0,17681 | i  |  5,13, 1 |||
126 |          | in       | 154,00000 | -0,61755 | i  |  6,13, 1 |||
127 |          | in       | 21,00000 | -0,70824 | i  |  7,13, 1 |||
128 |          | in       |  3,00000 |  0,46948 | i  |  8,13, 1 |||
129 |          | in       | 216,00000 | -0,91543 | i  |  9,13, 1 |||
130 |          | in       | 255,00000 |  0,94276 | i  | 10,13, 1 |||
131 |          | in       | 254,00000 |  0,85213 | i  |  1,14, 1 |||
132 |          | in       | 255,00000 |  0,95935 | i  |  2,14, 1 |||
133 |          | in       | 216,00000 | -0,02105 | i  |  3,14, 1 |||
134 |          | in       | 61,00000 | -0,02259 | i  |  4,14, 1 |||
135 |          | in       |  9,00000 |  0,79413 | i  |  5,14, 1 |||
136 |          | in       |  0,00000 |  0,71817 | i  |  6,14, 1 |||
137 |          | in       | 62,00000 | -0,26356 | i  |  7,14, 1 |||
138 |          | in       | 216,00000 | -0,08707 | i  |  8,14, 1 |||
139 |          | in       | 255,00000 |  0,48616 | i  |  9,14, 1 |||
140 |          | in       | 255,00000 |  0,83908 | i  | 10,14, 1 |||
141 |          | in       | 248,00000 | -0,37755 | i  |  1,15, 1 |||
142 |          | in       | 247,00000 |  0,39839 | i  |  2,15, 1 |||
143 |          | in       | 251,00000 | -0,15816 | i  |  3,15, 1 |||
144 |          | in       | 255,00000 | -0,79586 | i  |  4,15, 1 |||
145 |          | in       | 246,00000 | -0,68684 | i  |  5,15, 1 |||
146 |          | in       | 247,00000 |  0,66397 | i  |  6,15, 1 |||
147 |          | in       | 255,00000 |  0,41586 | i  |  7,15, 1 |||
148 |          | in       | 250,00000 |  0,88834 | i  |  8,15, 1 |||
149 |          | in       | 248,00000 | -0,07067 | i  |  9,15, 1 |||
150 |          | in       | 247,00000 | -0,10964 | i  | 10,15, 1 |||
151 |          | out      |  0,00750 |  0,53857 | o  |  5,20, 1 |||
152 |          | out      |  0,98676 | -0,44807 | o  |  6,20, 1 |||
153 |          | out      |  0,92027 |  0,82095 | o  |  7,20, 1 |||
154 |          | out      |  0,00001 | -0,73789 | o  |  8,20, 1 |||
155 |          | mid      |  0,63281 |  0,54427 | h  | 12, 0, 1 |||
156 |          | mid      |  0,42756 | -0,29183 | h  | 13, 0, 1 |||
157 |          | mid      |  0,71988 |  0,94386 | h  | 14, 0, 1 |||
158 |          | mid      |  0,67723 |  0,74107 | h  | 15, 0, 1 |||
159 |          | mid      |  0,67869 |  0,74776 | h  | 16, 0, 1 |||
160 |          | mid      |  0,68406 |  0,77247 | h  | 17, 0, 1 |||
161 |          | mid      |  0,68587 |  0,78089 | h  | 18, 0, 1 |||
162 |          | mid      |  0,30288 | -0,83360 | h  | 19, 0, 1 |||
163 |          | mid      |  0,31317 | -0,78534 | h  | 20, 0, 1 |||
164 |          | mid      |  0,46270 | -0,14947 | h  | 21, 0, 1 |||
165 |          | mid      |  0,58015 |  0,32341 | h  | 22, 0, 1 |||
166 |          | mid      |  0,37590 | -0,50697 | h  | 23, 0, 1 |||
167 |          | mid      |  0,62274 |  0,50119 | h  | 24, 0, 1 |||
168 |          | mid      |  0,41945 | -0,32504 | h  | 25, 0, 1 |||
169 |          | mid      |  0,61741 |  0,47858 | h  | 26, 0, 1 |||
170 |          | mid      |  0,67145 |  0,71473 | h  | 27, 0, 1 |||
171 |          | mid      |  0,34046 | -0,66126 | h  | 28, 0, 1 |||
172 |          | mid      |  0,54511 |  0,18093 | h  | 29, 0, 1 |||
173 |          | mid      |  0,65527 |  0,64227 | h  | 30, 0, 1 |||
174 |          | mid      |  0,70230 |  0,85826 | h  | 31, 0, 1 |||
175 |          | mid      |  1,00000 |  0,43551 | h  | 12, 1, 1 |||
176 |          | mid      |  0,00000 | -0,85969 | h  | 13, 1, 1 |||
177 |          | mid      |  1,00000 |  0,53304 | h  | 14, 1, 1 |||
178 |          | mid      |  1,00000 |  0,14427 | h  | 15, 1, 1 |||
179 |          | mid      |  1,00000 |  0,13992 | h  | 16, 1, 1 |||
180 |          | mid      |  1,00000 | -0,04205 | h  | 17, 1, 1 |||
181 |          | mid      |  1,00000 |  0,14798 | h  | 18, 1, 1 |||
182 |          | mid      |  1,00000 | -0,51099 | h  | 19, 1, 1 |||
183 |          | mid      |  0,00000 |  0,40830 | h  | 20, 1, 1 |||
184 |          | mid      |  1,00000 |  0,50154 | h  | 21, 1, 1 |||
185 |          | mid      |  1,00000 |  0,50988 | h  | 22, 1, 1 |||
186 |          | mid      |  0,00000 | -0,53393 | h  | 23, 1, 1 |||
187 |          | mid      |  1,00000 |  0,91724 | h  | 24, 1, 1 |||
188 |          | mid      |  0,00000 |  0,97771 | h  | 25, 1, 1 |||
189 |          | mid      |  1,00000 |  0,58007 | h  | 26, 1, 1 |||
190 |          | mid      |  0,00000 |  0,92170 | h  | 27, 1, 1 |||
191 |          | mid      |  1,00000 |  0,09770 | h  | 28, 1, 1 |||
192 |          | mid      |  1,00000 | -0,52502 | h  | 29, 1, 1 |||
193 |          | mid      |  0,00000 | -0,37589 | h  | 30, 1, 1 |||
194 |          | mid      |  0,00000 |  0,28579 | h  | 31, 1, 1 |||
195 |          | mid      |  0,00000 | -0,43309 | h  | 12, 2, 1 |||
196 |          | mid      |  1,00000 |  0,22895 | h  | 13, 2, 1 |||
197 |          | mid      |  0,00000 | -0,14495 | h  | 14, 2, 1 |||
198 |          | mid      |  0,00000 |  0,35928 | h  | 15, 2, 1 |||
199 |          | mid      |  1,00000 | -0,18356 | h  | 16, 2, 1 |||
200 |          | mid      |  1,00000 |  0,44423 | h  | 17, 2, 1 |||
201 |          | mid      |  1,00000 | -0,51939 | h  | 18, 2, 1 |||
202 |          | mid      |  0,00000 |  0,21450 | h  | 19, 2, 1 |||
203 |          | mid      |  0,00000 | -0,25519 | h  | 20, 2, 1 |||
204 |          | mid      |  1,00000 | -0,88459 | h  | 21, 2, 1 |||
205 |          | mid      |  1,00000 | -0,57734 | h  | 22, 2, 1 |||
206 |          | mid      |  1,00000 |  0,19858 | h  | 23, 2, 1 |||
207 |          | mid      |  1,00000 | -0,41506 | h  | 24, 2, 1 |||
208 |          | mid      |  0,00000 |  0,71470 | h  | 25, 2, 1 |||
209 |          | mid      |  0,00000 | -0,83451 | h  | 26, 2, 1 |||
210 |          | mid      |  1,00000 | -0,37470 | h  | 27, 2, 1 |||
211 |          | mid      |  1,00000 | -0,33620 | h  | 28, 2, 1 |||
212 |          | mid      |  1,00000 | -0,10691 | h  | 29, 2, 1 |||
213 |          | mid      |  0,00000 | -0,88230 | h  | 30, 2, 1 |||
214 |          | mid      |  1,00000 | -0,69713 | h  | 31, 2, 1 |||
215 |          | mid      |  1,00000 |  0,01924 | h  | 12, 3, 1 |||
216 |          | mid      |  0,00000 |  0,94321 | h  | 13, 3, 1 |||
217 |          | mid      |  0,00000 | -0,82721 | h  | 14, 3, 1 |||
218 |          | mid      |  0,00000 |  0,37233 | h  | 15, 3, 1 |||
219 |          | mid      |  0,00000 |  0,30625 | h  | 16, 3, 1 |||
220 |          | mid      |  0,00000 | -0,05729 | h  | 17, 3, 1 |||
221 |          | mid      |  1,00000 | -0,94311 | h  | 18, 3, 1 |||
222 |          | mid      |  1,00000 | -0,20793 | h  | 19, 3, 1 |||
223 |          | mid      |  1,00000 |  0,61501 | h  | 20, 3, 1 |||
224 |          | mid      |  0,00000 |  0,66488 | h  | 21, 3, 1 |||
225 |          | mid      |  0,00000 | -0,12118 | h  | 22, 3, 1 |||
226 |          | mid      |  0,00000 | -0,56618 | h  | 23, 3, 1 |||
227 |          | mid      |  0,00000 |  0,10186 | h  | 24, 3, 1 |||
228 |          | mid      |  1,00000 |  0,66475 | h  | 25, 3, 1 |||
229 |          | mid      |  1,00000 | -0,03481 | h  | 26, 3, 1 |||
230 |          | mid      |  0,00000 |  0,35983 | h  | 27, 3, 1 |||
231 |          | mid      |  1,00000 | -0,14635 | h  | 28, 3, 1 |||
232 |          | mid      |  0,00000 | -0,19094 | h  | 29, 3, 1 |||
233 |          | mid      |  0,00000 | -0,41974 | h  | 30, 3, 1 |||
234 |          | mid      |  0,00000 | -0,89627 | h  | 31, 3, 1 |||
235 |          | mid      |  0,00000 | -0,34213 | h  | 12, 4, 1 |||
236 |          | mid      |  0,00000 |  0,00516 | h  | 13, 4, 1 |||
237 |          | mid      |  1,00000 | -0,89876 | h  | 14, 4, 1 |||
238 |          | mid      |  1,00000 |  0,32175 | h  | 15, 4, 1 |||
239 |          | mid      |  1,00000 |  0,67561 | h  | 16, 4, 1 |||
240 |          | mid      |  0,00000 |  0,31636 | h  | 17, 4, 1 |||
241 |          | mid      |  0,00000 | -0,65895 | h  | 18, 4, 1 |||
242 |          | mid      |  0,00000 | -0,87612 | h  | 19, 4, 1 |||
243 |          | mid      |  0,00000 |  0,09170 | h  | 20, 4, 1 |||
244 |          | mid      |  0,00000 | -0,93953 | h  | 21, 4, 1 |||
245 |          | mid      |  0,00000 |  0,27389 | h  | 22, 4, 1 |||
246 |          | mid      |  1,00000 | -0,16791 | h  | 23, 4, 1 |||
247 |          | mid      |  1,00000 |  0,17255 | h  | 24, 4, 1 |||
248 |          | mid      |  0,00000 |  0,12726 | h  | 25, 4, 1 |||
249 |          | mid      |  1,00000 |  0,80880 | h  | 26, 4, 1 |||
250 |          | mid      |  1,00000 | -0,64616 | h  | 27, 4, 1 |||
251 |          | mid      |  1,00000 | -0,33372 | h  | 28, 4, 1 |||
252 |          | mid      |  1,00000 |  0,58921 | h  | 29, 4, 1 |||
253 |          | mid      |  0,00000 | -0,54874 | h  | 30, 4, 1 |||
254 |          | mid      |  1,00000 | -0,61044 | h  | 31, 4, 1 |||
255 |          | mid      |  1,00000 | -0,15560 | h  | 12, 5, 1 |||
256 |          | mid      |  0,00000 |  0,90859 | h  | 13, 5, 1 |||
257 |          | mid      |  1,00000 |  0,76497 | h  | 14, 5, 1 |||
258 |          | mid      |  1,00000 |  0,21812 | h  | 15, 5, 1 |||
259 |          | mid      |  0,00000 | -0,23356 | h  | 16, 5, 1 |||
260 |          | mid      |  0,00000 |  0,56984 | h  | 17, 5, 1 |||
261 |          | mid      |  0,00000 |  0,16154 | h  | 18, 5, 1 |||
262 |          | mid      |  0,00000 | -0,15406 | h  | 19, 5, 1 |||
263 |          | mid      |  1,00000 |  0,44872 | h  | 20, 5, 1 |||
264 |          | mid      |  0,00000 |  0,91705 | h  | 21, 5, 1 |||
265 |          | mid      |  0,00000 |  0,46291 | h  | 22, 5, 1 |||
266 |          | mid      |  0,00000 |  0,25054 | h  | 23, 5, 1 |||
267 |          | mid      |  1,00000 |  0,78003 | h  | 24, 5, 1 |||
268 |          | mid      |  1,00000 | -0,80224 | h  | 25, 5, 1 |||
269 |          | mid      |  1,00000 | -0,73114 | h  | 26, 5, 1 |||
270 |          | mid      |  0,00000 |  0,70265 | h  | 27, 5, 1 |||
271 |          | mid      |  1,00000 | -0,66097 | h  | 28, 5, 1 |||
272 |          | mid      |  0,00000 | -0,63010 | h  | 29, 5, 1 |||
273 |          | mid      |  1,00000 |  0,79798 | h  | 30, 5, 1 |||
274 |          | mid      |  1,00000 | -0,42702 | h  | 31, 5, 1 |||
275 |          | mid      |  1,00000 | -0,83983 | h  | 12, 6, 1 |||
276 |          | mid      |  1,00000 |  0,90337 | h  | 13, 6, 1 |||
277 |          | mid      |  1,00000 | -0,21947 | h  | 14, 6, 1 |||
278 |          | mid      |  0,00000 | -0,55129 | h  | 15, 6, 1 |||
279 |          | mid      |  1,00000 |  0,24561 | h  | 16, 6, 1 |||
280 |          | mid      |  0,00000 |  0,60112 | h  | 17, 6, 1 |||
281 |          | mid      |  0,00000 | -0,02210 | h  | 18, 6, 1 |||
282 |          | mid      |  0,00000 | -0,89887 | h  | 19, 6, 1 |||
283 |          | mid      |  0,00000 |  0,84579 | h  | 20, 6, 1 |||
284 |          | mid      |  0,00000 |  0,10015 | h  | 21, 6, 1 |||
285 |          | mid      |  0,00000 | -0,89892 | h  | 22, 6, 1 |||
286 |          | mid      |  1,00000 |  0,12638 | h  | 23, 6, 1 |||
287 |          | mid      |  0,00000 | -0,30418 | h  | 24, 6, 1 |||
288 |          | mid      |  0,00000 | -0,87304 | h  | 25, 6, 1 |||
289 |          | mid      |  1,00000 |  0,79995 | h  | 26, 6, 1 |||
290 |          | mid      |  1,00000 | -0,33799 | h  | 27, 6, 1 |||
291 |          | mid      |  1,00000 | -0,69486 | h  | 28, 6, 1 |||
292 |          | mid      |  0,00000 |  0,43606 | h  | 29, 6, 1 |||
293 |          | mid      |  0,00000 |  0,59620 | h  | 30, 6, 1 |||
294 |          | mid      |  1,00000 | -0,83053 | h  | 31, 6, 1 |||
295 |          | mid      |  0,00000 |  0,70350 | h  | 12, 7, 1 |||
296 |          | mid      |  1,00000 |  0,52801 | h  | 13, 7, 1 |||
297 |          | mid      |  0,00000 | -0,42386 | h  | 14, 7, 1 |||
298 |          | mid      |  0,00000 | -0,96148 | h  | 15, 7, 1 |||
299 |          | mid      |  0,00000 |  0,74249 | h  | 16, 7, 1 |||
300 |          | mid      |  0,00000 |  0,32365 | h  | 17, 7, 1 |||
301 |          | mid      |  0,00000 | -0,53562 | h  | 18, 7, 1 |||
302 |          | mid      |  0,00000 |  0,85854 | h  | 19, 7, 1 |||
303 |          | mid      |  0,00000 |  0,97533 | h  | 20, 7, 1 |||
304 |          | mid      |  0,00000 | -0,22423 | h  | 21, 7, 1 |||
305 |          | mid      |  1,00000 |  0,56121 | h  | 22, 7, 1 |||
306 |          | mid      |  0,00000 |  0,22357 | h  | 23, 7, 1 |||
307 |          | mid      |  0,00000 |  0,47127 | h  | 24, 7, 1 |||
308 |          | mid      |  0,00000 |  0,46362 | h  | 25, 7, 1 |||
309 |          | mid      |  1,00000 |  0,73604 | h  | 26, 7, 1 |||
310 |          | mid      |  0,00000 | -0,52654 | h  | 27, 7, 1 |||
311 |          | mid      |  1,00000 | -0,31084 | h  | 28, 7, 1 |||
312 |          | mid      |  0,00000 |  0,28963 | h  | 29, 7, 1 |||
313 |          | mid      |  1,00000 |  0,11194 | h  | 30, 7, 1 |||
314 |          | mid      |  1,00000 |  0,87161 | h  | 31, 7, 1 |||
315 |          | mid      |  0,00000 | -0,89307 | h  | 12, 8, 1 |||
316 |          | mid      |  1,00000 | -0,04637 | h  | 13, 8, 1 |||
317 |          | mid      |  1,00000 | -0,26975 | h  | 14, 8, 1 |||
318 |          | mid      |  1,00000 |  0,39767 | h  | 15, 8, 1 |||
319 |          | mid      |  1,00000 | -0,10664 | h  | 16, 8, 1 |||
320 |          | mid      |  0,00000 | -0,39376 | h  | 17, 8, 1 |||
321 |          | mid      |  0,00000 | -0,07853 | h  | 18, 8, 1 |||
322 |          | mid      |  1,00000 |  0,07768 | h  | 19, 8, 1 |||
323 |          | mid      |  1,00000 | -0,92881 | h  | 20, 8, 1 |||
324 |          | mid      |  0,00000 |  0,38845 | h  | 21, 8, 1 |||
325 |          | mid      |  1,00000 | -0,50427 | h  | 22, 8, 1 |||
326 |          | mid      |  0,00000 |  0,03983 | h  | 23, 8, 1 |||
327 |          | mid      |  0,00000 |  0,75774 | h  | 24, 8, 1 |||
328 |          | mid      |  0,00000 | -0,92400 | h  | 25, 8, 1 |||
329 |          | mid      |  0,00000 |  0,46245 | h  | 26, 8, 1 |||
330 |          | mid      |  0,00000 |  0,19467 | h  | 27, 8, 1 |||
331 |          | mid      |  0,00000 |  0,92421 | h  | 28, 8, 1 |||
332 |          | mid      |  1,00000 |  0,10970 | h  | 29, 8, 1 |||
333 |          | mid      |  0,00000 | -0,35181 | h  | 30, 8, 1 |||
334 |          | mid      |  0,00000 |  0,48732 | h  | 31, 8, 1 |||
335 |          | mid      |  1,00000 | -0,72412 | h  | 12, 9, 1 |||
336 |          | mid      |  0,00000 | -0,52739 | h  | 13, 9, 1 |||
337 |          | mid      |  1,00000 |  0,25070 | h  | 14, 9, 1 |||
338 |          | mid      |  1,00000 |  0,41648 | h  | 15, 9, 1 |||
339 |          | mid      |  0,00000 | -0,74553 | h  | 16, 9, 1 |||
340 |          | mid      |  1,00000 | -0,54734 | h  | 17, 9, 1 |||
341 |          | mid      |  1,00000 |  0,58801 | h  | 18, 9, 1 |||
342 |          | mid      |  0,00000 | -0,70758 | h  | 19, 9, 1 |||
343 |          | mid      |  1,00000 |  0,57530 | h  | 20, 9, 1 |||
344 |          | mid      |  1,00000 | -0,19062 | h  | 21, 9, 1 |||
345 |          | mid      |  0,00000 | -0,29235 | h  | 22, 9, 1 |||
346 |          | mid      |  1,00000 | -0,68975 | h  | 23, 9, 1 |||
347 |          | mid      |  0,00000 | -0,74349 | h  | 24, 9, 1 |||
348 |          | mid      |  1,00000 |  0,46486 | h  | 25, 9, 1 |||
349 |          | mid      |  1,00000 |  0,34196 | h  | 26, 9, 1 |||
350 |          | mid      |  0,00000 | -0,28419 | h  | 27, 9, 1 |||
351 |          | mid      |  0,00000 | -0,26388 | h  | 28, 9, 1 |||
352 |          | mid      |  0,00000 | -0,99808 | h  | 29, 9, 1 |||
353 |          | mid      |  1,00000 |  0,25292 | h  | 30, 9, 1 |||
354 |          | mid      |  0,00000 | -0,62671 | h  | 31, 9, 1 |||
355 |          | mid      |  0,00000 | -0,28572 | h  | 12,10, 1 |||
356 |          | mid      |  1,00000 | -0,86476 | h  | 13,10, 1 |||
357 |          | mid      |  1,00000 |  0,22031 | h  | 14,10, 1 |||
358 |          | mid      |  1,00000 |  0,11335 | h  | 15,10, 1 |||
359 |          | mid      |  1,00000 | -0,04977 | h  | 16,10, 1 |||
360 |          | mid      |  0,00000 | -0,69991 | h  | 17,10, 1 |||
361 |          | mid      |  0,00000 | -0,20034 | h  | 18,10, 1 |||
362 |          | mid      |  0,00000 |  0,02036 | h  | 19,10, 1 |||
363 |          | mid      |  1,00000 | -0,11637 | h  | 20,10, 1 |||
364 |          | mid      |  0,00000 |  0,67502 | h  | 21,10, 1 |||
365 |          | mid      |  0,00000 |  0,11499 | h  | 22,10, 1 |||
366 |          | mid      |  1,00000 |  0,95100 | h  | 23,10, 1 |||
367 |          | mid      |  0,00000 | -0,02747 | h  | 24,10, 1 |||
368 |          | mid      |  0,00000 |  0,63259 | h  | 25,10, 1 |||
369 |          | mid      |  0,00000 | -0,94626 | h  | 26,10, 1 |||
370 |          | mid      |  1,00000 |  0,17464 | h  | 27,10, 1 |||
371 |          | mid      |  1,00000 |  0,73009 | h  | 28,10, 1 |||
372 |          | mid      |  0,00000 |  0,83060 | h  | 29,10, 1 |||
373 |          | mid      |  1,00000 |  0,58699 | h  | 30,10, 1 |||
374 |          | mid      |  1,00000 |  0,16894 | h  | 31,10, 1 |||
375 |          | mid      |  0,00000 |  0,12215 | h  | 12,11, 1 |||
376 |          | mid      |  1,00000 |  0,16597 | h  | 13,11, 1 |||
377 |          | mid      |  0,00000 |  0,93378 | h  | 14,11, 1 |||
378 |          | mid      |  0,00000 | -0,15931 | h  | 15,11, 1 |||
379 |          | mid      |  1,00000 | -0,87137 | h  | 16,11, 1 |||
380 |          | mid      |  1,00000 |  0,58588 | h  | 17,11, 1 |||
381 |          | mid      |  0,00000 |  0,90098 | h  | 18,11, 1 |||
382 |          | mid      |  1,00000 |  0,28988 | h  | 19,11, 1 |||
383 |          | mid      |  0,00000 |  0,58576 | h  | 20,11, 1 |||
384 |          | mid      |  0,00000 | -0,52455 | h  | 21,11, 1 |||
385 |          | mid      |  1,00000 |  0,03272 | h  | 22,11, 1 |||
386 |          | mid      |  0,00000 | -0,31969 | h  | 23,11, 1 |||
387 |          | mid      |  0,00000 |  0,96974 | h  | 24,11, 1 |||
388 |          | mid      |  1,00000 | -0,07426 | h  | 25,11, 1 |||
389 |          | mid      |  0,00000 | -0,13780 | h  | 26,11, 1 |||
390 |          | mid      |  0,00000 | -0,22214 | h  | 27,11, 1 |||
391 |          | mid      |  0,00000 |  0,45676 | h  | 28,11, 1 |||
392 |          | mid      |  1,00000 |  0,75801 | h  | 29,11, 1 |||
393 |          | mid      |  1,00000 |  0,33238 | h  | 30,11, 1 |||
394 |          | mid      |  1,00000 |  0,69245 | h  | 31,11, 1 |||
395 |          | mid      |  0,00000 | -0,35816 | h  | 12,12, 1 |||
396 |          | mid      |  0,00000 |  0,58459 | h  | 13,12, 1 |||
397 |          | mid      |  1,00000 | -0,30443 | h  | 14,12, 1 |||
398 |          | mid      |  0,00000 |  0,70259 | h  | 15,12, 1 |||
399 |          | mid      |  1,00000 |  0,81336 | h  | 16,12, 1 |||
400 |          | mid      |  0,00000 | -0,51063 | h  | 17,12, 1 |||
401 |          | mid      |  1,00000 | -0,63831 | h  | 18,12, 1 |||
402 |          | mid      |  0,00000 |  0,61563 | h  | 19,12, 1 |||
403 |          | mid      |  0,00000 |  0,07438 | h  | 20,12, 1 |||
404 |          | mid      |  1,00000 | -0,10693 | h  | 21,12, 1 |||
405 |          | mid      |  1,00000 |  0,27935 | h  | 22,12, 1 |||
406 |          | mid      |  1,00000 |  0,75093 | h  | 23,12, 1 |||
407 |          | mid      |  1,00000 |  0,19493 | h  | 24,12, 1 |||
408 |          | mid      |  0,00000 | -0,16601 | h  | 25,12, 1 |||
409 |          | mid      |  0,00000 | -0,34774 | h  | 26,12, 1 |||
410 |          | mid      |  1,00000 | -0,37344 | h  | 27,12, 1 |||
411 |          | mid      |  1,00000 | -0,58115 | h  | 28,12, 1 |||
412 |          | mid      |  0,00000 | -0,03687 | h  | 29,12, 1 |||
413 |          | mid      |  1,00000 | -0,19498 | h  | 30,12, 1 |||
414 |          | mid      |  1,00000 |  0,05056 | h  | 31,12, 1 |||
415 |          | mid      |  1,00000 |  0,08048 | h  | 12,13, 1 |||
416 |          | mid      |  1,00000 |  0,96360 | h  | 13,13, 1 |||
417 |          | mid      |  1,00000 | -0,29221 | h  | 14,13, 1 |||
418 |          | mid      |  0,00000 | -0,69876 | h  | 15,13, 1 |||
419 |          | mid      |  0,00000 | -0,45050 | h  | 16,13, 1 |||
420 |          | mid      |  0,00000 |  0,51619 | h  | 17,13, 1 |||
421 |          | mid      |  1,00000 |  0,38300 | h  | 18,13, 1 |||
422 |          | mid      |  0,00000 |  0,13261 | h  | 19,13, 1 |||
423 |          | mid      |  0,00000 | -0,59543 | h  | 20,13, 1 |||
424 |          | mid      |  0,00000 | -0,77744 | h  | 21,13, 1 |||
425 |          | mid      |  1,00000 |  0,72678 | h  | 22,13, 1 |||
426 |          | mid      |  1,00000 | -0,36511 | h  | 23,13, 1 |||
427 |          | mid      |  0,00000 | -0,18090 | h  | 24,13, 1 |||
428 |          | mid      |  1,00000 | -0,33922 | h  | 25,13, 1 |||
429 |          | mid      |  1,00000 | -0,75218 | h  | 26,13, 1 |||
430 |          | mid      |  0,00000 | -0,34144 | h  | 27,13, 1 |||
431 |          | mid      |  0,00000 |  0,76502 | h  | 28,13, 1 |||
432 |          | mid      |  1,00000 |  0,79908 | h  | 29,13, 1 |||
433 |          | mid      |  0,00000 |  0,06888 | h  | 30,13, 1 |||
434 |          | mid      |  0,00000 | -0,81549 | h  | 31,13, 1 |||
435 |          | mid      |  1,00000 |  0,98602 | h  | 12,14, 1 |||
436 |          | mid      |  0,00000 |  0,86588 | h  | 13,14, 1 |||
437 |          | mid      |  0,00000 |  0,03921 | h  | 14,14, 1 |||
438 |          | mid      |  0,00000 | -0,72657 | h  | 15,14, 1 |||
439 |          | mid      |  0,00000 |  0,78374 | h  | 16,14, 1 |||
440 |          | mid      |  0,00000 |  0,21986 | h  | 17,14, 1 |||
441 |          | mid      |  1,00000 | -0,14657 | h  | 18,14, 1 |||
442 |          | mid      |  0,00000 | -0,89680 | h  | 19,14, 1 |||
443 |          | mid      |  0,00000 |  0,86992 | h  | 20,14, 1 |||
444 |          | mid      |  1,00000 |  0,25282 | h  | 21,14, 1 |||
445 |          | mid      |  0,00000 |  0,14520 | h  | 22,14, 1 |||
446 |          | mid      |  1,00000 |  0,12023 | h  | 23,14, 1 |||
447 |          | mid      |  0,00000 | -0,92428 | h  | 24,14, 1 |||
448 |          | mid      |  0,00000 | -0,41913 | h  | 25,14, 1 |||
449 |          | mid      |  1,00000 | -0,80895 | h  | 26,14, 1 |||
450 |          | mid      |  0,00000 |  0,97764 | h  | 27,14, 1 |||
451 |          | mid      |  1,00000 | -0,86579 | h  | 28,14, 1 |||
452 |          | mid      |  0,00000 |  0,14326 | h  | 29,14, 1 |||
453 |          | mid      |  0,00000 | -0,70979 | h  | 30,14, 1 |||
454 |          | mid      |  0,00000 | -0,83650 | h  | 31,14, 1 |||
455 |          | mid      |  1,00000 |  0,46331 | h  | 12,15, 1 |||
456 |          | mid      |  1,00000 | -0,03918 | h  | 13,15, 1 |||
457 |          | mid      |  1,00000 | -0,66214 | h  | 14,15, 1 |||
458 |          | mid      |  0,00000 |  0,96052 | h  | 15,15, 1 |||
459 |          | mid      |  1,00000 |  0,61809 | h  | 16,15, 1 |||
460 |          | mid      |  0,00000 |  0,55257 | h  | 17,15, 1 |||
461 |          | mid      |  0,00000 | -0,56344 | h  | 18,15, 1 |||
462 |          | mid      |  0,00000 | -0,48327 | h  | 19,15, 1 |||
463 |          | mid      |  0,00000 | -0,55839 | h  | 20,15, 1 |||
464 |          | mid      |  0,00000 | -0,06605 | h  | 21,15, 1 |||
465 |          | mid      |  1,00000 |  0,54035 | h  | 22,15, 1 |||
466 |          | mid      |  1,00000 |  0,70700 | h  | 23,15, 1 |||
467 |          | mid      |  0,00000 | -0,14564 | h  | 24,15, 1 |||
468 |          | mid      |  0,00000 |  0,00753 | h  | 25,15, 1 |||
469 |          | mid      |  1,00000 |  0,63943 | h  | 26,15, 1 |||
470 |          | mid      |  1,00000 | -0,54354 | h  | 27,15, 1 |||
471 |          | mid      |  0,00000 |  0,45781 | h  | 28,15, 1 |||
472 |          | mid      |  1,00000 |  0,50747 | h  | 29,15, 1 |||
473 |          | mid      |  0,00000 | -0,49461 | h  | 30,15, 1 |||
474 |          | mid      |  0,00000 | -0,92040 | h  | 31,15, 1 |||
475 |          | mid      |  0,00000 | -0,19093 | h  | 12,16, 1 |||
476 |          | mid      |  0,00000 |  0,69410 | h  | 13,16, 1 |||
477 |          | mid      |  0,00000 | -0,24448 | h  | 14,16, 1 |||
478 |          | mid      |  0,00000 | -0,27153 | h  | 15,16, 1 |||
479 |          | mid      |  0,00000 |  0,31125 | h  | 16,16, 1 |||
480 |          | mid      |  0,00000 | -0,84569 | h  | 17,16, 1 |||
481 |          | mid      |  0,00000 | -0,71700 | h  | 18,16, 1 |||
482 |          | mid      |  1,00000 | -0,52164 | h  | 19,16, 1 |||
483 |          | mid      |  0,00000 | -0,53259 | h  | 20,16, 1 |||
484 |          | mid      |  0,00000 |  0,50545 | h  | 21,16, 1 |||
485 |          | mid      |  1,00000 |  0,85269 | h  | 22,16, 1 |||
486 |          | mid      |  1,00000 | -0,88635 | h  | 23,16, 1 |||
487 |          | mid      |  1,00000 | -0,08735 | h  | 24,16, 1 |||
488 |          | mid      |  0,00000 | -0,10376 | h  | 25,16, 1 |||
489 |          | mid      |  1,00000 |  0,89077 | h  | 26,16, 1 |||
490 |          | mid      |  0,00000 | -0,01680 | h  | 27,16, 1 |||
491 |          | mid      |  1,00000 | -0,33474 | h  | 28,16, 1 |||
492 |          | mid      |  1,00000 |  0,06265 | h  | 29,16, 1 |||
493 |          | mid      |  0,00000 | -0,19726 | h  | 30,16, 1 |||
494 |          | mid      |  1,00000 | -0,98074 | h  | 31,16, 1 |||
495 |          | mid      |  0,00000 | -0,23984 | h  | 12,17, 1 |||
496 |          | mid      |  0,00000 | -0,39120 | h  | 13,17, 1 |||
497 |          | mid      |  1,00000 |  0,23721 | h  | 14,17, 1 |||
498 |          | mid      |  1,00000 | -0,73708 | h  | 15,17, 1 |||
499 |          | mid      |  1,00000 |  0,52908 | h  | 16,17, 1 |||
500 |          | mid      |  1,00000 |  0,21949 | h  | 17,17, 1 |||
501 |          | mid      |  0,00000 |  0,86164 | h  | 18,17, 1 |||
502 |          | mid      |  1,00000 | -0,90171 | h  | 19,17, 1 |||
503 |          | mid      |  1,00000 |  0,79639 | h  | 20,17, 1 |||
504 |          | mid      |  0,00000 |  0,88666 | h  | 21,17, 1 |||
505 |          | mid      |  1,00000 |  0,81732 | h  | 22,17, 1 |||
506 |          | mid      |  1,00000 |  0,41076 | h  | 23,17, 1 |||
507 |          | mid      |  0,00000 | -0,96315 | h  | 24,17, 1 |||
508 |          | mid      |  0,00000 |  0,94006 | h  | 25,17, 1 |||
509 |          | mid      |  0,00000 |  0,05144 | h  | 26,17, 1 |||
510 |          | mid      |  1,00000 | -0,42718 | h  | 27,17, 1 |||
511 |          | mid      |  0,00000 | -0,19504 | h  | 28,17, 1 |||
512 |          | mid      |  0,00000 |  0,89232 | h  | 29,17, 1 |||
513 |          | mid      |  0,00000 |  0,25730 | h  | 30,17, 1 |||
514 |          | mid      |  1,00000 | -0,49168 | h  | 31,17, 1 |||
515 |          | mid      |  1,00000 | -0,44910 | h  | 12,18, 1 |||
516 |          | mid      |  1,00000 | -0,24770 | h  | 13,18, 1 |||
517 |          | mid      |  0,00000 |  0,85524 | h  | 14,18, 1 |||
518 |          | mid      |  1,00000 |  0,04920 | h  | 15,18, 1 |||
519 |          | mid      |  1,00000 |  0,18637 | h  | 16,18, 1 |||
520 |          | mid      |  0,00000 | -0,34653 | h  | 17,18, 1 |||
521 |          | mid      |  1,00000 | -0,92379 | h  | 18,18, 1 |||
522 |          | mid      |  0,00000 | -0,19968 | h  | 19,18, 1 |||
523 |          | mid      |  0,00000 | -0,30116 | h  | 20,18, 1 |||
524 |          | mid      |  1,00000 | -0,76766 | h  | 21,18, 1 |||
525 |          | mid      |  0,00000 |  0,12138 | h  | 22,18, 1 |||
526 |          | mid      |  1,00000 | -0,83880 | h  | 23,18, 1 |||
527 |          | mid      |  1,00000 |  0,82261 | h  | 24,18, 1 |||
528 |          | mid      |  1,00000 |  0,24042 | h  | 25,18, 1 |||
529 |          | mid      |  1,00000 | -0,98906 | h  | 26,18, 1 |||
530 |          | mid      |  0,00000 | -0,11997 | h  | 27,18, 1 |||
531 |          | mid      |  1,00000 |  0,69151 | h  | 28,18, 1 |||
532 |          | mid      |  0,00000 |  0,16425 | h  | 29,18, 1 |||
533 |          | mid      |  1,00000 |  0,14534 | h  | 30,18, 1 |||
534 |          | mid      |  0,00000 |  0,36389 | h  | 31,18, 1 |||
535 |          | mid      |  1,00000 | -0,20388 | h  | 12,19, 1 |||
536 |          | mid      |  0,00000 | -0,83555 | h  | 13,19, 1 |||
537 |          | mid      |  0,00000 | -0,08306 | h  | 14,19, 1 |||
538 |          | mid      |  1,00000 | -0,75976 | h  | 15,19, 1 |||
539 |          | mid      |  0,00000 | -0,93243 | h  | 16,19, 1 |||
540 |          | mid      |  1,00000 |  0,14656 | h  | 17,19, 1 |||
541 |          | mid      |  1,00000 |  0,65749 | h  | 18,19, 1 |||
542 |          | mid      |  1,00000 |  0,62488 | h  | 19,19, 1 |||
543 |          | mid      |  0,00000 | -0,02686 | h  | 20,19, 1 |||
544 |          | mid      |  1,00000 |  0,18369 | h  | 21,19, 1 |||
545 |          | mid      |  1,00000 |  0,61055 | h  | 22,19, 1 |||
546 |          | mid      |  1,00000 |  0,93724 | h  | 23,19, 1 |||
547 |          | mid      |  0,00000 | -0,05815 | h  | 24,19, 1 |||
548 |          | mid      |  1,00000 |  0,48142 | h  | 25,19, 1 |||
549 |          | mid      |  0,00000 | -0,10776 | h  | 26,19, 1 |||
550 |          | mid      |  1,00000 |  0,62055 | h  | 27,19, 1 |||
551 |          | mid      |  1,00000 | -0,10692 | h  | 28,19, 1 |||
552 |          | mid      |  1,00000 |  0,48605 | h  | 29,19, 1 |||
553 |          | mid      |  1,00000 |  0,05990 | h  | 30,19, 1 |||
554 |          | mid      |  1,00000 |  0,94550 | h  | 31,19, 1 |||
----|----------|----------|----------|----------|----|----------|----------|----------|-------


connection definition section :

target | site | source:weight
-------|------|----------------------------------------------------------------------------------------------------------------
   151 |      | 554:-0,73583, 553: 0,64228, 552:-0,79303, 551:-0,47763, 550: 0,21585, 549: 0,13717, 548:-0,82570, 547:-0,10381,
                546: 0,95124, 545:-1,00438, 544: 0,15418, 543: 0,55879, 542: 0,69496, 541: 0,38536, 540:-0,90868, 539:-0,07156,
                538:-0,30743, 537: 0,70126, 536: 0,80430, 535: 0,58128, 534:-0,80671, 533: 0,25556, 532:-0,73071, 531: 0,07877,
                530: 0,51073, 529:-0,92788, 528: 0,58409, 527:-0,43125, 526: 0,81709, 525: 0,83544, 524: 0,20736, 523:-0,39950,
                522: 0,89779, 521:-0,25145, 520:-0,04923, 519: 0,43811, 518: 0,08087, 517: 0,37777, 516:-0,02116, 515:-0,23152,
                514: 0,10122, 513: 0,58798, 512: 0,81350, 511:-0,62171, 510:-0,62437, 509: 0,09026, 508: 0,63784, 507:-0,11514,
                506:-0,91023, 505:-0,00387, 504:-0,65317, 503:-0,45478, 502:-0,81074, 501: 0,20245, 500: 0,98658, 499: 0,17843,
                498: 0,66821, 497:-0,11875, 496:-0,23172, 495: 0,36945, 494: 0,20068, 493: 0,25950, 492:-0,70260, 491:-1,06726,
                490:-0,24219, 489:-0,01153, 488: 0,97573, 487:-0,43965, 486:-1,03200, 485:-0,38813, 484:-0,53493, 483:-0,44463,
                482:-0,75398, 481:-0,09373, 480: 0,46857, 479:-1,03557, 478:-0,25820, 477: 0,19825, 476:-0,41351, 475:-0,81845,
                474:-0,87814, 473: 0,53100, 472: 0,44458, 471: 0,22179, 470:-0,35821, 469:-0,50753, 468:-0,64582, 467:-0,08662,
                466:-0,36817, 465:-0,39922, 464: 0,16418, 463:-0,64723, 462: 0,75946, 461:-0,40913, 460: 0,02719, 459: 0,65118,
                458:-0,90534, 457: 0,75377, 456:-0,70077, 455:-0,88348, 454: 0,72259, 453:-0,56455, 452:-0,27332, 451: 0,17873,
                450: 0,68071, 449:-0,42496, 448:-0,76186, 447:-0,74602, 446: 0,64986, 445: 0,44723, 444:-0,25792, 443: 0,50442,
                442:-0,00490, 441:-0,81613, 440:-0,42404, 439:-0,22747, 438:-0,48040, 437: 0,94431, 436: 0,20537, 435:-0,16624,
                434:-0,52819, 433:-0,41505, 432: 1,27642, 431:-0,27258, 430:-0,84106, 429: 0,76724, 428: 0,19629, 427:-0,65718,
                426:-0,35668, 425: 0,22013, 424:-0,88110, 423: 0,23906, 422: 0,90650, 421: 0,79417, 420:-0,92894, 419: 0,18363,
                418: 0,33305, 417:-0,66790, 416:-0,88705, 415: 0,13518, 414: 0,91945, 413: 1,08510, 412: 0,57229, 411: 0,54781,
                410:-0,04930, 409:-0,54309, 408:-0,00807, 407: 0,45063, 406: 0,76080, 405: 0,93728, 404: 0,10875, 403:-0,06202,
                402: 0,60353, 401: 0,47535, 400:-0,73134, 399: 0,32704, 398:-0,27251, 397: 0,25363, 396:-0,56995, 395: 0,70700,
                394:-0,75198, 393: 0,98430, 392:-0,52760, 391: 0,89705, 390: 0,72878, 389:-0,35660, 388: 0,72183, 387:-0,46291,
                386: 0,42107, 385: 0,57080, 384: 0,52322, 383: 0,17202, 382:-0,19051, 381:-0,06034, 380: 0,52958, 379:-0,23205,
                378: 0,78958, 377: 0,84186, 376:-0,21431, 375:-0,57361, 374:-0,71650, 373:-0,54895, 372:-0,71986, 371:-0,00506,
                370:-0,11176, 369:-0,74802, 368: 0,37592, 367:-0,31395, 366:-0,75269, 365: 0,05174, 364: 0,78368, 363:-0,59465,
                362:-0,26147, 361: 0,58725, 360:-0,20820, 359: 0,21290, 358:-0,12225, 357: 0,36898, 356:-0,89515, 355: 0,75197,
                354: 1,11815, 353: 0,49604, 352: 0,37934, 351:-0,61484, 350: 0,93900, 349: 1,00662, 348: 0,24782, 347: 0,19426,
                346: 0,02846, 345: 0,15113, 344: 0,02790, 343:-0,28327, 342:-0,52238, 341: 0,44441, 340: 0,20203, 339: 0,40882,
                338:-1,10568, 337: 0,45810, 336:-0,81846, 335: 0,96384, 334: 0,07610, 333:-0,02830, 332:-0,15823, 331:-0,26232,
                330: 0,53255, 329:-0,64704, 328: 0,89008, 327:-0,44288, 326:-0,85900, 325:-0,29856, 324: 0,14149, 323: 0,66515,
                322:-0,83026, 321: 0,38652, 320: 0,77753, 319:-0,42752, 318:-0,01600, 317: 0,58322, 316: 1,06708, 315:-0,68381,
                314: 0,26913, 313:-0,57084, 312:-0,94012, 311:-0,77761, 310:-0,10045, 309: 0,83143, 308:-0,81627, 307:-0,28346,
                306:-0,55357, 305:-0,34115, 304: 0,23416, 303: 0,00263, 302: 0,13676, 301:-0,33842, 300:-0,27612, 299: 0,40864,
                298:-0,08809, 297: 0,88991, 296:-0,72854, 295:-0,15468, 294: 0,16696, 293: 0,36797, 292:-0,00710, 291: 0,31329,
                290:-0,39426, 289:-0,83626, 288: 0,37772, 287:-0,47707, 286: 0,16894, 285: 0,25606, 284: 0,23100, 283: 0,66132,
                282: 1,08391, 281: 0,53052, 280: 0,72932, 279: 0,80574, 278: 0,68849, 277:-0,02192, 276:-0,79070, 275: 0,61615,
                274: 0,36198, 273:-0,29759, 272:-0,38800, 271:-0,88466, 270:-0,00750, 269:-0,22238, 268:-0,26620, 267: 0,11436,
                266: 0,28825, 265:-0,16452, 264:-0,14999, 263: 0,86039, 262:-0,33417, 261:-0,33161, 260: 0,14561, 259: 0,50153,
                258: 0,29266, 257: 0,37386, 256:-0,15759, 255: 0,18208, 254: 0,38561, 253:-0,66111, 252: 0,44106, 251:-0,45643,
                250:-0,22444, 249:-0,29855, 248: 0,09261, 247:-0,65365, 246:-1,05846, 245: 0,62010, 244:-0,73787, 243:-0,82367,
                242: 0,03899, 241:-0,01652, 240: 0,91616, 239: 0,25829, 238:-0,41456, 237: 0,49770, 236:-0,93303, 235:-0,03285,
                234: 0,61419, 233: 0,62707, 232: 0,86927, 231:-0,86113, 230: 1,28251, 229: 0,31902, 228: 0,99953, 227: 0,36701,
                226: 0,58964, 225:-0,25168, 224: 0,60690, 223:-0,47947, 222:-0,75768, 221:-0,38569, 220: 0,50591, 219: 0,80443,
                218:-0,34884, 217: 0,20323, 216:-0,42675, 215:-0,81009, 214:-0,04179, 213:-0,62958, 212: 0,56534, 211: 0,34307,
                210:-0,13752, 209: 0,29696, 208:-0,37478, 207:-0,11408, 206:-0,09244, 205:-0,08130, 204:-0,74968, 203:-0,43766,
                202: 0,32032, 201: 0,05674, 200: 0,02836, 199:-0,45071, 198: 0,38721, 197: 0,37731, 196:-0,04890, 195:-0,03923,
                194:-0,73663, 193: 0,33583, 192: 0,79396, 191: 0,41768, 190: 0,44595, 189:-0,43676, 188:-0,95712, 187: 0,69856,
                186: 0,90347, 185:-0,76785, 184:-0,47260, 183: 0,08720, 182: 0,31675, 181: 0,79176, 180:-0,95737, 179:-0,25545,
                178: 0,84743, 177:-0,74302, 176: 0,13553, 175:-0,07786, 174:-0,11422, 173: 0,83221, 172: 0,36134, 171:-0,53611,
                170:-0,74758, 169: 0,17711, 168: 0,56012, 167: 0,25770, 166:-0,59260, 165:-0,72696, 164:-0,72885, 163:-0,78249,
                162:-0,68590, 161:-0,15751, 160: 0,70108, 159:-0,90597, 158: 0,04061, 157: 0,29193, 156: 0,77462, 155: 0,26979
   152 |      | 554: 0,40971, 553: 0,88810, 552:-0,38874, 551: 0,78402, 550: 0,41718, 549: 0,28250, 548: 0,28971, 547: 0,06710,
                546: 0,65762, 545:-0,82057, 544: 0,69740, 543:-0,53642, 542: 0,88759, 541: 0,95921, 540: 0,65271, 539:-0,90257,
                538: 0,96821, 537:-0,00896, 536:-0,28257, 535:-0,32261, 534: 0,04816, 533: 0,98372, 532: 0,16628, 531:-0,44612,
                530: 0,24100, 529:-0,26438, 528: 0,47361, 527:-0,48032, 526: 0,80159, 525:-0,60734, 524:-0,60047, 523: 0,35302,
                522: 0,78890, 521:-0,15087, 520:-0,31273, 519:-0,81187, 518: 0,55009, 517: 0,04827, 516: 0,51708, 515: 0,53545,
                514:-0,46367, 513:-0,97909, 512: 0,18597, 511: 0,69102, 510:-0,54333, 509:-0,56408, 508:-0,00821, 507: 0,63931,
                506:-0,64665, 505:-0,84489, 504: 0,70767, 503: 0,98852, 502:-0,77225, 501: 0,55837, 500:-0,24145, 499:-0,74250,
                498:-0,64281, 497: 0,43803, 496:-0,85572, 495: 0,35108, 494: 0,75885, 493: 0,84982, 492: 0,74650, 491:-1,01756,
                490:-0,29299, 489:-0,42032, 488:-0,13893, 487:-0,35495, 486: 0,53718, 485:-0,17143, 484: 0,77130, 483: 0,45500,
                482: 0,90147, 481: 0,80353, 480:-0,83900, 479: 0,09556, 478:-0,87894, 477:-0,43177, 476:-0,40874, 475:-0,16914,
                474:-0,55909, 473: 0,82157, 472:-0,02049, 471:-0,97591, 470:-0,54897, 469:-0,69657, 468: 0,20859, 467: 0,30056,
                466:-0,41526, 465: 0,63870, 464:-0,13681, 463:-0,88633, 462:-0,23306, 461:-0,40546, 460:-0,06024, 459:-0,30354,
                458:-0,65933, 457: 0,14563, 456: 0,71443, 455:-0,21986, 454:-0,20267, 453:-1,04751, 452:-0,37879, 451: 0,17391,
                450: 0,38010, 449:-0,22695, 448:-0,14519, 447: 0,64279, 446:-0,15703, 445: 0,44596, 444:-0,81133, 443: 0,54330,
                442: 0,11698, 441: 1,10416, 440: 0,80990, 439: 0,06256, 438:-0,14089, 437: 0,82841, 436: 0,86276, 435:-0,78630,
                434: 0,38635, 433: 0,96874, 432:-0,75304, 431:-0,47435, 430:-0,60866, 429: 0,22195, 428: 0,61566, 427:-0,41826,
                426:-0,45940, 425: 0,65017, 424:-0,08357, 423:-1,09630, 422: 0,55908, 421:-0,38049, 420:-0,93876, 419:-0,45075,
                418: 0,75699, 417: 0,88156, 416: 0,55732, 415:-0,52968, 414: 0,57006, 413: 1,05097, 412: 0,95397, 411:-0,79175,
                410:-0,49779, 409: 0,23468, 408:-0,26771, 407: 0,86936, 406:-0,27104, 405:-0,89327, 404: 0,11433, 403: 0,82391,
                402:-0,49580, 401:-0,82876, 400: 0,60097, 399:-0,91103, 398:-0,43630, 397:-0,24293, 396:-0,16017, 395: 0,04837,
                394:-0,85712, 393:-0,88433, 392:-0,21082, 391:-0,58650, 390:-0,00033, 389:-0,01103, 388: 0,07575, 387: 0,09540,
                386:-0,28126, 385:-0,19851, 384: 0,72992, 383: 0,87344, 382:-0,43298, 381:-0,00225, 380:-0,35450, 379:-0,16974,
                378: 0,46938, 377:-0,30048, 376: 0,00816, 375: 0,64009, 374: 0,57123, 373: 0,19773, 372:-0,83908, 371: 0,50670,
                370: 0,96223, 369:-0,20884, 368:-0,86672, 367: 0,52755, 366:-0,43384, 365: 0,59387, 364:-0,99801, 363:-0,02674,
                362:-0,03832, 361:-0,62800, 360:-1,05472, 359:-0,75881, 358: 0,16990, 357: 0,72643, 356:-0,95890, 355:-0,78218,
                354: 0,43056, 353:-0,78000, 352:-0,22399, 351: 0,02973, 350:-0,28905, 349:-0,85883, 348: 0,67733, 347: 0,36171,
                346: 0,08666, 345: 0,48560, 344:-0,58006, 343:-0,81603, 342: 0,47863, 341:-0,80799, 340:-0,68358, 339: 0,82528,
                338:-0,15543, 337: 0,14320, 336: 0,26471, 335:-0,48655, 334: 0,61141, 333: 0,20718, 332: 0,03691, 331:-0,16878,
                330:-0,14366, 329:-0,34894, 328: 0,62920, 327:-0,46869, 326:-0,28024, 325:-0,68810, 324: 0,65590, 323:-0,89464,
                322:-0,85695, 321:-0,12080, 320:-0,05797, 319: 0,04446, 318: 0,44172, 317: 0,19858, 316: 0,03885, 315: 0,27966,
                314:-0,22240, 313: 0,08259, 312: 0,04773, 311: 0,30065, 310: 1,08448, 309:-0,42112, 308: 0,60361, 307: 0,78533,
                306: 0,63136, 305:-0,22522, 304:-0,16859, 303: 0,78739, 302:-0,99703, 301: 0,83572, 300:-0,51040, 299:-0,70082,
                298: 1,00448, 297:-0,52001, 296: 1,12475, 295: 0,94007, 294:-0,13763, 293:-0,51557, 292:-0,54722, 291: 0,36146,
                290:-0,09824, 289: 0,95310, 288: 0,85104, 287:-0,22825, 286:-0,85717, 285: 0,45250, 284:-0,07411, 283: 0,99990,
                282:-0,76430, 281: 0,65201, 280: 0,35017, 279: 0,52912, 278:-0,35337, 277:-0,61610, 276: 1,08469, 275: 0,26735,
                274:-0,04571, 273: 1,03806, 272:-0,69371, 271: 0,83309, 270:-0,51417, 269: 0,37363, 268: 1,01213, 267: 0,78149,
                266:-0,27434, 265:-0,10550, 264: 0,43803, 263: 0,60688, 262: 0,39159, 261: 0,98551, 260:-0,29334, 259:-0,78964,
                258:-0,24931, 257: 0,84822, 256:-0,19199, 255: 0,07565, 254:-0,17782, 253: 0,61236, 252: 0,46401, 251:-0,90883,
                250:-0,58362, 249:-0,87598, 248: 0,77040, 247: 0,78019, 246: 0,82002, 245:-0,18991, 244: 0,39487, 243:-0,34738,
                242: 0,06142, 241:-0,53076, 240: 0,07527, 239:-0,44847, 238: 0,52042, 237:-0,29087, 236:-0,77530, 235: 0,20622,
                234: 0,28733, 233: 0,48824, 232: 0,89398, 231: 1,04275, 230:-0,58638, 229:-0,48093, 228: 0,92258, 227:-0,04789,
                226:-1,05083, 225:-0,63573, 224: 0,15688, 223: 0,00958, 222: 0,93605, 221:-0,89151, 220: 0,26506, 219:-0,93516,
                218: 0,73872, 217: 0,80437, 216:-0,43059, 215: 0,47719, 214: 0,44176, 213:-0,71825, 212: 0,42172, 211: 0,80824,
                210:-0,46199, 209:-0,82971, 208: 0,49890, 207: 0,98236, 206:-0,36181, 205: 0,03983, 204:-0,78715, 203:-0,93320,
                202: 0,92760, 201: 0,39911, 200: 0,29618, 199:-0,74829, 198: 0,49642, 197: 0,71375, 196: 0,13075, 195:-0,30130,
                194: 0,19522, 193:-0,22785, 192: 0,52335, 191:-0,68611, 190: 0,81940, 189: 0,56119, 188: 0,21574, 187: 0,03948,
                186:-0,25572, 185: 0,03285, 184: 1,21510, 183: 0,39569, 182:-0,63958, 181:-0,22142, 180: 0,61795, 179:-0,22315,
                178:-0,29434, 177:-0,18736, 176:-0,72093, 175: 0,37587, 174: 0,48857, 173: 0,72156, 172:-0,29279, 171:-0,92640,
                170:-0,30178, 169: 0,99464, 168: 0,60231, 167:-0,25943, 166:-0,57655, 165:-0,71668, 164:-0,58559, 163:-0,54421,
                162: 0,12840, 161:-0,38025, 160: 0,39757, 159:-0,65895, 158: 0,15928, 157:-0,45147, 156: 0,67478, 155: 0,12077
   153 |      | 554: 0,93861, 553: 0,13056, 552:-0,85603, 551:-0,46976, 550:-1,16463, 549:-0,34587, 548: 0,04656, 547: 0,99535,
                546: 0,86844, 545:-0,12347, 544:-0,77192, 543: 1,08785, 542: 0,25655, 541:-0,41863, 540: 0,30323, 539: 0,66470,
                538: 0,76128, 537:-0,62568, 536: 0,21450, 535: 0,11535, 534: 0,08394, 533:-0,55245, 532: 0,32024, 531:-0,89214,
                530:-0,54980, 529:-0,16078, 528: 0,63220, 527:-0,71550, 526:-0,81785, 525:-0,49939, 524:-0,61726, 523:-0,53227,
                522:-0,82252, 521:-0,44518, 520:-0,93207, 519:-0,36194, 518:-0,23514, 517: 0,00332, 516:-0,06293, 515:-0,74443,
                514:-0,00469, 513: 0,27970, 512: 0,75182, 511:-0,49019, 510: 0,47870, 509: 0,72344, 508: 0,41340, 507: 0,45992,
                506: 0,13943, 505: 0,49752, 504:-0,13210, 503: 0,31545, 502: 0,71027, 501: 0,10315, 500:-0,27512, 499:-0,01367,
                498: 0,17478, 497:-0,11266, 496:-0,05647, 495: 0,47060, 494:-0,42030, 493: 0,76687, 492:-0,55306, 491: 0,64879,
                490:-0,61132, 489: 0,65384, 488: 0,38213, 487: 0,04248, 486: 0,02920, 485:-0,30227, 484:-0,26802, 483:-0,55904,
                482: 0,82480, 481: 0,35731, 480:-0,43884, 479: 0,56648, 478:-0,68443, 477:-0,91506, 476:-0,60452, 475: 0,39634,
                474:-0,55622, 473:-0,91702, 472:-0,20715, 471: 0,18043, 470: 0,40953, 469: 0,40258, 468:-0,02598, 467:-0,76612,
                466:-0,08654, 465:-0,24636, 464:-0,82414, 463: 0,59276, 462: 0,76318, 461:-0,76258, 460: 0,78368, 459:-0,35114,
                458:-0,45776, 457: 0,04431, 456:-0,58763, 455:-0,41994, 454:-0,28865, 453:-0,72718, 452: 0,87039, 451: 0,84264,
                450:-0,20241, 449: 0,73605, 448:-1,09011, 447:-0,15663, 446: 0,52241, 445:-0,76520, 444:-0,29199, 443:-0,71856,
                442:-0,10075, 441: 0,85259, 440:-0,08216, 439: 0,93605, 438: 0,56970, 437: 1,00592, 436:-0,13679, 435:-0,55712,
                434:-0,20878, 433:-0,30135, 432:-0,22624, 431: 0,63085, 430:-0,79180, 429: 0,92404, 428: 1,07155, 427:-0,96581,
                426: 0,24157, 425: 1,06963, 424: 0,81541, 423:-0,24269, 422:-0,67622, 421:-0,69075, 420: 0,58507, 419:-0,55676,
                418:-0,29093, 417:-0,92824, 416:-0,91609, 415:-0,88241, 414: 0,79157, 413: 0,26487, 412: 0,07282, 411:-0,34004,
                410:-0,18828, 409: 0,03441, 408:-0,64295, 407: 0,68862, 406:-0,54720, 405:-0,76121, 404: 1,01669, 403: 0,55345,
                402:-0,72101, 401:-0,33612, 400: 0,81047, 399: 0,93099, 398:-0,30277, 397:-0,46387, 396: 0,33255, 395:-0,51084,
                394:-0,08763, 393:-0,26602, 392:-0,44710, 391:-0,97750, 390:-0,11712, 389:-0,41087, 388: 0,95458, 387: 0,45971,
                386: 0,08447, 385: 0,79945, 384: 1,02603, 383:-0,39633, 382: 0,96726, 381:-0,46940, 380:-0,26527, 379:-0,11328,
                378: 0,46211, 377:-0,31738, 376:-0,68858, 375: 0,33677, 374:-0,24305, 373: 0,67262, 372: 0,00824, 371:-0,48300,
                370: 1,03242, 369:-0,98581, 368:-0,76059, 367:-0,42558, 366: 0,01479, 365: 0,29751, 364: 0,78875, 363:-0,30943,
                362:-0,56937, 361: 0,33834, 360: 0,73272, 359:-0,15322, 358: 0,54647, 357: 0,63169, 356: 0,10496, 355:-0,27598,
                354: 0,32799, 353: 0,37081, 352:-0,50162, 351: 0,13306, 350:-0,97180, 349:-1,21877, 348:-0,78248, 347: 0,11756,
                346: 0,14952, 345: 0,65777, 344: 0,71104, 343:-0,55562, 342: 0,73991, 341: 0,18458, 340: 0,63495, 339: 0,36826,
                338:-0,11329, 337:-0,47170, 336:-0,95797, 335: 0,73172, 334:-0,84580, 333:-0,48813, 332:-0,58457, 331: 0,05711,
                330:-0,18363, 329:-0,82259, 328:-0,77665, 327: 0,00589, 326: 0,98199, 325: 0,94775, 324:-0,78635, 323: 0,54783,
                322: 0,10923, 321:-0,30397, 320:-0,91549, 319:-0,91982, 318: 1,03678, 317: 0,35688, 316:-0,87393, 315: 0,39578,
                314: 0,37953, 313: 0,76603, 312: 0,43153, 311: 0,89230, 310:-0,69338, 309: 0,40229, 308:-0,20273, 307: 0,74688,
                306:-0,59730, 305: 0,55248, 304: 0,46461, 303:-0,55971, 302:-0,21993, 301:-0,06857, 300:-0,74622, 299: 0,99635,
                298: 0,91951, 297: 0,65296, 296: 0,74808, 295: 0,51410, 294:-0,93207, 293:-0,53226, 292: 0,78565, 291:-0,73341,
                290:-0,35460, 289: 0,23227, 288: 0,48263, 287:-0,46017, 286: 0,73340, 285: 0,73713, 284:-0,08744, 283: 0,78881,
                282:-0,36570, 281: 0,01084, 280: 0,52964, 279: 0,07302, 278:-0,31072, 277: 0,06543, 276: 1,17291, 275: 0,68220,
                274:-0,94682, 273:-0,59997, 272:-0,29471, 271:-0,17378, 270:-0,26477, 269:-0,70932, 268: 0,49971, 267:-0,20307,
                266: 0,11302, 265:-0,65212, 264: 0,74897, 263: 0,25571, 262: 0,27227, 261:-0,41151, 260: 0,99319, 259: 0,42552,
                258:-0,79649, 257: 0,68777, 256:-0,27272, 255: 0,13874, 254: 0,50222, 253: 1,01166, 252:-0,36732, 251:-0,62643,
                250:-0,80882, 249: 0,72376, 248: 0,06951, 247:-0,14228, 246:-0,50165, 245:-0,11653, 244:-0,00981, 243:-0,38309,
                242:-0,65192, 241: 0,04370, 240:-0,89561, 239: 0,29839, 238:-0,77035, 237:-0,57714, 236: 0,00740, 235: 0,62013,
                234:-0,41487, 233:-0,61609, 232:-0,68975, 231:-0,64440, 230: 0,66758, 229: 1,03837, 228: 0,79865, 227: 0,13214,
                226:-0,77933, 225: 0,62925, 224: 0,38923, 223: 0,03466, 222: 0,35044, 221: 0,08155, 220: 0,77693, 219: 0,80520,
                218: 0,10738, 217: 0,12338, 216:-0,92806, 215: 0,08717, 214:-0,09701, 213:-0,63305, 212: 1,03899, 211:-0,88672,
                210:-0,89863, 209: 0,24330, 208: 0,96728, 207:-0,08744, 206: 0,78381, 205: 0,41374, 204: 0,67829, 203: 0,74841,
                202:-0,93334, 201:-0,05274, 200: 0,14843, 199: 0,63453, 198:-0,43447, 197:-0,17903, 196: 0,24286, 195:-0,74533,
                194: 0,39610, 193:-0,21993, 192: 0,67854, 191: 0,22749, 190: 0,17882, 189: 0,81683, 188:-0,71429, 187: 0,14041,
                186:-0,54357, 185:-0,83874, 184:-0,44938, 183: 0,97085, 182:-0,51542, 181:-0,49009, 180:-0,02088, 179:-0,23642,
                178: 0,30958, 177: 0,60251, 176:-0,93759, 175:-0,68581, 174:-0,69393, 173:-0,63327, 172:-0,23663, 171:-0,30500,
                170:-0,93060, 169:-0,65065, 168: 0,22666, 167: 0,40534, 166: 0,02206, 165:-0,82775, 164:-0,95645, 163:-0,54678,
                162:-0,69568, 161:-0,24242, 160:-0,76623, 159:-0,03888, 158:-0,49092, 157:-0,17700, 156: 0,26088, 155:-0,23894
   154 |      | 554: 0,01817, 553: 0,42494, 552: 0,76231, 551:-0,21320, 550:-0,43527, 549:-0,23629, 548: 0,34825, 547: 0,36484,
                546:-0,76110, 545: 0,32667, 544: 0,73653, 543: 0,89273, 542:-0,28048, 541:-1,03753, 540:-0,81412, 539:-0,65298,
                538: 0,80087, 537:-0,49795, 536: 0,01959, 535: 0,61324, 534: 0,06944, 533:-0,84313, 532: 0,86877, 531:-0,95943,
                530: 0,32268, 529: 0,13070, 528: 0,76602, 527:-0,22671, 526: 0,73858, 525: 0,49805, 524:-0,21801, 523:-0,36622,
                522:-0,70435, 521: 0,38252, 520:-0,18831, 519: 0,41882, 518: 0,53883, 517: 0,06012, 516: 0,66063, 515:-0,17552,
                514:-0,41173, 513: 0,46604, 512: 0,91364, 511: 0,02296, 510:-0,73367, 509:-0,65366, 508: 0,65758, 507: 1,04776,
                506:-0,93304, 505:-0,44489, 504: 0,80708, 503: 0,43006, 502:-0,04433, 501:-0,41313, 500: 0,80960, 499: 0,01638,
                498:-1,00138, 497: 0,55688, 496: 0,27209, 495: 0,32866, 494: 0,07405, 493: 0,27403, 492:-0,70574, 491: 0,22067,
                490: 1,01141, 489: 0,76245, 488:-0,34412, 487: 0,58203, 486:-0,05050, 485:-0,26045, 484:-0,78285, 483: 0,67092,
                482:-0,17415, 481:-0,21971, 480: 0,72002, 479: 0,28770, 478: 0,79098, 477: 0,00651, 476:-0,47985, 475:-0,94283,
                474: 0,50563, 473:-0,14204, 472: 0,48385, 471:-0,38103, 470:-0,46379, 469: 0,13258, 468: 0,21774, 467:-1,05280,
                466: 1,01587, 465:-0,87996, 464: 0,84246, 463: 0,76061, 462:-0,78079, 461:-0,54091, 460:-0,02277, 459: 1,00736,
                458:-0,24750, 457:-0,21511, 456:-0,67802, 455:-0,83101, 454:-0,46652, 453: 0,78697, 452:-0,07474, 451: 0,67388,
                450: 0,37576, 449: 0,73066, 448: 0,55626, 447:-0,13315, 446:-0,62127, 445: 0,52961, 444:-0,32457, 443:-0,37410,
                442:-0,16103, 441:-0,64130, 440: 0,90705, 439: 0,82531, 438:-0,07001, 437:-1,06819, 436: 0,48039, 435: 0,68317,
                434:-0,71498, 433: 0,12598, 432:-0,63268, 431:-0,46806, 430: 0,01917, 429: 0,56552, 428: 0,23608, 427:-0,79552,
                426:-0,74017, 425: 0,40563, 424:-0,15924, 423:-0,20796, 422:-0,80022, 421:-1,04716, 420: 0,46165, 419:-0,71996,
                418:-0,78204, 417: 0,41483, 416:-0,66746, 415:-0,08933, 414:-1,01378, 413:-0,63900, 412: 0,76515, 411:-0,59584,
                410:-0,61524, 409: 0,34299, 408: 0,59274, 407:-0,77299, 406:-0,87028, 405: 0,70654, 404:-0,09547, 403:-0,54406,
                402: 0,87652, 401: 0,62589, 400: 0,37315, 399:-0,88470, 398: 0,39406, 397:-0,11085, 396: 0,28723, 395:-0,22127,
                394:-0,53577, 393: 0,84634, 392:-0,81404, 391:-0,19458, 390:-0,34203, 389:-0,39170, 388: 0,04715, 387: 0,48275,
                386: 1,02202, 385:-0,58348, 384:-0,12229, 383:-0,91426, 382:-0,53118, 381: 0,54979, 380: 0,94401, 379:-0,68672,
                378:-0,00053, 377: 0,65853, 376: 0,03474, 375:-0,38183, 374:-0,66587, 373: 0,19111, 372:-0,02049, 371: 0,42315,
                370:-0,40525, 369: 0,81266, 368: 0,31039, 367: 0,87774, 366: 0,75580, 365: 0,90637, 364: 0,25424, 363: 0,87763,
                362:-0,79942, 361:-0,96414, 360: 0,29450, 359: 0,42906, 358: 0,62685, 357: 0,09004, 356: 0,70172, 355: 0,02856,
                354:-0,46423, 353:-0,14165, 352:-0,10595, 351: 0,59242, 350: 0,02846, 349: 0,06660, 348: 0,42350, 347: 0,70134,
                346:-0,78731, 345: 0,07980, 344:-0,06454, 343:-0,60074, 342:-0,33598, 341:-0,06901, 340:-0,14833, 339: 0,60259,
                338: 0,47231, 337: 0,37631, 336: 0,59460, 335:-0,43071, 334: 0,37182, 333:-0,77166, 332:-0,25427, 331:-0,82195,
                330: 0,33734, 329:-0,56002, 328: 0,83737, 327: 0,17367, 326: 0,49478, 325: 0,41528, 324:-0,17283, 323: 0,94958,
                322:-0,41385, 321: 0,06515, 320: 0,13008, 319:-0,46005, 318:-0,21875, 317: 0,63262, 316:-0,23767, 315: 0,56011,
                314: 0,67490, 313: 0,50702, 312: 0,21974, 311: 0,17836, 310: 0,88482, 309: 0,38720, 308: 0,75363, 307: 0,91915,
                306:-0,12750, 305:-0,89842, 304:-0,93700, 303: 0,54733, 302: 0,93151, 301: 0,80635, 300: 0,61622, 299:-0,25856,
                298: 0,61755, 297:-0,98724, 296: 0,65186, 295:-0,92279, 294: 0,87986, 293: 0,22463, 292:-0,07377, 291:-0,15768,
                290:-0,29281, 289: 0,07039, 288: 1,25739, 287:-0,41676, 286:-0,16016, 285: 0,46318, 284:-0,85772, 283:-0,70850,
                282:-0,61651, 281: 0,00518, 280:-0,86183, 279:-0,70008, 278: 0,51976, 277: 0,23473, 276: 0,26235, 275: 0,19083,
                274:-0,26818, 273: 0,75037, 272:-0,32781, 271:-0,48863, 270:-0,16578, 269:-0,69704, 268:-0,72487, 267: 0,73994,
                266:-0,38546, 265:-0,42493, 264: 0,40456, 263: 0,17554, 262:-0,38989, 261:-0,83826, 260:-0,70251, 259:-0,17068,
                258:-0,73259, 257: 0,27365, 256: 0,39012, 255:-0,18541, 254:-1,28948, 253:-0,00466, 252: 0,57746, 251:-0,33773,
                250:-0,00515, 249: 0,61869, 248:-0,26761, 247:-0,86726, 246:-0,17403, 245: 0,34857, 244:-0,16082, 243:-0,00149,
                242: 0,21090, 241:-0,83925, 240:-0,83696, 239:-0,16044, 238:-0,83821, 237: 0,04732, 236:-0,02339, 235: 0,54848,
                234:-0,38090, 233: 0,55743, 232: 0,09675, 231: 0,35052, 230: 0,53592, 229:-0,94722, 228: 0,34611, 227: 0,69191,
                226:-0,48125, 225:-0,11436, 224:-0,74713, 223: 0,89951, 222: 0,25025, 221:-0,05621, 220: 0,51552, 219: 0,43693,
                218:-0,93512, 217: 0,10343, 216: 0,18408, 215: 0,83054, 214: 0,38479, 213:-0,66422, 212:-1,07164, 211:-1,01460,
                210: 0,17351, 209: 0,28833, 208:-0,23214, 207:-0,90534, 206: 0,69522, 205:-0,48276, 204:-0,56984, 203: 0,25486,
                202:-0,78111, 201:-0,95134, 200: 1,03472, 199: 0,45813, 198:-0,05973, 197:-0,63034, 196: 0,66695, 195:-0,09249,
                194: 0,17784, 193: 1,03449, 192:-0,96518, 191: 0,57552, 190: 0,41337, 189:-0,78090, 188:-0,60902, 187:-0,97979,
                186:-0,96475, 185:-0,46397, 184: 0,65890, 183: 0,85843, 182:-0,09515, 181: 0,92871, 180: 0,04670, 179: 0,15383,
                178:-0,64798, 177:-0,98393, 176: 0,61469, 175:-0,79559, 174:-0,91605, 173: 0,23764, 172:-0,38415, 171:-0,02901,
                170:-0,62748, 169: 1,01150, 168:-0,60242, 167: 0,03315, 166:-0,39698, 165: 0,46783, 164:-0,90156, 163: 0,92620,
                162:-0,38508, 161: 0,18227, 160:-0,35109, 159:-0,23366, 158:-0,86958, 157:-0,65904, 156: 0,42127, 155:-0,02024
   175 |      | 150:-0,30595, 149: 0,82144, 148: 0,40104, 147: 0,47534, 146:-0,84553, 145:-0,45440, 144: 0,96610, 143: 0,07192,
                142:-0,41011, 141: 0,62860, 140: 0,66861, 139: 0,90140, 138:-0,38465, 137: 0,47887, 136:-0,62809, 135: 0,61478,
                134:-0,66860, 133: 0,99628, 132:-0,75872, 131: 0,06746, 130:-0,64967, 129:-0,84444, 128: 0,62509, 127:-0,26481,
                126: 0,18254, 125:-0,49036, 124: 0,62686, 123: 0,54020, 122:-0,89816, 121: 0,42414, 120: 0,58825, 119: 0,09231,
                118:-0,38883, 117: 0,52322, 116: 0,36801, 115:-0,80948, 114: 0,63032, 113:-0,12251, 112:-0,51470, 111:-0,11149,
                110: 0,19834, 109: 0,34390, 108: 0,64813, 107: 0,46474, 106:-0,21941, 105:-0,72109, 104: 0,19330, 103: 0,12442,
                102: 0,92985, 101:-0,15031, 100: 0,83704,  99: 0,47079,  98: 0,09056,  97: 0,27972,  96:-0,27872,  95: 0,89998,
                 94:-0,44606,  93: 0,65666,  92: 0,91644,  91: 0,68361,  90:-0,95134,  89:-0,86860,  88:-0,28466,  87: 0,10160,
                 86: 0,04984,  85: 0,33082,  84:-0,33534,  83: 0,47405,  82:-0,25083,  81: 0,13619,  80: 0,30016,  79: 0,12229,
                 78:-0,32381,  77:-0,66088,  76: 0,98200,  75: 0,37868,  74:-0,60037,  73:-0,56637,  72: 0,60032,  71:-0,11939,
                 70:-0,44567,  69:-0,55655,  68: 0,80267,  67:-0,94698,  66: 0,90194,  65:-0,61347,  64: 0,88031,  63: 0,33603,
                 62:-0,70951,  61: 0,06392,  60:-0,33403,  59: 0,18898,  58: 0,55915,  57:-0,69159,  56:-0,59939,  55:-0,05752,
                 54:-0,24772,  53:-0,22777,  52: 0,20918,  51:-0,67272,  50:-0,14783,  49: 0,56539,  48:-0,19231,  47: 0,03833,
                 46: 0,78830,  45: 0,52350,  44: 0,59616,  43: 0,45891,  42: 0,18599,  41:-0,81097,  40: 0,15909,  39:-0,95963,
                 38: 0,41672,  37: 0,49439,  36: 0,21055,  35: 0,58467,  34: 0,52244,  33:-0,94722,  32: 0,53038,  31: 0,49090,
                 30: 0,80677,  29:-0,53210,  28: 0,81905,  27: 0,99010,  26: 0,89651,  25:-0,60697,  24: 0,55909,  23:-0,49874,
                 22: 0,23890,  21: 0,58973,  20: 0,84985,  19: 0,89327,  18:-0,04382,  17:-0,00319,  16:-0,74861,  15: 0,94155,
                 14:-0,84685,  13: 0,01859,  12: 0,43343,  11: 0,33578,  10:-0,12973,   9:-0,26813,   8: 0,91029,   7: 0,84582,
                  6: 0,38119,   5:-0,49760,   4: 0,41695,   3: 0,71298,   2:-0,78316,   1:-0,73944
   176 |      | 150:-0,06679, 149: 0,70695, 148: 0,23480, 147:-0,30908, 146:-0,82314, 145:-0,20537, 144: 0,75786, 143:-0,45891,
                142: 0,89012, 141:-0,98844, 140:-0,51904, 139:-0,14417, 138:-0,70410, 137: 0,69237, 136: 0,24451, 135: 0,92391,
                134:-0,88545, 133:-0,56758, 132: 0,40906, 131: 0,50877, 130: 0,81878, 129: 0,40622, 128:-0,25000, 127: 0,66755,
                126:-0,00637, 125: 0,20248, 124: 0,32349, 123: 0,24418, 122: 0,16433, 121:-0,68700, 120: 0,93614, 119: 0,17611,
                118: 0,46623, 117: 0,13453, 116:-0,93166, 115:-0,15986, 114: 0,34804, 113: 0,38689, 112:-0,95976, 111:-0,69054,
                110: 0,61732, 109:-0,92304, 108:-0,24601, 107:-0,95926, 106: 0,45569, 105:-0,31000, 104: 0,03831, 103: 0,12761,
                102: 0,35693, 101: 0,09080, 100: 0,15753,  99: 0,84732,  98: 0,48771,  97:-0,12778,  96: 0,78182,  95: 0,32363,
                 94: 0,85602,  93:-0,41539,  92:-0,84305,  91:-0,70436,  90:-0,57673,  89:-0,31671,  88:-0,47211,  87:-0,68457,
                 86: 0,34303,  85:-0,80771,  84: 0,38166,  83: 0,32303,  82: 0,69075,  81: 0,33021,  80: 0,76112,  79:-0,87522,
                 78:-0,89094,  77:-0,20947,  76: 0,89646,  75: 0,51907,  74:-0,11800,  73:-0,59435,  72:-0,50372,  71:-0,10716,
                 70:-0,87374,  69:-0,27390,  68: 0,18352,  67:-0,69473,  66: 0,51037,  65:-0,93200,  64: 0,35474,  63: 0,16449,
                 62:-0,44668,  61: 0,05982,  60:-0,05353,  59: 0,40360,  58: 0,88810,  57:-0,82854,  56:-0,37666,  55: 0,91974,
                 54: 0,58318,  53:-0,56741,  52: 0,33325,  51: 0,33092,  50: 0,78639,  49: 0,12450,  48: 0,23315,  47:-0,26177,
                 46: 0,58273,  45: 0,02053,  44:-0,94119,  43:-0,90459,  42: 0,44196,  41: 0,39765,  40: 0,13628,  39:-0,54592,
                 38:-0,71942,  37:-0,03024,  36: 0,60639,  35:-0,72651,  34: 0,68677,  33:-0,19332,  32:-0,08725,  31: 0,19111,
                 30: 0,87814,  29: 0,68787,  28:-0,80456,  27: 0,20984,  26:-0,49699,  25:-0,03524,  24:-0,39483,  23: 0,76440,
                 22:-0,60897,  21:-0,58202,  20:-0,47300,  19: 0,21025,  18:-0,85680,  17:-0,37267,  16:-0,24231,  15:-0,90764,
                 14: 0,27191,  13: 0,63249,  12:-0,54842,  11:-0,71353,  10:-0,89412,   9:-0,95411,   8:-0,57349,   7:-0,51607,
                  6:-0,57760,   5:-0,04245,   4: 0,65242,   3: 0,26409,   2:-0,27999,   1:-0,09785
   177 |      | 150:-0,55124, 149:-0,92936, 148:-0,42474, 147:-0,80413, 146: 0,87873, 145: 0,86651, 144:-0,08897, 143:-0,65394,
                142: 0,02617, 141:-0,32480, 140: 0,35176, 139:-0,62414, 138:-0,13489, 137: 0,45497, 136:-0,23623, 135: 0,11102,
                134:-0,47053, 133: 0,00244, 132:-0,70643, 131:-0,34367, 130:-0,02442, 129:-0,33114, 128: 0,71663, 127: 0,87522,
                126:-0,91520, 125:-0,15589, 124:-0,62966, 123: 0,72553, 122: 0,37930, 121: 0,71323, 120:-0,14861, 119:-0,56864,
                118:-0,63368, 117:-0,55232, 116: 0,21673, 115: 0,67320, 114:-0,05506, 113:-0,18229, 112: 0,78279, 111:-0,05573,
                110:-0,46973, 109: 0,67171, 108: 0,78103, 107:-0,86852, 106:-0,45564, 105:-0,41186, 104: 0,43229, 103: 0,31916,
                102:-0,49149, 101:-0,87806, 100: 0,59913,  99: 0,85291,  98:-0,29805,  97: 0,45077,  96:-0,62606,  95: 0,65907,
                 94:-0,46181,  93: 0,07608,  92:-0,95311,  91:-0,35609,  90:-0,33478,  89: 0,89539,  88: 0,21389,  87: 0,25787,
                 86: 0,09755,  85:-0,12241,  84:-0,34751,  83:-0,15839,  82:-0,70970,  81: 0,49682,  80:-0,51643,  79: 0,49508,
                 78:-0,74789,  77: 0,66364,  76:-0,63542,  75: 0,57455,  74: 0,00833,  73: 0,29204,  72:-0,39496,  71:-0,27641,
                 70: 0,82908,  69:-0,22245,  68: 0,51620,  67:-0,04490,  66:-0,42186,  65:-0,03077,  64: 0,63434,  63:-0,20731,
                 62:-0,18644,  61: 0,03427,  60: 0,16360,  59: 0,03745,  58:-0,65603,  57: 0,56778,  56: 0,68281,  55: 0,17947,
                 54: 0,87916,  53:-0,88409,  52:-0,54775,  51: 0,87692,  50: 0,25735,  49: 0,88454,  48:-0,79837,  47: 0,90281,
                 46: 0,07821,  45:-0,19173,  44: 0,71806,  43:-0,62911,  42:-0,91964,  41:-0,36174,  40: 0,62351,  39:-0,66726,
                 38: 0,36241,  37:-0,45321,  36: 0,14891,  35:-0,33173,  34: 0,84646,  33:-0,40704,  32:-0,73232,  31: 0,83156,
                 30: 0,83093,  29:-0,22890,  28: 0,98742,  27: 0,91081,  26:-0,06671,  25: 0,28615,  24:-0,14489,  23: 0,75378,
                 22:-0,61186,  21: 0,98201,  20: 0,51219,  19: 0,80178,  18:-0,10695,  17: 0,81558,  16:-0,48963,  15:-0,26426,
                 14: 0,82885,  13: 0,06375,  12:-0,67418,  11: 0,09427,  10:-0,41806,   9:-0,81267,   8: 0,69004,   7:-0,53574,
                  6:-0,70718,   5: 0,42386,   4:-0,17216,   3:-0,54504,   2: 0,06306,   1: 0,16832
   178 |      | 150: 0,12339, 149:-0,51337, 148: 0,82694, 147: 0,19814, 146: 0,37355, 145:-0,75199, 144:-0,73928, 143: 0,69502,
                142:-0,41040, 141:-0,88858, 140:-0,60247, 139: 0,68093, 138:-0,21431, 137:-0,67322, 136: 0,47229, 135: 0,40961,
                134: 0,11156, 133:-0,46997, 132:-0,78651, 131: 0,52157, 130:-0,09098, 129:-0,34955, 128:-0,12071, 127:-0,44503,
                126: 0,67918, 125: 0,86386, 124:-0,85107, 123: 0,51224, 122: 0,41646, 121: 0,91798, 120:-0,37281, 119:-0,37349,
                118: 0,58760, 117:-0,56867, 116: 0,18385, 115:-0,21856, 114:-0,47177, 113:-0,71983, 112:-0,01326, 111: 0,69278,
                110:-0,20002, 109:-0,27728, 108:-0,73319, 107: 0,19578, 106:-0,14276, 105:-0,71912, 104: 0,35130, 103:-0,68289,
                102: 0,63077, 101:-0,04792, 100:-0,00158,  99:-0,45801,  98:-0,08264,  97: 0,43551,  96:-0,34844,  95:-0,60287,
                 94: 0,99913,  93:-0,36505,  92:-0,10214,  91:-0,48126,  90:-0,91168,  89:-0,31469,  88: 0,56415,  87: 0,40546,
                 86: 0,04338,  85:-0,38861,  84:-0,17913,  83: 0,49127,  82: 0,52813,  81: 0,96849,  80: 0,10303,  79:-0,27961,
                 78: 0,24087,  77:-0,53298,  76: 0,21714,  75:-0,05151,  74:-0,96603,  73:-0,28671,  72:-0,29152,  71: 0,00239,
                 70: 0,34353,  69: 0,40048,  68:-0,65342,  67:-0,34919,  66:-0,82551,  65: 0,18517,  64: 0,78598,  63: 0,90275,
                 62: 0,41813,  61:-0,75610,  60: 0,31792,  59:-0,43161,  58:-0,84852,  57:-0,69015,  56: 0,79794,  55: 0,78328,
                 54: 0,07097,  53:-0,43629,  52: 0,87005,  51: 0,88332,  50:-0,20417,  49:-0,15429,  48: 0,47385,  47: 0,58057,
                 46:-0,45946,  45: 0,55226,  44: 0,18524,  43:-0,43445,  42:-0,13722,  41: 0,59368,  40: 0,48019,  39: 0,46660,
                 38: 0,75758,  37:-0,23350,  36: 0,70551,  35: 0,33120,  34: 0,36351,  33:-0,29048,  32:-0,02106,  31: 0,53695,
                 30:-0,29966,  29:-0,32186,  28:-0,08293,  27: 0,15327,  26: 0,05494,  25:-0,87694,  24:-0,09580,  23:-0,59916,
                 22: 0,41417,  21: 0,47036,  20:-0,62525,  19: 0,91856,  18:-0,59299,  17:-0,42929,  16: 0,49913,  15:-0,74787,
                 14: 0,91782,  13: 0,54947,  12:-0,14269,  11: 0,31093,  10:-0,62382,   9: 0,81220,   8:-0,31898,   7: 0,76792,
                  6:-0,11504,   5:-0,16458,   4: 0,47620,   3: 0,54979,   2: 0,13649,   1: 0,22925
   179 |      | 150: 0,01174, 149: 0,46790, 148:-0,94637, 147:-0,19550, 146: 0,22429, 145:-0,44596, 144:-0,80647, 143: 0,72693,
                142: 0,41062, 141:-0,07843, 140: 0,97070, 139: 0,64935, 138:-0,86283, 137:-0,36184, 136: 0,34310, 135:-0,34904,
                134:-0,16951, 133: 0,78927, 132: 0,80055, 131: 0,96044, 130:-0,19119, 129:-0,53783, 128: 0,22101, 127:-0,72186,
                126:-0,20792, 125:-0,67222, 124: 0,85249, 123:-0,45142, 122: 0,09071, 121:-0,88088, 120: 0,60665, 119: 0,91619,
                118: 0,94929, 117:-0,42223, 116: 0,90148, 115: 0,78276, 114:-0,80096, 113:-0,83766, 112: 0,30998, 111: 0,86606,
                110: 0,09495, 109:-0,97314, 108: 0,73118, 107:-0,75954, 106: 0,40270, 105:-0,32176, 104:-0,79930, 103: 0,23650,
                102:-0,83649, 101: 0,16554, 100: 0,83386,  99:-0,59457,  98:-0,41337,  97: 0,64827,  96:-0,19129,  95: 0,54217,
                 94:-0,03175,  93:-0,59702,  92:-0,65329,  91: 0,93852,  90:-0,04004,  89: 0,57949,  88: 0,95948,  87: 0,94411,
                 86:-0,25972,  85: 0,78750,  84:-0,03749,  83: 0,79139,  82:-0,71000,  81:-0,48229,  80: 0,59706,  79:-0,85837,
                 78:-0,07048,  77: 0,76813,  76: 0,77312,  75:-0,51030,  74:-0,78338,  73:-0,49547,  72:-0,80026,  71: 0,38763,
                 70: 0,18255,  69:-0,16330,  68:-0,21240,  67: 0,28125,  66: 0,43838,  65: 0,29956,  64:-0,99250,  63:-0,12536,
                 62: 0,93025,  61:-0,69371,  60:-0,78756,  59: 0,52639,  58: 0,86007,  57: 0,76091,  56:-0,34243,  55: 0,82696,
                 54:-0,40225,  53: 0,71015,  52:-0,51049,  51: 0,70218,  50: 0,15300,  49: 0,66236,  48:-0,23611,  47: 0,03455,
                 46:-0,90773,  45:-0,65368,  44:-0,44182,  43:-0,30185,  42:-0,39687,  41:-0,07751,  40: 0,47791,  39: 0,27702,
                 38: 0,92895,  37: 0,34666,  36:-0,15893,  35:-0,29894,  34: 0,60832,  33: 0,23084,  32:-0,86683,  31:-0,88801,
                 30:-0,87696,  29:-0,68489,  28:-0,95116,  27:-0,10272,  26: 0,73505,  25:-0,12121,  24: 0,70233,  23:-0,16064,
                 22: 0,80615,  21: 0,05825,  20:-0,94262,  19:-0,53407,  18: 0,85606,  17: 0,23707,  16:-0,01449,  15:-0,89616,
                 14:-0,58248,  13:-0,77733,  12:-0,16832,  11: 0,89219,  10: 0,56429,   9:-0,23039,   8: 0,20024,   7: 0,56084,
                  6: 0,27575,   5:-0,24330,   4: 0,65363,   3: 0,49978,   2:-0,20510,   1: 0,73277
   180 |      | 150:-0,69379, 149: 0,35455, 148: 0,03054, 147: 0,75706, 146: 0,28266, 145: 0,38577, 144: 0,78162, 143: 0,48894,
                142:-0,64177, 141: 0,16574, 140:-0,82317, 139:-0,11894, 138:-0,38918, 137: 0,16852, 136: 0,58934, 135: 0,41711,
                134: 0,38056, 133:-0,20454, 132:-0,24472, 131:-0,77625, 130:-0,80894, 129: 0,10551, 128:-0,71653, 127: 0,38774,
                126: 0,04801, 125:-0,65528, 124: 0,19799, 123:-0,18840, 122: 0,78321, 121:-0,02495, 120: 0,01215, 119: 0,41610,
                118: 0,98190, 117: 0,29281, 116:-0,34156, 115: 0,39532, 114: 0,60365, 113: 0,15547, 112: 0,27595, 111: 0,95151,
                110: 0,02030, 109: 0,63229, 108: 0,86546, 107: 0,64127, 106: 0,09233, 105: 0,17044, 104:-0,20430, 103: 0,34103,
                102: 0,73819, 101:-0,98306, 100: 0,37468,  99:-0,39174,  98: 0,77587,  97: 0,83127,  96: 0,63375,  95: 0,62894,
                 94:-0,40400,  93:-0,38121,  92: 0,21319,  91: 0,28287,  90: 0,32873,  89: 0,04879,  88: 0,04619,  87: 0,44239,
                 86:-0,12998,  85:-0,09163,  84: 0,32955,  83: 0,29174,  82: 0,61589,  81: 0,68576,  80: 0,11548,  79: 0,09091,
                 78:-0,39375,  77: 0,15214,  76:-0,51054,  75: 0,81806,  74:-0,50530,  73: 0,18237,  72:-0,40197,  71:-0,05336,
                 70: 0,23960,  69: 0,06356,  68:-0,70149,  67: 0,21963,  66: 0,46025,  65: 0,11119,  64: 0,61833,  63: 0,67414,
                 62:-0,76678,  61: 0,74964,  60:-0,11284,  59:-0,12063,  58:-0,16242,  57:-0,69589,  56:-0,14908,  55: 0,94332,
                 54:-0,88185,  53: 0,86211,  52: 0,45872,  51:-0,58501,  50: 0,15591,  49: 0,74279,  48: 0,65417,  47: 0,88554,
                 46: 0,65134,  45: 0,69248,  44:-0,61996,  43: 0,53221,  42: 0,58397,  41: 0,01544,  40:-0,74601,  39:-0,25704,
                 38:-0,53934,  37: 0,84308,  36: 0,78524,  35:-0,47269,  34: 0,86250,  33:-0,18350,  32: 0,52345,  31:-0,08744,
                 30:-0,49203,  29:-0,93922,  28:-0,23332,  27:-0,27261,  26: 0,03865,  25: 0,70221,  24:-0,83638,  23: 0,90119,
                 22: 0,97731,  21:-0,16176,  20: 0,14311,  19:-0,99717,  18:-0,51090,  17:-0,88615,  16: 0,16351,  15:-0,41521,
                 14: 0,78264,  13: 0,46705,  12:-0,47638,  11:-0,10562,  10:-0,78740,   9:-0,45833,   8: 0,30147,   7:-0,39582,
                  6: 0,79029,   5: 0,37015,   4:-0,07305,   3: 0,86827,   2:-0,82063,   1: 0,62662
   181 |      | 150: 0,73221, 149: 0,06390, 148:-0,25422, 147: 0,56927, 146: 0,74560, 145:-0,35612, 144: 0,98302, 143:-0,46071,
                142: 0,61100, 141: 0,96537, 140: 0,82275, 139: 0,59956, 138: 0,44833, 137:-0,24074, 136:-0,42581, 135: 0,81369,
                134: 0,38537, 133: 0,78279, 132: 0,35706, 131:-0,45985, 130: 0,86211, 129: 0,57562, 128:-0,41529, 127:-0,76290,
                126: 0,44790, 125: 0,70714, 124:-0,60762, 123:-0,01882, 122: 0,83712, 121: 0,56132, 120:-0,09370, 119: 0,99168,
                118: 0,76271, 117: 0,44210, 116:-0,23807, 115: 0,68102, 114:-0,86901, 113:-0,84482, 112: 0,59102, 111:-0,13878,
                110: 0,05010, 109:-0,49303, 108: 0,32704, 107: 0,64091, 106: 0,44402, 105: 0,53962, 104:-0,07580, 103: 0,31899,
                102:-0,50947, 101:-0,61964, 100:-0,47253,  99:-0,04953,  98: 0,60465,  97:-0,18163,  96:-0,86917,  95:-0,89113,
                 94:-0,45377,  93: 0,03286,  92: 0,46161,  91:-0,75817,  90:-0,56585,  89:-0,91057,  88: 0,15284,  87:-0,39243,
                 86:-0,99925,  85: 0,10973,  84: 0,41916,  83: 0,44353,  82:-0,14743,  81:-0,47700,  80: 0,42144,  79:-0,73436,
                 78:-0,61925,  77: 0,05008,  76: 0,55697,  75:-0,80850,  74: 0,38379,  73:-0,51442,  72: 0,09692,  71: 0,24714,
                 70:-0,44810,  69:-0,23323,  68:-0,76139,  67:-0,26717,  66:-0,62446,  65:-0,00425,  64:-0,13981,  63:-0,97723,
                 62: 0,46975,  61:-0,83813,  60: 0,45068,  59: 0,44918,  58: 0,97116,  57:-0,64620,  56:-0,98621,  55: 0,11834,
                 54: 0,81852,  53: 0,71521,  52: 0,66426,  51: 0,22993,  50:-0,84708,  49: 0,65633,  48: 0,38669,  47: 0,48037,
                 46: 0,58537,  45: 0,65904,  44:-0,47282,  43: 0,84164,  42:-0,97736,  41:-0,91117,  40: 0,33577,  39:-0,00720,
                 38:-0,50562,  37: 0,83974,  36:-0,14699,  35: 0,16836,  34:-0,10691,  33: 0,38314,  32: 0,99852,  31: 0,56351,
                 30: 0,66416,  29:-0,73228,  28: 0,51529,  27:-0,26115,  26: 0,73508,  25:-0,36644,  24:-0,12511,  23: 0,89682,
                 22: 0,85484,  21:-0,43007,  20: 0,06046,  19:-0,69011,  18:-0,94249,  17: 0,78438,  16: 0,80316,  15: 0,57756,
                 14:-0,76530,  13: 0,08422,  12:-0,87931,  11:-0,55879,  10:-0,60583,   9:-0,46681,   8: 0,44274,   7:-0,58499,
                  6: 0,72360,   5: 0,17331,   4: 0,03768,   3:-0,02432,   2:-0,77141,   1: 0,13875
   182 |      | 150: 0,12930, 149:-0,34015, 148: 0,48603, 147: 0,50139, 146: 0,12996, 145: 0,40943, 144:-0,32157, 143: 0,01834,
                142: 0,41057, 141: 0,78918, 140:-0,64338, 139: 0,46229, 138: 0,50375, 137: 0,89183, 136:-0,33025, 135:-0,40170,
                134: 0,14054, 133:-0,61123, 132:-0,69180, 131: 0,09386, 130: 0,73222, 129: 0,98599, 128: 0,65192, 127:-0,90325,
                126:-0,86118, 125: 0,71642, 124:-0,28554, 123:-0,83841, 122: 0,73451, 121: 0,20236, 120: 0,31764, 119: 0,48461,
                118: 0,18066, 117: 0,91427, 116: 0,07394, 115: 0,79771, 114: 0,55227, 113:-0,74643, 112: 0,09181, 111:-0,64866,
                110:-0,76957, 109: 0,99843, 108:-0,93581, 107:-0,61427, 106:-0,37430, 105: 0,80639, 104: 0,67320, 103: 0,33804,
                102:-0,15533, 101: 0,63058, 100:-0,43140,  99:-0,97334,  98:-0,97940,  97: 0,17286,  96:-0,01338,  95: 0,24239,
                 94:-0,47906,  93: 0,99407,  92:-0,79372,  91:-0,11150,  90:-0,40156,  89:-0,71234,  88:-0,76276,  87:-0,83947,
                 86: 0,40338,  85: 0,28702,  84:-0,45381,  83: 0,63370,  82:-0,58761,  81: 0,03977,  80: 0,31548,  79: 0,70502,
                 78:-0,79678,  77:-0,90346,  76:-0,85082,  75: 0,07375,  74: 0,71599,  73: 0,30948,  72: 0,66998,  71: 0,07448,
                 70:-0,54776,  69: 0,23273,  68:-0,14268,  67: 0,21821,  66: 0,88686,  65:-0,09232,  64:-0,05231,  63:-0,45098,
                 62:-0,72064,  61: 0,47818,  60: 0,33765,  59:-0,03486,  58: 0,29663,  57: 0,02235,  56: 0,19444,  55: 0,84715,
                 54:-0,21459,  53: 0,14790,  52:-0,21226,  51:-0,17722,  50:-0,30090,  49: 0,74812,  48: 0,21585,  47: 0,70364,
                 46: 0,78847,  45: 0,35692,  44:-0,07625,  43:-0,74292,  42: 0,06230,  41: 0,80776,  40: 0,81769,  39: 0,01395,
                 38: 0,22154,  37:-0,54323,  36: 0,89651,  35:-0,47230,  34: 0,93598,  33:-0,32975,  32:-0,92363,  31:-0,05997,
                 30: 0,78719,  29:-0,77038,  28: 0,61952,  27: 0,20464,  26:-0,57532,  25: 0,92835,  24: 0,53429,  23: 0,48321,
                 22: 0,60798,  21: 0,11765,  20:-0,85711,  19: 0,95080,  18: 0,62765,  17:-0,98080,  16: 0,27174,  15: 0,20408,
                 14:-0,44080,  13:-0,98232,  12: 0,17026,  11:-0,38968,  10: 0,01003,   9:-0,84533,   8:-0,82425,   7: 0,00535,
                  6:-0,27014,   5: 0,98538,   4: 0,59096,   3:-0,83947,   2: 0,58623,   1: 0,67393
   183 |      | 150:-0,80738, 149:-0,96953, 148:-0,42985, 147:-0,01221, 146:-0,33468, 145:-0,97546, 144: 0,93902, 143:-0,92979,
                142: 0,38928, 141:-0,64939, 140:-0,55848, 139:-0,51893, 138:-0,99000, 137: 0,82321, 136: 0,36460, 135:-0,63621,
                134:-0,69432, 133: 0,86678, 132:-0,53029, 131: 0,98239, 130:-0,09662, 129:-0,43825, 128:-0,79340, 127: 0,17638,
                126:-0,15123, 125: 0,11061, 124: 0,48741, 123:-0,04283, 122: 0,39989, 121: 0,89717, 120:-0,66999, 119:-0,06132,
                118: 0,60769, 117:-0,76998, 116:-0,41314, 115:-0,86728, 114:-0,97525, 113: 0,45343, 112:-0,66578, 111: 0,85575,
                110:-0,63839, 109:-0,48970, 108:-0,00425, 107:-0,76090, 106:-0,52194, 105: 0,04334, 104:-0,86476, 103:-0,83467,
                102:-0,06963, 101:-0,33014, 100: 0,32750,  99:-0,16721,  98:-0,15175,  97: 0,76572,  96: 0,38699,  95:-0,05280,
                 94: 0,42449,  93: 0,70456,  92:-0,68435,  91: 0,52888,  90:-0,71651,  89: 0,43661,  88:-0,03005,  87: 0,18900,
                 86:-0,24981,  85: 0,12742,  84: 0,01943,  83: 0,55485,  82:-0,85081,  81: 0,54187,  80:-0,81673,  79: 0,30799,
                 78: 0,08622,  77:-0,66526,  76: 0,92674,  75: 0,44007,  74:-0,15735,  73: 0,43949,  72:-0,75249,  71: 0,13492,
                 70: 0,97315,  69: 0,52734,  68: 0,38284,  67:-0,13258,  66: 0,64099,  65:-0,10662,  64: 0,25811,  63: 0,48534,
                 62:-0,35774,  61: 0,12503,  60:-0,66252,  59: 0,23925,  58: 0,22578,  57:-0,81332,  56:-0,17457,  55:-0,12471,
                 54: 0,25972,  53:-0,06497,  52:-0,46975,  51:-0,65244,  50:-0,14175,  49:-0,95921,  48:-0,70433,  47:-0,31756,
                 46:-0,12666,  45:-0,53041,  44:-0,07691,  43: 0,68875,  42:-0,42879,  41: 0,35765,  40:-0,33278,  39: 0,11041,
                 38:-0,97719,  37: 0,75542,  36:-0,55872,  35:-0,57374,  34: 0,19915,  33: 0,40604,  32: 0,10071,  31:-0,31683,
                 30: 0,21088,  29: 0,73721,  28: 0,89832,  27: 0,77956,  26: 0,58532,  25:-0,51100,  24:-0,73380,  23: 0,67797,
                 22:-0,26856,  21:-0,04997,  20:-0,64272,  19: 0,70618,  18:-0,11505,  17: 0,35765,  16:-0,32031,  15:-0,10051,
                 14:-0,28781,  13:-0,48019,  12: 0,12046,  11:-0,85640,  10:-0,47398,   9:-0,32203,   8:-0,34864,   7: 0,50451,
                  6:-0,34694,   5:-0,25132,   4:-0,95852,   3: 0,79075,   2: 0,09442,   1: 0,71049
   184 |      | 150: 0,20551, 149: 0,22810, 148: 0,55156, 147: 0,91786, 146:-0,56557, 145:-0,82242, 144:-0,97118, 143: 0,29575,
                142: 0,11322, 141: 0,66729, 140: 0,83260, 139: 0,34973, 138:-0,83636, 137:-0,96897, 136: 0,58162, 135:-0,49128,
                134: 0,72247, 133: 0,64599, 132: 0,52507, 131:-0,36078, 130:-0,53471, 129:-0,17538, 128:-0,30650, 127: 0,74765,
                126:-0,89799, 125: 0,28385, 124:-0,53469, 123: 0,05726, 122:-0,84227, 121:-0,81936, 120:-0,29624, 119:-0,05144,
                118: 0,21848, 117:-0,40914, 116:-0,46878, 115: 0,11913, 114: 0,39372, 113:-0,26699, 112: 0,85830, 111: 0,30479,
                110:-0,49400, 109:-0,50244, 108: 0,54808, 107:-0,61333, 106: 0,55265, 105:-0,48239, 104: 0,79794, 103: 0,59546,
                102:-0,71273, 101: 0,46740, 100: 0,34922,  99: 0,75492,  98: 0,74180,  97:-0,85443,  96: 0,52797,  95: 0,55197,
                 94: 0,45851,  93:-0,38685,  92:-0,92374,  91: 0,18258,  90: 0,83988,  89: 0,91707,  88:-0,89305,  87:-0,56594,
                 86: 0,96989,  85:-0,77421,  84:-0,68650,  83: 0,39039,  82: 0,54087,  81: 0,30039,  80:-0,54116,  79: 0,08251,
                 78: 0,06452,  77: 0,67276,  76: 0,97326,  75: 0,17824,  74:-0,30547,  73:-0,46884,  72:-0,30886,  71:-0,62611,
                 70:-0,01652,  69:-0,26588,  68: 0,98382,  67:-0,29843,  66:-0,60987,  65: 0,47944,  64:-0,90735,  63:-0,77648,
                 62: 0,90074,  61: 0,61890,  60: 0,77861,  59: 0,29924,  58:-0,30714,  57:-0,61293,  56:-0,41196,  55: 0,06558,
                 54: 0,22116,  53: 0,14009,  52:-0,65454,  51:-0,72018,  50: 0,71786,  49:-0,40446,  48:-0,15757,  47:-0,91427,
                 46: 0,05634,  45: 0,82573,  44: 0,16671,  43:-0,55010,  42: 0,81455,  41:-0,03526,  40: 0,43752,  39: 0,38914,
                 38: 0,68711,  37: 0,10498,  36: 0,76572,  35: 0,10775,  34:-0,96549,  33: 0,32519,  32: 0,58224,  31:-0,24217,
                 30:-0,87161,  29: 0,13138,  28:-0,22714,  27: 0,72744,  26: 0,76888,  25:-0,98807,  24:-0,32612,  23: 0,68456,
                 22: 0,53086,  21:-0,70737,  20: 0,43353,  19: 0,62301,  18:-0,53327,  17:-0,70465,  16: 0,69211,  15: 0,96581,
                 14: 0,08604,  13: 0,00421,  12:-0,69689,  11:-0,49068,  10:-0,31620,   9:-0,64540,   8: 0,88658,   7: 0,29501,
                  6: 0,34492,   5:-0,00383,   4: 0,50869,   3:-0,93448,   2:-0,63878,   1: 0,33181
   185 |      | 150:-0,98238, 149:-0,58242, 148:-0,02419, 147:-0,59559, 146: 0,35913, 145: 0,19693, 144: 0,96022, 143: 0,45111,
                142: 0,49294, 141:-0,61025, 140:-0,71453, 139: 0,70717, 138: 0,30327, 137: 0,24770, 136:-0,72294, 135: 0,54147,
                134: 0,35335, 133:-0,52561, 132: 0,97354, 131:-0,72821, 130: 0,19618, 129: 0,48770, 128: 0,01210, 127: 0,03152,
                126:-0,64049, 125: 0,91021, 124: 0,55794, 123: 0,54921, 122: 0,83211, 121: 0,94990, 120: 0,38534, 119: 0,28112,
                118: 0,52138, 117: 0,42584, 116: 0,68535, 115: 0,46898, 114:-0,32577, 113: 0,28948, 112:-0,74774, 111:-0,94374,
                110:-0,31254, 109: 0,20743, 108: 0,87563, 107: 0,99665, 106: 0,14478, 105:-0,86628, 104: 0,80291, 103:-0,00679,
                102:-0,09927, 101: 0,73919, 100:-0,41015,  99:-0,06084,  98:-0,78529,  97: 0,42099,  96: 0,35089,  95:-0,23115,
                 94:-0,52199,  93: 0,63030,  92: 0,97145,  91:-0,29384,  90:-0,83550,  89:-0,91847,  88: 0,14109,  87:-0,69290,
                 86:-0,01011,  85: 0,59865,  84: 0,78430,  83:-0,31779,  82: 0,63955,  81: 0,87584,  80:-0,43998,  79:-0,04514,
                 78:-0,89820,  77:-0,84946,  76:-0,69284,  75: 0,62482,  74: 0,93850,  73:-0,01822,  72: 0,65009,  71: 0,97679,
                 70: 0,58253,  69:-0,82247,  68:-0,75657,  67:-0,92467,  66:-0,15085,  65:-0,99061,  64: 0,40942,  63: 0,94701,
                 62:-0,30561,  61:-0,31453,  60: 0,06611,  59:-0,84529,  58:-0,71328,  57:-0,47711,  56: 0,00130,  55: 0,65665,
                 54: 0,65039,  53:-0,82241,  52: 0,64176,  51: 0,31322,  50: 0,49065,  49:-0,13799,  48:-0,29769,  47:-0,99040,
                 46:-0,14343,  45: 0,83250,  44:-0,53646,  43: 0,61301,  42:-0,39903,  41: 0,08058,  40:-0,81402,  39: 0,04510,
                 38: 0,25360,  37: 0,54973,  36: 0,37248,  35:-0,05526,  34:-0,93810,  33:-0,84231,  32:-0,43116,  31: 0,70413,
                 30: 0,22981,  29:-0,82052,  28:-0,74293,  27: 0,21422,  26: 0,49004,  25:-0,71241,  24: 0,53803,  23:-0,75247,
                 22:-0,70126,  21:-0,19003,  20:-0,10457,  19:-0,01769,  18: 0,39640,  17: 0,01714,  16: 0,83522,  15:-0,66245,
                 14: 0,01708,  13:-0,14515,  12: 0,84044,  11:-0,69901,  10:-0,53418,   9:-0,72507,   8:-0,61125,   7: 0,71022,
                  6:-0,53489,   5:-0,13518,   4: 0,04717,   3: 0,56086,   2: 0,97454,   1: 0,92448
   186 |      | 150: 0,09471, 149: 0,01949, 148: 0,48174, 147:-0,19687, 146:-0,94980, 145: 0,36594, 144:-0,62628, 143:-0,63863,
                142:-0,42328, 141: 0,11925, 140:-0,23987, 139:-0,55411, 138: 0,62268, 137: 0,00644, 136: 0,98648, 135: 0,33801,
                134:-0,04347, 133:-0,74108, 132:-0,79988, 131:-0,66128, 130:-0,61912, 129: 0,70817, 128:-0,43339, 127:-0,18682,
                126:-0,18175, 125:-0,46168, 124: 0,26751, 123: 0,62397, 122:-0,39507, 121: 0,73171, 120:-0,97653, 119:-0,89771,
                118:-0,99445, 117: 0,75711, 116:-0,07910, 115:-0,61510, 114:-0,70967, 113:-0,32812, 112: 0,47797, 111: 0,43300,
                110:-0,01023, 109:-0,73761, 108:-0,27778, 107:-0,97896, 106:-0,39379, 105: 0,88142, 104:-0,46899, 103:-0,60588,
                102: 0,22038, 101: 0,54134, 100: 0,47628,  99: 0,87777,  98:-0,65470,  97:-0,09815,  96: 0,19180,  95: 0,50193,
                 94: 0,96317,  93:-0,10383,  92:-0,97317,  91: 0,47032,  90: 0,00882,  89:-0,25231,  88:-0,94869,  87:-0,85327,
                 86:-0,63943,  85: 0,44719,  84:-0,16986,  83:-0,99665,  82:-0,44546,  81: 0,82989,  80: 0,68644,  79: 0,82504,
                 78: 0,48922,  77:-0,81969,  76:-0,76547,  75:-0,68899,  74:-0,96667,  73:-0,19399,  72: 0,99353,  71: 0,26770,
                 70:-0,95651,  69:-0,21147,  68:-0,98723,  67:-0,17084,  66: 0,34944,  65:-0,29066,  64:-0,82483,  63: 0,84198,
                 62:-0,06020,  61:-0,34727,  60:-0,37376,  59:-0,24034,  58:-0,79811,  57:-0,66411,  56:-0,55801,  55: 0,43573,
                 54:-0,38518,  53:-0,53480,  52: 0,94389,  51:-0,80146,  50: 0,89922,  49:-0,94200,  48: 0,14184,  47:-0,07581,
                 46:-0,91797,  45:-0,27983,  44: 0,69550,  43:-0,32678,  42: 0,18696,  41: 0,98481,  40: 0,99134,  39: 0,27527,
                 38:-0,08581,  37: 0,57858,  36: 0,80801,  35:-0,72937,  34:-0,51272,  33:-0,29536,  32: 0,36037,  31: 0,36651,
                 30:-0,76422,  29: 0,46038,  28: 0,95536,  27: 0,33666,  26:-0,97804,  25:-0,27888,  24: 0,14782,  23:-0,33285,
                 22:-0,46253,  21: 0,12544,  20:-0,85375,  19: 0,58882,  18:-0,82466,  17:-0,86554,  16:-0,31256,  15: 0,08122,
                 14:-0,33383,  13: 0,97523,  12: 0,98114,  11: 0,40788,  10: 0,15045,   9: 0,12098,   8: 0,33552,   7:-0,54719,
                  6: 0,69737,   5: 0,84034,   4: 0,32862,   3: 0,06037,   2: 0,48178,   1:-0,67113
   187 |      | 150:-0,49802, 149: 0,56266, 148:-0,38509, 147: 0,60325, 146: 0,65287, 145: 0,29030, 144:-0,56533, 143:-0,95306,
                142:-0,70993, 141: 0,28388, 140: 0,75685, 139:-0,42912, 138:-0,26977, 137:-0,69916, 136: 0,79475, 135: 0,48744,
                134:-0,29422, 133: 0,45619, 132: 0,89385, 131:-0,33587, 130: 0,60374, 129:-0,41037, 128:-0,62224, 127: 0,17669,
                126: 0,91814, 125:-0,77394, 124: 0,55808, 123: 0,16003, 122:-0,26842, 121: 0,78926, 120:-0,02128, 119: 0,32546,
                118:-0,73942, 117: 0,42603, 116: 0,41832, 115:-0,74676, 114: 0,77263, 113:-0,94927, 112: 0,09218, 111:-0,92252,
                110: 0,58983, 109: 0,75679, 108:-0,71347, 107:-0,94755, 106:-0,70376, 105: 0,44687, 104:-0,23854, 103:-0,37602,
                102:-0,19355, 101:-0,05212, 100: 0,64625,  99: 0,83440,  98: 0,55417,  97: 0,69894,  96: 0,22277,  95: 0,37747,
                 94: 0,92857,  93:-0,31789,  92:-0,51607,  91:-0,49120,  90: 0,20741,  89: 0,11771,  88:-0,77230,  87:-0,16512,
                 86: 0,87803,  85:-0,26530,  84: 0,79952,  83:-0,82070,  82: 0,44932,  81:-0,52728,  80:-0,44562,  79:-0,90189,
                 78: 0,96832,  77:-0,74350,  76:-0,66890,  75:-0,07028,  74:-0,42216,  73:-0,86175,  72:-0,59309,  71: 0,67065,
                 70: 0,97620,  69:-0,57801,  68: 0,74903,  67:-0,47863,  66:-0,25647,  65: 0,31160,  64:-0,84492,  63: 0,11133,
                 62:-0,36611,  61: 0,76595,  60:-0,14179,  59: 0,55642,  58:-0,66386,  57:-0,64074,  56: 0,18020,  55:-0,59773,
                 54: 0,39660,  53: 0,44894,  52:-0,80720,  51:-0,15594,  50:-0,72816,  49: 0,41864,  48: 0,47055,  47:-0,52463,
                 46: 0,41970,  45:-0,57987,  44:-0,20408,  43: 0,20013,  42: 0,30390,  41:-0,73208,  40: 0,04865,  39: 0,24265,
                 38:-0,17693,  37: 0,98705,  36: 0,94759,  35:-0,28239,  34:-0,59610,  33:-0,82619,  32:-0,68482,  31:-0,31185,
                 30:-0,47529,  29: 0,65537,  28:-0,86256,  27:-0,33534,  26:-0,75324,  25: 0,93668,  24: 0,95838,  23:-0,89523,
                 22:-0,80648,  21: 0,26784,  20: 0,67412,  19:-0,40172,  18:-0,11842,  17: 0,67498,  16:-0,79505,  15:-0,60264,
                 14: 0,20129,  13:-0,55003,  12: 0,98206,  11:-0,97407,  10:-0,21816,   9: 0,02547,   8: 0,87774,   7:-0,47656,
                  6:-0,15372,   5: 0,16116,   4: 0,85636,   3:-0,99578,   2: 0,64210,   1: 0,38305
   188 |      | 150: 0,60624, 149: 0,57601, 148:-0,24661, 147:-0,26970, 146: 0,43260, 145: 0,52476, 144:-0,43611, 143:-0,67815,
                142: 0,02985, 141:-0,54535, 140: 0,35565, 139: 0,35521, 138: 0,48196, 137:-0,74053, 136:-0,15230, 135: 0,14586,
                134: 0,91416, 133: 0,69988, 132:-0,36912, 131: 0,20110, 130: 0,59197, 129: 0,35865, 128: 0,73973, 127:-0,48016,
                126:-0,23204, 125:-0,24253, 124:-0,00704, 123: 0,35674, 122: 0,77765, 121:-0,86304, 120:-0,00953, 119:-0,07301,
                118: 0,83102, 117:-0,91385, 116: 0,22518, 115: 0,74132, 114:-0,39496, 113:-0,79167, 112: 0,42066, 111:-0,57985,
                110:-0,35825, 109:-0,40649, 108:-0,89275, 107:-0,96451, 106:-0,87300, 105:-0,91646, 104:-0,07840, 103: 0,39759,
                102: 0,70467, 101:-0,50670, 100:-0,86328,  99:-0,10221,  98:-0,68507,  97:-0,79780,  96:-0,36458,  95: 0,22910,
                 94: 0,78244,  93: 0,24748,  92:-0,27844,  91: 0,75298,  90:-0,92184,  89:-0,59297,  88: 0,76727,  87: 0,71538,
                 86: 0,30015,  85:-0,78895,  84:-0,67594,  83: 0,72241,  82: 0,83263,  81:-0,39520,  80:-0,25878,  79:-0,32187,
                 78: 0,62466,  77: 0,61558,  76: 0,95261,  75: 0,11182,  74: 0,76140,  73: 0,15672,  72: 0,48378,  71:-0,14475,
                 70: 0,57013,  69: 0,60732,  68:-0,87409,  67:-0,71958,  66:-0,59578,  65:-0,59717,  64:-0,49614,  63:-0,28506,
                 62:-0,61922,  61: 0,19824,  60: 0,97558,  59:-0,31422,  58:-0,98020,  57:-0,35152,  56: 0,13520,  55:-0,19551,
                 54:-0,34468,  53: 0,19376,  52:-0,49346,  51: 0,43221,  50:-0,71649,  49:-0,07259,  48: 0,81706,  47: 0,81400,
                 46: 0,20229,  45: 0,42797,  44:-0,79958,  43: 0,74599,  42:-0,68500,  41:-0,09512,  40: 0,61115,  39:-0,33770,
                 38:-0,34587,  37:-0,03214,  36:-0,87404,  35: 0,45911,  34:-0,22565,  33: 0,39536,  32:-0,71224,  31:-0,39849,
                 30: 0,81744,  29:-0,65990,  28: 0,51129,  27: 0,80376,  26:-0,17805,  25: 0,14339,  24:-0,73890,  23:-0,41088,
                 22:-0,79947,  21: 0,28932,  20: 0,33646,  19: 0,60322,  18: 0,10646,  17:-0,24756,  16: 0,41370,  15: 0,99033,
                 14: 0,93409,  13:-0,90571,  12:-0,07933,  11: 0,29014,  10: 0,62689,   9:-0,05468,   8: 0,42200,   7: 0,05096,
                  6:-0,61080,   5: 0,04853,   4:-0,29282,   3: 0,09186,   2:-0,69104,   1: 0,70125
   189 |      | 150: 0,52091, 149: 0,19776, 148: 0,35525, 147: 0,49056, 146:-0,80646, 145:-0,55672, 144: 0,23918, 143: 0,31634,
                142: 0,30491, 141:-0,91217, 140: 0,38582, 139:-0,82104, 138:-0,28252, 137:-0,25411, 136: 0,29659, 135: 0,60162,
                134:-0,90202, 133:-0,01125, 132: 0,03582, 131:-0,13279, 130: 0,97070, 129:-0,24505, 128: 0,72547, 127:-0,70828,
                126: 0,56594, 125: 0,17072, 124: 0,71350, 123: 0,44532, 122:-0,46104, 121:-0,52287, 120:-0,00794, 119: 0,03691,
                118: 0,83422, 117: 0,86063, 116:-0,57770, 115:-0,70626, 114:-0,43655, 113:-0,18761, 112: 0,89323, 111: 0,89615,
                110: 0,81470, 109:-0,27537, 108: 0,31594, 107:-0,32060, 106: 0,78664, 105:-0,89200, 104: 0,51553, 103:-0,99816,
                102:-0,82837, 101:-0,10951, 100: 0,17369,  99:-0,56572,  98:-0,17445,  97:-0,61636,  96: 0,23276,  95:-0,26702,
                 94:-0,33131,  93: 0,75364,  92:-0,74470,  91: 0,17380,  90: 0,52278,  89:-0,70321,  88:-0,53189,  87: 0,70475,
                 86: 0,99836,  85: 0,74631,  84: 0,21388,  83:-0,12077,  82: 0,19284,  81:-0,32758,  80:-0,19857,  79: 0,61134,
                 78:-0,71485,  77:-0,58013,  76: 0,87465,  75:-0,96110,  74: 0,14545,  73:-0,42353,  72: 0,01774,  71: 0,44160,
                 70: 0,94208,  69:-0,24984,  68: 0,02473,  67:-0,33493,  66: 0,90968,  65: 0,33905,  64:-0,22976,  63:-0,06349,
                 62: 0,72736,  61:-0,61699,  60: 0,62987,  59: 0,52332,  58:-0,70064,  57:-0,33960,  56:-0,42918,  55:-0,73971,
                 54: 0,54613,  53:-0,26799,  52: 0,33413,  51: 0,67804,  50:-0,36499,  49: 0,00977,  48: 0,07584,  47: 0,83581,
                 46: 0,74189,  45: 0,24130,  44: 0,52037,  43:-0,92558,  42:-0,74844,  41: 0,88909,  40:-0,18790,  39:-0,96612,
