SNNS network definition file V1.4-3D
generated at Tue Jun  2 12:07:03 2015

network name : number
source files :
no. of units : 154
no. of connections : 0
no. of unit types : 0
no. of site types : 0


learning function : Std_Backpropagation
update function   : Topological_Order


unit default section :

act      | bias     | st | subnet | layer | act func     | out func
---------|----------|----|--------|-------|--------------|-------------
 0,00000 |  0,00000 | h  |      0 |     1 | Act_Logistic | Out_Identity 
---------|----------|----|--------|-------|--------------|-------------


unit definition section :

no. | typeName | unitName | act      | bias     | st | position | act func | out func | sites
----|----------|----------|----------|----------|----|----------|----------|----------|-------
  1 |          | noName   |  0,00000 |  0,00000 | i  |  1, 1, 1 |||
  2 |          | noName   |  0,00000 |  0,00000 | i  |  2, 1, 1 |||
  3 |          | noName   |  0,00000 |  0,00000 | i  |  3, 1, 1 |||
  4 |          | noName   |  0,00000 |  0,00000 | i  |  4, 1, 1 |||
  5 |          | noName   |  0,00000 |  0,00000 | i  |  5, 1, 1 |||
  6 |          | noName   |  0,00000 |  0,00000 | i  |  6, 1, 1 |||
  7 |          | noName   |  0,00000 |  0,00000 | i  |  7, 1, 1 |||
  8 |          | noName   |  0,00000 |  0,00000 | i  |  8, 1, 1 |||
  9 |          | noName   |  0,00000 |  0,00000 | i  |  9, 1, 1 |||
 10 |          | noName   |  0,00000 |  0,00000 | i  | 10, 1, 1 |||
 11 |          | noName   |  0,00000 |  0,00000 | i  |  1, 2, 1 |||
 12 |          | noName   |  0,00000 |  0,00000 | i  |  2, 2, 1 |||
 13 |          | noName   |  0,00000 |  0,00000 | i  |  3, 2, 1 |||
 14 |          | noName   |  0,00000 |  0,00000 | i  |  4, 2, 1 |||
 15 |          | noName   |  0,00000 |  0,00000 | i  |  5, 2, 1 |||
 16 |          | noName   |  0,00000 |  0,00000 | i  |  6, 2, 1 |||
 17 |          | noName   |  0,00000 |  0,00000 | i  |  7, 2, 1 |||
 18 |          | noName   |  0,00000 |  0,00000 | i  |  8, 2, 1 |||
 19 |          | noName   |  0,00000 |  0,00000 | i  |  9, 2, 1 |||
 20 |          | noName   |  0,00000 |  0,00000 | i  | 10, 2, 1 |||
 21 |          | noName   |  0,00000 |  0,00000 | i  |  1, 3, 1 |||
 22 |          | noName   |  0,00000 |  0,00000 | i  |  2, 3, 1 |||
 23 |          | noName   |  0,00000 |  0,00000 | i  |  3, 3, 1 |||
 24 |          | noName   |  0,00000 |  0,00000 | i  |  4, 3, 1 |||
 25 |          | noName   |  0,00000 |  0,00000 | i  |  5, 3, 1 |||
 26 |          | noName   |  0,00000 |  0,00000 | i  |  6, 3, 1 |||
 27 |          | noName   |  0,00000 |  0,00000 | i  |  7, 3, 1 |||
 28 |          | noName   |  0,00000 |  0,00000 | i  |  8, 3, 1 |||
 29 |          | noName   |  0,00000 |  0,00000 | i  |  9, 3, 1 |||
 30 |          | noName   |  0,00000 |  0,00000 | i  | 10, 3, 1 |||
 31 |          | noName   |  0,00000 |  0,00000 | i  |  1, 4, 1 |||
 32 |          | noName   |  0,00000 |  0,00000 | i  |  2, 4, 1 |||
 33 |          | noName   |  0,00000 |  0,00000 | i  |  3, 4, 1 |||
 34 |          | noName   |  0,00000 |  0,00000 | i  |  4, 4, 1 |||
 35 |          | noName   |  0,00000 |  0,00000 | i  |  5, 4, 1 |||
 36 |          | noName   |  0,00000 |  0,00000 | i  |  6, 4, 1 |||
 37 |          | noName   |  0,00000 |  0,00000 | i  |  7, 4, 1 |||
 38 |          | noName   |  0,00000 |  0,00000 | i  |  8, 4, 1 |||
 39 |          | noName   |  0,00000 |  0,00000 | i  |  9, 4, 1 |||
 40 |          | noName   |  0,00000 |  0,00000 | i  | 10, 4, 1 |||
 41 |          | noName   |  0,00000 |  0,00000 | i  |  1, 5, 1 |||
 42 |          | noName   |  0,00000 |  0,00000 | i  |  2, 5, 1 |||
 43 |          | noName   |  0,00000 |  0,00000 | i  |  3, 5, 1 |||
 44 |          | noName   |  0,00000 |  0,00000 | i  |  4, 5, 1 |||
 45 |          | noName   |  0,00000 |  0,00000 | i  |  5, 5, 1 |||
 46 |          | noName   |  0,00000 |  0,00000 | i  |  6, 5, 1 |||
 47 |          | noName   |  0,00000 |  0,00000 | i  |  7, 5, 1 |||
 48 |          | noName   |  0,00000 |  0,00000 | i  |  8, 5, 1 |||
 49 |          | noName   |  0,00000 |  0,00000 | i  |  9, 5, 1 |||
 50 |          | noName   |  0,00000 |  0,00000 | i  | 10, 5, 1 |||
 51 |          | noName   |  0,00000 |  0,00000 | i  |  1, 6, 1 |||
 52 |          | noName   |  0,00000 |  0,00000 | i  |  2, 6, 1 |||
 53 |          | noName   |  0,00000 |  0,00000 | i  |  3, 6, 1 |||
 54 |          | noName   |  0,00000 |  0,00000 | i  |  4, 6, 1 |||
 55 |          | noName   |  0,00000 |  0,00000 | i  |  5, 6, 1 |||
 56 |          | noName   |  0,00000 |  0,00000 | i  |  6, 6, 1 |||
 57 |          | noName   |  0,00000 |  0,00000 | i  |  7, 6, 1 |||
 58 |          | noName   |  0,00000 |  0,00000 | i  |  8, 6, 1 |||
 59 |          | noName   |  0,00000 |  0,00000 | i  |  9, 6, 1 |||
 60 |          | noName   |  0,00000 |  0,00000 | i  | 10, 6, 1 |||
 61 |          | noName   |  0,00000 |  0,00000 | i  |  1, 7, 1 |||
 62 |          | noName   |  0,00000 |  0,00000 | i  |  2, 7, 1 |||
 63 |          | noName   |  0,00000 |  0,00000 | i  |  3, 7, 1 |||
 64 |          | noName   |  0,00000 |  0,00000 | i  |  4, 7, 1 |||
 65 |          | noName   |  0,00000 |  0,00000 | i  |  5, 7, 1 |||
 66 |          | noName   |  0,00000 |  0,00000 | i  |  6, 7, 1 |||
 67 |          | noName   |  0,00000 |  0,00000 | i  |  7, 7, 1 |||
 68 |          | noName   |  0,00000 |  0,00000 | i  |  8, 7, 1 |||
 69 |          | noName   |  0,00000 |  0,00000 | i  |  9, 7, 1 |||
 70 |          | noName   |  0,00000 |  0,00000 | i  | 10, 7, 1 |||
 71 |          | noName   |  0,00000 |  0,00000 | i  |  1, 8, 1 |||
 72 |          | noName   |  0,00000 |  0,00000 | i  |  2, 8, 1 |||
 73 |          | noName   |  0,00000 |  0,00000 | i  |  3, 8, 1 |||
 74 |          | noName   |  0,00000 |  0,00000 | i  |  4, 8, 1 |||
 75 |          | noName   |  0,00000 |  0,00000 | i  |  5, 8, 1 |||
 76 |          | noName   |  0,00000 |  0,00000 | i  |  6, 8, 1 |||
 77 |          | noName   |  0,00000 |  0,00000 | i  |  7, 8, 1 |||
 78 |          | noName   |  0,00000 |  0,00000 | i  |  8, 8, 1 |||
 79 |          | noName   |  0,00000 |  0,00000 | i  |  9, 8, 1 |||
 80 |          | noName   |  0,00000 |  0,00000 | i  | 10, 8, 1 |||
 81 |          | noName   |  0,00000 |  0,00000 | i  |  1, 9, 1 |||
 82 |          | noName   |  0,00000 |  0,00000 | i  |  2, 9, 1 |||
 83 |          | noName   |  0,00000 |  0,00000 | i  |  3, 9, 1 |||
 84 |          | noName   |  0,00000 |  0,00000 | i  |  4, 9, 1 |||
 85 |          | noName   |  0,00000 |  0,00000 | i  |  5, 9, 1 |||
 86 |          | noName   |  0,00000 |  0,00000 | i  |  6, 9, 1 |||
 87 |          | noName   |  0,00000 |  0,00000 | i  |  7, 9, 1 |||
 88 |          | noName   |  0,00000 |  0,00000 | i  |  8, 9, 1 |||
 89 |          | noName   |  0,00000 |  0,00000 | i  |  9, 9, 1 |||
 90 |          | noName   |  0,00000 |  0,00000 | i  | 10, 9, 1 |||
 91 |          | noName   |  0,00000 |  0,00000 | i  |  1,10, 1 |||
 92 |          | noName   |  0,00000 |  0,00000 | i  |  2,10, 1 |||
 93 |          | noName   |  0,00000 |  0,00000 | i  |  3,10, 1 |||
 94 |          | noName   |  0,00000 |  0,00000 | i  |  4,10, 1 |||
 95 |          | noName   |  0,00000 |  0,00000 | i  |  5,10, 1 |||
 96 |          | noName   |  0,00000 |  0,00000 | i  |  6,10, 1 |||
 97 |          | noName   |  0,00000 |  0,00000 | i  |  7,10, 1 |||
 98 |          | noName   |  0,00000 |  0,00000 | i  |  8,10, 1 |||
 99 |          | noName   |  0,00000 |  0,00000 | i  |  9,10, 1 |||
100 |          | noName   |  0,00000 |  0,00000 | i  | 10,10, 1 |||
101 |          | noName   |  0,00000 |  0,00000 | i  |  1,11, 1 |||
102 |          | noName   |  0,00000 |  0,00000 | i  |  2,11, 1 |||
103 |          | noName   |  0,00000 |  0,00000 | i  |  3,11, 1 |||
104 |          | noName   |  0,00000 |  0,00000 | i  |  4,11, 1 |||
105 |          | noName   |  0,00000 |  0,00000 | i  |  5,11, 1 |||
106 |          | noName   |  0,00000 |  0,00000 | i  |  6,11, 1 |||
107 |          | noName   |  0,00000 |  0,00000 | i  |  7,11, 1 |||
108 |          | noName   |  0,00000 |  0,00000 | i  |  8,11, 1 |||
109 |          | noName   |  0,00000 |  0,00000 | i  |  9,11, 1 |||
110 |          | noName   |  0,00000 |  0,00000 | i  | 10,11, 1 |||
111 |          | noName   |  0,00000 |  0,00000 | i  |  1,12, 1 |||
112 |          | noName   |  0,00000 |  0,00000 | i  |  2,12, 1 |||
113 |          | noName   |  0,00000 |  0,00000 | i  |  3,12, 1 |||
114 |          | noName   |  0,00000 |  0,00000 | i  |  4,12, 1 |||
115 |          | noName   |  0,00000 |  0,00000 | i  |  5,12, 1 |||
116 |          | noName   |  0,00000 |  0,00000 | i  |  6,12, 1 |||
117 |          | noName   |  0,00000 |  0,00000 | i  |  7,12, 1 |||
118 |          | noName   |  0,00000 |  0,00000 | i  |  8,12, 1 |||
119 |          | noName   |  0,00000 |  0,00000 | i  |  9,12, 1 |||
120 |          | noName   |  0,00000 |  0,00000 | i  | 10,12, 1 |||
121 |          | noName   |  0,00000 |  0,00000 | i  |  1,13, 1 |||
122 |          | noName   |  0,00000 |  0,00000 | i  |  2,13, 1 |||
123 |          | noName   |  0,00000 |  0,00000 | i  |  3,13, 1 |||
124 |          | noName   |  0,00000 |  0,00000 | i  |  4,13, 1 |||
125 |          | noName   |  0,00000 |  0,00000 | i  |  5,13, 1 |||
126 |          | noName   |  0,00000 |  0,00000 | i  |  6,13, 1 |||
127 |          | noName   |  0,00000 |  0,00000 | i  |  7,13, 1 |||
128 |          | noName   |  0,00000 |  0,00000 | i  |  8,13, 1 |||
129 |          | noName   |  0,00000 |  0,00000 | i  |  9,13, 1 |||
130 |          | noName   |  0,00000 |  0,00000 | i  | 10,13, 1 |||
131 |          | noName   |  0,00000 |  0,00000 | i  |  1,14, 1 |||
132 |          | noName   |  0,00000 |  0,00000 | i  |  2,14, 1 |||
133 |          | noName   |  0,00000 |  0,00000 | i  |  3,14, 1 |||
134 |          | noName   |  0,00000 |  0,00000 | i  |  4,14, 1 |||
135 |          | noName   |  0,00000 |  0,00000 | i  |  5,14, 1 |||
136 |          | noName   |  0,00000 |  0,00000 | i  |  6,14, 1 |||
137 |          | noName   |  0,00000 |  0,00000 | i  |  7,14, 1 |||
138 |          | noName   |  0,00000 |  0,00000 | i  |  8,14, 1 |||
139 |          | noName   |  0,00000 |  0,00000 | i  |  9,14, 1 |||
140 |          | noName   |  0,00000 |  0,00000 | i  | 10,14, 1 |||
141 |          | noName   |  0,00000 |  0,00000 | i  |  1,15, 1 |||
142 |          | noName   |  0,00000 |  0,00000 | i  |  2,15, 1 |||
143 |          | noName   |  0,00000 |  0,00000 | i  |  3,15, 1 |||
144 |          | noName   |  0,00000 |  0,00000 | i  |  4,15, 1 |||
145 |          | noName   |  0,00000 |  0,00000 | i  |  5,15, 1 |||
146 |          | noName   |  0,00000 |  0,00000 | i  |  6,15, 1 |||
147 |          | noName   |  0,00000 |  0,00000 | i  |  7,15, 1 |||
148 |          | noName   |  0,00000 |  0,00000 | i  |  8,15, 1 |||
149 |          | noName   |  0,00000 |  0,00000 | i  |  9,15, 1 |||
150 |          | noName   |  0,00000 |  0,00000 | i  | 10,15, 1 |||
151 |          | noName   |  0,00000 |  0,00000 | o  | 27, 6, 1 |||
152 |          | noName   |  0,00000 |  0,00000 | o  | 28, 6, 1 |||
153 |          | noName   |  0,00000 |  0,00000 | o  | 29, 6, 1 |||
154 |          | noName   |  0,00000 |  0,00000 | o  | 30, 6, 1 |||
----|----------|----------|----------|----------|----|----------|----------|----------|-------


layer definition section :

layer | unitNo.
------|-----------------------------------------------------------------------------------------------------------------------------
    2 |  11,  12,  13,  14,  15,  16,  17,  18,  19,  20
    3 |  21,  22,  23,  24,  25,  26,  27,  28,  29,  30
    4 |  31,  32,  33,  34,  35,  36,  37,  38,  39,  40
    5 |  41,  42,  43,  44,  45,  46,  47,  48,  49,  50
    6 |  51,  52,  53,  54,  55,  56,  57,  58,  59,  60
    7 |  61,  62,  63,  64,  65,  66,  67,  68,  69,  70
    8 |  71,  72,  73,  74,  75,  76,  77,  78,  79,  80
    9 |  81,  82,  83,  84,  85,  86,  87,  88,  89,  90
   10 |  91,  92,  93,  94,  95,  96,  97,  98,  99, 100
   11 | 101, 102, 103, 104, 105, 106, 107, 108, 109, 110
   12 | 111, 112, 113, 114, 115, 116, 117, 118, 119, 120
   13 | 121, 122, 123, 124, 125, 126, 127, 128, 129, 130
   14 | 131, 132, 133, 134, 135, 136, 137, 138, 139, 140
   15 | 141, 142, 143, 144, 145, 146, 147, 148, 149, 150
   16 | 151, 152, 153, 154
------|-----------------------------------------------------------------------------------------------------------------------------
