SNNS network definition file V1.4-3D
generated at Tue Jun  2 12:21:59 2015

network name : number
source files :
no. of units : 202
no. of connections : 7392
no. of unit types : 0
no. of site types : 0


learning function : Std_Backpropagation
update function   : Topological_Order


unit default section :

act      | bias     | st | subnet | layer | act func     | out func
---------|----------|----|--------|-------|--------------|-------------
 0,00000 |  0,00000 | h  |      0 |     1 | Act_Logistic | Out_Identity 
---------|----------|----|--------|-------|--------------|-------------


unit definition section :

no. | typeName | unitName | act      | bias     | st | position | act func | out func | sites
----|----------|----------|----------|----------|----|----------|----------|----------|-------
  1 |          | noName   |  0,00000 | -1,00000 | i  |  1, 1, 1 |||
  2 |          | noName   |  0,00000 | -0,99803 | i  |  2, 1, 1 |||
  3 |          | noName   |  0,00000 | -0,91674 | i  |  3, 1, 1 |||
  4 |          | noName   |  0,00000 | -0,64671 | i  |  4, 1, 1 |||
  5 |          | noName   |  0,00000 | -0,27080 | i  |  5, 1, 1 |||
  6 |          | noName   |  0,00000 | -0,81734 | i  |  6, 1, 1 |||
  7 |          | noName   |  0,00000 | -0,81540 | i  |  7, 1, 1 |||
  8 |          | noName   |  0,00000 | -0,02557 | i  |  8, 1, 1 |||
  9 |          | noName   |  0,00000 |  0,05350 | i  |  9, 1, 1 |||
 10 |          | noName   |  0,00000 | -0,09113 | i  | 10, 1, 1 |||
 11 |          | noName   |  0,00000 | -0,53364 | i  |  1, 2, 1 |||
 12 |          | noName   |  0,00000 |  0,66258 | i  |  2, 2, 1 |||
 13 |          | noName   |  0,00000 |  0,86346 | i  |  3, 2, 1 |||
 14 |          | noName   |  0,00000 |  0,13612 | i  |  4, 2, 1 |||
 15 |          | noName   |  0,00000 |  0,11219 | i  |  5, 2, 1 |||
 16 |          | noName   |  0,00000 | -0,89834 | i  |  6, 2, 1 |||
 17 |          | noName   |  0,00000 |  0,53410 | i  |  7, 2, 1 |||
 18 |          | noName   |  0,00000 | -0,96217 | i  |  8, 2, 1 |||
 19 |          | noName   |  0,00000 | -0,49528 | i  |  9, 2, 1 |||
 20 |          | noName   |  0,00000 | -0,40361 | i  | 10, 2, 1 |||
 21 |          | noName   |  0,00000 |  0,75196 | i  |  1, 3, 1 |||
 22 |          | noName   |  0,00000 |  0,06311 | i  |  2, 3, 1 |||
 23 |          | noName   |  0,00000 |  0,84052 | i  |  3, 3, 1 |||
 24 |          | noName   |  0,00000 |  0,03086 | i  |  4, 3, 1 |||
 25 |          | noName   |  0,00000 |  0,62086 | i  |  5, 3, 1 |||
 26 |          | noName   |  0,00000 | -0,62316 | i  |  6, 3, 1 |||
 27 |          | noName   |  0,00000 |  0,77263 | i  |  7, 3, 1 |||
 28 |          | noName   |  0,00000 |  0,14123 | i  |  8, 3, 1 |||
 29 |          | noName   |  0,00000 | -0,84645 | i  |  9, 3, 1 |||
 30 |          | noName   |  0,00000 |  0,63055 | i  | 10, 3, 1 |||
 31 |          | noName   |  0,00000 |  0,96978 | i  |  1, 4, 1 |||
 32 |          | noName   |  0,00000 | -0,76330 | i  |  2, 4, 1 |||
 33 |          | noName   |  0,00000 |  0,78781 | i  |  3, 4, 1 |||
 34 |          | noName   |  0,00000 |  0,56897 | i  |  4, 4, 1 |||
 35 |          | noName   |  0,00000 | -0,79817 | i  |  5, 4, 1 |||
 36 |          | noName   |  0,00000 | -0,49338 | i  |  6, 4, 1 |||
 37 |          | noName   |  0,00000 | -0,96032 | i  |  7, 4, 1 |||
 38 |          | noName   |  0,00000 | -0,24325 | i  |  8, 4, 1 |||
 39 |          | noName   |  0,00000 |  0,35775 | i  |  9, 4, 1 |||
 40 |          | noName   |  0,00000 |  0,36185 | i  | 10, 4, 1 |||
 41 |          | noName   |  0,00000 |  0,50541 | i  |  1, 5, 1 |||
 42 |          | noName   |  0,00000 | -0,98754 | i  |  2, 5, 1 |||
 43 |          | noName   |  0,00000 |  0,24881 | i  |  3, 5, 1 |||
 44 |          | noName   |  0,00000 | -0,74708 | i  |  4, 5, 1 |||
 45 |          | noName   |  0,00000 |  0,23510 | i  |  5, 5, 1 |||
 46 |          | noName   |  0,00000 |  0,54186 | i  |  6, 5, 1 |||
 47 |          | noName   |  0,00000 | -0,62693 | i  |  7, 5, 1 |||
 48 |          | noName   |  0,00000 | -0,00656 | i  |  8, 5, 1 |||
 49 |          | noName   |  0,00000 |  0,01900 | i  |  9, 5, 1 |||
 50 |          | noName   |  0,00000 | -0,36812 | i  | 10, 5, 1 |||
 51 |          | noName   |  0,00000 |  0,40341 | i  |  1, 6, 1 |||
 52 |          | noName   |  0,00000 | -0,26551 | i  |  2, 6, 1 |||
 53 |          | noName   |  0,00000 |  0,75262 | i  |  3, 6, 1 |||
 54 |          | noName   |  0,00000 | -0,25801 | i  |  4, 6, 1 |||
 55 |          | noName   |  0,00000 |  0,05050 | i  |  5, 6, 1 |||
 56 |          | noName   |  0,00000 | -0,14433 | i  |  6, 6, 1 |||
 57 |          | noName   |  0,00000 |  0,08549 | i  |  7, 6, 1 |||
 58 |          | noName   |  0,00000 |  0,33596 | i  |  8, 6, 1 |||
 59 |          | noName   |  0,00000 | -0,65772 | i  |  9, 6, 1 |||
 60 |          | noName   |  0,00000 |  0,66156 | i  | 10, 6, 1 |||
 61 |          | noName   |  0,00000 |  0,72381 | i  |  1, 7, 1 |||
 62 |          | noName   |  0,00000 |  0,53844 | i  |  2, 7, 1 |||
 63 |          | noName   |  0,00000 | -0,89484 | i  |  3, 7, 1 |||
 64 |          | noName   |  0,00000 |  0,93346 | i  |  4, 7, 1 |||
 65 |          | noName   |  0,00000 | -0,33143 | i  |  5, 7, 1 |||
 66 |          | noName   |  0,00000 | -0,83581 | i  |  6, 7, 1 |||
 67 |          | noName   |  0,00000 | -0,45937 | i  |  7, 7, 1 |||
 68 |          | noName   |  0,00000 | -0,85148 | i  |  8, 7, 1 |||
 69 |          | noName   |  0,00000 |  0,35245 | i  |  9, 7, 1 |||
 70 |          | noName   |  0,00000 |  0,62032 | i  | 10, 7, 1 |||
 71 |          | noName   |  0,00000 | -0,07158 | i  |  1, 8, 1 |||
 72 |          | noName   |  0,00000 |  0,13837 | i  |  2, 8, 1 |||
 73 |          | noName   |  0,00000 |  0,02441 | i  |  3, 8, 1 |||
 74 |          | noName   |  0,00000 |  0,17302 | i  |  4, 8, 1 |||
 75 |          | noName   |  0,00000 |  0,47752 | i  |  5, 8, 1 |||
 76 |          | noName   |  0,00000 |  0,74338 | i  |  6, 8, 1 |||
 77 |          | noName   |  0,00000 |  0,15593 | i  |  7, 8, 1 |||
 78 |          | noName   |  0,00000 |  0,92941 | i  |  8, 8, 1 |||
 79 |          | noName   |  0,00000 | -0,33294 | i  |  9, 8, 1 |||
 80 |          | noName   |  0,00000 | -0,21434 | i  | 10, 8, 1 |||
 81 |          | noName   |  0,00000 | -0,64614 | i  |  1, 9, 1 |||
 82 |          | noName   |  0,00000 | -0,77626 | i  |  2, 9, 1 |||
 83 |          | noName   |  0,00000 |  0,70536 | i  |  3, 9, 1 |||
 84 |          | noName   |  0,00000 |  0,62234 | i  |  4, 9, 1 |||
 85 |          | noName   |  0,00000 |  0,90977 | i  |  5, 9, 1 |||
 86 |          | noName   |  0,00000 |  0,80857 | i  |  6, 9, 1 |||
 87 |          | noName   |  0,00000 | -0,72217 | i  |  7, 9, 1 |||
 88 |          | noName   |  0,00000 |  0,37237 | i  |  8, 9, 1 |||
 89 |          | noName   |  0,00000 | -0,74603 | i  |  9, 9, 1 |||
 90 |          | noName   |  0,00000 | -0,99182 | i  | 10, 9, 1 |||
 91 |          | noName   |  0,00000 | -0,99899 | i  |  1,10, 1 |||
 92 |          | noName   |  0,00000 | -0,61410 | i  |  2,10, 1 |||
 93 |          | noName   |  0,00000 |  0,17356 | i  |  3,10, 1 |||
 94 |          | noName   |  0,00000 | -0,25008 | i  |  4,10, 1 |||
 95 |          | noName   |  0,00000 | -0,94643 | i  |  5,10, 1 |||
 96 |          | noName   |  0,00000 | -0,07047 | i  |  6,10, 1 |||
 97 |          | noName   |  0,00000 |  0,57069 | i  |  7,10, 1 |||
 98 |          | noName   |  0,00000 | -0,11553 | i  |  8,10, 1 |||
 99 |          | noName   |  0,00000 | -0,42419 | i  |  9,10, 1 |||
100 |          | noName   |  0,00000 |  0,70671 | i  | 10,10, 1 |||
101 |          | noName   |  0,00000 |  0,05194 | i  |  1,11, 1 |||
102 |          | noName   |  0,00000 |  0,45683 | i  |  2,11, 1 |||
103 |          | noName   |  0,00000 | -0,46737 | i  |  3,11, 1 |||
104 |          | noName   |  0,00000 |  0,56697 | i  |  4,11, 1 |||
105 |          | noName   |  0,00000 | -0,06391 | i  |  5,11, 1 |||
106 |          | noName   |  0,00000 | -0,60601 | i  |  6,11, 1 |||
107 |          | noName   |  0,00000 | -0,10565 | i  |  7,11, 1 |||
108 |          | noName   |  0,00000 |  0,45688 | i  |  8,11, 1 |||
109 |          | noName   |  0,00000 |  0,93219 | i  |  9,11, 1 |||
110 |          | noName   |  0,00000 |  0,51368 | i  | 10,11, 1 |||
111 |          | noName   |  0,00000 | -0,06789 | i  |  1,12, 1 |||
112 |          | noName   |  0,00000 |  0,73793 | i  |  2,12, 1 |||
113 |          | noName   |  0,00000 | -0,73192 | i  |  3,12, 1 |||
114 |          | noName   |  0,00000 |  0,69211 | i  |  4,12, 1 |||
115 |          | noName   |  0,00000 | -0,96382 | i  |  5,12, 1 |||
116 |          | noName   |  0,00000 |  0,88171 | i  |  6,12, 1 |||
117 |          | noName   |  0,00000 |  0,34016 | i  |  7,12, 1 |||
118 |          | noName   |  0,00000 |  0,59994 | i  |  8,12, 1 |||
119 |          | noName   |  0,00000 | -0,71357 | i  |  9,12, 1 |||
120 |          | noName   |  0,00000 |  0,22092 | i  | 10,12, 1 |||
121 |          | noName   |  0,00000 |  0,81657 | i  |  1,13, 1 |||
122 |          | noName   |  0,00000 |  0,54883 | i  |  2,13, 1 |||
123 |          | noName   |  0,00000 | -0,26787 | i  |  3,13, 1 |||
124 |          | noName   |  0,00000 |  0,88858 | i  |  4,13, 1 |||
125 |          | noName   |  0,00000 |  0,76964 | i  |  5,13, 1 |||
126 |          | noName   |  0,00000 | -0,10966 | i  |  6,13, 1 |||
127 |          | noName   |  0,00000 | -0,67394 | i  |  7,13, 1 |||
128 |          | noName   |  0,00000 | -0,15037 | i  |  8,13, 1 |||
129 |          | noName   |  0,00000 | -0,04029 | i  |  9,13, 1 |||
130 |          | noName   |  0,00000 | -0,93774 | i  | 10,13, 1 |||
131 |          | noName   |  0,00000 |  0,21686 | i  |  1,14, 1 |||
132 |          | noName   |  0,00000 |  0,58452 | i  |  2,14, 1 |||
133 |          | noName   |  0,00000 | -0,63501 | i  |  3,14, 1 |||
134 |          | noName   |  0,00000 |  0,05024 | i  |  4,14, 1 |||
135 |          | noName   |  0,00000 |  0,79752 | i  |  5,14, 1 |||
136 |          | noName   |  0,00000 | -0,38242 | i  |  6,14, 1 |||
137 |          | noName   |  0,00000 |  0,88525 | i  |  7,14, 1 |||
138 |          | noName   |  0,00000 | -0,22395 | i  |  8,14, 1 |||
139 |          | noName   |  0,00000 |  0,86102 | i  |  9,14, 1 |||
140 |          | noName   |  0,00000 |  0,82277 | i  | 10,14, 1 |||
141 |          | noName   |  0,00000 | -0,32456 | i  |  1,15, 1 |||
142 |          | noName   |  0,00000 |  0,06562 | i  |  2,15, 1 |||
143 |          | noName   |  0,00000 |  0,40415 | i  |  3,15, 1 |||
144 |          | noName   |  0,00000 |  0,94202 | i  |  4,15, 1 |||
145 |          | noName   |  0,00000 |  0,53617 | i  |  5,15, 1 |||
146 |          | noName   |  0,00000 |  0,50388 | i  |  6,15, 1 |||
147 |          | noName   |  0,00000 | -0,81827 | i  |  7,15, 1 |||
148 |          | noName   |  0,00000 |  0,70793 | i  |  8,15, 1 |||
149 |          | noName   |  0,00000 | -0,65071 | i  |  9,15, 1 |||
150 |          | noName   |  0,00000 | -0,96046 | i  | 10,15, 1 |||
151 |          | noName   |  0,00000 | -0,16189 | o  | 27, 6, 1 |||
152 |          | noName   |  0,00000 | -0,40726 | o  | 28, 6, 1 |||
153 |          | noName   |  0,00000 | -0,24354 | o  | 29, 6, 1 |||
154 |          | noName   |  0,00000 | -0,16257 | o  | 30, 6, 1 |||
155 |          | noName   |  0,00000 |  0,00000 | h  | 15, 3, 1 |||
156 |          | noName   |  0,00000 |  0,00000 | h  | 16, 3, 1 |||
157 |          | noName   |  0,00000 |  0,00000 | h  | 17, 3, 1 |||
158 |          | noName   |  0,00000 |  0,00000 | h  | 18, 3, 1 |||
159 |          | noName   |  0,00000 |  0,00000 | h  | 19, 3, 1 |||
160 |          | noName   |  0,00000 |  0,00000 | h  | 20, 3, 1 |||
161 |          | noName   |  0,00000 |  0,00000 | h  | 15, 4, 1 |||
162 |          | noName   |  0,00000 |  0,00000 | h  | 16, 4, 1 |||
163 |          | noName   |  0,00000 |  0,00000 | h  | 17, 4, 1 |||
164 |          | noName   |  0,00000 |  0,00000 | h  | 18, 4, 1 |||
165 |          | noName   |  0,00000 |  0,00000 | h  | 19, 4, 1 |||
166 |          | noName   |  0,00000 |  0,00000 | h  | 20, 4, 1 |||
167 |          | noName   |  0,00000 |  0,00000 | h  | 15, 5, 1 |||
168 |          | noName   |  0,00000 |  0,00000 | h  | 16, 5, 1 |||
169 |          | noName   |  0,00000 |  0,00000 | h  | 17, 5, 1 |||
170 |          | noName   |  0,00000 |  0,00000 | h  | 18, 5, 1 |||
171 |          | noName   |  0,00000 |  0,00000 | h  | 19, 5, 1 |||
172 |          | noName   |  0,00000 |  0,00000 | h  | 20, 5, 1 |||
173 |          | noName   |  0,00000 |  0,00000 | h  | 15, 6, 1 |||
174 |          | noName   |  0,00000 |  0,00000 | h  | 16, 6, 1 |||
175 |          | noName   |  0,00000 |  0,00000 | h  | 17, 6, 1 |||
176 |          | noName   |  0,00000 |  0,00000 | h  | 18, 6, 1 |||
177 |          | noName   |  0,00000 |  0,00000 | h  | 19, 6, 1 |||
178 |          | noName   |  0,00000 |  0,00000 | h  | 20, 6, 1 |||
179 |          | noName   |  0,00000 |  0,00000 | h  | 15, 7, 1 |||
180 |          | noName   |  0,00000 |  0,00000 | h  | 16, 7, 1 |||
181 |          | noName   |  0,00000 |  0,00000 | h  | 17, 7, 1 |||
182 |          | noName   |  0,00000 |  0,00000 | h  | 18, 7, 1 |||
183 |          | noName   |  0,00000 |  0,00000 | h  | 19, 7, 1 |||
184 |          | noName   |  0,00000 |  0,00000 | h  | 20, 7, 1 |||
185 |          | noName   |  0,00000 |  0,00000 | h  | 15, 8, 1 |||
186 |          | noName   |  0,00000 |  0,00000 | h  | 16, 8, 1 |||
187 |          | noName   |  0,00000 |  0,00000 | h  | 17, 8, 1 |||
188 |          | noName   |  0,00000 |  0,00000 | h  | 18, 8, 1 |||
189 |          | noName   |  0,00000 |  0,00000 | h  | 19, 8, 1 |||
190 |          | noName   |  0,00000 |  0,00000 | h  | 20, 8, 1 |||
191 |          | noName   |  0,00000 |  0,00000 | h  | 15, 9, 1 |||
192 |          | noName   |  0,00000 |  0,00000 | h  | 16, 9, 1 |||
193 |          | noName   |  0,00000 |  0,00000 | h  | 17, 9, 1 |||
194 |          | noName   |  0,00000 |  0,00000 | h  | 18, 9, 1 |||
195 |          | noName   |  0,00000 |  0,00000 | h  | 19, 9, 1 |||
196 |          | noName   |  0,00000 |  0,00000 | h  | 20, 9, 1 |||
197 |          | noName   |  0,00000 |  0,00000 | h  | 15,10, 1 |||
198 |          | noName   |  0,00000 |  0,00000 | h  | 16,10, 1 |||
199 |          | noName   |  0,00000 |  0,00000 | h  | 17,10, 1 |||
200 |          | noName   |  0,00000 |  0,00000 | h  | 18,10, 1 |||
201 |          | noName   |  0,00000 |  0,00000 | h  | 19,10, 1 |||
202 |          | noName   |  0,00000 |  0,00000 | h  | 20,10, 1 |||
----|----------|----------|----------|----------|----|----------|----------|----------|-------


connection definition section :

target | site | source:weight
-------|------|----------------------------------------------------------------------------------------------------------------
   151 |      | 202: 0,00000, 201: 0,00000, 200: 0,00000, 199: 0,00000, 198: 0,00000, 197: 0,00000, 196: 0,00000, 195: 0,00000,
                194: 0,00000, 193: 0,00000, 192: 0,00000, 191: 0,00000, 190: 0,00000, 189: 0,00000, 188: 0,00000, 187: 0,00000,
                186: 0,00000, 185: 0,00000, 184: 0,00000, 183: 0,00000, 182: 0,00000, 181: 0,00000, 180: 0,00000, 179: 0,00000,
                178: 0,00000, 177: 0,00000, 176: 0,00000, 175: 0,00000, 174: 0,00000, 173: 0,00000, 172: 0,00000, 171: 0,00000,
                170: 0,00000, 169: 0,00000, 168: 0,00000, 167: 0,00000, 166: 0,00000, 165: 0,00000, 164: 0,00000, 163: 0,00000,
                162: 0,00000, 161: 0,00000, 160: 0,00000, 159: 0,00000, 158: 0,00000, 157: 0,00000, 156: 0,00000, 155: 0,00000
   152 |      | 202: 0,00000, 201: 0,00000, 200: 0,00000, 199: 0,00000, 198: 0,00000, 197: 0,00000, 196: 0,00000, 195: 0,00000,
                194: 0,00000, 193: 0,00000, 192: 0,00000, 191: 0,00000, 190: 0,00000, 189: 0,00000, 188: 0,00000, 187: 0,00000,
                186: 0,00000, 185: 0,00000, 184: 0,00000, 183: 0,00000, 182: 0,00000, 181: 0,00000, 180: 0,00000, 179: 0,00000,
                178: 0,00000, 177: 0,00000, 176: 0,00000, 175: 0,00000, 174: 0,00000, 173: 0,00000, 172: 0,00000, 171: 0,00000,
                170: 0,00000, 169: 0,00000, 168: 0,00000, 167: 0,00000, 166: 0,00000, 165: 0,00000, 164: 0,00000, 163: 0,00000,
                162: 0,00000, 161: 0,00000, 160: 0,00000, 159: 0,00000, 158: 0,00000, 157: 0,00000, 156: 0,00000, 155: 0,00000
   153 |      | 202: 0,00000, 201: 0,00000, 200: 0,00000, 199: 0,00000, 198: 0,00000, 197: 0,00000, 196: 0,00000, 195: 0,00000,
                194: 0,00000, 193: 0,00000, 192: 0,00000, 191: 0,00000, 190: 0,00000, 189: 0,00000, 188: 0,00000, 187: 0,00000,
                186: 0,00000, 185: 0,00000, 184: 0,00000, 183: 0,00000, 182: 0,00000, 181: 0,00000, 180: 0,00000, 179: 0,00000,
                178: 0,00000, 177: 0,00000, 176: 0,00000, 175: 0,00000, 174: 0,00000, 173: 0,00000, 172: 0,00000, 171: 0,00000,
                170: 0,00000, 169: 0,00000, 168: 0,00000, 167: 0,00000, 166: 0,00000, 165: 0,00000, 164: 0,00000, 163: 0,00000,
                162: 0,00000, 161: 0,00000, 160: 0,00000, 159: 0,00000, 158: 0,00000, 157: 0,00000, 156: 0,00000, 155: 0,00000
   154 |      | 202: 0,00000, 201: 0,00000, 200: 0,00000, 199: 0,00000, 198: 0,00000, 197: 0,00000, 196: 0,00000, 195: 0,00000,
                194: 0,00000, 193: 0,00000, 192: 0,00000, 191: 0,00000, 190: 0,00000, 189: 0,00000, 188: 0,00000, 187: 0,00000,
                186: 0,00000, 185: 0,00000, 184: 0,00000, 183: 0,00000, 182: 0,00000, 181: 0,00000, 180: 0,00000, 179: 0,00000,
                178: 0,00000, 177: 0,00000, 176: 0,00000, 175: 0,00000, 174: 0,00000, 173: 0,00000, 172: 0,00000, 171: 0,00000,
                170: 0,00000, 169: 0,00000, 168: 0,00000, 167: 0,00000, 166: 0,00000, 165: 0,00000, 164: 0,00000, 163: 0,00000,
                162: 0,00000, 161: 0,00000, 160: 0,00000, 159: 0,00000, 158: 0,00000, 157: 0,00000, 156: 0,00000, 155: 0,00000
   155 |      | 150: 0,00000, 149: 0,00000, 148: 0,00000, 147: 0,00000, 146: 0,00000, 145: 0,00000, 144: 0,00000, 143: 0,00000,
                142: 0,00000, 141: 0,00000, 140: 0,00000, 139: 0,00000, 138: 0,00000, 137: 0,00000, 136: 0,00000, 135: 0,00000,
                134: 0,00000, 133: 0,00000, 132: 0,00000, 131: 0,00000, 130: 0,00000, 129: 0,00000, 128: 0,00000, 127: 0,00000,
                126: 0,00000, 125: 0,00000, 124: 0,00000, 123: 0,00000, 122: 0,00000, 121: 0,00000, 120: 0,00000, 119: 0,00000,
                118: 0,00000, 117: 0,00000, 116: 0,00000, 115: 0,00000, 114: 0,00000, 113: 0,00000, 112: 0,00000, 111: 0,00000,
                110: 0,00000, 109: 0,00000, 108: 0,00000, 107: 0,00000, 106: 0,00000, 105: 0,00000, 104: 0,00000, 103: 0,00000,
                102: 0,00000, 101: 0,00000, 100: 0,00000,  99: 0,00000,  98: 0,00000,  97: 0,00000,  96: 0,00000,  95: 0,00000,
                 94: 0,00000,  93: 0,00000,  92: 0,00000,  91: 0,00000,  90: 0,00000,  89: 0,00000,  88: 0,00000,  87: 0,00000,
                 86: 0,00000,  85: 0,00000,  84: 0,00000,  83: 0,00000,  82: 0,00000,  81: 0,00000,  80: 0,00000,  79: 0,00000,
                 78: 0,00000,  77: 0,00000,  76: 0,00000,  75: 0,00000,  74: 0,00000,  73: 0,00000,  72: 0,00000,  71: 0,00000,
                 70: 0,00000,  69: 0,00000,  68: 0,00000,  67: 0,00000,  66: 0,00000,  65: 0,00000,  64: 0,00000,  63: 0,00000,
                 62: 0,00000,  61: 0,00000,  60: 0,00000,  59: 0,00000,  58: 0,00000,  57: 0,00000,  56: 0,00000,  55: 0,00000,
                 54: 0,00000,  53: 0,00000,  52: 0,00000,  51: 0,00000,  50: 0,00000,  49: 0,00000,  48: 0,00000,  47: 0,00000,
                 46: 0,00000,  45: 0,00000,  44: 0,00000,  43: 0,00000,  42: 0,00000,  41: 0,00000,  40: 0,00000,  39: 0,00000,
                 38: 0,00000,  37: 0,00000,  36: 0,00000,  35: 0,00000,  34: 0,00000,  33: 0,00000,  32: 0,00000,  31: 0,00000,
                 30: 0,00000,  29: 0,00000,  28: 0,00000,  27: 0,00000,  26: 0,00000,  25: 0,00000,  24: 0,00000,  23: 0,00000,
                 22: 0,00000,  21: 0,00000,  20: 0,00000,  19: 0,00000,  18: 0,00000,  17: 0,00000,  16: 0,00000,  15: 0,00000,
                 14: 0,00000,  13: 0,00000,  12: 0,00000,  11: 0,00000,  10: 0,00000,   9: 0,00000,   8: 0,00000,   7: 0,00000,
                  6: 0,00000,   5: 0,00000,   4: 0,00000,   3: 0,00000,   2: 0,00000,   1: 0,00000
   156 |      | 150: 0,00000, 149: 0,00000, 148: 0,00000, 147: 0,00000, 146: 0,00000, 145: 0,00000, 144: 0,00000, 143: 0,00000,
                142: 0,00000, 141: 0,00000, 140: 0,00000, 139: 0,00000, 138: 0,00000, 137: 0,00000, 136: 0,00000, 135: 0,00000,
                134: 0,00000, 133: 0,00000, 132: 0,00000, 131: 0,00000, 130: 0,00000, 129: 0,00000, 128: 0,00000, 127: 0,00000,
                126: 0,00000, 125: 0,00000, 124: 0,00000, 123: 0,00000, 122: 0,00000, 121: 0,00000, 120: 0,00000, 119: 0,00000,
                118: 0,00000, 117: 0,00000, 116: 0,00000, 115: 0,00000, 114: 0,00000, 113: 0,00000, 112: 0,00000, 111: 0,00000,
                110: 0,00000, 109: 0,00000, 108: 0,00000, 107: 0,00000, 106: 0,00000, 105: 0,00000, 104: 0,00000, 103: 0,00000,
                102: 0,00000, 101: 0,00000, 100: 0,00000,  99: 0,00000,  98: 0,00000,  97: 0,00000,  96: 0,00000,  95: 0,00000,
                 94: 0,00000,  93: 0,00000,  92: 0,00000,  91: 0,00000,  90: 0,00000,  89: 0,00000,  88: 0,00000,  87: 0,00000,
                 86: 0,00000,  85: 0,00000,  84: 0,00000,  83: 0,00000,  82: 0,00000,  81: 0,00000,  80: 0,00000,  79: 0,00000,
                 78: 0,00000,  77: 0,00000,  76: 0,00000,  75: 0,00000,  74: 0,00000,  73: 0,00000,  72: 0,00000,  71: 0,00000,
                 70: 0,00000,  69: 0,00000,  68: 0,00000,  67: 0,00000,  66: 0,00000,  65: 0,00000,  64: 0,00000,  63: 0,00000,
                 62: 0,00000,  61: 0,00000,  60: 0,00000,  59: 0,00000,  58: 0,00000,  57: 0,00000,  56: 0,00000,  55: 0,00000,
                 54: 0,00000,  53: 0,00000,  52: 0,00000,  51: 0,00000,  50: 0,00000,  49: 0,00000,  48: 0,00000,  47: 0,00000,
                 46: 0,00000,  45: 0,00000,  44: 0,00000,  43: 0,00000,  42: 0,00000,  41: 0,00000,  40: 0,00000,  39: 0,00000,
                 38: 0,00000,  37: 0,00000,  36: 0,00000,  35: 0,00000,  34: 0,00000,  33: 0,00000,  32: 0,00000,  31: 0,00000,
                 30: 0,00000,  29: 0,00000,  28: 0,00000,  27: 0,00000,  26: 0,00000,  25: 0,00000,  24: 0,00000,  23: 0,00000,
                 22: 0,00000,  21: 0,00000,  20: 0,00000,  19: 0,00000,  18: 0,00000,  17: 0,00000,  16: 0,00000,  15: 0,00000,
                 14: 0,00000,  13: 0,00000,  12: 0,00000,  11: 0,00000,  10: 0,00000,   9: 0,00000,   8: 0,00000,   7: 0,00000,
                  6: 0,00000,   5: 0,00000,   4: 0,00000,   3: 0,00000,   2: 0,00000,   1: 0,00000
   157 |      | 150: 0,00000, 149: 0,00000, 148: 0,00000, 147: 0,00000, 146: 0,00000, 145: 0,00000, 144: 0,00000, 143: 0,00000,
                142: 0,00000, 141: 0,00000, 140: 0,00000, 139: 0,00000, 138: 0,00000, 137: 0,00000, 136: 0,00000, 135: 0,00000,
                134: 0,00000, 133: 0,00000, 132: 0,00000, 131: 0,00000, 130: 0,00000, 129: 0,00000, 128: 0,00000, 127: 0,00000,
                126: 0,00000, 125: 0,00000, 124: 0,00000, 123: 0,00000, 122: 0,00000, 121: 0,00000, 120: 0,00000, 119: 0,00000,
                118: 0,00000, 117: 0,00000, 116: 0,00000, 115: 0,00000, 114: 0,00000, 113: 0,00000, 112: 0,00000, 111: 0,00000,
                110: 0,00000, 109: 0,00000, 108: 0,00000, 107: 0,00000, 106: 0,00000, 105: 0,00000, 104: 0,00000, 103: 0,00000,
                102: 0,00000, 101: 0,00000, 100: 0,00000,  99: 0,00000,  98: 0,00000,  97: 0,00000,  96: 0,00000,  95: 0,00000,
                 94: 0,00000,  93: 0,00000,  92: 0,00000,  91: 0,00000,  90: 0,00000,  89: 0,00000,  88: 0,00000,  87: 0,00000,
                 86: 0,00000,  85: 0,00000,  84: 0,00000,  83: 0,00000,  82: 0,00000,  81: 0,00000,  80: 0,00000,  79: 0,00000,
                 78: 0,00000,  77: 0,00000,  76: 0,00000,  75: 0,00000,  74: 0,00000,  73: 0,00000,  72: 0,00000,  71: 0,00000,
                 70: 0,00000,  69: 0,00000,  68: 0,00000,  67: 0,00000,  66: 0,00000,  65: 0,00000,  64: 0,00000,  63: 0,00000,
                 62: 0,00000,  61: 0,00000,  60: 0,00000,  59: 0,00000,  58: 0,00000,  57: 0,00000,  56: 0,00000,  55: 0,00000,
                 54: 0,00000,  53: 0,00000,  52: 0,00000,  51: 0,00000,  50: 0,00000,  49: 0,00000,  48: 0,00000,  47: 0,00000,
                 46: 0,00000,  45: 0,00000,  44: 0,00000,  43: 0,00000,  42: 0,00000,  41: 0,00000,  40: 0,00000,  39: 0,00000,
                 38: 0,00000,  37: 0,00000,  36: 0,00000,  35: 0,00000,  34: 0,00000,  33: 0,00000,  32: 0,00000,  31: 0,00000,
                 30: 0,00000,  29: 0,00000,  28: 0,00000,  27: 0,00000,  26: 0,00000,  25: 0,00000,  24: 0,00000,  23: 0,00000,
                 22: 0,00000,  21: 0,00000,  20: 0,00000,  19: 0,00000,  18: 0,00000,  17: 0,00000,  16: 0,00000,  15: 0,00000,
                 14: 0,00000,  13: 0,00000,  12: 0,00000,  11: 0,00000,  10: 0,00000,   9: 0,00000,   8: 0,00000,   7: 0,00000,
                  6: 0,00000,   5: 0,00000,   4: 0,00000,   3: 0,00000,   2: 0,00000,   1: 0,00000
   158 |      | 150: 0,00000, 149: 0,00000, 148: 0,00000, 147: 0,00000, 146: 0,00000, 145: 0,00000, 144: 0,00000, 143: 0,00000,
                142: 0,00000, 141: 0,00000, 140: 0,00000, 139: 0,00000, 138: 0,00000, 137: 0,00000, 136: 0,00000, 135: 0,00000,
                134: 0,00000, 133: 0,00000, 132: 0,00000, 131: 0,00000, 130: 0,00000, 129: 0,00000, 128: 0,00000, 127: 0,00000,
                126: 0,00000, 125: 0,00000, 124: 0,00000, 123: 0,00000, 122: 0,00000, 121: 0,00000, 120: 0,00000, 119: 0,00000,
                118: 0,00000, 117: 0,00000, 116: 0,00000, 115: 0,00000, 114: 0,00000, 113: 0,00000, 112: 0,00000, 111: 0,00000,
                110: 0,00000, 109: 0,00000, 108: 0,00000, 107: 0,00000, 106: 0,00000, 105: 0,00000, 104: 0,00000, 103: 0,00000,
                102: 0,00000, 101: 0,00000, 100: 0,00000,  99: 0,00000,  98: 0,00000,  97: 0,00000,  96: 0,00000,  95: 0,00000,
                 94: 0,00000,  93: 0,00000,  92: 0,00000,  91: 0,00000,  90: 0,00000,  89: 0,00000,  88: 0,00000,  87: 0,00000,
                 86: 0,00000,  85: 0,00000,  84: 0,00000,  83: 0,00000,  82: 0,00000,  81: 0,00000,  80: 0,00000,  79: 0,00000,
                 78: 0,00000,  77: 0,00000,  76: 0,00000,  75: 0,00000,  74: 0,00000,  73: 0,00000,  72: 0,00000,  71: 0,00000,
                 70: 0,00000,  69: 0,00000,  68: 0,00000,  67: 0,00000,  66: 0,00000,  65: 0,00000,  64: 0,00000,  63: 0,00000,
                 62: 0,00000,  61: 0,00000,  60: 0,00000,  59: 0,00000,  58: 0,00000,  57: 0,00000,  56: 0,00000,  55: 0,00000,
                 54: 0,00000,  53: 0,00000,  52: 0,00000,  51: 0,00000,  50: 0,00000,  49: 0,00000,  48: 0,00000,  47: 0,00000,
                 46: 0,00000,  45: 0,00000,  44: 0,00000,  43: 0,00000,  42: 0,00000,  41: 0,00000,  40: 0,00000,  39: 0,00000,
                 38: 0,00000,  37: 0,00000,  36: 0,00000,  35: 0,00000,  34: 0,00000,  33: 0,00000,  32: 0,00000,  31: 0,00000,
                 30: 0,00000,  29: 0,00000,  28: 0,00000,  27: 0,00000,  26: 0,00000,  25: 0,00000,  24: 0,00000,  23: 0,00000,
                 22: 0,00000,  21: 0,00000,  20: 0,00000,  19: 0,00000,  18: 0,00000,  17: 0,00000,  16: 0,00000,  15: 0,00000,
                 14: 0,00000,  13: 0,00000,  12: 0,00000,  11: 0,00000,  10: 0,00000,   9: 0,00000,   8: 0,00000,   7: 0,00000,
                  6: 0,00000,   5: 0,00000,   4: 0,00000,   3: 0,00000,   2: 0,00000,   1: 0,00000
   159 |      | 150: 0,00000, 149: 0,00000, 148: 0,00000, 147: 0,00000, 146: 0,00000, 145: 0,00000, 144: 0,00000, 143: 0,00000,
                142: 0,00000, 141: 0,00000, 140: 0,00000, 139: 0,00000, 138: 0,00000, 137: 0,00000, 136: 0,00000, 135: 0,00000,
                134: 0,00000, 133: 0,00000, 132: 0,00000, 131: 0,00000, 130: 0,00000, 129: 0,00000, 128: 0,00000, 127: 0,00000,
                126: 0,00000, 125: 0,00000, 124: 0,00000, 123: 0,00000, 122: 0,00000, 121: 0,00000, 120: 0,00000, 119: 0,00000,
                118: 0,00000, 117: 0,00000, 116: 0,00000, 115: 0,00000, 114: 0,00000, 113: 0,00000, 112: 0,00000, 111: 0,00000,
                110: 0,00000, 109: 0,00000, 108: 0,00000, 107: 0,00000, 106: 0,00000, 105: 0,00000, 104: 0,00000, 103: 0,00000,
                102: 0,00000, 101: 0,00000, 100: 0,00000,  99: 0,00000,  98: 0,00000,  97: 0,00000,  96: 0,00000,  95: 0,00000,
                 94: 0,00000,  93: 0,00000,  92: 0,00000,  91: 0,00000,  90: 0,00000,  89: 0,00000,  88: 0,00000,  87: 0,00000,
                 86: 0,00000,  85: 0,00000,  84: 0,00000,  83: 0,00000,  82: 0,00000,  81: 0,00000,  80: 0,00000,  79: 0,00000,
                 78: 0,00000,  77: 0,00000,  76: 0,00000,  75: 0,00000,  74: 0,00000,  73: 0,00000,  72: 0,00000,  71: 0,00000,
                 70: 0,00000,  69: 0,00000,  68: 0,00000,  67: 0,00000,  66: 0,00000,  65: 0,00000,  64: 0,00000,  63: 0,00000,
                 62: 0,00000,  61: 0,00000,  60: 0,00000,  59: 0,00000,  58: 0,00000,  57: 0,00000,  56: 0,00000,  55: 0,00000,
                 54: 0,00000,  53: 0,00000,  52: 0,00000,  51: 0,00000,  50: 0,00000,  49: 0,00000,  48: 0,00000,  47: 0,00000,
                 46: 0,00000,  45: 0,00000,  44: 0,00000,  43: 0,00000,  42: 0,00000,  41: 0,00000,  40: 0,00000,  39: 0,00000,
                 38: 0,00000,  37: 0,00000,  36: 0,00000,  35: 0,00000,  34: 0,00000,  33: 0,00000,  32: 0,00000,  31: 0,00000,
                 30: 0,00000,  29: 0,00000,  28: 0,00000,  27: 0,00000,  26: 0,00000,  25: 0,00000,  24: 0,00000,  23: 0,00000,
                 22: 0,00000,  21: 0,00000,  20: 0,00000,  19: 0,00000,  18: 0,00000,  17: 0,00000,  16: 0,00000,  15: 0,00000,
                 14: 0,00000,  13: 0,00000,  12: 0,00000,  11: 0,00000,  10: 0,00000,   9: 0,00000,   8: 0,00000,   7: 0,00000,
                  6: 0,00000,   5: 0,00000,   4: 0,00000,   3: 0,00000,   2: 0,00000,   1: 0,00000
   160 |      | 150: 0,00000, 149: 0,00000, 148: 0,00000, 147: 0,00000, 146: 0,00000, 145: 0,00000, 144: 0,00000, 143: 0,00000,
                142: 0,00000, 141: 0,00000, 140: 0,00000, 139: 0,00000, 138: 0,00000, 137: 0,00000, 136: 0,00000, 135: 0,00000,
                134: 0,00000, 133: 0,00000, 132: 0,00000, 131: 0,00000, 130: 0,00000, 129: 0,00000, 128: 0,00000, 127: 0,00000,
                126: 0,00000, 125: 0,00000, 124: 0,00000, 123: 0,00000, 122: 0,00000, 121: 0,00000, 120: 0,00000, 119: 0,00000,
                118: 0,00000, 117: 0,00000, 116: 0,00000, 115: 0,00000, 114: 0,00000, 113: 0,00000, 112: 0,00000, 111: 0,00000,
                110: 0,00000, 109: 0,00000, 108: 0,00000, 107: 0,00000, 106: 0,00000, 105: 0,00000, 104: 0,00000, 103: 0,00000,
                102: 0,00000, 101: 0,00000, 100: 0,00000,  99: 0,00000,  98: 0,00000,  97: 0,00000,  96: 0,00000,  95: 0,00000,
                 94: 0,00000,  93: 0,00000,  92: 0,00000,  91: 0,00000,  90: 0,00000,  89: 0,00000,  88: 0,00000,  87: 0,00000,
                 86: 0,00000,  85: 0,00000,  84: 0,00000,  83: 0,00000,  82: 0,00000,  81: 0,00000,  80: 0,00000,  79: 0,00000,
                 78: 0,00000,  77: 0,00000,  76: 0,00000,  75: 0,00000,  74: 0,00000,  73: 0,00000,  72: 0,00000,  71: 0,00000,
                 70: 0,00000,  69: 0,00000,  68: 0,00000,  67: 0,00000,  66: 0,00000,  65: 0,00000,  64: 0,00000,  63: 0,00000,
                 62: 0,00000,  61: 0,00000,  60: 0,00000,  59: 0,00000,  58: 0,00000,  57: 0,00000,  56: 0,00000,  55: 0,00000,
                 54: 0,00000,  53: 0,00000,  52: 0,00000,  51: 0,00000,  50: 0,00000,  49: 0,00000,  48: 0,00000,  47: 0,00000,
                 46: 0,00000,  45: 0,00000,  44: 0,00000,  43: 0,00000,  42: 0,00000,  41: 0,00000,  40: 0,00000,  39: 0,00000,
                 38: 0,00000,  37: 0,00000,  36: 0,00000,  35: 0,00000,  34: 0,00000,  33: 0,00000,  32: 0,00000,  31: 0,00000,
                 30: 0,00000,  29: 0,00000,  28: 0,00000,  27: 0,00000,  26: 0,00000,  25: 0,00000,  24: 0,00000,  23: 0,00000,
                 22: 0,00000,  21: 0,00000,  20: 0,00000,  19: 0,00000,  18: 0,00000,  17: 0,00000,  16: 0,00000,  15: 0,00000,
                 14: 0,00000,  13: 0,00000,  12: 0,00000,  11: 0,00000,  10: 0,00000,   9: 0,00000,   8: 0,00000,   7: 0,00000,
                  6: 0,00000,   5: 0,00000,   4: 0,00000,   3: 0,00000,   2: 0,00000,   1: 0,00000
   161 |      | 150: 0,00000, 149: 0,00000, 148: 0,00000, 147: 0,00000, 146: 0,00000, 145: 0,00000, 144: 0,00000, 143: 0,00000,
                142: 0,00000, 141: 0,00000, 140: 0,00000, 139: 0,00000, 138: 0,00000, 137: 0,00000, 136: 0,00000, 135: 0,00000,
                134: 0,00000, 133: 0,00000, 132: 0,00000, 131: 0,00000, 130: 0,00000, 129: 0,00000, 128: 0,00000, 127: 0,00000,
                126: 0,00000, 125: 0,00000, 124: 0,00000, 123: 0,00000, 122: 0,00000, 121: 0,00000, 120: 0,00000, 119: 0,00000,
                118: 0,00000, 117: 0,00000, 116: 0,00000, 115: 0,00000, 114: 0,00000, 113: 0,00000, 112: 0,00000, 111: 0,00000,
                110: 0,00000, 109: 0,00000, 108: 0,00000, 107: 0,00000, 106: 0,00000, 105: 0,00000, 104: 0,00000, 103: 0,00000,
                102: 0,00000, 101: 0,00000, 100: 0,00000,  99: 0,00000,  98: 0,00000,  97: 0,00000,  96: 0,00000,  95: 0,00000,
                 94: 0,00000,  93: 0,00000,  92: 0,00000,  91: 0,00000,  90: 0,00000,  89: 0,00000,  88: 0,00000,  87: 0,00000,
                 86: 0,00000,  85: 0,00000,  84: 0,00000,  83: 0,00000,  82: 0,00000,  81: 0,00000,  80: 0,00000,  79: 0,00000,
                 78: 0,00000,  77: 0,00000,  76: 0,00000,  75: 0,00000,  74: 0,00000,  73: 0,00000,  72: 0,00000,  71: 0,00000,
                 70: 0,00000,  69: 0,00000,  68: 0,00000,  67: 0,00000,  66: 0,00000,  65: 0,00000,  64: 0,00000,  63: 0,00000,
                 62: 0,00000,  61: 0,00000,  60: 0,00000,  59: 0,00000,  58: 0,00000,  57: 0,00000,  56: 0,00000,  55: 0,00000,
                 54: 0,00000,  53: 0,00000,  52: 0,00000,  51: 0,00000,  50: 0,00000,  49: 0,00000,  48: 0,00000,  47: 0,00000,
                 46: 0,00000,  45: 0,00000,  44: 0,00000,  43: 0,00000,  42: 0,00000,  41: 0,00000,  40: 0,00000,  39: 0,00000,
                 38: 0,00000,  37: 0,00000,  36: 0,00000,  35: 0,00000,  34: 0,00000,  33: 0,00000,  32: 0,00000,  31: 0,00000,
                 30: 0,00000,  29: 0,00000,  28: 0,00000,  27: 0,00000,  26: 0,00000,  25: 0,00000,  24: 0,00000,  23: 0,00000,
                 22: 0,00000,  21: 0,00000,  20: 0,00000,  19: 0,00000,  18: 0,00000,  17: 0,00000,  16: 0,00000,  15: 0,00000,
                 14: 0,00000,  13: 0,00000,  12: 0,00000,  11: 0,00000,  10: 0,00000,   9: 0,00000,   8: 0,00000,   7: 0,00000,
                  6: 0,00000,   5: 0,00000,   4: 0,00000,   3: 0,00000,   2: 0,00000,   1: 0,00000
   162 |      | 150: 0,00000, 149: 0,00000, 148: 0,00000, 147: 0,00000, 146: 0,00000, 145: 0,00000, 144: 0,00000, 143: 0,00000,
                142: 0,00000, 141: 0,00000, 140: 0,00000, 139: 0,00000, 138: 0,00000, 137: 0,00000, 136: 0,00000, 135: 0,00000,
                134: 0,00000, 133: 0,00000, 132: 0,00000, 131: 0,00000, 130: 0,00000, 129: 0,00000, 128: 0,00000, 127: 0,00000,
                126: 0,00000, 125: 0,00000, 124: 0,00000, 123: 0,00000, 122: 0,00000, 121: 0,00000, 120: 0,00000, 119: 0,00000,
                118: 0,00000, 117: 0,00000, 116: 0,00000, 115: 0,00000, 114: 0,00000, 113: 0,00000, 112: 0,00000, 111: 0,00000,
                110: 0,00000, 109: 0,00000, 108: 0,00000, 107: 0,00000, 106: 0,00000, 105: 0,00000, 104: 0,00000, 103: 0,00000,
                102: 0,00000, 101: 0,00000, 100: 0,00000,  99: 0,00000,  98: 0,00000,  97: 0,00000,  96: 0,00000,  95: 0,00000,
                 94: 0,00000,  93: 0,00000,  92: 0,00000,  91: 0,00000,  90: 0,00000,  89: 0,00000,  88: 0,00000,  87: 0,00000,
                 86: 0,00000,  85: 0,00000,  84: 0,00000,  83: 0,00000,  82: 0,00000,  81: 0,00000,  80: 0,00000,  79: 0,00000,
                 78: 0,00000,  77: 0,00000,  76: 0,00000,  75: 0,00000,  74: 0,00000,  73: 0,00000,  72: 0,00000,  71: 0,00000,
                 70: 0,00000,  69: 0,00000,  68: 0,00000,  67: 0,00000,  66: 0,00000,  65: 0,00000,  64: 0,00000,  63: 0,00000,
                 62: 0,00000,  61: 0,00000,  60: 0,00000,  59: 0,00000,  58: 0,00000,  57: 0,00000,  56: 0,00000,  55: 0,00000,
                 54: 0,00000,  53: 0,00000,  52: 0,00000,  51: 0,00000,  50: 0,00000,  49: 0,00000,  48: 0,00000,  47: 0,00000,
                 46: 0,00000,  45: 0,00000,  44: 0,00000,  43: 0,00000,  42: 0,00000,  41: 0,00000,  40: 0,00000,  39: 0,00000,
                 38: 0,00000,  37: 0,00000,  36: 0,00000,  35: 0,00000,  34: 0,00000,  33: 0,00000,  32: 0,00000,  31: 0,00000,
                 30: 0,00000,  29: 0,00000,  28: 0,00000,  27: 0,00000,  26: 0,00000,  25: 0,00000,  24: 0,00000,  23: 0,00000,
                 22: 0,00000,  21: 0,00000,  20: 0,00000,  19: 0,00000,  18: 0,00000,  17: 0,00000,  16: 0,00000,  15: 0,00000,
                 14: 0,00000,  13: 0,00000,  12: 0,00000,  11: 0,00000,  10: 0,00000,   9: 0,00000,   8: 0,00000,   7: 0,00000,
                  6: 0,00000,   5: 0,00000,   4: 0,00000,   3: 0,00000,   2: 0,00000,   1: 0,00000
   163 |      | 150: 0,00000, 149: 0,00000, 148: 0,00000, 147: 0,00000, 146: 0,00000, 145: 0,00000, 144: 0,00000, 143: 0,00000,
                142: 0,00000, 141: 0,00000, 140: 0,00000, 139: 0,00000, 138: 0,00000, 137: 0,00000, 136: 0,00000, 135: 0,00000,
                134: 0,00000, 133: 0,00000, 132: 0,00000, 131: 0,00000, 130: 0,00000, 129: 0,00000, 128: 0,00000, 127: 0,00000,
                126: 0,00000, 125: 0,00000, 124: 0,00000, 123: 0,00000, 122: 0,00000, 121: 0,00000, 120: 0,00000, 119: 0,00000,
                118: 0,00000, 117: 0,00000, 116: 0,00000, 115: 0,00000, 114: 0,00000, 113: 0,00000, 112: 0,00000, 111: 0,00000,
                110: 0,00000, 109: 0,00000, 108: 0,00000, 107: 0,00000, 106: 0,00000, 105: 0,00000, 104: 0,00000, 103: 0,00000,
                102: 0,00000, 101: 0,00000, 100: 0,00000,  99: 0,00000,  98: 0,00000,  97: 0,00000,  96: 0,00000,  95: 0,00000,
                 94: 0,00000,  93: 0,00000,  92: 0,00000,  91: 0,00000,  90: 0,00000,  89: 0,00000,  88: 0,00000,  87: 0,00000,
                 86: 0,00000,  85: 0,00000,  84: 0,00000,  83: 0,00000,  82: 0,00000,  81: 0,00000,  80: 0,00000,  79: 0,00000,
                 78: 0,00000,  77: 0,00000,  76: 0,00000,  75: 0,00000,  74: 0,00000,  73: 0,00000,  72: 0,00000,  71: 0,00000,
                 70: 0,00000,  69: 0,00000,  68: 0,00000,  67: 0,00000,  66: 0,00000,  65: 0,00000,  64: 0,00000,  63: 0,00000,
                 62: 0,00000,  61: 0,00000,  60: 0,00000,  59: 0,00000,  58: 0,00000,  57: 0,00000,  56: 0,00000,  55: 0,00000,
                 54: 0,00000,  53: 0,00000,  52: 0,00000,  51: 0,00000,  50: 0,00000,  49: 0,00000,  48: 0,00000,  47: 0,00000,
                 46: 0,00000,  45: 0,00000,  44: 0,00000,  43: 0,00000,  42: 0,00000,  41: 0,00000,  40: 0,00000,  39: 0,00000,
                 38: 0,00000,  37: 0,00000,  36: 0,00000,  35: 0,00000,  34: 0,00000,  33: 0,00000,  32: 0,00000,  31: 0,00000,
                 30: 0,00000,  29: 0,00000,  28: 0,00000,  27: 0,00000,  26: 0,00000,  25: 0,00000,  24: 0,00000,  23: 0,00000,
                 22: 0,00000,  21: 0,00000,  20: 0,00000,  19: 0,00000,  18: 0,00000,  17: 0,00000,  16: 0,00000,  15: 0,00000,
                 14: 0,00000,  13: 0,00000,  12: 0,00000,  11: 0,00000,  10: 0,00000,   9: 0,00000,   8: 0,00000,   7: 0,00000,
                  6: 0,00000,   5: 0,00000,   4: 0,00000,   3: 0,00000,   2: 0,00000,   1: 0,00000
   164 |      | 150: 0,00000, 149: 0,00000, 148: 0,00000, 147: 0,00000, 146: 0,00000, 145: 0,00000, 144: 0,00000, 143: 0,00000,
                142: 0,00000, 141: 0,00000, 140: 0,00000, 139: 0,00000, 138: 0,00000, 137: 0,00000, 136: 0,00000, 135: 0,00000,
                134: 0,00000, 133: 0,00000, 132: 0,00000, 131: 0,00000, 130: 0,00000, 129: 0,00000, 128: 0,00000, 127: 0,00000,
                126: 0,00000, 125: 0,00000, 124: 0,00000, 123: 0,00000, 122: 0,00000, 121: 0,00000, 120: 0,00000, 119: 0,00000,
                118: 0,00000, 117: 0,00000, 116: 0,00000, 115: 0,00000, 114: 0,00000, 113: 0,00000, 112: 0,00000, 111: 0,00000,
                110: 0,00000, 109: 0,00000, 108: 0,00000, 107: 0,00000, 106: 0,00000, 105: 0,00000, 104: 0,00000, 103: 0,00000,
                102: 0,00000, 101: 0,00000, 100: 0,00000,  99: 0,00000,  98: 0,00000,  97: 0,00000,  96: 0,00000,  95: 0,00000,
                 94: 0,00000,  93: 0,00000,  92: 0,00000,  91: 0,00000,  90: 0,00000,  89: 0,00000,  88: 0,00000,  87: 0,00000,
                 86: 0,00000,  85: 0,00000,  84: 0,00000,  83: 0,00000,  82: 0,00000,  81: 0,00000,  80: 0,00000,  79: 0,00000,
                 78: 0,00000,  77: 0,00000,  76: 0,00000,  75: 0,00000,  74: 0,00000,  73: 0,00000,  72: 0,00000,  71: 0,00000,
                 70: 0,00000,  69: 0,00000,  68: 0,00000,  67: 0,00000,  66: 0,00000,  65: 0,00000,  64: 0,00000,  63: 0,00000,
                 62: 0,00000,  61: 0,00000,  60: 0,00000,  59: 0,00000,  58: 0,00000,  57: 0,00000,  56: 0,00000,  55: 0,00000,
                 54: 0,00000,  53: 0,00000,  52: 0,00000,  51: 0,00000,  50: 0,00000,  49: 0,00000,  48: 0,00000,  47: 0,00000,
                 46: 0,00000,  45: 0,00000,  44: 0,00000,  43: 0,00000,  42: 0,00000,  41: 0,00000,  40: 0,00000,  39: 0,00000,
                 38: 0,00000,  37: 0,00000,  36: 0,00000,  35: 0,00000,  34: 0,00000,  33: 0,00000,  32: 0,00000,  31: 0,00000,
                 30: 0,00000,  29: 0,00000,  28: 0,00000,  27: 0,00000,  26: 0,00000,  25: 0,00000,  24: 0,00000,  23: 0,00000,
                 22: 0,00000,  21: 0,00000,  20: 0,00000,  19: 0,00000,  18: 0,00000,  17: 0,00000,  16: 0,00000,  15: 0,00000,
                 14: 0,00000,  13: 0,00000,  12: 0,00000,  11: 0,00000,  10: 0,00000,   9: 0,00000,   8: 0,00000,   7: 0,00000,
                  6: 0,00000,   5: 0,00000,   4: 0,00000,   3: 0,00000,   2: 0,00000,   1: 0,00000
   165 |      | 150: 0,00000, 149: 0,00000, 148: 0,00000, 147: 0,00000, 146: 0,00000, 145: 0,00000, 144: 0,00000, 143: 0,00000,
                142: 0,00000, 141: 0,00000, 140: 0,00000, 139: 0,00000, 138: 0,00000, 137: 0,00000, 136: 0,00000, 135: 0,00000,
                134: 0,00000, 133: 0,00000, 132: 0,00000, 131: 0,00000, 130: 0,00000, 129: 0,00000, 128: 0,00000, 127: 0,00000,
                126: 0,00000, 125: 0,00000, 124: 0,00000, 123: 0,00000, 122: 0,00000, 121: 0,00000, 120: 0,00000, 119: 0,00000,
                118: 0,00000, 117: 0,00000, 116: 0,00000, 115: 0,00000, 114: 0,00000, 113: 0,00000, 112: 0,00000, 111: 0,00000,
                110: 0,00000, 109: 0,00000, 108: 0,00000, 107: 0,00000, 106: 0,00000, 105: 0,00000, 104: 0,00000, 103: 0,00000,
                102: 0,00000, 101: 0,00000, 100: 0,00000,  99: 0,00000,  98: 0,00000,  97: 0,00000,  96: 0,00000,  95: 0,00000,
                 94: 0,00000,  93: 0,00000,  92: 0,00000,  91: 0,00000,  90: 0,00000,  89: 0,00000,  88: 0,00000,  87: 0,00000,
                 86: 0,00000,  85: 0,00000,  84: 0,00000,  83: 0,00000,  82: 0,00000,  81: 0,00000,  80: 0,00000,  79: 0,00000,
                 78: 0,00000,  77: 0,00000,  76: 0,00000,  75: 0,00000,  74: 0,00000,  73: 0,00000,  72: 0,00000,  71: 0,00000,
                 70: 0,00000,  69: 0,00000,  68: 0,00000,  67: 0,00000,  66: 0,00000,  65: 0,00000,  64: 0,00000,  63: 0,00000,
                 62: 0,00000,  61: 0,00000,  60: 0,00000,  59: 0,00000,  58: 0,00000,  57: 0,00000,  56: 0,00000,  55: 0,00000,
                 54: 0,00000,  53: 0,00000,  52: 0,00000,  51: 0,00000,  50: 0,00000,  49: 0,00000,  48: 0,00000,  47: 0,00000,
                 46: 0,00000,  45: 0,00000,  44: 0,00000,  43: 0,00000,  42: 0,00000,  41: 0,00000,  40: 0,00000,  39: 0,00000,
                 38: 0,00000,  37: 0,00000,  36: 0,00000,  35: 0,00000,  34: 0,00000,  33: 0,00000,  32: 0,00000,  31: 0,00000,
                 30: 0,00000,  29: 0,00000,  28: 0,00000,  27: 0,00000,  26: 0,00000,  25: 0,00000,  24: 0,00000,  23: 0,00000,
                 22: 0,00000,  21: 0,00000,  20: 0,00000,  19: 0,00000,  18: 0,00000,  17: 0,00000,  16: 0,00000,  15: 0,00000,
                 14: 0,00000,  13: 0,00000,  12: 0,00000,  11: 0,00000,  10: 0,00000,   9: 0,00000,   8: 0,00000,   7: 0,00000,
                  6: 0,00000,   5: 0,00000,   4: 0,00000,   3: 0,00000,   2: 0,00000,   1: 0,00000
   166 |      | 150: 0,00000, 149: 0,00000, 148: 0,00000, 147: 0,00000, 146: 0,00000, 145: 0,00000, 144: 0,00000, 143: 0,00000,
                142: 0,00000, 141: 0,00000, 140: 0,00000, 139: 0,00000, 138: 0,00000, 137: 0,00000, 136: 0,00000, 135: 0,00000,
                134: 0,00000, 133: 0,00000, 132: 0,00000, 131: 0,00000, 130: 0,00000, 129: 0,00000, 128: 0,00000, 127: 0,00000,
                126: 0,00000, 125: 0,00000, 124: 0,00000, 123: 0,00000, 122: 0,00000, 121: 0,00000, 120: 0,00000, 119: 0,00000,
                118: 0,00000, 117: 0,00000, 116: 0,00000, 115: 0,00000, 114: 0,00000, 113: 0,00000, 112: 0,00000, 111: 0,00000,
                110: 0,00000, 109: 0,00000, 108: 0,00000, 107: 0,00000, 106: 0,00000, 105: 0,00000, 104: 0,00000, 103: 0,00000,
                102: 0,00000, 101: 0,00000, 100: 0,00000,  99: 0,00000,  98: 0,00000,  97: 0,00000,  96: 0,00000,  95: 0,00000,
                 94: 0,00000,  93: 0,00000,  92: 0,00000,  91: 0,00000,  90: 0,00000,  89: 0,00000,  88: 0,00000,  87: 0,00000,
                 86: 0,00000,  85: 0,00000,  84: 0,00000,  83: 0,00000,  82: 0,00000,  81: 0,00000,  80: 0,00000,  79: 0,00000,
                 78: 0,00000,  77: 0,00000,  76: 0,00000,  75: 0,00000,  74: 0,00000,  73: 0,00000,  72: 0,00000,  71: 0,00000,
                 70: 0,00000,  69: 0,00000,  68: 0,00000,  67: 0,00000,  66: 0,00000,  65: 0,00000,  64: 0,00000,  63: 0,00000,
                 62: 0,00000,  61: 0,00000,  60: 0,00000,  59: 0,00000,  58: 0,00000,  57: 0,00000,  56: 0,00000,  55: 0,00000,
                 54: 0,00000,  53: 0,00000,  52: 0,00000,  51: 0,00000,  50: 0,00000,  49: 0,00000,  48: 0,00000,  47: 0,00000,
                 46: 0,00000,  45: 0,00000,  44: 0,00000,  43: 0,00000,  42: 0,00000,  41: 0,00000,  40: 0,00000,  39: 0,00000,
                 38: 0,00000,  37: 0,00000,  36: 0,00000,  35: 0,00000,  34: 0,00000,  33: 0,00000,  32: 0,00000,  31: 0,00000,
                 30: 0,00000,  29: 0,00000,  28: 0,00000,  27: 0,00000,  26: 0,00000,  25: 0,00000,  24: 0,00000,  23: 0,00000,
                 22: 0,00000,  21: 0,00000,  20: 0,00000,  19: 0,00000,  18: 0,00000,  17: 0,00000,  16: 0,00000,  15: 0,00000,
                 14: 0,00000,  13: 0,00000,  12: 0,00000,  11: 0,00000,  10: 0,00000,   9: 0,00000,   8: 0,00000,   7: 0,00000,
                  6: 0,00000,   5: 0,00000,   4: 0,00000,   3: 0,00000,   2: 0,00000,   1: 0,00000
   167 |      | 150: 0,00000, 149: 0,00000, 148: 0,00000, 147: 0,00000, 146: 0,00000, 145: 0,00000, 144: 0,00000, 143: 0,00000,
                142: 0,00000, 141: 0,00000, 140: 0,00000, 139: 0,00000, 138: 0,00000, 137: 0,00000, 136: 0,00000, 135: 0,00000,
                134: 0,00000, 133: 0,00000, 132: 0,00000, 131: 0,00000, 130: 0,00000, 129: 0,00000, 128: 0,00000, 127: 0,00000,
                126: 0,00000, 125: 0,00000, 124: 0,00000, 123: 0,00000, 122: 0,00000, 121: 0,00000, 120: 0,00000, 119: 0,00000,
                118: 0,00000, 117: 0,00000, 116: 0,00000, 115: 0,00000, 114: 0,00000, 113: 0,00000, 112: 0,00000, 111: 0,00000,
                110: 0,00000, 109: 0,00000, 108: 0,00000, 107: 0,00000, 106: 0,00000, 105: 0,00000, 104: 0,00000, 103: 0,00000,
                102: 0,00000, 101: 0,00000, 100: 0,00000,  99: 0,00000,  98: 0,00000,  97: 0,00000,  96: 0,00000,  95: 0,00000,
                 94: 0,00000,  93: 0,00000,  92: 0,00000,  91: 0,00000,  90: 0,00000,  89: 0,00000,  88: 0,00000,  87: 0,00000,
                 86: 0,00000,  85: 0,00000,  84: 0,00000,  83: 0,00000,  82: 0,00000,  81: 0,00000,  80: 0,00000,  79: 0,00000,
                 78: 0,00000,  77: 0,00000,  76: 0,00000,  75: 0,00000,  74: 0,00000,  73: 0,00000,  72: 0,00000,  71: 0,00000,
                 70: 0,00000,  69: 0,00000,  68: 0,00000,  67: 0,00000,  66: 0,00000,  65: 0,00000,  64: 0,00000,  63: 0,00000,
                 62: 0,00000,  61: 0,00000,  60: 0,00000,  59: 0,00000,  58: 0,00000,  57: 0,00000,  56: 0,00000,  55: 0,00000,
                 54: 0,00000,  53: 0,00000,  52: 0,00000,  51: 0,00000,  50: 0,00000,  49: 0,00000,  48: 0,00000,  47: 0,00000,
                 46: 0,00000,  45: 0,00000,  44: 0,00000,  43: 0,00000,  42: 0,00000,  41: 0,00000,  40: 0,00000,  39: 0,00000,
                 38: 0,00000,  37: 0,00000,  36: 0,00000,  35: 0,00000,  34: 0,00000,  33: 0,00000,  32: 0,00000,  31: 0,00000,
                 30: 0,00000,  29: 0,00000,  28: 0,00000,  27: 0,00000,  26: 0,00000,  25: 0,00000,  24: 0,00000,  23: 0,00000,
                 22: 0,00000,  21: 0,00000,  20: 0,00000,  19: 0,00000,  18: 0,00000,  17: 0,00000,  16: 0,00000,  15: 0,00000,
                 14: 0,00000,  13: 0,00000,  12: 0,00000,  11: 0,00000,  10: 0,00000,   9: 0,00000,   8: 0,00000,   7: 0,00000,
                  6: 0,00000,   5: 0,00000,   4: 0,00000,   3: 0,00000,   2: 0,00000,   1: 0,00000
   168 |      | 150: 0,00000, 149: 0,00000, 148: 0,00000, 147: 0,00000, 146: 0,00000, 145: 0,00000, 144: 0,00000, 143: 0,00000,
                142: 0,00000, 141: 0,00000, 140: 0,00000, 139: 0,00000, 138: 0,00000, 137: 0,00000, 136: 0,00000, 135: 0,00000,
                134: 0,00000, 133: 0,00000, 132: 0,00000, 131: 0,00000, 130: 0,00000, 129: 0,00000, 128: 0,00000, 127: 0,00000,
                126: 0,00000, 125: 0,00000, 124: 0,00000, 123: 0,00000, 122: 0,00000, 121: 0,00000, 120: 0,00000, 119: 0,00000,
                118: 0,00000, 117: 0,00000, 116: 0,00000, 115: 0,00000, 114: 0,00000, 113: 0,00000, 112: 0,00000, 111: 0,00000,
                110: 0,00000, 109: 0,00000, 108: 0,00000, 107: 0,00000, 106: 0,00000, 105: 0,00000, 104: 0,00000, 103: 0,00000,
                102: 0,00000, 101: 0,00000, 100: 0,00000,  99: 0,00000,  98: 0,00000,  97: 0,00000,  96: 0,00000,  95: 0,00000,
                 94: 0,00000,  93: 0,00000,  92: 0,00000,  91: 0,00000,  90: 0,00000,  89: 0,00000,  88: 0,00000,  87: 0,00000,
                 86: 0,00000,  85: 0,00000,  84: 0,00000,  83: 0,00000,  82: 0,00000,  81: 0,00000,  80: 0,00000,  79: 0,00000,
                 78: 0,00000,  77: 0,00000,  76: 0,00000,  75: 0,00000,  74: 0,00000,  73: 0,00000,  72: 0,00000,  71: 0,00000,
                 70: 0,00000,  69: 0,00000,  68: 0,00000,  67: 0,00000,  66: 0,00000,  65: 0,00000,  64: 0,00000,  63: 0,00000,
                 62: 0,00000,  61: 0,00000,  60: 0,00000,  59: 0,00000,  58: 0,00000,  57: 0,00000,  56: 0,00000,  55: 0,00000,
                 54: 0,00000,  53: 0,00000,  52: 0,00000,  51: 0,00000,  50: 0,00000,  49: 0,00000,  48: 0,00000,  47: 0,00000,
                 46: 0,00000,  45: 0,00000,  44: 0,00000,  43: 0,00000,  42: 0,00000,  41: 0,00000,  40: 0,00000,  39: 0,00000,
                 38: 0,00000,  37: 0,00000,  36: 0,00000,  35: 0,00000,  34: 0,00000,  33: 0,00000,  32: 0,00000,  31: 0,00000,
                 30: 0,00000,  29: 0,00000,  28: 0,00000,  27: 0,00000,  26: 0,00000,  25: 0,00000,  24: 0,00000,  23: 0,00000,
                 22: 0,00000,  21: 0,00000,  20: 0,00000,  19: 0,00000,  18: 0,00000,  17: 0,00000,  16: 0,00000,  15: 0,00000,
                 14: 0,00000,  13: 0,00000,  12: 0,00000,  11: 0,00000,  10: 0,00000,   9: 0,00000,   8: 0,00000,   7: 0,00000,
                  6: 0,00000,   5: 0,00000,   4: 0,00000,   3: 0,00000,   2: 0,00000,   1: 0,00000
   169 |      | 150: 0,00000, 149: 0,00000, 148: 0,00000, 147: 0,00000, 146: 0,00000, 145: 0,00000, 144: 0,00000, 143: 0,00000,
                142: 0,00000, 141: 0,00000, 140: 0,00000, 139: 0,00000, 138: 0,00000, 137: 0,00000, 136: 0,00000, 135: 0,00000,
                134: 0,00000, 133: 0,00000, 132: 0,00000, 131: 0,00000, 130: 0,00000, 129: 0,00000, 128: 0,00000, 127: 0,00000,
                126: 0,00000, 125: 0,00000, 124: 0,00000, 123: 0,00000, 122: 0,00000, 121: 0,00000, 120: 0,00000, 119: 0,00000,
                118: 0,00000, 117: 0,00000, 116: 0,00000, 115: 0,00000, 114: 0,00000, 113: 0,00000, 112: 0,00000, 111: 0,00000,
                110: 0,00000, 109: 0,00000, 108: 0,00000, 107: 0,00000, 106: 0,00000, 105: 0,00000, 104: 0,00000, 103: 0,00000,
                102: 0,00000, 101: 0,00000, 100: 0,00000,  99: 0,00000,  98: 0,00000,  97: 0,00000,  96: 0,00000,  95: 0,00000,
                 94: 0,00000,  93: 0,00000,  92: 0,00000,  91: 0,00000,  90: 0,00000,  89: 0,00000,  88: 0,00000,  87: 0,00000,
                 86: 0,00000,  85: 0,00000,  84: 0,00000,  83: 0,00000,  82: 0,00000,  81: 0,00000,  80: 0,00000,  79: 0,00000,
                 78: 0,00000,  77: 0,00000,  76: 0,00000,  75: 0,00000,  74: 0,00000,  73: 0,00000,  72: 0,00000,  71: 0,00000,
                 70: 0,00000,  69: 0,00000,  68: 0,00000,  67: 0,00000,  66: 0,00000,  65: 0,00000,  64: 0,00000,  63: 0,00000,
                 62: 0,00000,  61: 0,00000,  60: 0,00000,  59: 0,00000,  58: 0,00000,  57: 0,00000,  56: 0,00000,  55: 0,00000,
                 54: 0,00000,  53: 0,00000,  52: 0,00000,  51: 0,00000,  50: 0,00000,  49: 0,00000,  48: 0,00000,  47: 0,00000,
                 46: 0,00000,  45: 0,00000,  44: 0,00000,  43: 0,00000,  42: 0,00000,  41: 0,00000,  40: 0,00000,  39: 0,00000,
                 38: 0,00000,  37: 0,00000,  36: 0,00000,  35: 0,00000,  34: 0,00000,  33: 0,00000,  32: 0,00000,  31: 0,00000,
                 30: 0,00000,  29: 0,00000,  28: 0,00000,  27: 0,00000,  26: 0,00000,  25: 0,00000,  24: 0,00000,  23: 0,00000,
                 22: 0,00000,  21: 0,00000,  20: 0,00000,  19: 0,00000,  18: 0,00000,  17: 0,00000,  16: 0,00000,  15: 0,00000,
                 14: 0,00000,  13: 0,00000,  12: 0,00000,  11: 0,00000,  10: 0,00000,   9: 0,00000,   8: 0,00000,   7: 0,00000,
                  6: 0,00000,   5: 0,00000,   4: 0,00000,   3: 0,00000,   2: 0,00000,   1: 0,00000
   170 |      | 150: 0,00000, 149: 0,00000, 148: 0,00000, 147: 0,00000, 146: 0,00000, 145: 0,00000, 144: 0,00000, 143: 0,00000,
                142: 0,00000, 141: 0,00000, 140: 0,00000, 139: 0,00000, 138: 0,00000, 137: 0,00000, 136: 0,00000, 135: 0,00000,
                134: 0,00000, 133: 0,00000, 132: 0,00000, 131: 0,00000, 130: 0,00000, 129: 0,00000, 128: 0,00000, 127: 0,00000,
                126: 0,00000, 125: 0,00000, 124: 0,00000, 123: 0,00000, 122: 0,00000, 121: 0,00000, 120: 0,00000, 119: 0,00000,
                118: 0,00000, 117: 0,00000, 116: 0,00000, 115: 0,00000, 114: 0,00000, 113: 0,00000, 112: 0,00000, 111: 0,00000,
                110: 0,00000, 109: 0,00000, 108: 0,00000, 107: 0,00000, 106: 0,00000, 105: 0,00000, 104: 0,00000, 103: 0,00000,
                102: 0,00000, 101: 0,00000, 100: 0,00000,  99: 0,00000,  98: 0,00000,  97: 0,00000,  96: 0,00000,  95: 0,00000,
                 94: 0,00000,  93: 0,00000,  92: 0,00000,  91: 0,00000,  90: 0,00000,  89: 0,00000,  88: 0,00000,  87: 0,00000,
                 86: 0,00000,  85: 0,00000,  84: 0,00000,  83: 0,00000,  82: 0,00000,  81: 0,00000,  80: 0,00000,  79: 0,00000,
                 78: 0,00000,  77: 0,00000,  76: 0,00000,  75: 0,00000,  74: 0,00000,  73: 0,00000,  72: 0,00000,  71: 0,00000,
                 70: 0,00000,  69: 0,00000,  68: 0,00000,  67: 0,00000,  66: 0,00000,  65: 0,00000,  64: 0,00000,  63: 0,00000,
                 62: 0,00000,  61: 0,00000,  60: 0,00000,  59: 0,00000,  58: 0,00000,  57: 0,00000,  56: 0,00000,  55: 0,00000,
                 54: 0,00000,  53: 0,00000,  52: 0,00000,  51: 0,00000,  50: 0,00000,  49: 0,00000,  48: 0,00000,  47: 0,00000,
                 46: 0,00000,  45: 0,00000,  44: 0,00000,  43: 0,00000,  42: 0,00000,  41: 0,00000,  40: 0,00000,  39: 0,00000,
                 38: 0,00000,  37: 0,00000,  36: 0,00000,  35: 0,00000,  34: 0,00000,  33: 0,00000,  32: 0,00000,  31: 0,00000,
                 30: 0,00000,  29: 0,00000,  28: 0,00000,  27: 0,00000,  26: 0,00000,  25: 0,00000,  24: 0,00000,  23: 0,00000,
                 22: 0,00000,  21: 0,00000,  20: 0,00000,  19: 0,00000,  18: 0,00000,  17: 0,00000,  16: 0,00000,  15: 0,00000,
                 14: 0,00000,  13: 0,00000,  12: 0,00000,  11: 0,00000,  10: 0,00000,   9: 0,00000,   8: 0,00000,   7: 0,00000,
                  6: 0,00000,   5: 0,00000,   4: 0,00000,   3: 0,00000,   2: 0,00000,   1: 0,00000
   171 |      | 150: 0,00000, 149: 0,00000, 148: 0,00000, 147: 0,00000, 146: 0,00000, 145: 0,00000, 144: 0,00000, 143: 0,00000,
                142: 0,00000, 141: 0,00000, 140: 0,00000, 139: 0,00000, 138: 0,00000, 137: 0,00000, 136: 0,00000, 135: 0,00000,
                134: 0,00000, 133: 0,00000, 132: 0,00000, 131: 0,00000, 130: 0,00000, 129: 0,00000, 128: 0,00000, 127: 0,00000,
                126: 0,00000, 125: 0,00000, 124: 0,00000, 123: 0,00000, 122: 0,00000, 121: 0,00000, 120: 0,00000, 119: 0,00000,
                118: 0,00000, 117: 0,00000, 116: 0,00000, 115: 0,00000, 114: 0,00000, 113: 0,00000, 112: 0,00000, 111: 0,00000,
                110: 0,00000, 109: 0,00000, 108: 0,00000, 107: 0,00000, 106: 0,00000, 105: 0,00000, 104: 0,00000, 103: 0,00000,
                102: 0,00000, 101: 0,00000, 100: 0,00000,  99: 0,00000,  98: 0,00000,  97: 0,00000,  96: 0,00000,  95: 0,00000,
                 94: 0,00000,  93: 0,00000,  92: 0,00000,  91: 0,00000,  90: 0,00000,  89: 0,00000,  88: 0,00000,  87: 0,00000,
                 86: 0,00000,  85: 0,00000,  84: 0,00000,  83: 0,00000,  82: 0,00000,  81: 0,00000,  80: 0,00000,  79: 0,00000,
                 78: 0,00000,  77: 0,00000,  76: 0,00000,  75: 0,00000,  74: 0,00000,  73: 0,00000,  72: 0,00000,  71: 0,00000,
                 70: 0,00000,  69: 0,00000,  68: 0,00000,  67: 0,00000,  66: 0,00000,  65: 0,00000,  64: 0,00000,  63: 0,00000,
                 62: 0,00000,  61: 0,00000,  60: 0,00000,  59: 0,00000,  58: 0,00000,  57: 0,00000,  56: 0,00000,  55: 0,00000,
                 54: 0,00000,  53: 0,00000,  52: 0,00000,  51: 0,00000,  50: 0,00000,  49: 0,00000,  48: 0,00000,  47: 0,00000,
                 46: 0,00000,  45: 0,00000,  44: 0,00000,  43: 0,00000,  42: 0,00000,  41: 0,00000,  40: 0,00000,  39: 0,00000,
                 38: 0,00000,  37: 0,00000,  36: 0,00000,  35: 0,00000,  34: 0,00000,  33: 0,00000,  32: 0,00000,  31: 0,00000,
                 30: 0,00000,  29: 0,00000,  28: 0,00000,  27: 0,00000,  26: 0,00000,  25: 0,00000,  24: 0,00000,  23: 0,00000,
                 22: 0,00000,  21: 0,00000,  20: 0,00000,  19: 0,00000,  18: 0,00000,  17: 0,00000,  16: 0,00000,  15: 0,00000,
                 14: 0,00000,  13: 0,00000,  12: 0,00000,  11: 0,00000,  10: 0,00000,   9: 0,00000,   8: 0,00000,   7: 0,00000,
                  6: 0,00000,   5: 0,00000,   4: 0,00000,   3: 0,00000,   2: 0,00000,   1: 0,00000
   172 |      | 150: 0,00000, 149: 0,00000, 148: 0,00000, 147: 0,00000, 146: 0,00000, 145: 0,00000, 144: 0,00000, 143: 0,00000,
                142: 0,00000, 141: 0,00000, 140: 0,00000, 139: 0,00000, 138: 0,00000, 137: 0,00000, 136: 0,00000, 135: 0,00000,
                134: 0,00000, 133: 0,00000, 132: 0,00000, 131: 0,00000, 130: 0,00000, 129: 0,00000, 128: 0,00000, 127: 0,00000,
                126: 0,00000, 125: 0,00000, 124: 0,00000, 123: 0,00000, 122: 0,00000, 121: 0,00000, 120: 0,00000, 119: 0,00000,
                118: 0,00000, 117: 0,00000, 116: 0,00000, 115: 0,00000, 114: 0,00000, 113: 0,00000, 112: 0,00000, 111: 0,00000,
                110: 0,00000, 109: 0,00000, 108: 0,00000, 107: 0,00000, 106: 0,00000, 105: 0,00000, 104: 0,00000, 103: 0,00000,
                102: 0,00000, 101: 0,00000, 100: 0,00000,  99: 0,00000,  98: 0,00000,  97: 0,00000,  96: 0,00000,  95: 0,00000,
                 94: 0,00000,  93: 0,00000,  92: 0,00000,  91: 0,00000,  90: 0,00000,  89: 0,00000,  88: 0,00000,  87: 0,00000,
                 86: 0,00000,  85: 0,00000,  84: 0,00000,  83: 0,00000,  82: 0,00000,  81: 0,00000,  80: 0,00000,  79: 0,00000,
                 78: 0,00000,  77: 0,00000,  76: 0,00000,  75: 0,00000,  74: 0,00000,  73: 0,00000,  72: 0,00000,  71: 0,00000,
                 70: 0,00000,  69: 0,00000,  68: 0,00000,  67: 0,00000,  66: 0,00000,  65: 0,00000,  64: 0,00000,  63: 0,00000,
                 62: 0,00000,  61: 0,00000,  60: 0,00000,  59: 0,00000,  58: 0,00000,  57: 0,00000,  56: 0,00000,  55: 0,00000,
                 54: 0,00000,  53: 0,00000,  52: 0,00000,  51: 0,00000,  50: 0,00000,  49: 0,00000,  48: 0,00000,  47: 0,00000,
                 46: 0,00000,  45: 0,00000,  44: 0,00000,  43: 0,00000,  42: 0,00000,  41: 0,00000,  40: 0,00000,  39: 0,00000,
                 38: 0,00000,  37: 0,00000,  36: 0,00000,  35: 0,00000,  34: 0,00000,  33: 0,00000,  32: 0,00000,  31: 0,00000,
                 30: 0,00000,  29: 0,00000,  28: 0,00000,  27: 0,00000,  26: 0,00000,  25: 0,00000,  24: 0,00000,  23: 0,00000,
                 22: 0,00000,  21: 0,00000,  20: 0,00000,  19: 0,00000,  18: 0,00000,  17: 0,00000,  16: 0,00000,  15: 0,00000,
                 14: 0,00000,  13: 0,00000,  12: 0,00000,  11: 0,00000,  10: 0,00000,   9: 0,00000,   8: 0,00000,   7: 0,00000,
                  6: 0,00000,   5: 0,00000,   4: 0,00000,   3: 0,00000,   2: 0,00000,   1: 0,00000
   173 |      | 150: 0,00000, 149: 0,00000, 148: 0,00000, 147: 0,00000, 146: 0,00000, 145: 0,00000, 144: 0,00000, 143: 0,00000,
                142: 0,00000, 141: 0,00000, 140: 0,00000, 139: 0,00000, 138: 0,00000, 137: 0,00000, 136: 0,00000, 135: 0,00000,
                134: 0,00000, 133: 0,00000, 132: 0,00000, 131: 0,00000, 130: 0,00000, 129: 0,00000, 128: 0,00000, 127: 0,00000,
                126: 0,00000, 125: 0,00000, 124: 0,00000, 123: 0,00000, 122: 0,00000, 121: 0,00000, 120: 0,00000, 119: 0,00000,
                118: 0,00000, 117: 0,00000, 116: 0,00000, 115: 0,00000, 114: 0,00000, 113: 0,00000, 112: 0,00000, 111: 0,00000,
                110: 0,00000, 109: 0,00000, 108: 0,00000, 107: 0,00000, 106: 0,00000, 105: 0,00000, 104: 0,00000, 103: 0,00000,
                102: 0,00000, 101: 0,00000, 100: 0,00000,  99: 0,00000,  98: 0,00000,  97: 0,00000,  96: 0,00000,  95: 0,00000,
                 94: 0,00000,  93: 0,00000,  92: 0,00000,  91: 0,00000,  90: 0,00000,  89: 0,00000,  88: 0,00000,  87: 0,00000,
                 86: 0,00000,  85: 0,00000,  84: 0,00000,  83: 0,00000,  82: 0,00000,  81: 0,00000,  80: 0,00000,  79: 0,00000,
                 78: 0,00000,  77: 0,00000,  76: 0,00000,  75: 0,00000,  74: 0,00000,  73: 0,00000,  72: 0,00000,  71: 0,00000,
                 70: 0,00000,  69: 0,00000,  68: 0,00000,  67: 0,00000,  66: 0,00000,  65: 0,00000,  64: 0,00000,  63: 0,00000,
                 62: 0,00000,  61: 0,00000,  60: 0,00000,  59: 0,00000,  58: 0,00000,  57: 0,00000,  56: 0,00000,  55: 0,00000,
                 54: 0,00000,  53: 0,00000,  52: 0,00000,  51: 0,00000,  50: 0,00000,  49: 0,00000,  48: 0,00000,  47: 0,00000,
                 46: 0,00000,  45: 0,00000,  44: 0,00000,  43: 0,00000,  42: 0,00000,  41: 0,00000,  40: 0,00000,  39: 0,00000,
                 38: 0,00000,  37: 0,00000,  36: 0,00000,  35: 0,00000,  34: 0,00000,  33: 0,00000,  32: 0,00000,  31: 0,00000,
                 30: 0,00000,  29: 0,00000,  28: 0,00000,  27: 0,00000,  26: 0,00000,  25: 0,00000,  24: 0,00000,  23: 0,00000,
                 22: 0,00000,  21: 0,00000,  20: 0,00000,  19: 0,00000,  18: 0,00000,  17: 0,00000,  16: 0,00000,  15: 0,00000,
                 14: 0,00000,  13: 0,00000,  12: 0,00000,  11: 0,00000,  10: 0,00000,   9: 0,00000,   8: 0,00000,   7: 0,00000,
                  6: 0,00000,   5: 0,00000,   4: 0,00000,   3: 0,00000,   2: 0,00000,   1: 0,00000
   174 |      | 150: 0,00000, 149: 0,00000, 148: 0,00000, 147: 0,00000, 146: 0,00000, 145: 0,00000, 144: 0,00000, 143: 0,00000,
                142: 0,00000, 141: 0,00000, 140: 0,00000, 139: 0,00000, 138: 0,00000, 137: 0,00000, 136: 0,00000, 135: 0,00000,
                134: 0,00000, 133: 0,00000, 132: 0,00000, 131: 0,00000, 130: 0,00000, 129: 0,00000, 128: 0,00000, 127: 0,00000,
                126: 0,00000, 125: 0,00000, 124: 0,00000, 123: 0,00000, 122: 0,00000, 121: 0,00000, 120: 0,00000, 119: 0,00000,
                118: 0,00000, 117: 0,00000, 116: 0,00000, 115: 0,00000, 114: 0,00000, 113: 0,00000, 112: 0,00000, 111: 0,00000,
                110: 0,00000, 109: 0,00000, 108: 0,00000, 107: 0,00000, 106: 0,00000, 105: 0,00000, 104: 0,00000, 103: 0,00000,
                102: 0,00000, 101: 0,00000, 100: 0,00000,  99: 0,00000,  98: 0,00000,  97: 0,00000,  96: 0,00000,  95: 0,00000,
                 94: 0,00000,  93: 0,00000,  92: 0,00000,  91: 0,00000,  90: 0,00000,  89: 0,00000,  88: 0,00000,  87: 0,00000,
                 86: 0,00000,  85: 0,00000,  84: 0,00000,  83: 0,00000,  82: 0,00000,  81: 0,00000,  80: 0,00000,  79: 0,00000,
                 78: 0,00000,  77: 0,00000,  76: 0,00000,  75: 0,00000,  74: 0,00000,  73: 0,00000,  72: 0,00000,  71: 0,00000,
                 70: 0,00000,  69: 0,00000,  68: 0,00000,  67: 0,00000,  66: 0,00000,  65: 0,00000,  64: 0,00000,  63: 0,00000,
                 62: 0,00000,  61: 0,00000,  60: 0,00000,  59: 0,00000,  58: 0,00000,  57: 0,00000,  56: 0,00000,  55: 0,00000,
                 54: 0,00000,  53: 0,00000,  52: 0,00000,  51: 0,00000,  50: 0,00000,  49: 0,00000,  48: 0,00000,  47: 0,00000,
                 46: 0,00000,  45: 0,00000,  44: 0,00000,  43: 0,00000,  42: 0,00000,  41: 0,00000,  40: 0,00000,  39: 0,00000,
                 38: 0,00000,  37: 0,00000,  36: 0,00000,  35: 0,00000,  34: 0,00000,  33: 0,00000,  32: 0,00000,  31: 0,00000,
                 30: 0,00000,  29: 0,00000,  28: 0,00000,  27: 0,00000,  26: 0,00000,  25: 0,00000,  24: 0,00000,  23: 0,00000,
                 22: 0,00000,  21: 0,00000,  20: 0,00000,  19: 0,00000,  18: 0,00000,  17: 0,00000,  16: 0,00000,  15: 0,00000,
                 14: 0,00000,  13: 0,00000,  12: 0,00000,  11: 0,00000,  10: 0,00000,   9: 0,00000,   8: 0,00000,   7: 0,00000,
                  6: 0,00000,   5: 0,00000,   4: 0,00000,   3: 0,00000,   2: 0,00000,   1: 0,00000
   175 |      | 150: 0,00000, 149: 0,00000, 148: 0,00000, 147: 0,00000, 146: 0,00000, 145: 0,00000, 144: 0,00000, 143: 0,00000,
                142: 0,00000, 141: 0,00000, 140: 0,00000, 139: 0,00000, 138: 0,00000, 137: 0,00000, 136: 0,00000, 135: 0,00000,
                134: 0,00000, 133: 0,00000, 132: 0,00000, 131: 0,00000, 130: 0,00000, 129: 0,00000, 128: 0,00000, 127: 0,00000,
                126: 0,00000, 125: 0,00000, 124: 0,00000, 123: 0,00000, 122: 0,00000, 121: 0,00000, 120: 0,00000, 119: 0,00000,
                118: 0,00000, 117: 0,00000, 116: 0,00000, 115: 0,00000, 114: 0,00000, 113: 0,00000, 112: 0,00000, 111: 0,00000,
                110: 0,00000, 109: 0,00000, 108: 0,00000, 107: 0,00000, 106: 0,00000, 105: 0,00000, 104: 0,00000, 103: 0,00000,
                102: 0,00000, 101: 0,00000, 100: 0,00000,  99: 0,00000,  98: 0,00000,  97: 0,00000,  96: 0,00000,  95: 0,00000,
                 94: 0,00000,  93: 0,00000,  92: 0,00000,  91: 0,00000,  90: 0,00000,  89: 0,00000,  88: 0,00000,  87: 0,00000,
                 86: 0,00000,  85: 0,00000,  84: 0,00000,  83: 0,00000,  82: 0,00000,  81: 0,00000,  80: 0,00000,  79: 0,00000,
                 78: 0,00000,  77: 0,00000,  76: 0,00000,  75: 0,00000,  74: 0,00000,  73: 0,00000,  72: 0,00000,  71: 0,00000,
                 70: 0,00000,  69: 0,00000,  68: 0,00000,  67: 0,00000,  66: 0,00000,  65: 0,00000,  64: 0,00000,  63: 0,00000,
                 62: 0,00000,  61: 0,00000,  60: 0,00000,  59: 0,00000,  58: 0,00000,  57: 0,00000,  56: 0,00000,  55: 0,00000,
                 54: 0,00000,  53: 0,00000,  52: 0,00000,  51: 0,00000,  50: 0,00000,  49: 0,00000,  48: 0,00000,  47: 0,00000,
                 46: 0,00000,  45: 0,00000,  44: 0,00000,  43: 0,00000,  42: 0,00000,  41: 0,00000,  40: 0,00000,  39: 0,00000,
                 38: 0,00000,  37: 0,00000,  36: 0,00000,  35: 0,00000,  34: 0,00000,  33: 0,00000,  32: 0,00000,  31: 0,00000,
                 30: 0,00000,  29: 0,00000,  28: 0,00000,  27: 0,00000,  26: 0,00000,  25: 0,00000,  24: 0,00000,  23: 0,00000,
                 22: 0,00000,  21: 0,00000,  20: 0,00000,  19: 0,00000,  18: 0,00000,  17: 0,00000,  16: 0,00000,  15: 0,00000,
                 14: 0,00000,  13: 0,00000,  12: 0,00000,  11: 0,00000,  10: 0,00000,   9: 0,00000,   8: 0,00000,   7: 0,00000,
                  6: 0,00000,   5: 0,00000,   4: 0,00000,   3: 0,00000,   2: 0,00000,   1: 0,00000
   176 |      | 150: 0,00000, 149: 0,00000, 148: 0,00000, 147: 0,00000, 146: 0,00000, 145: 0,00000, 144: 0,00000, 143: 0,00000,
                142: 0,00000, 141: 0,00000, 140: 0,00000, 139: 0,00000, 138: 0,00000, 137: 0,00000, 136: 0,00000, 135: 0,00000,
                134: 0,00000, 133: 0,00000, 132: 0,00000, 131: 0,00000, 130: 0,00000, 129: 0,00000, 128: 0,00000, 127: 0,00000,
                126: 0,00000, 125: 0,00000, 124: 0,00000, 123: 0,00000, 122: 0,00000, 121: 0,00000, 120: 0,00000, 119: 0,00000,
                118: 0,00000, 117: 0,00000, 116: 0,00000, 115: 0,00000, 114: 0,00000, 113: 0,00000, 112: 0,00000, 111: 0,00000,
                110: 0,00000, 109: 0,00000, 108: 0,00000, 107: 0,00000, 106: 0,00000, 105: 0,00000, 104: 0,00000, 103: 0,00000,
                102: 0,00000, 101: 0,00000, 100: 0,00000,  99: 0,00000,  98: 0,00000,  97: 0,00000,  96: 0,00000,  95: 0,00000,
                 94: 0,00000,  93: 0,00000,  92: 0,00000,  91: 0,00000,  90: 0,00000,  89: 0,00000,  88: 0,00000,  87: 0,00000,
                 86: 0,00000,  85: 0,00000,  84: 0,00000,  83: 0,00000,  82: 0,00000,  81: 0,00000,  80: 0,00000,  79: 0,00000,
                 78: 0,00000,  77: 0,00000,  76: 0,00000,  75: 0,00000,  74: 0,00000,  73: 0,00000,  72: 0,00000,  71: 0,00000,
                 70: 0,00000,  69: 0,00000,  68: 0,00000,  67: 0,00000,  66: 0,00000,  65: 0,00000,  64: 0,00000,  63: 0,00000,
                 62: 0,00000,  61: 0,00000,  60: 0,00000,  59: 0,00000,  58: 0,00000,  57: 0,00000,  56: 0,00000,  55: 0,00000,
                 54: 0,00000,  53: 0,00000,  52: 0,00000,  51: 0,00000,  50: 0,00000,  49: 0,00000,  48: 0,00000,  47: 0,00000,
                 46: 0,00000,  45: 0,00000,  44: 0,00000,  43: 0,00000,  42: 0,00000,  41: 0,00000,  40: 0,00000,  39: 0,00000,
                 38: 0,00000,  37: 0,00000,  36: 0,00000,  35: 0,00000,  34: 0,00000,  33: 0,00000,  32: 0,00000,  31: 0,00000,
                 30: 0,00000,  29: 0,00000,  28: 0,00000,  27: 0,00000,  26: 0,00000,  25: 0,00000,  24: 0,00000,  23: 0,00000,
                 22: 0,00000,  21: 0,00000,  20: 0,00000,  19: 0,00000,  18: 0,00000,  17: 0,00000,  16: 0,00000,  15: 0,00000,
                 14: 0,00000,  13: 0,00000,  12: 0,00000,  11: 0,00000,  10: 0,00000,   9: 0,00000,   8: 0,00000,   7: 0,00000,
                  6: 0,00000,   5: 0,00000,   4: 0,00000,   3: 0,00000,   2: 0,00000,   1: 0,00000
   177 |      | 150: 0,00000, 149: 0,00000, 148: 0,00000, 147: 0,00000, 146: 0,00000, 145: 0,00000, 144: 0,00000, 143: 0,00000,
                142: 0,00000, 141: 0,00000, 140: 0,00000, 139: 0,00000, 138: 0,00000, 137: 0,00000, 136: 0,00000, 135: 0,00000,
                134: 0,00000, 133: 0,00000, 132: 0,00000, 131: 0,00000, 130: 0,00000, 129: 0,00000, 128: 0,00000, 127: 0,00000,
                126: 0,00000, 125: 0,00000, 124: 0,00000, 123: 0,00000, 122: 0,00000, 121: 0,00000, 120: 0,00000, 119: 0,00000,
                118: 0,00000, 117: 0,00000, 116: 0,00000, 115: 0,00000, 114: 0,00000, 113: 0,00000, 112: 0,00000, 111: 0,00000,
                110: 0,00000, 109: 0,00000, 108: 0,00000, 107: 0,00000, 106: 0,00000, 105: 0,00000, 104: 0,00000, 103: 0,00000,
                102: 0,00000, 101: 0,00000, 100: 0,00000,  99: 0,00000,  98: 0,00000,  97: 0,00000,  96: 0,00000,  95: 0,00000,
                 94: 0,00000,  93: 0,00000,  92: 0,00000,  91: 0,00000,  90: 0,00000,  89: 0,00000,  88: 0,00000,  87: 0,00000,
                 86: 0,00000,  85: 0,00000,  84: 0,00000,  83: 0,00000,  82: 0,00000,  81: 0,00000,  80: 0,00000,  79: 0,00000,
                 78: 0,00000,  77: 0,00000,  76: 0,00000,  75: 0,00000,  74: 0,00000,  73: 0,00000,  72: 0,00000,  71: 0,00000,
                 70: 0,00000,  69: 0,00000,  68: 0,00000,  67: 0,00000,  66: 0,00000,  65: 0,00000,  64: 0,00000,  63: 0,00000,
                 62: 0,00000,  61: 0,00000,  60: 0,00000,  59: 0,00000,  58: 0,00000,  57: 0,00000,  56: 0,00000,  55: 0,00000,
                 54: 0,00000,  53: 0,00000,  52: 0,00000,  51: 0,00000,  50: 0,00000,  49: 0,00000,  48: 0,00000,  47: 0,00000,
                 46: 0,00000,  45: 0,00000,  44: 0,00000,  43: 0,00000,  42: 0,00000,  41: 0,00000,  40: 0,00000,  39: 0,00000,
                 38: 0,00000,  37: 0,00000,  36: 0,00000,  35: 0,00000,  34: 0,00000,  33: 0,00000,  32: 0,00000,  31: 0,00000,
                 30: 0,00000,  29: 0,00000,  28: 0,00000,  27: 0,00000,  26: 0,00000,  25: 0,00000,  24: 0,00000,  23: 0,00000,
                 22: 0,00000,  21: 0,00000,  20: 0,00000,  19: 0,00000,  18: 0,00000,  17: 0,00000,  16: 0,00000,  15: 0,00000,
                 14: 0,00000,  13: 0,00000,  12: 0,00000,  11: 0,00000,  10: 0,00000,   9: 0,00000,   8: 0,00000,   7: 0,00000,
                  6: 0,00000,   5: 0,00000,   4: 0,00000,   3: 0,00000,   2: 0,00000,   1: 0,00000
   178 |      | 150: 0,00000, 149: 0,00000, 148: 0,00000, 147: 0,00000, 146: 0,00000, 145: 0,00000, 144: 0,00000, 143: 0,00000,
                142: 0,00000, 141: 0,00000, 140: 0,00000, 139: 0,00000, 138: 0,00000, 137: 0,00000, 136: 0,00000, 135: 0,00000,
                134: 0,00000, 133: 0,00000, 132: 0,00000, 131: 0,00000, 130: 0,00000, 129: 0,00000, 128: 0,00000, 127: 0,00000,
                126: 0,00000, 125: 0,00000, 124: 0,00000, 123: 0,00000, 122: 0,00000, 121: 0,00000, 120: 0,00000, 119: 0,00000,
                118: 0,00000, 117: 0,00000, 116: 0,00000, 115: 0,00000, 114: 0,00000, 113: 0,00000, 112: 0,00000, 111: 0,00000,
                110: 0,00000, 109: 0,00000, 108: 0,00000, 107: 0,00000, 106: 0,00000, 105: 0,00000, 104: 0,00000, 103: 0,00000,
                102: 0,00000, 101: 0,00000, 100: 0,00000,  99: 0,00000,  98: 0,00000,  97: 0,00000,  96: 0,00000,  95: 0,00000,
                 94: 0,00000,  93: 0,00000,  92: 0,00000,  91: 0,00000,  90: 0,00000,  89: 0,00000,  88: 0,00000,  87: 0,00000,
                 86: 0,00000,  85: 0,00000,  84: 0,00000,  83: 0,00000,  82: 0,00000,  81: 0,00000,  80: 0,00000,  79: 0,00000,
                 78: 0,00000,  77: 0,00000,  76: 0,00000,  75: 0,00000,  74: 0,00000,  73: 0,00000,  72: 0,00000,  71: 0,00000,
                 70: 0,00000,  69: 0,00000,  68: 0,00000,  67: 0,00000,  66: 0,00000,  65: 0,00000,  64: 0,00000,  63: 0,00000,
                 62: 0,00000,  61: 0,00000,  60: 0,00000,  59: 0,00000,  58: 0,00000,  57: 0,00000,  56: 0,00000,  55: 0,00000,
                 54: 0,00000,  53: 0,00000,  52: 0,00000,  51: 0,00000,  50: 0,00000,  49: 0,00000,  48: 0,00000,  47: 0,00000,
                 46: 0,00000,  45: 0,00000,  44: 0,00000,  43: 0,00000,  42: 0,00000,  41: 0,00000,  40: 0,00000,  39: 0,00000,
                 38: 0,00000,  37: 0,00000,  36: 0,00000,  35: 0,00000,  34: 0,00000,  33: 0,00000,  32: 0,00000,  31: 0,00000,
                 30: 0,00000,  29: 0,00000,  28: 0,00000,  27: 0,00000,  26: 0,00000,  25: 0,00000,  24: 0,00000,  23: 0,00000,
                 22: 0,00000,  21: 0,00000,  20: 0,00000,  19: 0,00000,  18: 0,00000,  17: 0,00000,  16: 0,00000,  15: 0,00000,
                 14: 0,00000,  13: 0,00000,  12: 0,00000,  11: 0,00000,  10: 0,00000,   9: 0,00000,   8: 0,00000,   7: 0,00000,
                  6: 0,00000,   5: 0,00000,   4: 0,00000,   3: 0,00000,   2: 0,00000,   1: 0,00000
   179 |      | 150: 0,00000, 149: 0,00000, 148: 0,00000, 147: 0,00000, 146: 0,00000, 145: 0,00000, 144: 0,00000, 143: 0,00000,
                142: 0,00000, 141: 0,00000, 140: 0,00000, 139: 0,00000, 138: 0,00000, 137: 0,00000, 136: 0,00000, 135: 0,00000,
                134: 0,00000, 133: 0,00000, 132: 0,00000, 131: 0,00000, 130: 0,00000, 129: 0,00000, 128: 0,00000, 127: 0,00000,
                126: 0,00000, 125: 0,00000, 124: 0,00000, 123: 0,00000, 122: 0,00000, 121: 0,00000, 120: 0,00000, 119: 0,00000,
                118: 0,00000, 117: 0,00000, 116: 0,00000, 115: 0,00000, 114: 0,00000, 113: 0,00000, 112: 0,00000, 111: 0,00000,
                110: 0,00000, 109: 0,00000, 108: 0,00000, 107: 0,00000, 106: 0,00000, 105: 0,00000, 104: 0,00000, 103: 0,00000,
                102: 0,00000, 101: 0,00000, 100: 0,00000,  99: 0,00000,  98: 0,00000,  97: 0,00000,  96: 0,00000,  95: 0,00000,
                 94: 0,00000,  93: 0,00000,  92: 0,00000,  91: 0,00000,  90: 0,00000,  89: 0,00000,  88: 0,00000,  87: 0,00000,
                 86: 0,00000,  85: 0,00000,  84: 0,00000,  83: 0,00000,  82: 0,00000,  81: 0,00000,  80: 0,00000,  79: 0,00000,
                 78: 0,00000,  77: 0,00000,  76: 0,00000,  75: 0,00000,  74: 0,00000,  73: 0,00000,  72: 0,00000,  71: 0,00000,
                 70: 0,00000,  69: 0,00000,  68: 0,00000,  67: 0,00000,  66: 0,00000,  65: 0,00000,  64: 0,00000,  63: 0,00000,
                 62: 0,00000,  61: 0,00000,  60: 0,00000,  59: 0,00000,  58: 0,00000,  57: 0,00000,  56: 0,00000,  55: 0,00000,
                 54: 0,00000,  53: 0,00000,  52: 0,00000,  51: 0,00000,  50: 0,00000,  49: 0,00000,  48: 0,00000,  47: 0,00000,
                 46: 0,00000,  45: 0,00000,  44: 0,00000,  43: 0,00000,  42: 0,00000,  41: 0,00000,  40: 0,00000,  39: 0,00000,
                 38: 0,00000,  37: 0,00000,  36: 0,00000,  35: 0,00000,  34: 0,00000,  33: 0,00000,  32: 0,00000,  31: 0,00000,
                 30: 0,00000,  29: 0,00000,  28: 0,00000,  27: 0,00000,  26: 0,00000,  25: 0,00000,  24: 0,00000,  23: 0,00000,
                 22: 0,00000,  21: 0,00000,  20: 0,00000,  19: 0,00000,  18: 0,00000,  17: 0,00000,  16: 0,00000,  15: 0,00000,
                 14: 0,00000,  13: 0,00000,  12: 0,00000,  11: 0,00000,  10: 0,00000,   9: 0,00000,   8: 0,00000,   7: 0,00000,
                  6: 0,00000,   5: 0,00000,   4: 0,00000,   3: 0,00000,   2: 0,00000,   1: 0,00000
   180 |      | 150: 0,00000, 149: 0,00000, 148: 0,00000, 147: 0,00000, 146: 0,00000, 145: 0,00000, 144: 0,00000, 143: 0,00000,
                142: 0,00000, 141: 0,00000, 140: 0,00000, 139: 0,00000, 138: 0,00000, 137: 0,00000, 136: 0,00000, 135: 0,00000,
                134: 0,00000, 133: 0,00000, 132: 0,00000, 131: 0,00000, 130: 0,00000, 129: 0,00000, 128: 0,00000, 127: 0,00000,
                126: 0,00000, 125: 0,00000, 124: 0,00000, 123: 0,00000, 122: 0,00000, 121: 0,00000, 120: 0,00000, 119: 0,00000,
                118: 0,00000, 117: 0,00000, 116: 0,00000, 115: 0,00000, 114: 0,00000, 113: 0,00000, 112: 0,00000, 111: 0,00000,
                110: 0,00000, 109: 0,00000, 108: 0,00000, 107: 0,00000, 106: 0,00000, 105: 0,00000, 104: 0,00000, 103: 0,00000,
                102: 0,00000, 101: 0,00000, 100: 0,00000,  99: 0,00000,  98: 0,00000,  97: 0,00000,  96: 0,00000,  95: 0,00000,
                 94: 0,00000,  93: 0,00000,  92: 0,00000,  91: 0,00000,  90: 0,00000,  89: 0,00000,  88: 0,00000,  87: 0,00000,
                 86: 0,00000,  85: 0,00000,  84: 0,00000,  83: 0,00000,  82: 0,00000,  81: 0,00000,  80: 0,00000,  79: 0,00000,
                 78: 0,00000,  77: 0,00000,  76: 0,00000,  75: 0,00000,  74: 0,00000,  73: 0,00000,  72: 0,00000,  71: 0,00000,
                 70: 0,00000,  69: 0,00000,  68: 0,00000,  67: 0,00000,  66: 0,00000,  65: 0,00000,  64: 0,00000,  63: 0,00000,
                 62: 0,00000,  61: 0,00000,  60: 0,00000,  59: 0,00000,  58: 0,00000,  57: 0,00000,  56: 0,00000,  55: 0,00000,
                 54: 0,00000,  53: 0,00000,  52: 0,00000,  51: 0,00000,  50: 0,00000,  49: 0,00000,  48: 0,00000,  47: 0,00000,
                 46: 0,00000,  45: 0,00000,  44: 0,00000,  43: 0,00000,  42: 0,00000,  41: 0,00000,  40: 0,00000,  39: 0,00000,
                 38: 0,00000,  37: 0,00000,  36: 0,00000,  35: 0,00000,  34: 0,00000,  33: 0,00000,  32: 0,00000,  31: 0,00000,
                 30: 0,00000,  29: 0,00000,  28: 0,00000,  27: 0,00000,  26: 0,00000,  25: 0,00000,  24: 0,00000,  23: 0,00000,
                 22: 0,00000,  21: 0,00000,  20: 0,00000,  19: 0,00000,  18: 0,00000,  17: 0,00000,  16: 0,00000,  15: 0,00000,
                 14: 0,00000,  13: 0,00000,  12: 0,00000,  11: 0,00000,  10: 0,00000,   9: 0,00000,   8: 0,00000,   7: 0,00000,
                  6: 0,00000,   5: 0,00000,   4: 0,00000,   3: 0,00000,   2: 0,00000,   1: 0,00000
   181 |      | 150: 0,00000, 149: 0,00000, 148: 0,00000, 147: 0,00000, 146: 0,00000, 145: 0,00000, 144: 0,00000, 143: 0,00000,
                142: 0,00000, 141: 0,00000, 140: 0,00000, 139: 0,00000, 138: 0,00000, 137: 0,00000, 136: 0,00000, 135: 0,00000,
                134: 0,00000, 133: 0,00000, 132: 0,00000, 131: 0,00000, 130: 0,00000, 129: 0,00000, 128: 0,00000, 127: 0,00000,
                126: 0,00000, 125: 0,00000, 124: 0,00000, 123: 0,00000, 122: 0,00000, 121: 0,00000, 120: 0,00000, 119: 0,00000,
                118: 0,00000, 117: 0,00000, 116: 0,00000, 115: 0,00000, 114: 0,00000, 113: 0,00000, 112: 0,00000, 111: 0,00000,
                110: 0,00000, 109: 0,00000, 108: 0,00000, 107: 0,00000, 106: 0,00000, 105: 0,00000, 104: 0,00000, 103: 0,00000,
                102: 0,00000, 101: 0,00000, 100: 0,00000,  99: 0,00000,  98: 0,00000,  97: 0,00000,  96: 0,00000,  95: 0,00000,
                 94: 0,00000,  93: 0,00000,  92: 0,00000,  91: 0,00000,  90: 0,00000,  89: 0,00000,  88: 0,00000,  87: 0,00000,
                 86: 0,00000,  85: 0,00000,  84: 0,00000,  83: 0,00000,  82: 0,00000,  81: 0,00000,  80: 0,00000,  79: 0,00000,
                 78: 0,00000,  77: 0,00000,  76: 0,00000,  75: 0,00000,  74: 0,00000,  73: 0,00000,  72: 0,00000,  71: 0,00000,
                 70: 0,00000,  69: 0,00000,  68: 0,00000,  67: 0,00000,  66: 0,00000,  65: 0,00000,  64: 0,00000,  63: 0,00000,
                 62: 0,00000,  61: 0,00000,  60: 0,00000,  59: 0,00000,  58: 0,00000,  57: 0,00000,  56: 0,00000,  55: 0,00000,
                 54: 0,00000,  53: 0,00000,  52: 0,00000,  51: 0,00000,  50: 0,00000,  49: 0,00000,  48: 0,00000,  47: 0,00000,
                 46: 0,00000,  45: 0,00000,  44: 0,00000,  43: 0,00000,  42: 0,00000,  41: 0,00000,  40: 0,00000,  39: 0,00000,
                 38: 0,00000,  37: 0,00000,  36: 0,00000,  35: 0,00000,  34: 0,00000,  33: 0,00000,  32: 0,00000,  31: 0,00000,
                 30: 0,00000,  29: 0,00000,  28: 0,00000,  27: 0,00000,  26: 0,00000,  25: 0,00000,  24: 0,00000,  23: 0,00000,
                 22: 0,00000,  21: 0,00000,  20: 0,00000,  19: 0,00000,  18: 0,00000,  17: 0,00000,  16: 0,00000,  15: 0,00000,
                 14: 0,00000,  13: 0,00000,  12: 0,00000,  11: 0,00000,  10: 0,00000,   9: 0,00000,   8: 0,00000,   7: 0,00000,
                  6: 0,00000,   5: 0,00000,   4: 0,00000,   3: 0,00000,   2: 0,00000,   1: 0,00000
   182 |      | 150: 0,00000, 149: 0,00000, 148: 0,00000, 147: 0,00000, 146: 0,00000, 145: 0,00000, 144: 0,00000, 143: 0,00000,
                142: 0,00000, 141: 0,00000, 140: 0,00000, 139: 0,00000, 138: 0,00000, 137: 0,00000, 136: 0,00000, 135: 0,00000,
                134: 0,00000, 133: 0,00000, 132: 0,00000, 131: 0,00000, 130: 0,00000, 129: 0,00000, 128: 0,00000, 127: 0,00000,
                126: 0,00000, 125: 0,00000, 124: 0,00000, 123: 0,00000, 122: 0,00000, 121: 0,00000, 120: 0,00000, 119: 0,00000,
                118: 0,00000, 117: 0,00000, 116: 0,00000, 115: 0,00000, 114: 0,00000, 113: 0,00000, 112: 0,00000, 111: 0,00000,
                110: 0,00000, 109: 0,00000, 108: 0,00000, 107: 0,00000, 106: 0,00000, 105: 0,00000, 104: 0,00000, 103: 0,00000,
                102: 0,00000, 101: 0,00000, 100: 0,00000,  99: 0,00000,  98: 0,00000,  97: 0,00000,  96: 0,00000,  95: 0,00000,
                 94: 0,00000,  93: 0,00000,  92: 0,00000,  91: 0,00000,  90: 0,00000,  89: 0,00000,  88: 0,00000,  87: 0,00000,
                 86: 0,00000,  85: 0,00000,  84: 0,00000,  83: 0,00000,  82: 0,00000,  81: 0,00000,  80: 0,00000,  79: 0,00000,
                 78: 0,00000,  77: 0,00000,  76: 0,00000,  75: 0,00000,  74: 0,00000,  73: 0,00000,  72: 0,00000,  71: 0,00000,
                 70: 0,00000,  69: 0,00000,  68: 0,00000,  67: 0,00000,  66: 0,00000,  65: 0,00000,  64: 0,00000,  63: 0,00000,
                 62: 0,00000,  61: 0,00000,  60: 0,00000,  59: 0,00000,  58: 0,00000,  57: 0,00000,  56: 0,00000,  55: 0,00000,
                 54: 0,00000,  53: 0,00000,  52: 0,00000,  51: 0,00000,  50: 0,00000,  49: 0,00000,  48: 0,00000,  47: 0,00000,
                 46: 0,00000,  45: 0,00000,  44: 0,00000,  43: 0,00000,  42: 0,00000,  41: 0,00000,  40: 0,00000,  39: 0,00000,
                 38: 0,00000,  37: 0,00000,  36: 0,00000,  35: 0,00000,  34: 0,00000,  33: 0,00000,  32: 0,00000,  31: 0,00000,
                 30: 0,00000,  29: 0,00000,  28: 0,00000,  27: 0,00000,  26: 0,00000,  25: 0,00000,  24: 0,00000,  23: 0,00000,
                 22: 0,00000,  21: 0,00000,  20: 0,00000,  19: 0,00000,  18: 0,00000,  17: 0,00000,  16: 0,00000,  15: 0,00000,
                 14: 0,00000,  13: 0,00000,  12: 0,00000,  11: 0,00000,  10: 0,00000,   9: 0,00000,   8: 0,00000,   7: 0,00000,
                  6: 0,00000,   5: 0,00000,   4: 0,00000,   3: 0,00000,   2: 0,00000,   1: 0,00000
   183 |      | 150: 0,00000, 149: 0,00000, 148: 0,00000, 147: 0,00000, 146: 0,00000, 145: 0,00000, 144: 0,00000, 143: 0,00000,
                142: 0,00000, 141: 0,00000, 140: 0,00000, 139: 0,00000, 138: 0,00000, 137: 0,00000, 136: 0,00000, 135: 0,00000,
                134: 0,00000, 133: 0,00000, 132: 0,00000, 131: 0,00000, 130: 0,00000, 129: 0,00000, 128: 0,00000, 127: 0,00000,
                126: 0,00000, 125: 0,00000, 124: 0,00000, 123: 0,00000, 122: 0,00000, 121: 0,00000, 120: 0,00000, 119: 0,00000,
                118: 0,00000, 117: 0,00000, 116: 0,00000, 115: 0,00000, 114: 0,00000, 113: 0,00000, 112: 0,00000, 111: 0,00000,
                110: 0,00000, 109: 0,00000, 108: 0,00000, 107: 0,00000, 106: 0,00000, 105: 0,00000, 104: 0,00000, 103: 0,00000,
                102: 0,00000, 101: 0,00000, 100: 0,00000,  99: 0,00000,  98: 0,00000,  97: 0,00000,  96: 0,00000,  95: 0,00000,
                 94: 0,00000,  93: 0,00000,  92: 0,00000,  91: 0,00000,  90: 0,00000,  89: 0,00000,  88: 0,00000,  87: 0,00000,
                 86: 0,00000,  85: 0,00000,  84: 0,00000,  83: 0,00000,  82: 0,00000,  81: 0,00000,  80: 0,00000,  79: 0,00000,
                 78: 0,00000,  77: 0,00000,  76: 0,00000,  75: 0,00000,  74: 0,00000,  73: 0,00000,  72: 0,00000,  71: 0,00000,
                 70: 0,00000,  69: 0,00000,  68: 0,00000,  67: 0,00000,  66: 0,00000,  65: 0,00000,  64: 0,00000,  63: 0,00000,
                 62: 0,00000,  61: 0,00000,  60: 0,00000,  59: 0,00000,  58: 0,00000,  57: 0,00000,  56: 0,00000,  55: 0,00000,
                 54: 0,00000,  53: 0,00000,  52: 0,00000,  51: 0,00000,  50: 0,00000,  49: 0,00000,  48: 0,00000,  47: 0,00000,
                 46: 0,00000,  45: 0,00000,  44: 0,00000,  43: 0,00000,  42: 0,00000,  41: 0,00000,  40: 0,00000,  39: 0,00000,
                 38: 0,00000,  37: 0,00000,  36: 0,00000,  35: 0,00000,  34: 0,00000,  33: 0,00000,  32: 0,00000,  31: 0,00000,
                 30: 0,00000,  29: 0,00000,  28: 0,00000,  27: 0,00000,  26: 0,00000,  25: 0,00000,  24: 0,00000,  23: 0,00000,
                 22: 0,00000,  21: 0,00000,  20: 0,00000,  19: 0,00000,  18: 0,00000,  17: 0,00000,  16: 0,00000,  15: 0,00000,
                 14: 0,00000,  13: 0,00000,  12: 0,00000,  11: 0,00000,  10: 0,00000,   9: 0,00000,   8: 0,00000,   7: 0,00000,
                  6: 0,00000,   5: 0,00000,   4: 0,00000,   3: 0,00000,   2: 0,00000,   1: 0,00000
   184 |      | 150: 0,00000, 149: 0,00000, 148: 0,00000, 147: 0,00000, 146: 0,00000, 145: 0,00000, 144: 0,00000, 143: 0,00000,
                142: 0,00000, 141: 0,00000, 140: 0,00000, 139: 0,00000, 138: 0,00000, 137: 0,00000, 136: 0,00000, 135: 0,00000,
                134: 0,00000, 133: 0,00000, 132: 0,00000, 131: 0,00000, 130: 0,00000, 129: 0,00000, 128: 0,00000, 127: 0,00000,
                126: 0,00000, 125: 0,00000, 124: 0,00000, 123: 0,00000, 122: 0,00000, 121: 0,00000, 120: 0,00000, 119: 0,00000,
                118: 0,00000, 117: 0,00000, 116: 0,00000, 115: 0,00000, 114: 0,00000, 113: 0,00000, 112: 0,00000, 111: 0,00000,
                110: 0,00000, 109: 0,00000, 108: 0,00000, 107: 0,00000, 106: 0,00000, 105: 0,00000, 104: 0,00000, 103: 0,00000,
                102: 0,00000, 101: 0,00000, 100: 0,00000,  99: 0,00000,  98: 0,00000,  97: 0,00000,  96: 0,00000,  95: 0,00000,
                 94: 0,00000,  93: 0,00000,  92: 0,00000,  91: 0,00000,  90: 0,00000,  89: 0,00000,  88: 0,00000,  87: 0,00000,
                 86: 0,00000,  85: 0,00000,  84: 0,00000,  83: 0,00000,  82: 0,00000,  81: 0,00000,  80: 0,00000,  79: 0,00000,
                 78: 0,00000,  77: 0,00000,  76: 0,00000,  75: 0,00000,  74: 0,00000,  73: 0,00000,  72: 0,00000,  71: 0,00000,
                 70: 0,00000,  69: 0,00000,  68: 0,00000,  67: 0,00000,  66: 0,00000,  65: 0,00000,  64: 0,00000,  63: 0,00000,
                 62: 0,00000,  61: 0,00000,  60: 0,00000,  59: 0,00000,  58: 0,00000,  57: 0,00000,  56: 0,00000,  55: 0,00000,
                 54: 0,00000,  53: 0,00000,  52: 0,00000,  51: 0,00000,  50: 0,00000,  49: 0,00000,  48: 0,00000,  47: 0,00000,
                 46: 0,00000,  45: 0,00000,  44: 0,00000,  43: 0,00000,  42: 0,00000,  41: 0,00000,  40: 0,00000,  39: 0,00000,
                 38: 0,00000,  37: 0,00000,  36: 0,00000,  35: 0,00000,  34: 0,00000,  33: 0,00000,  32: 0,00000,  31: 0,00000,
                 30: 0,00000,  29: 0,00000,  28: 0,00000,  27: 0,00000,  26: 0,00000,  25: 0,00000,  24: 0,00000,  23: 0,00000,
                 22: 0,00000,  21: 0,00000,  20: 0,00000,  19: 0,00000,  18: 0,00000,  17: 0,00000,  16: 0,00000,  15: 0,00000,
                 14: 0,00000,  13: 0,00000,  12: 0,00000,  11: 0,00000,  10: 0,00000,   9: 0,00000,   8: 0,00000,   7: 0,00000,
                  6: 0,00000,   5: 0,00000,   4: 0,00000,   3: 0,00000,   2: 0,00000,   1: 0,00000
   185 |      | 150: 0,00000, 149: 0,00000, 148: 0,00000, 147: 0,00000, 146: 0,00000, 145: 0,00000, 144: 0,00000, 143: 0,00000,
                142: 0,00000, 141: 0,00000, 140: 0,00000, 139: 0,00000, 138: 0,00000, 137: 0,00000, 136: 0,00000, 135: 0,00000,
                134: 0,00000, 133: 0,00000, 132: 0,00000, 131: 0,00000, 130: 0,00000, 129: 0,00000, 128: 0,00000, 127: 0,00000,
                126: 0,00000, 125: 0,00000, 124: 0,00000, 123: 0,00000, 122: 0,00000, 121: 0,00000, 120: 0,00000, 119: 0,00000,
                118: 0,00000, 117: 0,00000, 116: 0,00000, 115: 0,00000, 114: 0,00000, 113: 0,00000, 112: 0,00000, 111: 0,00000,
                110: 0,00000, 109: 0,00000, 108: 0,00000, 107: 0,00000, 106: 0,00000, 105: 0,00000, 104: 0,00000, 103: 0,00000,
                102: 0,00000, 101: 0,00000, 100: 0,00000,  99: 0,00000,  98: 0,00000,  97: 0,00000,  96: 0,00000,  95: 0,00000,
                 94: 0,00000,  93: 0,00000,  92: 0,00000,  91: 0,00000,  90: 0,00000,  89: 0,00000,  88: 0,00000,  87: 0,00000,
                 86: 0,00000,  85: 0,00000,  84: 0,00000,  83: 0,00000,  82: 0,00000,  81: 0,00000,  80: 0,00000,  79: 0,00000,
                 78: 0,00000,  77: 0,00000,  76: 0,00000,  75: 0,00000,  74: 0,00000,  73: 0,00000,  72: 0,00000,  71: 0,00000,
                 70: 0,00000,  69: 0,00000,  68: 0,00000,  67: 0,00000,  66: 0,00000,  65: 0,00000,  64: 0,00000,  63: 0,00000,
                 62: 0,00000,  61: 0,00000,  60: 0,00000,  59: 0,00000,  58: 0,00000,  57: 0,00000,  56: 0,00000,  55: 0,00000,
                 54: 0,00000,  53: 0,00000,  52: 0,00000,  51: 0,00000,  50: 0,00000,  49: 0,00000,  48: 0,00000,  47: 0,00000,
                 46: 0,00000,  45: 0,00000,  44: 0,00000,  43: 0,00000,  42: 0,00000,  41: 0,00000,  40: 0,00000,  39: 0,00000,
                 38: 0,00000,  37: 0,00000,  36: 0,00000,  35: 0,00000,  34: 0,00000,  33: 0,00000,  32: 0,00000,  31: 0,00000,
                 30: 0,00000,  29: 0,00000,  28: 0,00000,  27: 0,00000,  26: 0,00000,  25: 0,00000,  24: 0,00000,  23: 0,00000,
                 22: 0,00000,  21: 0,00000,  20: 0,00000,  19: 0,00000,  18: 0,00000,  17: 0,00000,  16: 0,00000,  15: 0,00000,
                 14: 0,00000,  13: 0,00000,  12: 0,00000,  11: 0,00000,  10: 0,00000,   9: 0,00000,   8: 0,00000,   7: 0,00000,
                  6: 0,00000,   5: 0,00000,   4: 0,00000,   3: 0,00000,   2: 0,00000,   1: 0,00000
   186 |      | 150: 0,00000, 149: 0,00000, 148: 0,00000, 147: 0,00000, 146: 0,00000, 145: 0,00000, 144: 0,00000, 143: 0,00000,
                142: 0,00000, 141: 0,00000, 140: 0,00000, 139: 0,00000, 138: 0,00000, 137: 0,00000, 136: 0,00000, 135: 0,00000,
                134: 0,00000, 133: 0,00000, 132: 0,00000, 131: 0,00000, 130: 0,00000, 129: 0,00000, 128: 0,00000, 127: 0,00000,
                126: 0,00000, 125: 0,00000, 124: 0,00000, 123: 0,00000, 122: 0,00000, 121: 0,00000, 120: 0,00000, 119: 0,00000,
                118: 0,00000, 117: 0,00000, 116: 0,00000, 115: 0,00000, 114: 0,00000, 113: 0,00000, 112: 0,00000, 111: 0,00000,
                110: 0,00000, 109: 0,00000, 108: 0,00000, 107: 0,00000, 106: 0,00000, 105: 0,00000, 104: 0,00000, 103: 0,00000,
                102: 0,00000, 101: 0,00000, 100: 0,00000,  99: 0,00000,  98: 0,00000,  97: 0,00000,  96: 0,00000,  95: 0,00000,
                 94: 0,00000,  93: 0,00000,  92: 0,00000,  91: 0,00000,  90: 0,00000,  89: 0,00000,  88: 0,00000,  87: 0,00000,
                 86: 0,00000,  85: 0,00000,  84: 0,00000,  83: 0,00000,  82: 0,00000,  81: 0,00000,  80: 0,00000,  79: 0,00000,
                 78: 0,00000,  77: 0,00000,  76: 0,00000,  75: 0,00000,  74: 0,00000,  73: 0,00000,  72: 0,00000,  71: 0,00000,
                 70: 0,00000,  69: 0,00000,  68: 0,00000,  67: 0,00000,  66: 0,00000,  65: 0,00000,  64: 0,00000,  63: 0,00000,
                 62: 0,00000,  61: 0,00000,  60: 0,00000,  59: 0,00000,  58: 0,00000,  57: 0,00000,  56: 0,00000,  55: 0,00000,
                 54: 0,00000,  53: 0,00000,  52: 0,00000,  51: 0,00000,  50: 0,00000,  49: 0,00000,  48: 0,00000,  47: 0,00000,
                 46: 0,00000,  45: 0,00000,  44: 0,00000,  43: 0,00000,  42: 0,00000,  41: 0,00000,  40: 0,00000,  39: 0,00000,
                 38: 0,00000,  37: 0,00000,  36: 0,00000,  35: 0,00000,  34: 0,00000,  33: 0,00000,  32: 0,00000,  31: 0,00000,
                 30: 0,00000,  29: 0,00000,  28: 0,00000,  27: 0,00000,  26: 0,00000,  25: 0,00000,  24: 0,00000,  23: 0,00000,
                 22: 0,00000,  21: 0,00000,  20: 0,00000,  19: 0,00000,  18: 0,00000,  17: 0,00000,  16: 0,00000,  15: 0,00000,
                 14: 0,00000,  13: 0,00000,  12: 0,00000,  11: 0,00000,  10: 0,00000,   9: 0,00000,   8: 0,00000,   7: 0,00000,
                  6: 0,00000,   5: 0,00000,   4: 0,00000,   3: 0,00000,   2: 0,00000,   1: 0,00000
   187 |      | 150: 0,00000, 149: 0,00000, 148: 0,00000, 147: 0,00000, 146: 0,00000, 145: 0,00000, 144: 0,00000, 143: 0,00000,
                142: 0,00000, 141: 0,00000, 140: 0,00000, 139: 0,00000, 138: 0,00000, 137: 0,00000, 136: 0,00000, 135: 0,00000,
                134: 0,00000, 133: 0,00000, 132: 0,00000, 131: 0,00000, 130: 0,00000, 129: 0,00000, 128: 0,00000, 127: 0,00000,
                126: 0,00000, 125: 0,00000, 124: 0,00000, 123: 0,00000, 122: 0,00000, 121: 0,00000, 120: 0,00000, 119: 0,00000,
                118: 0,00000, 117: 0,00000, 116: 0,00000, 115: 0,00000, 114: 0,00000, 113: 0,00000, 112: 0,00000, 111: 0,00000,
                110: 0,00000, 109: 0,00000, 108: 0,00000, 107: 0,00000, 106: 0,00000, 105: 0,00000, 104: 0,00000, 103: 0,00000,
                102: 0,00000, 101: 0,00000, 100: 0,00000,  99: 0,00000,  98: 0,00000,  97: 0,00000,  96: 0,00000,  95: 0,00000,
                 94: 0,00000,  93: 0,00000,  92: 0,00000,  91: 0,00000,  90: 0,00000,  89: 0,00000,  88: 0,00000,  87: 0,00000,
                 86: 0,00000,  85: 0,00000,  84: 0,00000,  83: 0,00000,  82: 0,00000,  81: 0,00000,  80: 0,00000,  79: 0,00000,
                 78: 0,00000,  77: 0,00000,  76: 0,00000,  75: 0,00000,  74: 0,00000,  73: 0,00000,  72: 0,00000,  71: 0,00000,
                 70: 0,00000,  69: 0,00000,  68: 0,00000,  67: 0,00000,  66: 0,00000,  65: 0,00000,  64: 0,00000,  63: 0,00000,
                 62: 0,00000,  61: 0,00000,  60: 0,00000,  59: 0,00000,  58: 0,00000,  57: 0,00000,  56: 0,00000,  55: 0,00000,
                 54: 0,00000,  53: 0,00000,  52: 0,00000,  51: 0,00000,  50: 0,00000,  49: 0,00000,  48: 0,00000,  47: 0,00000,
                 46: 0,00000,  45: 0,00000,  44: 0,00000,  43: 0,00000,  42: 0,00000,  41: 0,00000,  40: 0,00000,  39: 0,00000,
                 38: 0,00000,  37: 0,00000,  36: 0,00000,  35: 0,00000,  34: 0,00000,  33: 0,00000,  32: 0,00000,  31: 0,00000,
                 30: 0,00000,  29: 0,00000,  28: 0,00000,  27: 0,00000,  26: 0,00000,  25: 0,00000,  24: 0,00000,  23: 0,00000,
                 22: 0,00000,  21: 0,00000,  20: 0,00000,  19: 0,00000,  18: 0,00000,  17: 0,00000,  16: 0,00000,  15: 0,00000,
                 14: 0,00000,  13: 0,00000,  12: 0,00000,  11: 0,00000,  10: 0,00000,   9: 0,00000,   8: 0,00000,   7: 0,00000,
                  6: 0,00000,   5: 0,00000,   4: 0,00000,   3: 0,00000,   2: 0,00000,   1: 0,00000
   188 |      | 150: 0,00000, 149: 0,00000, 148: 0,00000, 147: 0,00000, 146: 0,00000, 145: 0,00000, 144: 0,00000, 143: 0,00000,
                142: 0,00000, 141: 0,00000, 140: 0,00000, 139: 0,00000, 138: 0,00000, 137: 0,00000, 136: 0,00000, 135: 0,00000,
                134: 0,00000, 133: 0,00000, 132: 0,00000, 131: 0,00000, 130: 0,00000, 129: 0,00000, 128: 0,00000, 127: 0,00000,
                126: 0,00000, 125: 0,00000, 124: 0,00000, 123: 0,00000, 122: 0,00000, 121: 0,00000, 120: 0,00000, 119: 0,00000,
                118: 0,00000, 117: 0,00000, 116: 0,00000, 115: 0,00000, 114: 0,00000, 113: 0,00000, 112: 0,00000, 111: 0,00000,
                110: 0,00000, 109: 0,00000, 108: 0,00000, 107: 0,00000, 106: 0,00000, 105: 0,00000, 104: 0,00000, 103: 0,00000,
                102: 0,00000, 101: 0,00000, 100: 0,00000,  99: 0,00000,  98: 0,00000,  97: 0,00000,  96: 0,00000,  95: 0,00000,
                 94: 0,00000,  93: 0,00000,  92: 0,00000,  91: 0,00000,  90: 0,00000,  89: 0,00000,  88: 0,00000,  87: 0,00000,
                 86: 0,00000,  85: 0,00000,  84: 0,00000,  83: 0,00000,  82: 0,00000,  81: 0,00000,  80: 0,00000,  79: 0,00000,
                 78: 0,00000,  77: 0,00000,  76: 0,00000,  75: 0,00000,  74: 0,00000,  73: 0,00000,  72: 0,00000,  71: 0,00000,
                 70: 0,00000,  69: 0,00000,  68: 0,00000,  67: 0,00000,  66: 0,00000,  65: 0,00000,  64: 0,00000,  63: 0,00000,
                 62: 0,00000,  61: 0,00000,  60: 0,00000,  59: 0,00000,  58: 0,00000,  57: 0,00000,  56: 0,00000,  55: 0,00000,
                 54: 0,00000,  53: 0,00000,  52: 0,00000,  51: 0,00000,  50: 0,00000,  49: 0,00000,  48: 0,00000,  47: 0,00000,
                 46: 0,00000,  45: 0,00000,  44: 0,00000,  43: 0,00000,  42: 0,00000,  41: 0,00000,  40: 0,00000,  39: 0,00000,
                 38: 0,00000,  37: 0,00000,  36: 0,00000,  35: 0,00000,  34: 0,00000,  33: 0,00000,  32: 0,00000,  31: 0,00000,
                 30: 0,00000,  29: 0,00000,  28: 0,00000,  27: 0,00000,  26: 0,00000,  25: 0,00000,  24: 0,00000,  23: 0,00000,
                 22: 0,00000,  21: 0,00000,  20: 0,00000,  19: 0,00000,  18: 0,00000,  17: 0,00000,  16: 0,00000,  15: 0,00000,
                 14: 0,00000,  13: 0,00000,  12: 0,00000,  11: 0,00000,  10: 0,00000,   9: 0,00000,   8: 0,00000,   7: 0,00000,
                  6: 0,00000,   5: 0,00000,   4: 0,00000,   3: 0,00000,   2: 0,00000,   1: 0,00000
   189 |      | 150: 0,00000, 149: 0,00000, 148: 0,00000, 147: 0,00000, 146: 0,00000, 145: 0,00000, 144: 0,00000, 143: 0,00000,
                142: 0,00000, 141: 0,00000, 140: 0,00000, 139: 0,00000, 138: 0,00000, 137: 0,00000, 136: 0,00000, 135: 0,00000,
                134: 0,00000, 133: 0,00000, 132: 0,00000, 131: 0,00000, 130: 0,00000, 129: 0,00000, 128: 0,00000, 127: 0,00000,
