SNNS network definition file V1.4-3D
generated at Tue Jun  2 17:33:30 2015

network name : number
source files :
no. of units : 454
no. of connections : 46200
no. of unit types : 0
no. of site types : 0


learning function : Std_Backpropagation
update function   : Topological_Order


unit default section :

act      | bias     | st | subnet | layer | act func     | out func
---------|----------|----|--------|-------|--------------|-------------
 0,00000 |  0,00000 | h  |      0 |     1 | Act_Logistic | Out_Identity 
---------|----------|----|--------|-------|--------------|-------------


unit definition section :

no. | typeName | unitName | act      | bias     | st | position | act func | out func | sites
----|----------|----------|----------|----------|----|----------|----------|----------|-------
  1 |          | noName   | 241,00000 | -0,43056 | i  |  1, 1, 1 |||
  2 |          | noName   | 255,00000 | -0,61997 | i  |  2, 1, 1 |||
  3 |          | noName   | 247,00000 | -0,87621 | i  |  3, 1, 1 |||
  4 |          | noName   | 168,00000 |  0,62619 | i  |  4, 1, 1 |||
  5 |          | noName   | 86,00000 |  0,20342 | i  |  5, 1, 1 |||
  6 |          | noName   | 101,00000 | -0,43506 | i  |  6, 1, 1 |||
  7 |          | noName   | 176,00000 |  0,47063 | i  |  7, 1, 1 |||
  8 |          | noName   | 247,00000 | -0,72360 | i  |  8, 1, 1 |||
  9 |          | noName   | 255,00000 | -0,76818 | i  |  9, 1, 1 |||
 10 |          | noName   | 241,00000 |  0,41657 | i  | 10, 1, 1 |||
 11 |          | noName   | 248,00000 | -0,85454 | i  |  1, 2, 1 |||
 12 |          | noName   | 255,00000 |  0,11971 | i  |  2, 2, 1 |||
 13 |          | noName   | 123,00000 | -0,22480 | i  |  3, 2, 1 |||
 14 |          | noName   |  7,00000 | -0,33743 | i  |  4, 2, 1 |||
 15 |          | noName   |  0,00000 | -0,11167 | i  |  5, 2, 1 |||
 16 |          | noName   |  0,00000 | -0,15627 | i  |  6, 2, 1 |||
 17 |          | noName   |  2,00000 |  0,10251 | i  |  7, 2, 1 |||
 18 |          | noName   | 212,00000 | -0,05097 | i  |  8, 2, 1 |||
 19 |          | noName   | 255,00000 |  0,20338 | i  |  9, 2, 1 |||
 20 |          | noName   | 248,00000 |  0,26068 | i  | 10, 2, 1 |||
 21 |          | noName   | 246,00000 |  0,90885 | i  |  1, 3, 1 |||
 22 |          | noName   | 209,00000 | -0,19684 | i  |  2, 3, 1 |||
 23 |          | noName   |  0,00000 | -0,67193 | i  |  3, 3, 1 |||
 24 |          | noName   |  0,00000 |  0,36357 | i  |  4, 3, 1 |||
 25 |          | noName   | 72,00000 | -0,40250 | i  |  5, 3, 1 |||
 26 |          | noName   | 70,00000 | -0,76853 | i  |  6, 3, 1 |||
 27 |          | noName   |  4,00000 |  0,48314 | i  |  7, 3, 1 |||
 28 |          | noName   | 39,00000 | -0,30570 | i  |  8, 3, 1 |||
 29 |          | noName   | 243,00000 |  0,32953 | i  |  9, 3, 1 |||
 30 |          | noName   | 243,00000 | -0,34303 | i  | 10, 3, 1 |||
 31 |          | noName   | 240,00000 | -0,19757 | i  |  1, 4, 1 |||
 32 |          | noName   | 87,00000 |  0,94761 | i  |  2, 4, 1 |||
 33 |          | noName   |  0,00000 | -0,98482 | i  |  3, 4, 1 |||
 34 |          | noName   | 139,00000 | -0,33981 | i  |  4, 4, 1 |||
 35 |          | noName   | 220,00000 | -0,18943 | i  |  5, 4, 1 |||
 36 |          | noName   | 225,00000 | -0,51815 | i  |  6, 4, 1 |||
 37 |          | noName   | 56,00000 | -0,79474 | i  |  7, 4, 1 |||
 38 |          | noName   |  0,00000 | -0,58522 | i  |  8, 4, 1 |||
 39 |          | noName   | 195,00000 | -0,41706 | i  |  9, 4, 1 |||
 40 |          | noName   | 247,00000 | -0,58740 | i  | 10, 4, 1 |||
 41 |          | noName   | 219,00000 | -0,67865 | i  |  1, 5, 1 |||
 42 |          | noName   |  0,00000 |  0,92870 | i  |  2, 5, 1 |||
 43 |          | noName   | 44,00000 | -0,37795 | i  |  3, 5, 1 |||
 44 |          | noName   | 255,00000 | -0,44349 | i  |  4, 5, 1 |||
 45 |          | noName   | 255,00000 | -0,18189 | i  |  5, 5, 1 |||
 46 |          | noName   | 255,00000 |  0,87269 | i  |  6, 5, 1 |||
 47 |          | noName   | 120,00000 | -0,23639 | i  |  7, 5, 1 |||
 48 |          | noName   |  0,00000 | -0,21714 | i  |  8, 5, 1 |||
 49 |          | noName   | 73,00000 | -0,16505 | i  |  9, 5, 1 |||
 50 |          | noName   | 237,00000 |  0,58969 | i  | 10, 5, 1 |||
 51 |          | noName   | 212,00000 | -0,76683 | i  |  1, 6, 1 |||
 52 |          | noName   |  0,00000 |  0,71110 | i  |  2, 6, 1 |||
 53 |          | noName   | 99,00000 | -0,54151 | i  |  3, 6, 1 |||
 54 |          | noName   | 255,00000 | -0,94805 | i  |  4, 6, 1 |||
 55 |          | noName   | 255,00000 | -0,63263 | i  |  5, 6, 1 |||
 56 |          | noName   | 255,00000 |  0,33866 | i  |  6, 6, 1 |||
 57 |          | noName   | 218,00000 |  0,82886 | i  |  7, 6, 1 |||
 58 |          | noName   | 34,00000 | -0,68058 | i  |  8, 6, 1 |||
 59 |          | noName   |  0,00000 | -0,04410 | i  |  9, 6, 1 |||
 60 |          | noName   | 208,00000 | -0,45163 | i  | 10, 6, 1 |||
 61 |          | noName   | 208,00000 |  0,58528 | i  |  1, 7, 1 |||
 62 |          | noName   |  0,00000 | -0,76403 | i  |  2, 7, 1 |||
 63 |          | noName   | 171,00000 | -0,98077 | i  |  3, 7, 1 |||
 64 |          | noName   | 255,00000 |  0,76712 | i  |  4, 7, 1 |||
 65 |          | noName   | 255,00000 |  0,32015 | i  |  5, 7, 1 |||
 66 |          | noName   | 254,00000 |  0,49446 | i  |  6, 7, 1 |||
 67 |          | noName   | 255,00000 | -0,11017 | i  |  7, 7, 1 |||
 68 |          | noName   | 75,00000 | -0,15768 | i  |  8, 7, 1 |||
 69 |          | noName   |  0,00000 | -0,78936 | i  |  9, 7, 1 |||
 70 |          | noName   | 213,00000 | -0,84721 | i  | 10, 7, 1 |||
 71 |          | noName   | 145,00000 | -0,60852 | i  |  1, 8, 1 |||
 72 |          | noName   |  1,00000 | -0,22875 | i  |  2, 8, 1 |||
 73 |          | noName   | 179,00000 |  0,39614 | i  |  3, 8, 1 |||
 74 |          | noName   | 255,00000 |  0,56761 | i  |  4, 8, 1 |||
 75 |          | noName   | 254,00000 | -0,19933 | i  |  5, 8, 1 |||
 76 |          | noName   | 255,00000 | -0,16123 | i  |  6, 8, 1 |||
 77 |          | noName   | 255,00000 | -0,80312 | i  |  7, 8, 1 |||
 78 |          | noName   | 63,00000 | -0,56077 | i  |  8, 8, 1 |||
 79 |          | noName   |  0,00000 | -0,87955 | i  |  9, 8, 1 |||
 80 |          | noName   | 212,00000 | -0,64616 | i  | 10, 8, 1 |||
 81 |          | noName   | 142,00000 | -0,69236 | i  |  1, 9, 1 |||
 82 |          | noName   |  0,00000 |  0,16943 | i  |  2, 9, 1 |||
 83 |          | noName   | 136,00000 |  0,40008 | i  |  3, 9, 1 |||
 84 |          | noName   | 255,00000 | -0,83375 | i  |  4, 9, 1 |||
 85 |          | noName   | 255,00000 |  0,69359 | i  |  5, 9, 1 |||
 86 |          | noName   | 253,00000 | -0,50634 | i  |  6, 9, 1 |||
 87 |          | noName   | 255,00000 |  0,70105 | i  |  7, 9, 1 |||
 88 |          | noName   | 67,00000 | -0,08290 | i  |  8, 9, 1 |||
 89 |          | noName   |  0,00000 |  0,25775 | i  |  9, 9, 1 |||
 90 |          | noName   | 213,00000 |  0,86364 | i  | 10, 9, 1 |||
 91 |          | noName   | 203,00000 | -0,44677 | i  |  1,10, 1 |||
 92 |          | noName   |  0,00000 | -0,76681 | i  |  2,10, 1 |||
 93 |          | noName   | 54,00000 |  0,29699 | i  |  3,10, 1 |||
 94 |          | noName   | 255,00000 |  0,35768 | i  |  4,10, 1 |||
 95 |          | noName   | 254,00000 | -0,01564 | i  |  5,10, 1 |||
 96 |          | noName   | 255,00000 | -0,69514 | i  |  6,10, 1 |||
 97 |          | noName   | 219,00000 |  0,32475 | i  |  7,10, 1 |||
 98 |          | noName   | 21,00000 | -0,95104 | i  |  8,10, 1 |||
 99 |          | noName   | 42,00000 |  0,46638 | i  |  9,10, 1 |||
100 |          | noName   | 232,00000 | -0,74500 | i  | 10,10, 1 |||
101 |          | noName   | 228,00000 |  0,67926 | i  |  1,11, 1 |||
102 |          | noName   |  3,00000 | -0,63738 | i  |  2,11, 1 |||
103 |          | noName   |  0,00000 | -0,66481 | i  |  3,11, 1 |||
104 |          | noName   | 123,00000 |  0,96328 | i  |  4,11, 1 |||
105 |          | noName   | 255,00000 | -0,72059 | i  |  5,11, 1 |||
106 |          | noName   | 255,00000 |  0,62742 | i  |  6,11, 1 |||
107 |          | noName   | 129,00000 |  0,74422 | i  |  7,11, 1 |||
108 |          | noName   |  0,00000 |  0,38489 | i  |  8,11, 1 |||
109 |          | noName   | 124,00000 |  0,41439 | i  |  9,11, 1 |||
110 |          | noName   | 248,00000 |  0,93480 | i  | 10,11, 1 |||
111 |          | noName   | 239,00000 |  0,25074 | i  |  1,12, 1 |||
112 |          | noName   | 98,00000 | -0,49280 | i  |  2,12, 1 |||
113 |          | noName   |  0,00000 |  0,19213 | i  |  3,12, 1 |||
114 |          | noName   |  2,00000 | -0,25213 | i  |  4,12, 1 |||
115 |          | noName   | 120,00000 | -0,64249 | i  |  5,12, 1 |||
116 |          | noName   | 153,00000 |  0,81442 | i  |  6,12, 1 |||
117 |          | noName   | 28,00000 |  0,51777 | i  |  7,12, 1 |||
118 |          | noName   |  0,00000 |  0,17457 | i  |  8,12, 1 |||
119 |          | noName   | 188,00000 |  0,29807 | i  |  9,12, 1 |||
120 |          | noName   | 247,00000 |  0,15320 | i  | 10,12, 1 |||
121 |          | noName   | 246,00000 | -0,32744 | i  |  1,13, 1 |||
122 |          | noName   | 212,00000 |  0,18619 | i  |  2,13, 1 |||
123 |          | noName   | 58,00000 |  0,02409 | i  |  3,13, 1 |||
124 |          | noName   |  0,00000 | -0,83453 | i  |  4,13, 1 |||
125 |          | noName   |  0,00000 |  0,82051 | i  |  5,13, 1 |||
126 |          | noName   |  0,00000 |  0,60700 | i  |  6,13, 1 |||
127 |          | noName   |  0,00000 | -0,40271 | i  |  7,13, 1 |||
128 |          | noName   | 61,00000 | -0,28343 | i  |  8,13, 1 |||
129 |          | noName   | 242,00000 | -0,65607 | i  |  9,13, 1 |||
130 |          | noName   | 243,00000 |  0,73738 | i  | 10,13, 1 |||
131 |          | noName   | 248,00000 | -0,71794 | i  |  1,14, 1 |||
132 |          | noName   | 255,00000 |  0,01222 | i  |  2,14, 1 |||
133 |          | noName   | 243,00000 |  0,71546 | i  |  3,14, 1 |||
134 |          | noName   | 61,00000 |  0,84801 | i  |  4,14, 1 |||
135 |          | noName   | 21,00000 | -0,24116 | i  |  5,14, 1 |||
136 |          | noName   | 28,00000 | -0,83152 | i  |  6,14, 1 |||
137 |          | noName   | 71,00000 | -0,27312 | i  |  7,14, 1 |||
138 |          | noName   | 241,00000 |  0,37236 | i  |  8,14, 1 |||
139 |          | noName   | 255,00000 | -0,37855 | i  |  9,14, 1 |||
140 |          | noName   | 248,00000 | -0,04755 | i  | 10,14, 1 |||
141 |          | noName   | 229,00000 | -0,95975 | i  |  1,15, 1 |||
142 |          | noName   | 240,00000 |  0,83779 | i  |  2,15, 1 |||
143 |          | noName   | 243,00000 | -0,82230 | i  |  3,15, 1 |||
144 |          | noName   | 236,00000 | -0,88928 | i  |  4,15, 1 |||
145 |          | noName   | 200,00000 | -0,90803 | i  |  5,15, 1 |||
146 |          | noName   | 248,00000 |  0,85120 | i  |  6,15, 1 |||
147 |          | noName   | 252,00000 |  0,44142 | i  |  7,15, 1 |||
148 |          | noName   | 243,00000 | -0,71046 | i  |  8,15, 1 |||
149 |          | noName   | 241,00000 |  0,90399 | i  |  9,15, 1 |||
150 |          | noName   | 229,00000 |  0,76417 | i  | 10,15, 1 |||
151 |          | noName   |  0,06297 |  0,95709 | o  |  3,17, 1 |||
152 |          | noName   |  0,05233 |  0,74794 | o  |  4,17, 1 |||
153 |          | noName   |  0,00905 | -0,80790 | o  |  5,17, 1 |||
154 |          | noName   |  0,07219 | -0,44228 | o  |  6,17, 1 |||
155 |          | noName   |  0,00000 |  0,57065 | h  | 12, 0, 1 |||
156 |          | noName   |  1,00000 |  0,84993 | h  | 13, 0, 1 |||
157 |          | noName   |  1,00000 | -0,64072 | h  | 14, 0, 1 |||
158 |          | noName   |  0,00000 |  0,32134 | h  | 15, 0, 1 |||
159 |          | noName   |  0,00000 | -0,53118 | h  | 16, 0, 1 |||
160 |          | noName   |  1,00000 | -0,61153 | h  | 17, 0, 1 |||
161 |          | noName   |  1,00000 | -0,58412 | h  | 18, 0, 1 |||
162 |          | noName   |  1,00000 |  0,42913 | h  | 19, 0, 1 |||
163 |          | noName   |  1,00000 | -0,52131 | h  | 20, 0, 1 |||
164 |          | noName   |  0,00000 | -0,17998 | h  | 21, 0, 1 |||
165 |          | noName   |  1,00000 |  0,77494 | h  | 22, 0, 1 |||
166 |          | noName   |  1,00000 | -0,69109 | h  | 23, 0, 1 |||
167 |          | noName   |  0,00000 |  0,64376 | h  | 24, 0, 1 |||
168 |          | noName   |  0,00000 |  0,74189 | h  | 25, 0, 1 |||
169 |          | noName   |  0,00000 |  0,54229 | h  | 26, 0, 1 |||
170 |          | noName   |  1,00000 | -0,28270 | h  | 12, 1, 1 |||
171 |          | noName   |  0,00000 | -0,25723 | h  | 13, 1, 1 |||
172 |          | noName   |  1,00000 |  0,28569 | h  | 14, 1, 1 |||
173 |          | noName   |  0,00000 |  0,58082 | h  | 15, 1, 1 |||
174 |          | noName   |  0,00000 |  0,24925 | h  | 16, 1, 1 |||
175 |          | noName   |  1,00000 |  0,15494 | h  | 17, 1, 1 |||
176 |          | noName   |  0,00000 |  0,95164 | h  | 18, 1, 1 |||
177 |          | noName   |  0,00000 |  0,67413 | h  | 19, 1, 1 |||
178 |          | noName   |  1,00000 | -0,30949 | h  | 20, 1, 1 |||
179 |          | noName   |  0,00000 |  0,09861 | h  | 21, 1, 1 |||
180 |          | noName   |  0,00000 | -0,41163 | h  | 22, 1, 1 |||
181 |          | noName   |  0,00000 | -0,10889 | h  | 23, 1, 1 |||
182 |          | noName   |  0,00000 | -0,62216 | h  | 24, 1, 1 |||
183 |          | noName   |  1,00000 |  0,72961 | h  | 25, 1, 1 |||
184 |          | noName   |  0,00000 |  0,47282 | h  | 26, 1, 1 |||
185 |          | noName   |  0,00000 | -0,21867 | h  | 12, 2, 1 |||
186 |          | noName   |  1,00000 |  0,57524 | h  | 13, 2, 1 |||
187 |          | noName   |  0,00000 |  0,19231 | h  | 14, 2, 1 |||
188 |          | noName   |  0,00000 | -0,62420 | h  | 15, 2, 1 |||
189 |          | noName   |  1,00000 |  0,57661 | h  | 16, 2, 1 |||
190 |          | noName   |  0,00000 |  0,08904 | h  | 17, 2, 1 |||
191 |          | noName   |  1,00000 |  0,38323 | h  | 18, 2, 1 |||
192 |          | noName   |  0,00000 | -0,43476 | h  | 19, 2, 1 |||
193 |          | noName   |  1,00000 |  0,47755 | h  | 20, 2, 1 |||
194 |          | noName   |  0,00000 |  0,24881 | h  | 21, 2, 1 |||
195 |          | noName   |  1,00000 |  0,28279 | h  | 22, 2, 1 |||
196 |          | noName   |  0,00000 |  0,37203 | h  | 23, 2, 1 |||
197 |          | noName   |  0,00000 | -0,15623 | h  | 24, 2, 1 |||
198 |          | noName   |  0,00000 |  0,98492 | h  | 25, 2, 1 |||
199 |          | noName   |  1,00000 |  0,44844 | h  | 26, 2, 1 |||
200 |          | noName   |  1,00000 |  0,91205 | h  | 12, 3, 1 |||
201 |          | noName   |  0,00000 | -0,74511 | h  | 13, 3, 1 |||
202 |          | noName   |  0,00000 | -0,46044 | h  | 14, 3, 1 |||
203 |          | noName   |  0,00000 |  0,19899 | h  | 15, 3, 1 |||
204 |          | noName   |  0,00000 |  0,23056 | h  | 16, 3, 1 |||
205 |          | noName   |  0,00000 | -0,86793 | h  | 17, 3, 1 |||
206 |          | noName   |  1,00000 |  0,78447 | h  | 18, 3, 1 |||
207 |          | noName   |  1,00000 |  0,55530 | h  | 19, 3, 1 |||
208 |          | noName   |  1,00000 |  0,13859 | h  | 20, 3, 1 |||
209 |          | noName   |  1,00000 | -0,83248 | h  | 21, 3, 1 |||
210 |          | noName   |  1,00000 |  0,14126 | h  | 22, 3, 1 |||
211 |          | noName   |  0,00000 |  0,88079 | h  | 23, 3, 1 |||
212 |          | noName   |  0,00000 | -0,30864 | h  | 24, 3, 1 |||
213 |          | noName   |  0,00000 | -0,94578 | h  | 25, 3, 1 |||
214 |          | noName   |  0,00000 |  0,57459 | h  | 26, 3, 1 |||
215 |          | noName   |  0,00000 |  0,97509 | h  | 12, 4, 1 |||
216 |          | noName   |  0,00000 |  0,17977 | h  | 13, 4, 1 |||
217 |          | noName   |  0,00000 | -0,11135 | h  | 14, 4, 1 |||
218 |          | noName   |  0,00000 | -0,56777 | h  | 15, 4, 1 |||
219 |          | noName   |  1,00000 |  0,04615 | h  | 16, 4, 1 |||
220 |          | noName   |  1,00000 |  0,95181 | h  | 17, 4, 1 |||
221 |          | noName   |  0,00000 | -0,32440 | h  | 18, 4, 1 |||
222 |          | noName   |  0,00000 |  0,36168 | h  | 19, 4, 1 |||
223 |          | noName   |  0,00000 |  0,29649 | h  | 20, 4, 1 |||
224 |          | noName   |  1,00000 |  0,85231 | h  | 21, 4, 1 |||
225 |          | noName   |  0,00000 |  0,23147 | h  | 22, 4, 1 |||
226 |          | noName   |  1,00000 |  0,94461 | h  | 23, 4, 1 |||
227 |          | noName   |  1,00000 |  0,92676 | h  | 24, 4, 1 |||
228 |          | noName   |  0,00000 |  0,78857 | h  | 25, 4, 1 |||
229 |          | noName   |  1,00000 |  0,68941 | h  | 26, 4, 1 |||
230 |          | noName   |  0,00000 | -0,18531 | h  | 12, 5, 1 |||
231 |          | noName   |  0,00000 |  0,14731 | h  | 13, 5, 1 |||
232 |          | noName   |  0,00000 | -0,66607 | h  | 14, 5, 1 |||
233 |          | noName   |  0,00000 |  0,07794 | h  | 15, 5, 1 |||
234 |          | noName   |  1,00000 | -0,87793 | h  | 16, 5, 1 |||
235 |          | noName   |  1,00000 | -0,39716 | h  | 17, 5, 1 |||
236 |          | noName   |  1,00000 | -0,46797 | h  | 18, 5, 1 |||
237 |          | noName   |  1,00000 |  0,99096 | h  | 19, 5, 1 |||
238 |          | noName   |  1,00000 |  0,44370 | h  | 20, 5, 1 |||
239 |          | noName   |  1,00000 |  0,60651 | h  | 21, 5, 1 |||
240 |          | noName   |  1,00000 |  0,53477 | h  | 22, 5, 1 |||
241 |          | noName   |  1,00000 | -0,79932 | h  | 23, 5, 1 |||
242 |          | noName   |  0,00000 |  0,33395 | h  | 24, 5, 1 |||
243 |          | noName   |  1,00000 |  0,24284 | h  | 25, 5, 1 |||
244 |          | noName   |  1,00000 | -0,50340 | h  | 26, 5, 1 |||
245 |          | noName   |  1,00000 | -0,21031 | h  | 12, 6, 1 |||
246 |          | noName   |  1,00000 |  0,26754 | h  | 13, 6, 1 |||
247 |          | noName   |  0,00000 |  0,07023 | h  | 14, 6, 1 |||
248 |          | noName   |  1,00000 |  0,56709 | h  | 15, 6, 1 |||
249 |          | noName   |  0,00000 | -0,30871 | h  | 16, 6, 1 |||
250 |          | noName   |  0,00000 |  0,88189 | h  | 17, 6, 1 |||
251 |          | noName   |  0,00000 |  0,51686 | h  | 18, 6, 1 |||
252 |          | noName   |  1,00000 |  0,90988 | h  | 19, 6, 1 |||
253 |          | noName   |  1,00000 | -0,28069 | h  | 20, 6, 1 |||
254 |          | noName   |  1,00000 |  0,24785 | h  | 21, 6, 1 |||
255 |          | noName   |  0,00000 | -0,35750 | h  | 22, 6, 1 |||
256 |          | noName   |  1,00000 | -0,32265 | h  | 23, 6, 1 |||
257 |          | noName   |  1,00000 |  0,62489 | h  | 24, 6, 1 |||
258 |          | noName   |  1,00000 |  0,93947 | h  | 25, 6, 1 |||
259 |          | noName   |  1,00000 | -0,39723 | h  | 26, 6, 1 |||
260 |          | noName   |  0,00000 | -0,23943 | h  | 12, 7, 1 |||
261 |          | noName   |  0,00000 |  0,41665 | h  | 13, 7, 1 |||
262 |          | noName   |  1,00000 |  0,45090 | h  | 14, 7, 1 |||
263 |          | noName   |  1,00000 |  0,61508 | h  | 15, 7, 1 |||
264 |          | noName   |  0,00000 | -0,89934 | h  | 16, 7, 1 |||
265 |          | noName   |  0,00000 |  0,19380 | h  | 17, 7, 1 |||
266 |          | noName   |  0,00000 | -0,99143 | h  | 18, 7, 1 |||
267 |          | noName   |  0,00000 |  0,54227 | h  | 19, 7, 1 |||
268 |          | noName   |  1,00000 |  0,29934 | h  | 20, 7, 1 |||
269 |          | noName   |  1,00000 |  0,73681 | h  | 21, 7, 1 |||
270 |          | noName   |  1,00000 | -0,99546 | h  | 22, 7, 1 |||
271 |          | noName   |  0,00000 |  0,28294 | h  | 23, 7, 1 |||
272 |          | noName   |  1,00000 | -0,66934 | h  | 24, 7, 1 |||
273 |          | noName   |  0,00000 | -0,16539 | h  | 25, 7, 1 |||
274 |          | noName   |  0,00000 |  0,55586 | h  | 26, 7, 1 |||
275 |          | noName   |  1,00000 | -0,77095 | h  | 12, 8, 1 |||
276 |          | noName   |  1,00000 | -0,82119 | h  | 13, 8, 1 |||
277 |          | noName   |  0,00000 | -0,84299 | h  | 14, 8, 1 |||
278 |          | noName   |  1,00000 |  0,46825 | h  | 15, 8, 1 |||
279 |          | noName   |  0,00000 |  0,21049 | h  | 16, 8, 1 |||
280 |          | noName   |  0,00000 | -0,73133 | h  | 17, 8, 1 |||
281 |          | noName   |  0,00000 |  0,85115 | h  | 18, 8, 1 |||
282 |          | noName   |  1,00000 | -0,98952 | h  | 19, 8, 1 |||
283 |          | noName   |  0,00000 |  0,02461 | h  | 20, 8, 1 |||
284 |          | noName   |  1,00000 |  0,40920 | h  | 21, 8, 1 |||
285 |          | noName   |  1,00000 |  0,99387 | h  | 22, 8, 1 |||
286 |          | noName   |  0,00000 |  0,22009 | h  | 23, 8, 1 |||
287 |          | noName   |  1,00000 |  0,12095 | h  | 24, 8, 1 |||
288 |          | noName   |  0,00000 |  0,62400 | h  | 25, 8, 1 |||
289 |          | noName   |  0,00000 |  0,70208 | h  | 26, 8, 1 |||
290 |          | noName   |  1,00000 | -0,74088 | h  | 12, 9, 1 |||
291 |          | noName   |  0,00000 |  0,89720 | h  | 13, 9, 1 |||
292 |          | noName   |  0,00000 |  0,43071 | h  | 14, 9, 1 |||
293 |          | noName   |  0,00000 | -0,18138 | h  | 15, 9, 1 |||
294 |          | noName   |  1,00000 | -0,11163 | h  | 16, 9, 1 |||
295 |          | noName   |  1,00000 | -0,17414 | h  | 17, 9, 1 |||
296 |          | noName   |  0,00000 | -0,21663 | h  | 18, 9, 1 |||
297 |          | noName   |  0,00000 | -0,52475 | h  | 19, 9, 1 |||
298 |          | noName   |  1,00000 | -0,83274 | h  | 20, 9, 1 |||
299 |          | noName   |  1,00000 | -0,93244 | h  | 21, 9, 1 |||
300 |          | noName   |  0,00000 |  0,67139 | h  | 22, 9, 1 |||
301 |          | noName   |  1,00000 |  0,90181 | h  | 23, 9, 1 |||
302 |          | noName   |  1,00000 | -0,28282 | h  | 24, 9, 1 |||
303 |          | noName   |  0,00000 | -0,96471 | h  | 25, 9, 1 |||
304 |          | noName   |  1,00000 |  0,15024 | h  | 26, 9, 1 |||
305 |          | noName   |  0,00000 | -0,88811 | h  | 12,10, 1 |||
306 |          | noName   |  1,00000 | -0,51465 | h  | 13,10, 1 |||
307 |          | noName   |  1,00000 | -0,57948 | h  | 14,10, 1 |||
308 |          | noName   |  1,00000 |  0,95867 | h  | 15,10, 1 |||
309 |          | noName   |  1,00000 |  0,65431 | h  | 16,10, 1 |||
310 |          | noName   |  0,00000 | -0,94637 | h  | 17,10, 1 |||
311 |          | noName   |  0,00000 |  0,53791 | h  | 18,10, 1 |||
312 |          | noName   |  0,00000 | -0,32528 | h  | 19,10, 1 |||
313 |          | noName   |  1,00000 |  0,67251 | h  | 20,10, 1 |||
314 |          | noName   |  0,00000 |  0,76637 | h  | 21,10, 1 |||
315 |          | noName   |  1,00000 |  0,40415 | h  | 22,10, 1 |||
316 |          | noName   |  1,00000 | -0,90670 | h  | 23,10, 1 |||
317 |          | noName   |  1,00000 | -0,14706 | h  | 24,10, 1 |||
318 |          | noName   |  1,00000 | -0,11886 | h  | 25,10, 1 |||
319 |          | noName   |  0,00000 | -0,01253 | h  | 26,10, 1 |||
320 |          | noName   |  1,00000 |  0,95729 | h  | 12,11, 1 |||
321 |          | noName   |  0,00000 |  0,35204 | h  | 13,11, 1 |||
322 |          | noName   |  1,00000 | -0,37373 | h  | 14,11, 1 |||
323 |          | noName   |  0,00000 | -0,21121 | h  | 15,11, 1 |||
324 |          | noName   |  1,00000 | -0,22878 | h  | 16,11, 1 |||
325 |          | noName   |  0,00000 | -0,05029 | h  | 17,11, 1 |||
326 |          | noName   |  0,00000 |  0,49681 | h  | 18,11, 1 |||
327 |          | noName   |  1,00000 | -0,39901 | h  | 19,11, 1 |||
328 |          | noName   |  1,00000 |  0,89603 | h  | 20,11, 1 |||
329 |          | noName   |  1,00000 | -0,94449 | h  | 21,11, 1 |||
330 |          | noName   |  1,00000 | -0,17873 | h  | 22,11, 1 |||
331 |          | noName   |  1,00000 | -0,50379 | h  | 23,11, 1 |||
332 |          | noName   |  0,00000 | -0,14674 | h  | 24,11, 1 |||
333 |          | noName   |  0,00000 |  0,96004 | h  | 25,11, 1 |||
334 |          | noName   |  1,00000 | -0,95775 | h  | 26,11, 1 |||
335 |          | noName   |  1,00000 | -0,80591 | h  | 12,12, 1 |||
336 |          | noName   |  1,00000 | -0,60813 | h  | 13,12, 1 |||
337 |          | noName   |  0,00000 | -0,86397 | h  | 14,12, 1 |||
338 |          | noName   |  0,00000 |  0,19622 | h  | 15,12, 1 |||
339 |          | noName   |  0,00000 |  0,73424 | h  | 16,12, 1 |||
340 |          | noName   |  1,00000 |  0,73456 | h  | 17,12, 1 |||
341 |          | noName   |  0,00000 |  0,31085 | h  | 18,12, 1 |||
342 |          | noName   |  1,00000 | -0,35377 | h  | 19,12, 1 |||
343 |          | noName   |  1,00000 |  0,38254 | h  | 20,12, 1 |||
344 |          | noName   |  1,00000 |  0,08795 | h  | 21,12, 1 |||
345 |          | noName   |  1,00000 | -0,62084 | h  | 22,12, 1 |||
346 |          | noName   |  1,00000 | -0,42421 | h  | 23,12, 1 |||
347 |          | noName   |  1,00000 | -0,11457 | h  | 24,12, 1 |||
348 |          | noName   |  1,00000 |  0,25511 | h  | 25,12, 1 |||
349 |          | noName   |  1,00000 |  0,60111 | h  | 26,12, 1 |||
350 |          | noName   |  0,00000 | -0,57646 | h  | 12,13, 1 |||
351 |          | noName   |  0,00000 |  0,32083 | h  | 13,13, 1 |||
352 |          | noName   |  1,00000 |  0,53171 | h  | 14,13, 1 |||
353 |          | noName   |  1,00000 | -0,52971 | h  | 15,13, 1 |||
354 |          | noName   |  0,00000 |  0,12512 | h  | 16,13, 1 |||
355 |          | noName   |  1,00000 | -0,00151 | h  | 17,13, 1 |||
356 |          | noName   |  1,00000 |  0,21964 | h  | 18,13, 1 |||
357 |          | noName   |  0,00000 |  0,48756 | h  | 19,13, 1 |||
358 |          | noName   |  1,00000 |  0,49866 | h  | 20,13, 1 |||
359 |          | noName   |  0,00000 |  0,09930 | h  | 21,13, 1 |||
360 |          | noName   |  0,00000 |  0,49275 | h  | 22,13, 1 |||
361 |          | noName   |  1,00000 |  0,06228 | h  | 23,13, 1 |||
362 |          | noName   |  1,00000 | -0,40050 | h  | 24,13, 1 |||
363 |          | noName   |  0,00000 |  0,31934 | h  | 25,13, 1 |||
364 |          | noName   |  0,00000 | -0,84037 | h  | 26,13, 1 |||
365 |          | noName   |  1,00000 |  0,85540 | h  | 12,14, 1 |||
366 |          | noName   |  0,00000 | -0,41621 | h  | 13,14, 1 |||
367 |          | noName   |  1,00000 | -0,15020 | h  | 14,14, 1 |||
368 |          | noName   |  1,00000 | -0,54546 | h  | 15,14, 1 |||
369 |          | noName   |  0,00000 |  0,06765 | h  | 16,14, 1 |||
370 |          | noName   |  1,00000 | -0,76763 | h  | 17,14, 1 |||
371 |          | noName   |  1,00000 | -0,92640 | h  | 18,14, 1 |||
372 |          | noName   |  1,00000 | -0,52786 | h  | 19,14, 1 |||
373 |          | noName   |  1,00000 |  0,06856 | h  | 20,14, 1 |||
374 |          | noName   |  0,00000 |  0,43988 | h  | 21,14, 1 |||
375 |          | noName   |  0,00000 | -0,26966 | h  | 22,14, 1 |||
376 |          | noName   |  1,00000 | -0,48742 | h  | 23,14, 1 |||
377 |          | noName   |  0,00000 | -0,94460 | h  | 24,14, 1 |||
378 |          | noName   |  1,00000 | -0,22127 | h  | 25,14, 1 |||
379 |          | noName   |  0,00000 |  0,67586 | h  | 26,14, 1 |||
380 |          | noName   |  1,00000 | -0,49029 | h  | 12,15, 1 |||
381 |          | noName   |  0,00000 | -0,58348 | h  | 13,15, 1 |||
382 |          | noName   |  0,00000 | -0,21447 | h  | 14,15, 1 |||
383 |          | noName   |  0,00000 | -0,73457 | h  | 15,15, 1 |||
384 |          | noName   |  1,00000 |  0,08219 | h  | 16,15, 1 |||
385 |          | noName   |  1,00000 | -0,46521 | h  | 17,15, 1 |||
386 |          | noName   |  1,00000 | -0,56388 | h  | 18,15, 1 |||
387 |          | noName   |  0,00000 | -0,30918 | h  | 19,15, 1 |||
388 |          | noName   |  1,00000 |  0,57225 | h  | 20,15, 1 |||
389 |          | noName   |  1,00000 |  0,88416 | h  | 21,15, 1 |||
390 |          | noName   |  1,00000 |  0,89248 | h  | 22,15, 1 |||
391 |          | noName   |  1,00000 | -0,98720 | h  | 23,15, 1 |||
392 |          | noName   |  0,00000 | -0,10065 | h  | 24,15, 1 |||
393 |          | noName   |  1,00000 | -0,48408 | h  | 25,15, 1 |||
394 |          | noName   |  1,00000 |  0,00777 | h  | 26,15, 1 |||
395 |          | noName   |  1,00000 |  0,20969 | h  | 12,16, 1 |||
396 |          | noName   |  0,00000 |  0,06670 | h  | 13,16, 1 |||
397 |          | noName   |  1,00000 |  0,06876 | h  | 14,16, 1 |||
398 |          | noName   |  0,00000 | -0,78238 | h  | 15,16, 1 |||
399 |          | noName   |  1,00000 |  0,20937 | h  | 16,16, 1 |||
400 |          | noName   |  1,00000 | -0,15647 | h  | 17,16, 1 |||
401 |          | noName   |  0,00000 |  0,02762 | h  | 18,16, 1 |||
402 |          | noName   |  1,00000 | -0,24727 | h  | 19,16, 1 |||
403 |          | noName   |  1,00000 |  0,83055 | h  | 20,16, 1 |||
404 |          | noName   |  0,00000 | -0,65248 | h  | 21,16, 1 |||
405 |          | noName   |  0,00000 | -0,54738 | h  | 22,16, 1 |||
406 |          | noName   |  0,00000 |  0,97062 | h  | 23,16, 1 |||
407 |          | noName   |  0,00000 | -0,08223 | h  | 24,16, 1 |||
408 |          | noName   |  0,00000 | -0,92388 | h  | 25,16, 1 |||
409 |          | noName   |  1,00000 | -0,74870 | h  | 26,16, 1 |||
410 |          | noName   |  0,00000 |  0,88527 | h  | 12,17, 1 |||
411 |          | noName   |  1,00000 |  0,14406 | h  | 13,17, 1 |||
412 |          | noName   |  0,00000 | -0,02507 | h  | 14,17, 1 |||
413 |          | noName   |  1,00000 | -0,68758 | h  | 15,17, 1 |||
414 |          | noName   |  0,00000 |  0,50226 | h  | 16,17, 1 |||
415 |          | noName   |  0,00000 | -0,74796 | h  | 17,17, 1 |||
416 |          | noName   |  0,00000 |  0,89786 | h  | 18,17, 1 |||
417 |          | noName   |  1,00000 |  0,59580 | h  | 19,17, 1 |||
418 |          | noName   |  1,00000 |  0,64110 | h  | 20,17, 1 |||
419 |          | noName   |  0,00000 | -0,47327 | h  | 21,17, 1 |||
420 |          | noName   |  1,00000 | -0,86459 | h  | 22,17, 1 |||
421 |          | noName   |  1,00000 | -0,69406 | h  | 23,17, 1 |||
422 |          | noName   |  0,00000 | -0,17853 | h  | 24,17, 1 |||
423 |          | noName   |  0,00000 |  0,50471 | h  | 25,17, 1 |||
424 |          | noName   |  1,00000 | -0,42565 | h  | 26,17, 1 |||
425 |          | noName   |  0,00000 |  0,39160 | h  | 12,18, 1 |||
426 |          | noName   |  0,00000 | -0,77980 | h  | 13,18, 1 |||
427 |          | noName   |  1,00000 | -0,86877 | h  | 14,18, 1 |||
428 |          | noName   |  1,00000 |  0,27169 | h  | 15,18, 1 |||
429 |          | noName   |  1,00000 | -0,77591 | h  | 16,18, 1 |||
430 |          | noName   |  0,00000 | -0,58498 | h  | 17,18, 1 |||
431 |          | noName   |  0,00000 | -0,57051 | h  | 18,18, 1 |||
432 |          | noName   |  1,00000 | -0,83855 | h  | 19,18, 1 |||
433 |          | noName   |  1,00000 | -0,07621 | h  | 20,18, 1 |||
434 |          | noName   |  1,00000 | -0,25200 | h  | 21,18, 1 |||
435 |          | noName   |  1,00000 | -0,76069 | h  | 22,18, 1 |||
436 |          | noName   |  1,00000 | -0,32628 | h  | 23,18, 1 |||
437 |          | noName   |  1,00000 |  0,53113 | h  | 24,18, 1 |||
438 |          | noName   |  1,00000 | -0,16707 | h  | 25,18, 1 |||
439 |          | noName   |  0,00000 | -0,44719 | h  | 26,18, 1 |||
440 |          | noName   |  0,00000 |  0,08405 | h  | 12,19, 1 |||
441 |          | noName   |  0,00000 |  0,25184 | h  | 13,19, 1 |||
442 |          | noName   |  0,00000 |  0,65219 | h  | 14,19, 1 |||
443 |          | noName   |  0,00000 |  0,60521 | h  | 15,19, 1 |||
444 |          | noName   |  1,00000 |  0,95981 | h  | 16,19, 1 |||
445 |          | noName   |  0,00000 | -0,86211 | h  | 17,19, 1 |||
446 |          | noName   |  1,00000 |  0,25116 | h  | 18,19, 1 |||
447 |          | noName   |  1,00000 |  0,19392 | h  | 19,19, 1 |||
448 |          | noName   |  0,00000 |  0,87870 | h  | 20,19, 1 |||
449 |          | noName   |  0,00000 |  0,67995 | h  | 21,19, 1 |||
450 |          | noName   |  1,00000 | -0,40093 | h  | 22,19, 1 |||
451 |          | noName   |  0,00000 |  0,06813 | h  | 23,19, 1 |||
452 |          | noName   |  1,00000 |  0,13467 | h  | 24,19, 1 |||
453 |          | noName   |  1,00000 |  0,36294 | h  | 25,19, 1 |||
454 |          | noName   |  1,00000 | -0,61259 | h  | 26,19, 1 |||
----|----------|----------|----------|----------|----|----------|----------|----------|-------


connection definition section :

target | site | source:weight
-------|------|----------------------------------------------------------------------------------------------------------------
   151 |      | 454: 0,01794, 453:-0,89887, 452: 0,05014, 451: 0,31279, 450:-1,01986, 449:-0,88779, 448: 0,79496, 447: 0,93435,
                446: 0,09858, 445:-0,66262, 444:-0,11942, 443:-1,19008, 442: 0,41754, 441: 0,54722, 440:-0,37154, 439:-0,52349,
                438:-0,34992, 437:-0,71468, 436: 0,47869, 435:-0,49402, 434:-0,64307, 433:-0,70066, 432: 1,06213, 431: 0,03380,
                430:-0,17552, 429: 0,31232, 428:-0,19847, 427: 0,18231, 426:-0,98637, 425: 0,27326, 424: 0,12266, 423: 0,28667,
                422:-0,58229, 421:-0,45764, 420:-0,69493, 419:-0,78768, 418: 0,28034, 417:-0,13714, 416: 0,16637, 415: 0,49489,
                414: 0,05897, 413:-0,10390, 412:-0,50089, 411:-0,91943, 410:-0,59582, 409: 0,15866, 408:-0,80727, 407:-0,47509,
                406:-0,04573, 405:-0,66737, 404: 0,42217, 403:-0,61656, 402:-0,92879, 401:-0,43601, 400:-0,31452, 399:-0,32786,
                398:-0,70374, 397: 0,84147, 396: 0,18554, 395: 0,47671, 394:-0,84439, 393:-0,52418, 392: 0,21872, 391: 0,27543,
                390:-0,12517, 389: 0,51524, 388: 0,27973, 387:-0,83208, 386:-0,84325, 385: 0,02632, 384:-0,42049, 383: 1,04446,
                382:-0,42827, 381:-0,08685, 380:-0,02935, 379: 0,51397, 378:-0,60347, 377: 0,37839, 376:-0,92651, 375: 0,37711,
                374:-0,66416, 373: 1,06971, 372: 0,50379, 371:-0,27164, 370:-0,36016, 369: 0,11700, 368: 0,00447, 367: 0,78045,
                366:-0,06622, 365:-0,15644, 364: 0,94884, 363:-0,71872, 362:-0,55050, 361: 0,00995, 360:-0,17851, 359:-0,02901,
                358:-0,90948, 357:-0,04209, 356:-0,63869, 355: 1,06135, 354:-0,19619, 353: 0,12056, 352: 0,90139, 351: 0,57565,
                350:-0,31205, 349:-0,84019, 348: 0,94060, 347: 0,25031, 346:-0,34846, 345:-0,54387, 344: 0,57657, 343: 0,55593,
                342:-0,07273, 341:-0,92012, 340:-0,77411, 339:-0,65945, 338: 0,62740, 337:-0,14142, 336:-0,79941, 335:-0,21041,
                334: 0,52116, 333: 0,00695, 332:-0,80478, 331:-0,82266, 330: 0,45031, 329: 0,32060, 328: 0,69291, 327:-0,66294,
                326:-0,32305, 325:-0,78351, 324:-0,09714, 323: 0,25380, 322: 0,92334, 321: 0,06567, 320: 0,26532, 319:-0,26038,
                318:-0,25396, 317: 0,30818, 316:-0,58469, 315: 0,86300, 314:-0,46480, 313:-0,46229, 312: 0,05648, 311: 0,07254,
                310: 0,25742, 309:-0,21461, 308: 0,24822, 307:-0,80863, 306: 0,41137, 305:-0,18404, 304:-0,90520, 303:-0,26929,
                302: 0,68759, 301:-0,06720, 300:-0,78014, 299:-0,09074, 298:-0,58351, 297: 0,17268, 296:-0,99827, 295: 0,26507,
                294: 0,53808, 293: 0,11165, 292: 0,09881, 291: 0,49680, 290:-0,54005, 289:-0,59118, 288: 0,33368, 287: 0,89067,
                286: 0,38138, 285: 0,16648, 284:-0,74668, 283:-0,43038, 282: 0,83145, 281: 0,13556, 280: 0,33776, 279: 0,72812,
                278: 0,18865, 277: 0,55691, 276: 0,54979, 275: 0,08606, 274: 0,49965, 273:-0,27359, 272:-0,03822, 271: 0,60819,
                270:-0,80164, 269:-0,29059, 268: 0,19393, 267: 0,53224, 266:-0,50468, 265: 0,88674, 264:-0,56704, 263: 0,74702,
                262:-0,45691, 261:-0,90506, 260: 0,71267, 259: 0,78914, 258: 0,24299, 257:-0,64201, 256:-0,00333, 255:-0,46907,
                254: 0,14146, 253:-0,14209, 252:-0,06628, 251: 0,83943, 250: 0,58636, 249: 0,73796, 248:-0,31746, 247:-0,15415,
                246: 0,62911, 245: 0,32101, 244: 0,10745, 243:-0,08522, 242:-0,45424, 241: 0,80036, 240: 0,10151, 239:-1,00751,
                238: 0,63678, 237:-0,56835, 236:-0,72511, 235:-0,63925, 234: 0,92811, 233:-0,35574, 232: 0,35522, 231: 1,07151,
                230: 0,57443, 229: 0,20121, 228:-0,91796, 227:-0,96358, 226: 1,05660, 225: 0,02096, 224:-0,14180, 223: 0,22488,
                222: 0,16648, 221: 0,55534, 220:-0,80835, 219:-0,66216, 218: 0,94767, 217: 0,25497, 216: 0,44808, 215: 0,69844,
                214: 0,90451, 213:-0,04314, 212: 1,31277, 211:-0,58765, 210:-0,46378, 209: 0,24387, 208:-0,30859, 207:-0,69531,
                206:-0,16835, 205:-0,07278, 204: 0,23356, 203: 0,82640, 202: 1,30982, 201: 0,16020, 200:-0,11695, 199:-0,00890,
                198:-0,13663, 197:-0,14666, 196: 0,73727, 195: 0,61361, 194: 0,60362, 193:-0,80537, 192: 0,95172, 191: 0,10633,
                190:-0,46026, 189: 0,89609, 188: 0,04121, 187:-0,62232, 186: 0,00940, 185:-0,99282, 184:-0,98734, 183:-0,24586,
                182:-0,59065, 181: 0,41640, 180:-0,77414, 179: 0,31443, 178: 0,54374, 177: 0,01449, 176:-0,77970, 175:-0,82109,
                174: 0,65646, 173: 0,63913, 172: 0,61767, 171:-0,73896, 170: 1,10742, 169:-0,02374, 168:-0,75118, 167: 0,57793,
                166: 0,89799, 165:-0,10095, 164: 0,39196, 163: 1,04347, 162: 0,62107, 161: 0,71477, 160:-0,05708, 159:-0,43899,
                158:-0,33689, 157:-0,23832, 156:-0,40231, 155: 0,58000
   152 |      | 454: 0,01112, 453: 0,56037, 452:-0,61718, 451: 0,73674, 450: 0,39916, 449: 0,38316, 448: 0,49416, 447:-0,21125,
                446: 0,24530, 445: 0,00065, 444:-0,59485, 443: 0,83345, 442: 0,08769, 441:-0,09643, 440:-0,19753, 439:-0,42627,
                438:-0,71865, 437:-0,49701, 436: 0,66276, 435:-0,17713, 434:-1,01207, 433: 0,69182, 432: 0,76842, 431: 0,32508,
                430: 0,32207, 429:-1,00251, 428:-0,63794, 427: 0,20786, 426: 0,76722, 425:-0,46017, 424:-0,31759, 423:-0,05183,
                422: 0,21042, 421:-0,12461, 420:-0,08176, 419:-0,61744, 418:-0,19734, 417: 0,10667, 416: 0,61095, 415:-0,37703,
                414:-0,74163, 413:-0,74741, 412: 0,33272, 411:-0,48917, 410: 0,41714, 409:-0,82664, 408:-0,25710, 407:-0,08951,
                406:-1,00714, 405:-0,40279, 404:-0,06065, 403: 0,65784, 402:-0,64845, 401: 0,61075, 400:-0,59059, 399:-1,14088,
                398: 0,57722, 397:-0,38013, 396:-0,67656, 395: 0,96225, 394:-0,16433, 393:-0,37899, 392: 0,03000, 391: 1,01624,
                390:-0,96468, 389: 0,86489, 388:-0,53048, 387:-0,38169, 386:-0,57213, 385:-0,37337, 384: 0,15697, 383: 0,66591,
                382: 0,08058, 381: 0,70944, 380:-0,91374, 379:-0,29071, 378:-0,75387, 377:-0,72538, 376: 0,86540, 375: 0,53727,
                374:-0,69663, 373:-0,44527, 372: 0,14533, 371: 0,02409, 370:-0,06982, 369: 0,58898, 368: 0,35823, 367: 0,32466,
                366: 1,13233, 365: 0,92617, 364:-0,47529, 363: 0,59666, 362: 0,46447, 361: 0,78206, 360: 0,14971, 359:-0,90281,
                358: 0,09931, 357: 0,39098, 356:-0,73490, 355:-0,47962, 354:-0,50479, 353:-0,34971, 352:-0,44668, 351:-0,18380,
                350: 0,39694, 349: 0,40297, 348: 0,88375, 347:-0,81073, 346:-0,83189, 345: 0,25007, 344: 0,24122, 343: 0,60392,
                342:-0,10338, 341: 0,01980, 340: 0,51005, 339: 0,64706, 338:-0,81912, 337: 0,00427, 336:-0,50249, 335:-0,03518,
                334: 0,39651, 333: 0,10080, 332: 0,31426, 331:-0,13094, 330: 0,93922, 329: 0,48198, 328: 0,51426, 327: 0,45473,
                326:-0,85506, 325: 0,41344, 324: 0,24063, 323: 0,39517, 322:-0,65660, 321:-0,97628, 320: 0,32295, 319:-0,66643,
                318:-0,51747, 317: 0,78379, 316: 0,24388, 315: 0,99804, 314:-0,90142, 313:-0,28989, 312:-0,36544, 311:-0,73582,
                310:-0,64129, 309: 0,02716, 308:-0,76679, 307: 0,24764, 306: 0,60369, 305:-0,68082, 304:-0,43938, 303:-0,79303,
                302: 0,84659, 301:-0,30529, 300: 0,08119, 299: 0,01141, 298:-1,09128, 297:-0,34182, 296: 0,77922, 295:-0,50247,
                294: 0,94547, 293: 0,82663, 292:-0,15635, 291:-0,60412, 290: 0,96869, 289: 0,65043, 288: 0,75109, 287: 0,65054,
                286: 0,55133, 285: 0,12139, 284:-0,69125, 283:-0,02062, 282: 1,09422, 281:-0,69301, 280: 0,82721, 279:-0,71077,
                278:-0,81075, 277: 0,89056, 276:-0,74303, 275:-1,11232, 274:-0,99651, 273:-0,54534, 272: 0,64148, 271: 0,08462,
                270: 0,56324, 269: 0,26881, 268:-0,73528, 267:-0,85713, 266:-0,18234, 265:-0,82395, 264: 0,78887, 263: 1,02860,
                262:-0,93681, 261: 0,67907, 260: 0,70200, 259:-1,01601, 258:-0,08253, 257: 0,39014, 256:-0,27044, 255:-0,23194,
                254: 0,70544, 253:-0,60468, 252: 0,70228, 251:-0,10608, 250: 0,13172, 249:-0,58845, 248: 0,83261, 247: 0,07283,
                246:-0,06825, 245:-0,20200, 244: 0,38343, 243:-0,95505, 242: 0,82915, 241:-0,46753, 240:-0,63854, 239:-0,31114,
                238: 0,67278, 237:-0,10731, 236: 0,51205, 235: 0,67011, 234: 0,73308, 233: 0,05352, 232: 0,48889, 231:-0,08913,
                230: 0,94653, 229:-0,86106, 228: 0,79560, 227:-0,61072, 226: 0,45323, 225:-0,91426, 224: 0,73908, 223:-0,87237,
                222: 0,46968, 221:-0,29556, 220:-0,79700, 219:-0,18277, 218: 0,07908, 217:-0,35394, 216:-0,56756, 215: 0,74213,
                214:-0,66606, 213:-0,00069, 212:-0,69027, 211: 0,40031, 210:-1,01960, 209:-0,11131, 208: 0,18134, 207:-0,15144,
                206: 0,73829, 205:-0,60581, 204:-0,79277, 203: 0,83299, 202: 0,51986, 201: 0,41081, 200: 0,66891, 199:-0,33500,
                198:-0,32510, 197: 0,31880, 196: 1,04436, 195:-0,43670, 194:-0,06470, 193:-0,31967, 192:-0,16704, 191: 0,33806,
                190:-0,74961, 189: 0,01188, 188: 0,05210, 187:-0,71774, 186: 1,02121, 185: 0,53984, 184:-0,88361, 183:-0,76508,
                182:-0,27588, 181: 0,29301, 180:-0,63577, 179: 0,68899, 178: 0,25748, 177:-0,86234, 176: 0,23344, 175: 0,40490,
                174: 0,75293, 173: 0,08762, 172:-0,85133, 171:-0,64343, 170: 0,58069, 169:-0,32894, 168:-0,48729, 167:-0,54390,
                166: 0,16735, 165:-1,21248, 164: 0,00697, 163: 0,27313, 162: 0,37874, 161:-0,82706, 160: 1,12391, 159:-0,96870,
                158:-0,44749, 157: 0,19308, 156:-0,95730, 155: 0,43756
   153 |      | 454: 0,05952, 453: 0,07114, 452: 0,75357, 451: 0,61373, 450: 1,01143, 449:-0,75345, 448: 0,10179, 447: 0,71635,
                446:-1,06325, 445:-0,70354, 444: 0,41327, 443:-0,15788, 442:-0,81090, 441: 0,59005, 440: 0,24832, 439:-0,27050,
                438: 0,85912, 437: 0,38251, 436:-0,79723, 435:-0,97934, 434:-0,59892, 433: 0,44353, 432:-0,11459, 431: 0,46966,
                430: 0,03382, 429:-0,63762, 428:-0,66447, 427:-0,00578, 426:-0,57739, 425:-0,21602, 424:-0,05358, 423:-0,03971,
                422:-0,24793, 421: 0,64616, 420:-1,18221, 419:-0,30199, 418:-0,84373, 417: 0,49518, 416:-0,59920, 415:-0,08048,
                414: 0,87996, 413: 0,44444, 412:-0,56180, 411: 0,57530, 410: 1,16928, 409:-0,87542, 408: 0,24725, 407:-0,04498,
                406: 0,26481, 405:-0,73479, 404: 0,33855, 403:-0,82378, 402:-0,67886, 401: 0,36173, 400: 0,89207, 399: 0,16414,
                398:-0,01618, 397: 0,78175, 396: 0,14165, 395:-0,95119, 394:-0,53806, 393:-0,75595, 392: 0,62184, 391:-0,49186,
                390: 0,85604, 389:-0,97541, 388: 1,07431, 387:-0,81011, 386:-0,24302, 385: 0,66438, 384: 0,00868, 383: 0,00585,
                382:-1,09918, 381:-1,16980, 380:-0,78437, 379:-0,46609, 378:-0,48510, 377: 0,76415, 376: 0,23431, 375: 0,64762,
                374: 0,40086, 373:-0,05661, 372: 0,32526, 371: 0,07199, 370: 0,28821, 369:-0,11111, 368: 0,16370, 367:-0,45439,
                366:-0,56003, 365: 0,43792, 364:-0,37624, 363: 0,48297, 362:-0,42823, 361:-0,63815, 360: 0,14192, 359: 0,25863,
                358:-0,29092, 357: 0,32575, 356:-0,68748, 355: 0,54734, 354: 0,15640, 353: 0,59985, 352:-0,76973, 351: 0,38963,
                350: 0,80033, 349: 0,04566, 348:-0,27099, 347: 0,68717, 346: 0,32745, 345:-0,02341, 344: 0,00638, 343: 0,88450,
                342: 0,17439, 341: 0,93136, 340:-0,71924, 339: 0,84032, 338:-0,58821, 337:-0,98182, 336: 0,56947, 335: 0,76760,
                334: 0,17549, 333:-0,95227, 332: 0,65789, 331: 0,51234, 330: 0,31866, 329: 0,83386, 328:-0,12640, 327: 0,78948,
                326:-0,22490, 325:-0,96101, 324:-0,15727, 323:-0,58506, 322: 0,73789, 321:-0,70910, 320: 0,70649, 319:-0,28614,
                318: 0,57492, 317: 0,73255, 316:-0,77963, 315:-0,47769, 314:-0,39283, 313: 0,71879, 312: 0,77967, 311:-0,72767,
                310:-0,82752, 309:-0,81471, 308:-0,41597, 307: 0,60568, 306:-0,07024, 305: 0,54501, 304:-0,72313, 303: 0,15380,
                302: 0,00039, 301: 0,44761, 300: 0,57194, 299: 0,62072, 298:-0,96184, 297: 0,59195, 296: 0,34941, 295: 0,80664,
                294: 0,41311, 293: 0,54777, 292: 0,24144, 291: 0,54382, 290:-0,33338, 289: 0,54715, 288:-0,24750, 287:-0,60320,
                286:-0,86859, 285: 0,05904, 284: 0,00365, 283:-0,12523, 282:-0,32309, 281:-0,60932, 280:-0,28041, 279:-0,52878,
                278:-0,19611, 277: 0,47352, 276:-0,81345, 275:-0,68387, 274: 1,07000, 273:-0,50818, 272: 0,58642, 271: 0,29155,
                270:-0,30042, 269:-1,18076, 268: 0,15161, 267: 0,44621, 266: 0,88014, 265: 0,47372, 264:-0,87530, 263:-0,47551,
                262: 0,64337, 261: 0,09289, 260: 0,70170, 259: 0,28773, 258: 0,00470, 257: 0,04862, 256: 0,39257, 255: 0,28899,
                254: 0,56489, 253:-0,58400, 252:-0,62665, 251: 0,89484, 250: 0,62732, 249: 0,40090, 248:-0,86860, 247:-0,83942,
                246: 0,43586, 245:-0,37252, 244: 0,60606, 243: 0,44414, 242: 0,05834, 241: 0,56233, 240:-0,20575, 239: 0,22734,
                238:-0,68061, 237: 0,03466, 236:-0,48450, 235: 0,04038, 234: 0,48285, 233:-0,09439, 232: 0,04266, 231: 0,26747,
                230: 0,23419, 229:-0,30223, 228: 0,33615, 227:-0,58267, 226: 0,22010, 225: 0,61083, 224:-0,06025, 223: 0,84631,
                222:-0,51683, 221: 0,34640, 220:-0,37016, 219: 0,75378, 218:-0,70816, 217:-0,69939, 216:-0,21563, 215: 0,31152,
                214: 0,11663, 213:-1,36540, 212: 0,09328, 211: 0,70928, 210: 0,36860, 209:-0,61924, 208:-0,13978, 207: 0,11934,
                206:-0,28341, 205:-0,26062, 204: 0,13915, 203: 0,01615, 202: 0,22910, 201: 0,57420, 200:-0,42248, 199: 0,34818,
                198: 0,92095, 197:-0,26740, 196: 0,69622, 195:-0,43538, 194:-0,65758, 193: 0,48811, 192:-1,21529, 191:-0,42546,
                190: 0,32986, 189:-0,85604, 188: 0,28448, 187: 0,32127, 186: 0,24313, 185: 0,78406, 184: 0,11205, 183: 0,31268,
                182: 0,45552, 181: 0,39947, 180: 0,49367, 179:-0,48219, 178: 0,16906, 177: 0,65790, 176:-0,04083, 175: 0,73635,
                174:-0,54829, 173:-0,31621, 172: 0,66830, 171: 0,64909, 170: 0,14902, 169: 0,40216, 168:-0,78850, 167:-0,07883,
                166:-0,69572, 165:-1,00219, 164:-0,90842, 163:-0,69937, 162:-0,96785, 161: 0,60283, 160:-0,06229, 159:-0,12755,
                158:-0,36033, 157:-0,07215, 156:-0,94372, 155: 0,73690
   154 |      | 454:-0,64612, 453:-0,03662, 452:-0,14608, 451: 0,71215, 450:-0,81718, 449:-0,00788, 448:-0,37916, 447: 0,66484,
                446: 0,47870, 445:-0,38085, 444: 0,09516, 443: 0,92971, 442: 1,16219, 441: 0,52328, 440: 0,37852, 439: 0,33178,
                438: 0,36178, 437: 0,55526, 436: 0,36614, 435:-0,55539, 434: 0,43696, 433:-0,81409, 432:-0,76726, 431: 1,04953,
                430: 0,45727, 429:-0,23404, 428: 0,02829, 427:-0,18483, 426: 0,56586, 425: 0,55164, 424:-1,17597, 423: 0,36336,
                422: 0,35314, 421:-0,22007, 420: 0,07740, 419:-0,61436, 418:-0,23170, 417: 0,24060, 416:-0,49604, 415: 0,74121,
                414: 0,81281, 413:-0,84774, 412: 0,39600, 411:-0,66498, 410: 0,73909, 409:-0,37470, 408: 0,33220, 407: 0,12712,
                406:-0,71520, 405: 0,06147, 404: 0,67706, 403: 0,07818, 402:-0,62198, 401:-0,35762, 400: 0,07076, 399: 0,86691,
                398: 0,84420, 397: 0,98466, 396: 0,24476, 395:-0,14273, 394: 0,64862, 393:-0,99262, 392:-0,44358, 391:-0,83288,
                390: 0,95813, 389:-0,41833, 388:-0,24697, 387:-0,10527, 386:-0,08420, 385: 0,43238, 384: 0,14587, 383: 0,20304,
                382:-0,71241, 381: 0,48830, 380: 0,12326, 379: 0,78626, 378: 0,03737, 377: 0,44366, 376:-0,54337, 375: 0,33258,
                374: 0,44398, 373: 0,61712, 372: 1,10411, 371:-0,20989, 370:-0,88469, 369: 0,61768, 368:-0,55299, 367: 0,46391,
                366: 0,38790, 365: 1,04695, 364: 0,97093, 363:-0,68023, 362:-0,71858, 361:-0,12483, 360: 0,04608, 359: 0,72319,
                358: 0,25018, 357: 0,58460, 356: 0,59607, 355: 0,70659, 354:-0,11543, 353: 0,50975, 352: 0,19410, 351:-0,89341,
                350:-0,40343, 349: 0,56172, 348: 0,91088, 347:-0,11457, 346:-0,33319, 345: 0,12837, 344:-0,41564, 343:-0,76178,
                342:-0,23452, 341:-0,85830, 340: 0,11844, 339: 0,75620, 338:-0,49656, 337: 0,84225, 336:-0,37630, 335: 0,91352,
                334:-0,54247, 333: 0,68475, 332: 0,46630, 331:-0,91853, 330: 0,13869, 329: 0,37492, 328: 0,91331, 327: 0,47920,
                326:-0,99579, 325:-0,60118, 324: 0,03471, 323: 0,60604, 322:-0,01896, 321:-0,96565, 320: 0,08506, 319:-0,79708,
                318: 0,59804, 317:-0,73096, 316:-0,38469, 315: 0,35531, 314: 0,06120, 313: 1,04509, 312:-0,54500, 311: 0,20923,
                310: 0,58577, 309: 0,59696, 308:-0,09987, 307:-0,96329, 306:-0,30082, 305:-0,63709, 304: 0,09626, 303: 0,49413,
                302: 0,53767, 301: 0,20672, 300: 0,15091, 299: 0,78234, 298:-1,15795, 297: 0,85598, 296:-0,19549, 295: 0,32186,
                294: 0,43638, 293: 0,27402, 292: 0,48227, 291: 0,62146, 290:-0,12357, 289: 0,82035, 288: 0,68839, 287:-0,66093,
                286:-0,15015, 285:-0,32983, 284:-0,47127, 283: 0,08767, 282:-0,74624, 281: 0,46551, 280:-0,14650, 279:-0,94504,
                278:-0,30296, 277:-0,20303, 276: 0,08129, 275:-1,01871, 274:-0,21909, 273: 0,74740, 272: 0,27735, 271: 0,50594,
                270: 0,46632, 269: 0,54156, 268:-0,40527, 267:-0,47956, 266:-0,84931, 265: 0,31867, 264:-0,39366, 263: 0,37472,
                262: 0,54154, 261:-0,40610, 260:-0,61601, 259:-0,24860, 258:-0,57502, 257: 0,03127, 256: 0,78688, 255:-0,67468,
                254:-0,84725, 253:-0,41716, 252: 0,65063, 251:-0,13862, 250:-0,34201, 249: 0,52351, 248:-0,26788, 247:-0,95438,
                246:-0,75291, 245:-0,35150, 244:-0,04202, 243: 0,45245, 242:-0,03259, 241: 0,21293, 240: 0,29661, 239: 0,42544,
                238:-0,66796, 237:-0,47339, 236:-0,13213, 235:-0,40592, 234: 0,66660, 233:-0,57172, 232: 0,45865, 231:-0,15271,
                230: 0,10483, 229:-0,12145, 228:-0,55294, 227: 0,26671, 226: 0,48481, 225:-0,22413, 224:-0,49117, 223: 0,58398,
                222: 0,26336, 221:-0,07298, 220: 0,31953, 219: 0,43322, 218:-0,91775, 217:-0,83867, 216:-0,57352, 215:-0,60434,
                214: 0,76628, 213:-0,82379, 212: 0,21224, 211: 0,62991, 210: 0,32033, 209: 0,06397, 208:-0,85547, 207:-0,28489,
                206:-0,07013, 205:-0,19616, 204:-0,83367, 203: 0,72751, 202:-0,69914, 201:-0,16447, 200:-0,74203, 199:-0,63234,
                198: 0,10328, 197: 0,82763, 196: 0,26234, 195:-0,63376, 194: 0,63897, 193: 0,21625, 192: 0,18510, 191: 0,42397,
                190:-0,15775, 189: 0,09318, 188:-0,50991, 187:-0,19575, 186: 0,14047, 185: 0,25262, 184: 0,28917, 183: 0,91497,
                182:-0,64702, 181: 0,11098, 180:-0,04289, 179: 0,44130, 178:-0,95022, 177:-0,61266, 176:-0,18268, 175: 0,71352,
                174: 0,65479, 173:-0,05344, 172:-0,25878, 171: 0,75525, 170:-0,81350, 169:-0,06527, 168:-0,28469, 167:-0,87344,
                166:-0,09295, 165: 1,28521, 164:-0,44403, 163:-0,73128, 162: 0,38752, 161: 0,11033, 160:-0,47280, 159:-0,11045,
                158:-0,72909, 157: 0,40897, 156: 0,56035, 155: 0,87492
   155 |      | 150:-0,62295, 149:-0,96738, 148:-0,18958, 147: 0,67894, 146:-0,76559, 145:-0,29490, 144: 0,41091, 143: 0,13909,
                142: 0,45612, 141: 0,16166, 140:-0,93531, 139: 0,37596, 138: 0,40156, 137: 0,39796, 136: 0,75697, 135:-0,59492,
                134:-0,97010, 133: 0,42277, 132: 0,32465, 131:-0,30182, 130:-0,49165, 129: 0,14378, 128: 0,85402, 127: 0,48634,
                126:-0,95135, 125:-0,07567, 124: 0,11021, 123:-0,18044, 122:-0,53331, 121:-0,54525, 120:-0,33648, 119: 0,27569,
                118: 0,99888, 117: 0,48904, 116:-0,98850, 115:-0,55464, 114:-0,69752, 113:-0,75568, 112:-0,32298, 111: 0,86382,
                110: 0,20787, 109: 0,13940, 108:-0,28944, 107:-0,52866, 106:-0,64783, 105:-0,49414, 104:-0,00613, 103: 0,92430,
                102: 0,26182, 101: 0,04485, 100: 0,51267,  99: 0,01880,  98:-0,49827,  97:-0,61581,  96:-0,34492,  95:-0,59800,
                 94:-0,81122,  93: 0,03003,  92:-0,55663,  91: 0,81622,  90:-0,72316,  89: 0,37734,  88: 0,29843,  87: 0,93389,
                 86: 0,63814,  85: 0,97208,  84:-0,12420,  83: 0,89298,  82:-0,04580,  81:-0,20977,  80:-0,86081,  79: 0,83177,
                 78: 0,93063,  77:-0,54404,  76:-0,87671,  75:-0,14330,  74:-0,71230,  73: 0,75953,  72: 0,78294,  71: 0,16898,
                 70:-0,44203,  69:-0,08976,  68: 0,46568,  67: 0,64522,  66: 0,92986,  65: 0,17852,  64:-0,55872,  63: 0,53900,
                 62:-0,52097,  61: 0,11186,  60: 0,67325,  59: 0,57578,  58:-0,82290,  57: 0,67332,  56:-0,25166,  55:-0,60856,
                 54: 0,38914,  53:-0,57317,  52:-0,74937,  51:-0,24185,  50:-0,72045,  49:-0,58380,  48: 0,56520,  47: 0,50138,
                 46:-0,96783,  45:-0,55503,  44: 0,34351,  43:-0,50497,  42: 0,22922,  41:-0,99066,  40:-0,08835,  39: 0,09085,
                 38:-0,42036,  37:-0,22983,  36:-0,46569,  35: 0,16213,  34: 0,67712,  33:-0,06795,  32: 0,47881,  31:-0,60309,
                 30: 0,11904,  29:-0,35632,  28:-0,40124,  27: 0,24226,  26:-0,57142,  25: 0,11651,  24: 0,05320,  23:-0,93174,
                 22: 0,37348,  21: 0,80661,  20:-0,29678,  19:-0,31851,  18:-0,17256,  17:-0,89773,  16:-0,37741,  15:-0,32706,
                 14: 0,91733,  13: 0,54860,  12:-0,50631,  11:-0,45752,  10: 0,26337,   9:-0,08336,   8:-0,06467,   7:-0,18730,
                  6:-0,64229,   5: 0,24336,   4:-0,93966,   3: 0,04887,   2:-0,97668,   1:-0,66199
   156 |      | 150: 0,86471, 149: 0,21907, 148:-0,16234, 147:-0,14277, 146: 0,54654, 145: 0,75646, 144: 0,52157, 143: 0,93815,
                142:-0,79072, 141: 0,59848, 140: 0,73878, 139: 0,31511, 138:-0,34845, 137:-0,06620, 136:-0,89875, 135:-0,50546,
                134: 0,95282, 133:-0,94851, 132: 0,33686, 131:-0,89418, 130:-0,08880, 129:-0,14311, 128: 0,82948, 127:-0,64259,
                126: 0,61797, 125: 0,62380, 124:-0,99857, 123: 0,80007, 122: 0,67390, 121: 0,00703, 120:-0,42436, 119: 0,76023,
                118: 0,04821, 117: 0,46123, 116: 0,80814, 115:-0,99395, 114:-0,45501, 113:-0,17537, 112:-0,92318, 111:-0,18995,
                110: 0,86230, 109: 0,01101, 108: 0,47967, 107: 0,98455, 106: 0,80005, 105:-0,62986, 104: 0,21874, 103: 0,12841,
                102:-0,80583, 101:-0,53054, 100:-0,93395,  99:-0,79307,  98: 0,43367,  97: 0,74144,  96:-0,17746,  95: 0,69247,
                 94:-0,83320,  93:-0,16335,  92:-0,25674,  91:-0,64442,  90: 0,14079,  89: 0,60926,  88: 0,92232,  87: 0,97857,
                 86:-0,42592,  85:-0,29406,  84: 0,77462,  83: 0,86210,  82: 0,45957,  81:-0,21934,  80: 0,34112,  79: 0,13705,
                 78: 0,58240,  77:-0,25347,  76:-0,84151,  75:-0,76343,  74: 0,54871,  73: 0,31231,  72:-0,99271,  71: 0,11713,
                 70:-0,08579,  69:-0,27038,  68:-0,22378,  67:-0,83761,  66: 0,62867,  65: 0,36873,  64:-0,09902,  63:-0,58788,
                 62: 0,93879,  61: 0,90390,  60: 0,95852,  59:-0,38627,  58: 0,98582,  57:-0,24260,  56:-0,22027,  55: 0,40991,
                 54: 0,37045,  53: 0,54378,  52: 0,30371,  51:-0,90108,  50: 0,61961,  49: 0,87115,  48:-0,09517,  47:-0,78924,
                 46: 0,86288,  45:-0,42651,  44: 0,31038,  43: 0,54093,  42:-0,89249,  41: 0,62969,  40:-0,12534,  39: 0,21350,
                 38:-0,31186,  37: 0,31340,  36:-0,07231,  35:-0,72292,  34:-0,93128,  33: 0,93598,  32:-0,63151,  31: 0,77365,
                 30: 0,90223,  29:-0,40085,  28:-0,51977,  27: 0,19299,  26:-0,27293,  25: 0,14952,  24:-0,88588,  23:-0,19903,
                 22: 0,92403,  21: 0,79261,  20: 0,59021,  19:-0,89818,  18: 0,50500,  17: 0,12728,  16: 0,71483,  15: 0,29139,
                 14: 0,29282,  13: 0,53307,  12:-0,30151,  11:-0,86213,  10:-0,67530,   9: 0,49457,   8:-0,89395,   7:-0,52286,
                  6:-0,48052,   5: 0,47009,   4:-0,42334,   3:-0,84568,   2:-0,65080,   1:-0,01829
   157 |      | 150:-0,46847, 149: 0,40989, 148: 0,67427, 147:-0,17367, 146:-0,10190, 145: 0,26517, 144:-0,10105, 143:-0,68938,
                142: 0,57865, 141: 0,01382, 140:-0,05996, 139: 0,77727, 138:-0,91932, 137:-0,10891, 136:-0,87924, 135:-0,93643,
                134: 0,13563, 133: 0,44117, 132: 0,77418, 131:-0,57488, 130: 0,37163, 129: 0,88821, 128:-0,68808, 127:-0,19953,
                126:-0,94563, 125: 0,18713, 124:-0,49310, 123:-0,91011, 122:-0,18739, 121:-0,34110, 120:-0,44825, 119:-0,46580,
                118:-0,46830, 117:-0,67859, 116: 0,66715, 115: 0,33040, 114: 0,18255, 113: 0,13552, 112: 0,99919, 111: 0,44158,
                110:-0,17876, 109:-0,07864, 108:-0,46886, 107:-0,68445, 106:-0,55933, 105: 0,09506, 104: 0,79006, 103:-0,75778,
                102: 0,90733, 101: 0,46738, 100:-0,41624,  99:-0,66806,  98:-0,46812,  97:-0,12127,  96:-0,03055,  95: 0,72113,
                 94: 0,59090,  93: 0,56889,  92: 0,52442,  91:-0,60161,  90: 0,56024,  89: 0,95226,  88: 0,93571,  87: 0,94092,
                 86: 0,18872,  85: 0,35227,  84:-0,59538,  83:-0,93861,  82: 0,61884,  81: 0,61210,  80:-0,39087,  79: 0,94906,
                 78: 0,36256,  77:-0,88240,  76: 0,50154,  75: 0,36149,  74:-0,58934,  73:-0,67609,  72: 0,33695,  71:-0,14212,
                 70:-0,52892,  69: 0,45868,  68: 0,61251,  67: 0,68923,  66: 0,20284,  65: 0,67428,  64:-0,59201,  63: 0,05989,
                 62: 0,27724,  61:-0,05846,  60:-0,40270,  59:-0,20978,  58:-0,37235,  57: 0,72308,  56:-0,02637,  55:-0,96186,
                 54: 0,84562,  53: 0,64923,  52:-0,79919,  51: 0,53239,  50: 0,37656,  49:-0,33709,  48:-0,84143,  47:-0,25874,
                 46:-0,97121,  45:-0,57377,  44: 0,45581,  43: 0,21461,  42:-0,07042,  41: 0,12394,  40:-0,80665,  39: 0,81482,
                 38:-0,93154,  37: 0,49378,  36:-0,70422,  35:-0,82575,  34:-0,87968,  33:-0,79359,  32: 0,51214,  31:-0,88417,
                 30:-0,47298,  29:-0,74242,  28:-0,59969,  27: 0,24234,  26:-0,44235,  25:-0,62019,  24:-0,06702,  23:-0,11607,
                 22: 0,01671,  21:-0,40757,  20: 0,75074,  19: 0,19852,  18: 0,70829,  17: 0,75684,  16:-0,72593,  15: 0,70313,
                 14: 0,00817,  13: 0,66369,  12:-0,10887,  11: 0,79391,  10:-0,20952,   9:-0,06814,   8:-0,94147,   7:-0,04016,
                  6: 0,37723,   5: 0,43328,   4:-0,53015,   3: 0,13860,   2: 0,53651,   1: 0,56790
   158 |      | 150: 0,88781, 149:-0,71190, 148: 0,39839, 147: 0,27969, 146:-0,70847, 145: 0,35338, 144: 0,22248, 143: 0,95606,
                142: 0,48802, 141: 0,51309, 140:-0,17597, 139: 0,71926, 138:-0,25612, 137:-0,55663, 136: 0,52224, 135:-0,47488,
                134: 0,62098, 133: 0,35350, 132:-0,24432, 131: 0,36634, 130:-0,84669, 129: 0,04247, 128:-0,27254, 127:-0,99344,
                126: 0,39160, 125: 0,95330, 124:-0,56345, 123: 0,18357, 122:-0,83529, 121:-0,90740, 120:-0,02795, 119:-0,43889,
                118: 0,58112, 117: 0,98644, 116: 0,40409, 115:-0,23019, 114: 0,44433, 113:-0,61579, 112: 0,02105, 111:-0,92245,
                110: 0,32826, 109:-0,54899, 108: 0,50335, 107: 0,02528, 106: 0,15747, 105: 0,48932, 104: 0,25698, 103: 0,99057,
                102:-0,47885, 101: 0,61748, 100:-0,66983,  99:-0,38379,  98: 0,03613,  97:-0,34957,  96:-0,21221,  95: 0,66413,
                 94:-0,56587,  93: 0,05546,  92: 0,20519,  91:-0,29483,  90: 0,91134,  89: 0,19920,  88: 0,06355,  87: 0,49471,
                 86:-0,97179,  85:-0,89716,  84:-0,32014,  83:-0,44484,  82: 0,12613,  81:-0,95069,  80:-0,80454,  79:-0,18748,
                 78:-0,96889,  77: 0,14307,  76:-0,21133,  75:-0,17870,  74:-0,40168,  73:-0,65872,  72: 0,29004,  71: 0,64543,
                 70: 0,42276,  69:-0,37923,  68: 0,78715,  67: 0,61112,  66: 0,46868,  65:-0,58743,  64:-0,45707,  63: 0,45863,
                 62: 0,27432,  61:-0,14703,  60: 0,95310,  59:-0,27546,  58:-0,75184,  57: 0,92461,  56:-0,41912,  55: 0,09505,
                 54: 0,02346,  53: 0,38249,  52:-0,82113,  51: 0,87758,  50: 0,16920,  49:-0,80087,  48: 0,59716,  47:-0,68531,
                 46:-0,78386,  45: 0,87219,  44:-0,45449,  43: 0,16835,  42:-0,95045,  41:-0,40089,  40: 0,19476,  39:-0,43202,
                 38:-0,49547,  37: 0,35303,  36: 0,84475,  35:-0,43805,  34:-0,60710,  33:-0,86424,  32: 0,53335,  31:-0,06339,
                 30:-0,73654,  29: 0,01598,  28: 0,10302,  27: 0,75073,  26:-0,32060,  25: 0,39087,  24: 0,37030,  23:-0,46301,
                 22: 0,57202,  21: 0,67728,  20:-0,43822,  19:-0,61105,  18:-0,16009,  17:-0,68534,  16:-0,10774,  15: 0,10498,
                 14:-0,49533,  13:-0,45159,  12:-0,71849,  11: 0,40608,  10: 0,76156,   9:-0,50765,   8:-0,14643,   7:-0,03286,
                  6:-0,31435,   5: 0,00657,   4: 0,56202,   3:-0,12961,   2:-0,66198,   1:-0,93128
   159 |      | 150:-0,84753, 149:-0,11705, 148: 0,68870, 147: 0,70973, 146:-0,29523, 145:-0,94341, 144: 0,67761, 143:-0,24864,
                142:-0,99015, 141:-0,94727, 140: 0,42100, 139:-0,66722, 138: 0,44903, 137: 0,40493, 136:-0,55554, 135: 0,54614,
                134: 0,37042, 133: 0,69245, 132:-0,75151, 131: 0,30789, 130: 0,21830, 129: 0,48427, 128:-0,58698, 127: 0,37432,
                126: 0,03022, 125: 0,62071, 124:-0,85700, 123:-0,16169, 122:-0,97554, 121:-0,86867, 120: 0,59301, 119: 0,38882,
                118: 0,12752, 117: 0,37393, 116: 0,84544, 115:-0,39023, 114: 0,70782, 113:-0,41975, 112:-0,76625, 111:-0,76595,
                110: 0,85028, 109: 0,29504, 108:-0,26272, 107: 0,95217, 106:-0,13128, 105:-0,76349, 104: 0,89962, 103: 0,40978,
                102:-0,16667, 101: 0,08635, 100:-0,36162,  99:-0,87257,  98: 0,39380,  97: 0,48844,  96:-0,54380,  95:-0,14184,
                 94:-0,40907,  93: 0,10868,  92: 0,99256,  91: 0,38909,  90:-0,56055,  89: 0,64800,  88:-0,82823,  87: 0,92461,
                 86:-0,62062,  85: 0,03107,  84:-0,97056,  83: 0,29766,  82: 0,06468,  81: 0,09081,  80:-0,20301,  79: 0,58742,
                 78:-0,00449,  77: 0,57009,  76: 0,18038,  75:-0,07439,  74:-0,90143,  73: 0,45683,  72:-0,29361,  71: 0,90750,
                 70:-0,80912,  69:-0,99483,  68:-0,72161,  67:-0,95097,  66: 0,28240,  65: 0,37601,  64:-0,03158,  63:-0,98103,
                 62:-0,38228,  61:-0,08400,  60:-0,11369,  59: 0,19845,  58: 0,24404,  57: 0,59995,  56: 0,55637,  55:-0,33720,
                 54: 0,52158,  53:-0,83959,  52:-0,52550,  51: 0,52884,  50: 0,44246,  49:-0,35154,  48: 0,82112,  47: 0,25982,
                 46: 0,75677,  45:-0,50423,  44: 0,10880,  43:-0,13025,  42:-0,13732,  41:-0,87859,  40:-0,18325,  39:-0,17365,
                 38: 0,12485,  37: 0,44452,  36:-0,18871,  35:-0,97114,  34: 0,94645,  33: 0,67951,  32: 0,10388,  31:-0,34559,
                 30: 0,52245,  29:-0,98631,  28:-0,17886,  27: 0,44810,  26:-0,98814,  25: 0,36381,  24:-0,74917,  23:-0,38950,
                 22:-0,06642,  21:-0,29878,  20: 0,60944,  19:-0,35099,  18:-0,75522,  17: 0,40210,  16: 0,41114,  15:-0,84929,
                 14: 0,91314,  13:-0,14410,  12: 0,69166,  11: 0,55462,  10:-0,76220,   9:-0,05839,   8:-0,92335,   7: 0,70705,
                  6: 0,88184,   5:-0,09430,   4:-0,96684,   3: 0,73801,   2:-0,99248,   1: 0,25061
   160 |      | 150: 0,96845, 149: 0,28934, 148:-0,77148, 147: 0,15761, 146:-0,07705, 145: 0,43831, 144: 0,84790, 143: 0,23399,
                142: 0,76203, 141: 0,50108, 140:-0,48803, 139: 0,94538, 138: 0,65009, 137: 0,18107, 136: 0,74739, 135: 0,76619,
                134: 0,73399, 133: 0,12570, 132: 0,33340, 131:-0,45203, 130:-0,07757, 129: 0,17786, 128:-0,45388, 127: 0,95226,
                126:-0,16353, 125: 0,42367, 124: 0,38873, 123:-0,15296, 122: 0,85678, 121: 0,18849, 120: 0,43760, 119:-0,70835,
                118: 0,74552, 117:-0,57573, 116: 0,30827, 115:-0,54946, 114:-0,10673, 113: 0,96266, 112:-0,60167, 111: 0,93964,
                110: 0,76719, 109: 0,42660, 108:-0,67967, 107:-0,65420, 106:-0,04717, 105:-0,96866, 104:-0,22618, 103:-0,86971,
                102: 0,53291, 101:-0,32810, 100: 0,15761,  99:-0,98139,  98:-0,91697,  97: 0,48371,  96:-0,71840,  95:-0,98621,
                 94:-0,15831,  93: 0,14816,  92: 0,54932,  91: 0,09946,  90:-0,40454,  89:-0,44913,  88:-0,94794,  87:-0,19398,
                 86: 0,37619,  85:-0,27564,  84:-0,59895,  83: 0,41247,  82: 0,47334,  81: 0,33550,  80:-0,25592,  79: 0,49429,
                 78: 0,70113,  77: 0,11040,  76:-0,66276,  75: 0,67946,  74:-0,08420,  73: 0,60619,  72: 0,00082,  71: 0,25091,
                 70:-0,05341,  69: 0,50036,  68: 0,66561,  67: 0,07121,  66:-0,71413,  65:-0,78174,  64:-0,44770,  63:-0,82265,
                 62: 0,88561,  61: 0,18021,  60:-0,97993,  59: 0,29971,  58: 0,44174,  57:-0,57247,  56:-0,87550,  55: 0,03486,
                 54: 0,73447,  53:-0,13214,  52:-0,05137,  51:-0,99009,  50:-0,54322,  49:-0,86848,  48:-0,01876,  47:-0,78710,
                 46: 0,93568,  45: 0,10175,  44: 0,53508,  43:-0,14391,  42:-0,92886,  41:-0,09788,  40:-0,59696,  39:-0,65470,
                 38:-0,57202,  37: 0,60591,  36: 0,77763,  35: 0,83779,  34:-0,13145,  33:-0,43313,  32: 0,69882,  31: 0,70449,
                 30: 0,46415,  29:-0,76681,  28:-0,10446,  27: 0,22194,  26: 0,13460,  25: 0,05067,  24:-0,55088,  23:-0,21264,
                 22:-0,09341,  21: 0,82441,  20: 0,99394,  19: 0,69239,  18: 0,62834,  17:-0,79242,  16:-0,40376,  15:-0,64769,
                 14: 0,11238,  13:-0,87958,  12:-0,41018,  11:-0,75512,  10:-0,91329,   9: 0,45221,   8:-0,27543,   7: 0,57475,
                  6: 0,01355,   5: 0,72498,   4:-0,61350,   3: 0,78525,   2: 0,18195,   1:-0,85691
   161 |      | 150: 0,95956, 149: 0,80496, 148:-0,95937, 147: 0,38155, 146:-0,60987, 145:-0,13512, 144:-0,12490, 143:-0,08241,
                142:-0,81826, 141:-0,22862, 140: 0,08552, 139:-0,09751, 138: 0,75436, 137: 0,55232, 136: 0,10603, 135: 0,52817,
                134: 0,12257, 133: 0,21697, 132:-0,85142, 131: 0,48732, 130: 0,47587, 129:-0,54509, 128: 0,87204, 127: 0,08226,
                126: 0,02650, 125: 0,20439, 124:-0,64872, 123:-0,33878, 122:-0,48136, 121: 0,49188, 120: 0,73967, 119:-0,29084,
                118: 0,92494, 117: 0,86776, 116: 0,35826, 115:-0,39153, 114: 0,44577, 113: 0,70226, 112: 0,59688, 111: 0,64194,
                110:-0,74388, 109: 0,43227, 108:-0,28456, 107:-0,50200, 106:-0,17013, 105: 0,83748, 104: 0,40350, 103:-0,72983,
                102:-0,04397, 101: 0,75547, 100: 0,59295,  99:-0,20636,  98:-0,37594,  97: 0,90803,  96: 0,60102,  95: 0,85816,
                 94: 0,20361,  93:-0,80103,  92: 0,07176,  91: 0,26449,  90:-0,78274,  89: 0,85732,  88: 0,52494,  87:-0,60876,
                 86: 0,47405,  85:-0,05382,  84:-0,46370,  83:-0,39148,  82: 0,39847,  81: 0,24895,  80:-0,13273,  79:-0,13353,
                 78: 0,58725,  77:-0,49927,  76:-0,77769,  75: 0,61198,  74:-0,47993,  73: 0,87860,  72:-0,99518,  71:-0,99014,
                 70:-0,96576,  69:-0,96813,  68: 0,51732,  67: 0,58943,  66: 0,77635,  65: 0,56012,  64:-0,16108,  63: 0,88095,
                 62:-0,97746,  61:-0,52257,  60: 0,22299,  59: 0,48440,  58:-0,29644,  57: 0,98524,  56: 0,68448,  55:-0,88347,
                 54: 0,40215,  53:-0,12878,  52: 0,66214,  51:-0,54273,  50: 0,75926,  49:-0,48015,  48: 0,70190,  47:-0,33125,
                 46: 0,91705,  45:-0,76863,  44: 0,24965,  43:-0,95260,  42:-0,84646,  41: 0,07453,  40:-0,61760,  39: 0,80883,
                 38:-0,92730,  37:-0,47271,  36: 0,94527,  35: 0,06839,  34: 0,98134,  33:-0,22452,  32: 0,67777,  31: 0,89645,
                 30: 0,31859,  29:-0,26260,  28:-0,13227,  27: 0,28016,  26:-0,85511,  25: 0,06191,  24:-0,49196,  23: 0,95534,
                 22: 0,21499,  21: 0,81620,  20: 0,27325,  19:-0,42096,  18:-0,44319,  17:-0,95070,  16: 0,58541,  15: 0,44963,
                 14: 0,78690,  13: 0,50859,  12: 0,08808,  11:-0,04350,  10: 0,67938,   9: 0,52284,   8:-0,23919,   7: 0,82125,
                  6:-0,63659,   5:-0,61922,   4: 0,23336,   3:-0,20024,   2:-0,41811,   1:-0,23630
   162 |      | 150: 0,32725, 149: 0,85918, 148:-0,81855, 147: 0,09189, 146: 0,24184, 145:-0,61201, 144:-0,43912, 143:-0,07811,
                142:-0,49304, 141: 0,67526, 140:-0,29665, 139:-0,35953, 138:-0,78350, 137: 0,23640, 136:-0,77558, 135:-0,72876,
                134:-0,78756, 133: 0,17986, 132: 0,68475, 131:-0,99252, 130: 0,63254, 129: 0,69319, 128:-0,80896, 127: 0,24678,
                126: 0,55146, 125: 0,07519, 124: 0,97166, 123: 0,51449, 122:-0,34511, 121: 0,93052, 120:-0,09875, 119: 0,14654,
                118: 0,32128, 117: 0,86484, 116: 0,15606, 115:-0,37822, 114: 0,46423, 113: 0,92638, 112: 0,02743, 111:-0,53362,
                110: 0,55184, 109: 0,10683, 108: 0,21194, 107:-0,37841, 106: 0,06426, 105: 0,44173, 104:-0,15505, 103: 0,27687,
                102: 0,63106, 101:-0,82944, 100: 0,26996,  99: 0,40934,  98: 0,71568,  97: 0,59582,  96: 0,56431,  95:-0,09560,
                 94:-0,84932,  93:-0,18814,  92: 0,60340,  91: 0,21167,  90: 0,39794,  89:-0,51239,  88:-0,22036,  87:-0,65662,
                 86: 0,08960,  85:-0,96185,  84: 0,14214,  83: 0,76164,  82:-0,66527,  81: 0,50047,  80: 0,83961,  79: 0,71888,
                 78: 0,24278,  77:-0,54314,  76:-0,61210,  75:-0,91478,  74:-0,93348,  73:-0,32051,  72:-0,09032,  71:-0,92573,
                 70:-0,09275,  69:-0,41694,  68:-0,52666,  67: 0,79952,  66: 0,81294,  65:-0,11511,  64: 0,76987,  63: 0,77573,
                 62: 0,75276,  61: 0,42826,  60: 0,28912,  59: 0,62205,  58:-0,05952,  57: 0,30243,  56:-0,01990,  55:-0,09397,
                 54:-0,46690,  53:-0,89962,  52: 0,09717,  51:-0,34843,  50:-0,76465,  49: 0,33060,  48:-0,05412,  47:-0,83801,
                 46:-0,16475,  45:-0,88434,  44:-0,14487,  43:-0,09499,  42:-0,62117,  41: 0,86685,  40: 0,62952,  39: 0,97571,
                 38: 0,41690,  37: 0,65634,  36:-0,40402,  35: 0,58126,  34: 0,53217,  33:-0,42076,  32: 0,17783,  31:-0,15333,
                 30:-0,15100,  29: 0,10396,  28:-0,36144,  27:-0,42872,  26: 0,26034,  25:-0,12302,  24: 0,57492,  23: 0,20231,
                 22:-0,84162,  21: 0,83599,  20: 0,14880,  19:-0,15434,  18: 0,15869,  17:-0,01725,  16: 0,57927,  15:-0,50294,
                 14: 0,95672,  13: 0,49438,  12: 0,62826,  11:-0,47584,  10: 0,49387,   9: 0,76165,   8: 0,66698,   7:-0,28511,
                  6:-0,85460,   5:-0,28222,   4: 0,27533,   3: 0,66851,   2: 0,93015,   1: 0,77603
   163 |      | 150:-0,04215, 149:-0,29830, 148:-0,32536, 147: 0,84640, 146:-0,86214, 145:-0,01590, 144: 0,41243, 143: 0,35528,
                142: 0,38528, 141: 0,28244, 140: 0,64465, 139:-0,36015, 138: 0,21020, 137: 0,23776, 136:-0,13303, 135:-0,05191,
                134:-0,59691, 133: 0,41499, 132:-0,63969, 131:-0,47326, 130: 0,08993, 129: 0,53100, 128: 0,27516, 127: 0,60223,
                126:-0,27664, 125: 0,91204, 124: 0,86410, 123:-0,41908, 122:-0,08070, 121: 0,37433, 120:-0,65945, 119: 0,23702,
                118: 0,66252, 117: 0,79866, 116:-0,77719, 115:-0,21636, 114: 0,44939, 113:-0,36485, 112: 0,43906, 111:-0,21470,
                110:-0,10799, 109: 0,52734, 108: 0,60282, 107: 0,52641, 106: 0,14375, 105: 0,19134, 104:-0,63048, 103: 0,90299,
                102:-0,25948, 101:-0,45422, 100:-0,06897,  99: 0,19219,  98:-0,83985,  97:-0,30859,  96:-0,33084,  95:-0,37397,
                 94:-0,89806,  93: 0,38340,  92: 0,65128,  91:-0,03683,  90: 0,39093,  89: 0,82063,  88:-0,26976,  87: 0,92321,
                 86: 0,02555,  85: 0,34190,  84:-0,07745,  83: 0,18741,  82: 0,54607,  81: 0,54291,  80: 0,82831,  79: 0,68457,
                 78: 0,13942,  77:-0,39776,  76:-0,97150,  75:-0,87627,  74:-0,88548,  73: 0,68062,  72: 0,61645,  71:-0,41804,
                 70: 0,20202,  69:-0,90021,  68: 0,72480,  67: 0,70322,  66: 0,97632,  65:-0,12555,  64:-0,36691,  63:-0,54060,
                 62: 0,28924,  61: 0,87668,  60:-0,20974,  59:-0,94934,  58:-0,58744,  57:-0,49947,  56: 0,94831,  55:-0,58076,
                 54: 0,37423,  53:-0,21701,  52: 0,14719,  51:-0,04451,  50: 0,31713,  49: 0,41895,  48:-0,81263,  47:-0,36740,
                 46:-0,58888,  45: 0,37625,  44:-0,43888,  43:-0,79150,  42:-0,47965,  41:-0,41857,  40: 0,86978,  39: 0,02894,
                 38:-0,59461,  37: 0,66687,  36:-0,83127,  35: 0,79681,  34:-0,68897,  33:-0,54022,  32:-0,75478,  31: 0,49716,
                 30:-0,57885,  29: 0,95000,  28:-0,14767,  27: 0,30237,  26:-0,51947,  25:-0,97140,  24:-0,36679,  23:-0,99793,
                 22: 0,98675,  21:-0,61106,  20: 0,83025,  19: 0,54114,  18: 0,50753,  17: 0,59618,  16:-0,36199,  15: 0,10650,
                 14: 0,94532,  13: 0,23871,  12:-0,25852,  11:-0,53075,  10:-0,13044,   9: 0,17282,   8: 0,55978,   7: 0,79224,
                  6: 0,43480,   5:-0,35832,   4:-0,03274,   3: 0,68820,   2: 0,88442,   1: 0,25567
   164 |      | 150:-0,81561, 149:-0,60798, 148:-0,21594, 147:-0,01933, 146: 0,50841, 145: 0,97337, 144: 0,91922, 143:-0,71917,
                142: 0,80620, 141: 0,73394, 140: 0,85535, 139:-0,91250, 138: 0,44890, 137: 0,79233, 136:-0,06937, 135: 0,97583,
                134: 0,33865, 133:-0,78635, 132:-0,24945, 131: 0,10506, 130: 0,30905, 129:-0,72013, 128:-0,76480, 127:-0,05475,
                126: 0,49724, 125: 0,82609, 124: 0,72806, 123: 0,22632, 122: 0,49316, 121: 0,34903, 120:-0,39348, 119:-0,36900,
                118:-0,38919, 117:-0,39578, 116: 0,35100, 115: 0,61202, 114:-0,85433, 113: 0,68722, 112:-0,48083, 111: 0,59668,
                110:-0,24205, 109:-0,34113, 108: 0,95095, 107:-0,90624, 106:-0,16728, 105: 0,92519, 104: 0,37061, 103: 0,21560,
                102:-0,09409, 101:-0,60278, 100:-0,41723,  99: 0,78088,  98:-0,99906,  97: 0,29834,  96: 0,06490,  95:-0,59023,
                 94:-0,60313,  93:-0,00292,  92: 0,98005,  91: 0,33431,  90:-0,74905,  89:-0,15272,  88: 0,66803,  87: 0,52397,
                 86: 0,33971,  85:-0,58080,  84:-0,62555,  83:-0,79614,  82: 0,58199,  81:-0,80908,  80:-0,64553,  79:-0,01578,
                 78: 0,99043,  77: 0,50756,  76:-0,79216,  75:-0,77889,  74:-0,80392,  73: 0,95416,  72:-0,81331,  71: 0,51643,
                 70: 0,04246,  69:-0,94250,  68: 0,74497,  67: 0,59827,  66: 0,19377,  65:-0,95632,  64:-0,59576,  63: 0,39065,
                 62:-0,10146,  61:-0,87571,  60:-0,61464,  59:-0,39601,  58: 0,55079,  57: 0,13892,  56:-0,15380,  55:-0,59174,
                 54:-0,54153,  53: 0,29969,  52:-0,92353,  51: 0,97047,  50: 0,13340,  49: 0,00205,  48: 0,89071,  47:-0,83606,
                 46:-0,26713,  45:-0,79834,  44: 0,64639,  43: 0,43183,  42:-0,80755,  41:-0,49093,  40: 0,86733,  39: 0,49115,
                 38: 0,68041,  37:-0,99739,  36:-0,89725,  35:-0,29823,  34: 0,76983,  33:-0,33397,  32:-0,71709,  31:-0,06076,
                 30:-0,93304,  29: 0,46378,  28:-0,01453,  27:-0,33036,  26:-0,24191,  25: 0,29776,  24: 0,39890,  23:-0,36743,
                 22: 0,85749,  21:-0,35106,  20:-0,28532,  19:-0,37332,  18: 0,97264,  17:-0,41696,  16:-0,29227,  15: 0,92597,
                 14:-0,32274,  13:-0,74235,  12: 0,54107,  11: 0,93054,  10: 0,52813,   9:-0,84101,   8:-0,32172,   7:-0,10170,
                  6:-0,78340,   5: 0,34888,   4:-0,81582,   3: 0,67375,   2: 0,05420,   1: 0,12861
   165 |      | 150:-0,08486, 149: 0,10405, 148:-0,88207, 147:-0,46421, 146: 0,64305, 145:-0,15704, 144: 0,97947, 143:-0,79751,
                142:-0,75663, 141: 0,73535, 140:-0,65501, 139:-0,09167, 138:-0,86063, 137: 0,88921, 136:-0,84234, 135: 0,08830,
                134: 0,01538, 133: 0,82143, 132:-0,84882, 131: 0,22486, 130: 0,07399, 129: 0,96644, 128:-0,15993, 127:-0,11398,
                126: 0,71692, 125: 0,00619, 124: 0,77780, 123: 0,27528, 122:-0,83518, 121: 0,37560, 120: 0,30931, 119: 0,66940,
                118:-0,18718, 117:-0,19466, 116: 0,24741, 115: 0,70469, 114:-0,97281, 113: 0,81027, 112: 0,25957, 111:-0,31767,
                110:-0,87398, 109:-0,66939, 108:-0,02982, 107:-0,24673, 106:-0,51316, 105:-0,09897, 104:-0,65220, 103: 0,02085,
                102: 0,15033, 101:-0,21130, 100:-0,37334,  99: 0,93291,  98: 0,53857,  97: 0,43353,  96:-0,64637,  95: 0,64528,
                 94: 0,60408,  93:-0,41743,  92: 0,98816,  91:-0,19537,  90:-0,96788,  89: 0,97882,  88:-0,57735,  87: 0,05518,
                 86: 0,22125,  85: 0,99284,  84: 0,72851,  83:-0,18841,  82: 0,38760,  81:-0,26885,  80:-0,95834,  79:-0,09271,
                 78: 0,02879,  77: 0,88007,  76:-0,26395,  75:-0,27390,  74:-0,57406,  73:-0,28238,  72: 0,63055,  71: 0,61631,
                 70: 0,17303,  69:-0,37595,  68:-0,04773,  67: 0,68509,  66:-0,25432,  65:-0,77432,  64:-0,06543,  63: 0,55061,
                 62:-0,26470,  61: 0,60406,  60: 0,34365,  59:-0,98295,  58: 0,98534,  57: 0,28867,  56:-0,23797,  55:-0,18017,
                 54:-0,08385,  53: 0,92458,  52: 0,25571,  51: 0,10414,  50:-0,21831,  49: 0,37613,  48:-0,96398,  47: 0,84838,
                 46:-0,53037,  45: 0,80370,  44:-0,89652,  43: 0,37735,  42:-0,73294,  41: 0,05486,  40: 0,61560,  39: 0,93895,
                 38: 0,33343,  37: 0,06693,  36: 0,12015,  35:-0,79225,  34:-0,45510,  33: 0,31822,  32:-0,10986,  31: 0,85202,
                 30: 0,02777,  29:-0,47299,  28: 0,71563,  27:-0,06379,  26:-0,25938,  25:-0,47445,  24:-0,23775,  23: 0,06246,
                 22:-0,41476,  21: 0,68063,  20: 0,88960,  19:-0,42558,  18: 0,94580,  17:-0,55017,  16: 0,30846,  15:-0,19858,
                 14:-0,47418,  13:-0,88397,  12: 0,09824,  11:-0,18628,  10: 0,65685,   9: 0,80131,   8:-0,85701,   7:-0,74864,
                  6:-0,29417,   5:-0,69945,   4:-0,00800,   3:-0,10560,   2:-0,84507,   1: 0,77599
   166 |      | 150: 0,33467, 149:-0,25366, 148:-0,99450, 147:-0,47869, 146: 0,61652, 145: 0,68218, 144: 0,67253, 143:-0,61756,
                142: 0,42073, 141:-0,81386, 140: 0,52571, 139: 0,05009, 138: 0,31424, 137:-0,75990, 136: 0,42720, 135:-0,60042,
                134:-0,02626, 133: 0,50637, 132:-0,93583, 131:-0,67827, 130:-0,03064, 129: 0,36888, 128:-0,96390, 127: 0,20110,
                126:-0,32661, 125:-0,26173, 124: 0,17780, 123: 0,38998, 122:-0,19440, 121: 0,36242, 120:-0,73464, 119: 0,84023,
                118: 0,86267, 117: 0,49236, 116: 0,01770, 115: 0,95721, 114:-0,31614, 113:-0,96813, 112:-0,20596, 111: 0,80921,
                110: 0,31185, 109:-0,06281, 108: 0,24835, 107:-0,04501, 106: 0,40948, 105:-0,64874, 104:-0,00871, 103:-0,98577,
                102:-0,76499, 101:-0,49272, 100:-0,00761,  99:-0,34288,  98: 0,66625,  97:-0,89801,  96:-0,10163,  95:-0,33499,
                 94:-0,74476,  93: 0,93468,  92:-0,07632,  91:-0,86715,  90: 0,70778,  89:-0,02141,  88: 0,66782,  87: 0,54381,
                 86: 0,58684,  85:-0,42466,  84: 0,71863,  83: 0,42789,  82:-0,83447,  81: 0,52646,  80: 0,70606,  79:-0,51984,
                 78: 0,08767,  77:-0,05895,  76:-0,52334,  75: 0,50379,  74:-0,62650,  73: 0,75299,  72: 0,07267,  71: 0,28137,
                 70:-0,96791,  69: 0,84954,  68:-0,56678,  67:-0,32919,  66: 0,46363,  65: 0,28652,  64: 0,30829,  63:-0,14483,
                 62: 0,46459,  61:-0,33011,  60: 0,31435,  59:-0,98247,  58: 0,15125,  57: 0,55359,  56: 0,79511,  55:-0,19025,
                 54:-0,18335,  53: 0,76737,  52:-0,98038,  51:-0,82989,  50: 0,60920,  49: 0,60276,  48:-0,00205,  47: 0,42769,
                 46: 0,10385,  45: 0,44108,  44: 0,97061,  43: 0,60689,  42: 0,11964,  41:-0,07566,  40: 0,49034,  39: 0,58420,
                 38: 0,46791,  37:-0,59996,  36:-0,57486,  35:-0,29090,  34:-0,70352,  33:-0,10166,  32: 0,53959,  31:-0,08365,
                 30: 0,08776,  29: 0,13749,  28:-0,66733,  27: 0,74589,  26:-0,41288,  25: 0,34878,  24: 0,20596,  23:-0,65116,
                 22: 0,55615,  21: 0,44043,  20:-0,10575,  19: 0,07215,  18:-0,50907,  17:-0,90948,  16: 0,40575,  15: 0,94313,
                 14: 0,70306,  13:-0,28940,  12:-0,10913,  11: 0,96006,  10: 0,47272,   9: 0,32583,   8:-0,80579,   7:-0,03940,
                  6: 0,54451,   5:-0,22477,   4: 0,05686,   3:-0,30967,   2:-0,09692,   1: 0,28067
   167 |      | 150:-0,98309, 149:-0,45502, 148: 0,43040, 147:-0,69963, 146:-0,20310, 145: 0,52343, 144:-0,43328, 143: 0,12436,
                142: 0,25314, 141: 0,70399, 140: 0,08644, 139: 0,41090, 138:-0,31141, 137: 0,91223, 136:-0,58677, 135:-0,46284,
                134: 0,56114, 133: 0,11228, 132:-0,42513, 131: 0,04425, 130:-0,73581, 129:-0,78036, 128:-0,86655, 127:-0,89085,
                126:-0,92609, 125:-0,42995, 124: 0,42761, 123:-0,76193, 122:-0,40782, 121:-0,95841, 120: 0,97377, 119: 0,72569,
                118:-0,63160, 117:-0,38033, 116:-0,24568, 115: 0,48672, 114: 0,24404, 113:-0,27974, 112:-0,16090, 111:-0,54063,
                110:-0,87310, 109:-0,08252, 108: 0,22016, 107:-0,50815, 106:-0,54975, 105:-0,41375, 104:-0,70337, 103: 0,94797,
                102:-0,63546, 101:-0,74588, 100:-0,43401,  99: 0,10571,  98: 0,89043,  97:-0,30093,  96:-0,26965,  95: 0,58065,
                 94:-0,24599,  93: 0,72991,  92:-0,38500,  91:-0,30309,  90:-0,36565,  89:-0,50421,  88:-0,44766,  87: 0,07095,
                 86: 0,06549,  85: 0,60183,  84:-0,22596,  83:-0,80616,  82: 0,51810,  81: 0,42391,  80:-0,02766,  79:-0,07345,
                 78: 0,28784,  77: 0,14074,  76: 0,66490,  75:-0,60109,  74:-0,93039,  73:-0,88707,  72:-0,01488,  71: 0,57011,
                 70:-0,39074,  69: 0,47221,  68:-0,28947,  67: 0,81686,  66:-0,00942,  65:-0,06984,  64: 0,95645,  63: 0,42195,
                 62:-0,89130,  61: 0,82187,  60: 0,25271,  59: 0,20380,  58:-0,84340,  57:-0,13023,  56:-0,52912,  55: 0,12461,
                 54: 0,74615,  53: 0,84551,  52:-0,90758,  51:-0,68149,  50: 0,11521,  49: 0,64018,  48: 0,95107,  47: 0,27089,
                 46: 0,03864,  45:-0,20310,  44: 0,22104,  43:-0,05435,  42:-0,85859,  41:-0,45668,  40: 0,96591,  39:-0,50874,
                 38:-0,33018,  37:-0,82929,  36: 0,95002,  35: 0,16108,  34: 0,05285,  33: 0,28029,  32: 0,11582,  31: 0,56282,
                 30: 0,20537,  29:-0,84466,  28: 0,64840,  27: 0,02204,  26:-0,80798,  25:-0,82827,  24:-0,08331,  23: 0,32162,
                 22: 0,07221,  21: 0,74021,  20:-0,13768,  19: 0,39052,  18: 0,25026,  17:-0,55333,  16:-0,80053,  15: 0,59138,
                 14: 0,00881,  13: 0,64435,  12: 0,71736,  11: 0,43619,  10:-0,06140,   9: 0,23288,   8:-0,79899,   7: 0,08601,
                  6:-0,69506,   5:-0,63221,   4: 0,19421,   3:-0,48476,   2: 0,90284,   1:-0,32801
   168 |      | 150:-0,70017, 149: 0,32309, 148:-0,38535, 147: 0,11987, 146:-0,41521, 145:-0,26437, 144:-0,81314, 143: 0,67083,
                142:-0,23124, 141: 0,03017, 140:-0,90345, 139:-0,46872, 138:-0,91229, 137:-0,54445, 136: 0,34415, 135:-0,89965,
                134:-0,23296, 133: 0,56689, 132: 0,29709, 131: 0,44517, 130: 0,33056, 129:-0,59637, 128: 0,98390, 127:-0,13292,
                126: 0,49858, 125:-0,75643, 124: 0,16326, 123:-0,99282, 122:-0,22213, 121:-0,85007, 120:-0,67121, 119: 0,12044,
                118: 0,14826, 117:-0,22514, 116: 0,88644, 115: 0,49556, 114: 0,39876, 113: 0,70834, 112:-0,36071, 111: 0,97682,
                110:-0,22185, 109:-0,94762, 108: 0,94581, 107: 0,71904, 106:-0,77260, 105:-0,87516, 104: 0,64703, 103:-0,22796,
                102: 0,98462, 101:-0,69708, 100:-0,59092,  99:-0,02471,  98:-0,36345,  97:-0,66494,  96: 0,47694,  95:-0,39699,
                 94: 0,47711,  93: 0,09121,  92: 0,12018,  91: 0,92624,  90: 0,47399,  89:-0,92104,  88:-0,93980,  87:-0,42957,
                 86:-0,70450,  85: 0,30031,  84:-0,14901,  83: 0,49797,  82:-0,82564,  81:-0,38383,  80:-0,85697,  79:-0,58283,
                 78: 0,25231,  77: 0,95852,  76:-0,24635,  75: 0,22779,  74:-0,76547,  73: 0,00264,  72:-0,08716,  71:-0,89685,
                 70: 0,36777,  69:-0,41880,  68: 0,52272,  67:-0,64222,  66: 0,02826,  65: 0,76940,  64: 0,99136,  63:-0,73463,
                 62:-0,44045,  61:-0,44348,  60: 0,56064,  59: 0,41367,  58: 0,83648,  57: 0,98714,  56:-0,91421,  55: 0,48263,
                 54: 0,65604,  53: 0,02860,  52:-0,86219,  51: 0,00978,  50:-0,81753,  49: 0,90483,  48: 0,94204,  47:-0,20231,
                 46: 0,92081,  45: 0,71734,  44:-0,95213,  43: 0,18539,  42: 0,08627,  41: 0,61884,  40: 0,41079,  39: 0,04511,
                 38:-0,29215,  37: 0,16345,  36:-0,41865,  35:-0,29542,  34:-0,30896,  33:-0,44162,  32: 0,41489,  31:-0,80837,
                 30: 0,61101,  29: 0,99824,  28: 0,77545,  27: 0,44123,  26:-0,13602,  25:-0,03360,  24: 0,39822,  23:-0,88392,
                 22:-0,47196,  21: 0,01171,  20:-0,15490,  19:-0,77714,  18:-0,16228,  17: 0,00955,  16: 0,43936,  15: 0,03966,
                 14: 0,42844,  13: 0,02876,  12: 0,46018,  11: 0,32124,  10: 0,73322,   9: 0,66867,   8: 0,62945,   7: 0,16252,
                  6: 0,29623,   5: 0,90220,   4:-0,89416,   3: 0,15483,   2: 0,89317,   1:-0,85860
   169 |      | 150:-0,02873, 149:-0,28722, 148: 0,29248, 147: 0,14805, 146:-0,29247, 145: 0,35538, 144: 0,13098, 143: 0,66549,
                142:-0,84765, 141:-0,14854, 140:-0,67197, 139: 0,42341, 138:-0,32991, 137:-0,49157, 136:-0,89972, 135:-0,48473,
                134:-0,92018, 133: 0,27499, 132:-0,27368, 131:-0,81791, 130: 0,37505, 129:-0,00280, 128: 0,33795, 127: 0,82338,
                126:-0,55869, 125: 0,85822, 124:-0,49548, 123: 0,03519, 122:-0,77686, 121:-0,71605, 120:-0,48655, 119: 0,66304,
                118:-0,27542, 117:-0,59713, 116: 0,02023, 115: 0,19241, 114: 0,48817, 113:-0,07913, 112:-0,70970, 111: 0,67205,
                110:-0,99240, 109: 0,06770, 108:-0,24377, 107: 0,72328, 106: 0,13992, 105: 0,55297, 104:-0,47783, 103: 0,63453,
                102: 0,77810, 101: 0,60658, 100:-0,00015,  99:-0,16514,  98:-0,36157,  97:-0,05444,  96: 0,57367,  95:-0,40108,
                 94:-0,64530,  93: 0,58853,  92: 0,36610,  91:-0,76873,  90:-0,46944,  89:-0,08152,  88:-0,61182,  87:-0,56187,
                 86: 0,88941,  85: 0,26808,  84:-0,02472,  83:-0,49506,  82: 0,11872,  81:-0,03043,  80:-0,93277,  79: 0,29918,
                 78: 0,90247,  77: 0,58089,  76:-0,98056,  75: 0,20696,  74: 0,47384,  73:-0,41718,  72:-0,06862,  71:-0,25731,
                 70:-0,16676,  69: 0,85851,  68:-0,56150,  67:-0,24653,  66: 0,62923,  65:-0,25792,  64:-0,70016,  63: 0,53899,
                 62: 0,18705,  61: 0,28825,  60: 0,47555,  59:-0,35243,  58: 0,91846,  57:-0,99112,  56: 0,55642,  55: 0,06589,
                 54:-0,48438,  53:-0,11230,  52: 0,99239,  51: 0,63059,  50:-0,88951,  49:-0,32635,  48:-0,53838,  47:-0,95568,
                 46: 0,68978,  45:-0,17936,  44:-0,40017,  43:-0,67577,  42: 0,24662,  41:-0,04790,  40:-0,87380,  39: 0,95145,
                 38: 0,70617,  37: 0,24974,  36:-0,10588,  35: 0,68470,  34:-0,10125,  33: 0,97441,  32: 0,57872,  31:-0,13301,
                 30:-0,38459,  29: 0,60351,  28:-0,61086,  27: 0,16201,  26: 0,94511,  25: 0,40218,  24:-0,56010,  23:-0,26315,
                 22: 0,06739,  21: 0,12873,  20:-0,90424,  19:-0,15713,  18: 0,89914,  17:-0,09088,  16: 0,85913,  15: 0,07942,
                 14:-0,55996,  13:-0,09354,  12: 0,12336,  11:-0,94773,  10:-0,67070,   9:-0,52628,   8: 0,57348,   7: 0,01306,
                  6: 0,55123,   5:-0,87114,   4: 0,16487,   3:-0,10077,   2: 0,97176,   1:-0,54190
   170 |      | 150: 0,14971, 149:-0,45104, 148: 0,36557, 147: 0,27572, 146: 0,07384, 145:-0,23480, 144:-0,21529, 143: 0,84038,
                142: 0,37777, 141: 0,73336, 140:-0,20735, 139: 0,96790, 138: 0,83805, 137: 0,22611, 136: 0,17311, 135: 0,48541,
                134: 0,84850, 133:-0,21522, 132: 0,91368, 131: 0,31497, 130:-0,40047, 129:-0,66488, 128: 0,36204, 127:-0,36966,
                126:-0,41614, 125:-0,84477, 124: 0,17170, 123:-0,50076, 122:-0,28214, 121: 0,41926, 120: 0,51719, 119:-0,68088,
                118:-0,96062, 117: 0,22622, 116: 0,03254, 115:-0,96796, 114:-0,73541, 113: 0,39206, 112:-0,38695, 111: 0,88401,
                110:-0,31544, 109: 0,24455, 108:-0,38621, 107:-0,26130, 106:-0,65662, 105:-0,84721, 104:-0,52230, 103: 0,30557,
                102:-0,79587, 101: 0,01768, 100: 0,74090,  99: 0,52402,  98:-0,72627,  97: 0,94817,  96: 0,40215,  95: 0,46128,
                 94:-0,72320,  93: 0,88421,  92: 0,43045,  91:-0,07974,  90: 0,45171,  89: 0,06418,  88: 0,74133,  87:-0,71856,
                 86: 0,05468,  85: 0,57013,  84:-0,76733,  83: 0,46838,  82:-0,97692,  81:-0,65724,  80:-0,22838,  79: 0,16107,
                 78:-0,55553,  77:-0,79989,  76: 0,60922,  75: 0,09488,  74:-0,36067,  73:-0,29240,  72: 0,22040,  71:-0,63103,
                 70: 0,08303,  69: 0,95349,  68:-0,42090,  67: 0,82006,  66: 0,51393,  65: 0,13487,  64: 0,34566,  63:-0,34953,
                 62:-0,49695,  61:-0,36183,  60:-0,76565,  59: 0,37016,  58:-0,24344,  57: 0,31975,  56:-0,78054,  55:-0,26237,
                 54: 0,40093,  53:-0,19914,  52:-0,59081,  51: 0,56444,  50: 0,53450,  49: 0,66602,  48: 0,95670,  47: 0,06096,
                 46: 0,14716,  45: 0,90086,  44: 0,78029,  43:-0,29025,  42:-0,00405,  41: 0,16579,  40: 0,03108,  39:-0,40068,
                 38:-0,27925,  37: 0,54486,  36:-0,01776,  35: 0,65887,  34: 0,08661,  33: 0,23825,  32: 0,53308,  31:-0,49048,
                 30: 0,10268,  29:-0,18650,  28: 0,94193,  27:-0,32477,  26:-0,59878,  25:-0,33919,  24:-0,74986,  23:-0,05505,
                 22: 0,82922,  21:-0,69350,  20: 0,56670,  19:-0,20442,  18: 0,03353,  17: 0,35287,  16:-0,21286,  15:-0,69744,
                 14: 0,88492,  13: 0,69070,  12:-0,83442,  11:-0,00672,  10: 0,02328,   9:-0,03785,   8: 0,59554,   7: 0,03008,
                  6: 0,40541,   5:-0,74318,   4:-0,46059,   3: 0,11889,   2: 0,44583,   1: 0,95512
   171 |      | 150: 0,08037, 149: 0,76441, 148: 0,27325, 147:-0,45512, 146:-0,66895, 145: 0,44995, 144:-0,77217, 143:-0,47166,
                142: 0,11763, 141: 0,53473, 140:-0,22846, 139:-0,88088, 138: 0,52937, 137:-0,37844, 136: 0,13022, 135: 0,64155,
                134:-0,34011, 133:-0,45804, 132: 0,80574, 131: 0,24558, 130:-0,83757, 129: 0,93582, 128: 0,23646, 127: 0,45563,
                126: 0,48522, 125: 0,77042, 124:-0,80076, 123:-0,85138, 122:-0,29208, 121:-0,74250, 120:-0,80406, 119:-0,73357,
                118: 0,83370, 117: 0,23441, 116: 0,32524, 115: 0,12339, 114:-0,89195, 113:-0,14102, 112:-0,43617, 111:-0,19117,
                110:-0,79477, 109: 0,09399, 108: 0,56315, 107:-0,16077, 106:-0,50754, 105: 0,74794, 104:-0,36285, 103:-0,77789,
                102:-0,11699, 101: 0,27275, 100:-0,26867,  99:-0,30120,  98: 0,63190,  97:-0,26897,  96:-0,98826,  95: 0,78590,
                 94:-0,29481,  93: 0,62640,  92: 0,01702,  91:-0,10794,  90:-0,25989,  89: 0,08762,  88: 0,82757,  87:-0,78884,
                 86:-0,93757,  85:-0,68585,  84: 0,70791,  83: 0,15311,  82: 0,47730,  81:-0,51296,  80: 0,48403,  79: 0,04613,
                 78:-0,38364,  77:-0,55871,  76: 0,37530,  75: 0,90975,  74: 0,30771,  73:-0,64469,  72:-0,01592,  71: 0,84489,
                 70: 0,81436,  69:-0,73062,  68:-0,93315,  67: 0,50954,  66:-0,27494,  65: 0,28194,  64: 0,00543,  63:-0,85314,
                 62: 0,91837,  61:-0,66796,  60: 0,53803,  59:-0,48698,  58: 0,28331,  57:-0,74531,  56: 0,29885,  55: 0,02811,
                 54:-0,02923,  53: 0,64733,  52: 0,58411,  51:-0,33633,  50: 0,85668,  49: 0,51999,  48:-0,92163,  47: 0,01104,
                 46:-0,11234,  45:-0,11590,  44: 0,13065,  43:-0,92401,  42:-0,89828,  41:-0,31101,  40:-0,30529,  39: 0,45676,
                 38: 0,70030,  37:-0,18196,  36: 0,89835,  35: 0,42714,  34:-0,29469,  33: 0,34380,  32: 0,07318,  31: 0,21476,
                 30:-0,14237,  29: 0,70413,  28:-0,82095,  27:-0,50573,  26: 0,67667,  25:-0,15392,  24:-0,85109,  23: 0,26761,
                 22:-0,54166,  21: 0,29589,  20:-0,45742,  19:-0,75127,  18:-0,32261,  17: 0,30953,  16: 0,84683,  15: 0,38373,
                 14: 0,29813,  13:-0,84238,  12:-0,85969,  11:-0,09994,  10: 0,18260,   9:-0,22958,   8: 0,03079,   7:-0,62112,
                  6:-0,30197,   5:-0,35548,   4: 0,67896,   3:-0,22314,   2: 0,12769,   1:-0,52519
   172 |      | 150: 0,48794, 149: 0,22237, 148:-0,53349, 147: 0,10928, 146:-0,26192, 145:-0,38133, 144:-0,10144, 143: 0,39839,
                142:-0,43899, 141: 0,59984, 140: 0,10502, 139:-0,39273, 138: 0,92762, 137:-0,72933, 136: 0,62591, 135: 0,96755,
                134: 0,32334, 133: 0,42876, 132: 0,51828, 131:-0,47863, 130: 0,11665, 129: 0,78808, 128:-0,46532, 127: 0,69970,
                126:-0,22332, 125: 0,57778, 124:-0,45115, 123: 0,61714, 122: 0,62229, 121: 0,51081, 120: 0,87085, 119:-0,36183,
                118:-0,03021, 117:-0,41422, 116: 0,23825, 115: 0,17188, 114:-0,15223, 113: 0,82528, 112:-0,25721, 111:-0,17659,
                110:-0,17110, 109: 0,81981, 108:-0,14269, 107: 0,25454, 106: 0,85855, 105:-0,42507, 104: 0,32477, 103: 0,69777,
                102: 0,51423, 101:-0,33252, 100: 0,87643,  99:-0,12777,  98:-0,90963,  97:-0,09605,  96: 0,63206,  95: 0,94486,
                 94:-0,14347,  93: 0,62037,  92: 0,32885,  91: 0,57275,  90: 0,27931,  89: 0,32911,  88: 0,11439,  87: 0,39270,
                 86:-0,17181,  85: 0,74747,  84: 0,06077,  83:-0,43680,  82: 0,01081,  81:-0,74137,  80:-0,48804,  79:-0,88766,
                 78:-0,28395,  77: 0,76288,  76: 0,21592,  75:-0,56191,  74: 0,90334,  73:-0,33685,  72:-0,57204,  71:-0,09240,
                 70: 0,68870,  69:-0,34060,  68: 0,96800,  67:-0,79419,  66: 0,37461,  65: 0,15275,  64: 0,89369,  63:-0,98108,
                 62: 0,78883,  61:-0,29002,  60: 0,99293,  59:-0,53911,  58: 0,18166,  57: 0,32539,  56:-0,16268,  55: 0,05341,
                 54:-0,96840,  53:-0,46865,  52:-0,53594,  51:-0,73016,  50: 0,48353,  49: 0,92584,  48:-0,18553,  47:-0,09453,
                 46:-0,74718,  45:-0,14076,  44:-0,54319,  43:-0,37825,  42: 0,04379,  41:-0,90943,  40:-0,38143,  39: 0,74654,
                 38: 0,62637,  37:-0,29760,  36: 0,56526,  35: 0,14051,  34: 0,37206,  33:-0,24715,  32: 0,46128,  31:-0,96023,
                 30: 0,35778,  29:-0,37764,  28:-0,73819,  27: 0,16364,  26:-0,90200,  25: 0,14373,  24:-0,70200,  23: 0,97443,
                 22: 0,96162,  21: 0,02885,  20:-0,92799,  19: 0,26355,  18: 0,67736,  17:-0,75175,  16: 0,57063,  15:-0,28261,
                 14:-0,25684,  13:-0,41456,  12: 0,99004,  11:-0,17995,  10: 0,64949,   9: 0,06277,   8: 0,14982,   7:-0,55708,
                  6:-0,36996,   5: 0,08801,   4:-0,27337,   3: 0,34897,   2:-0,90329,   1:-0,45217
   173 |      | 150: 0,22938, 149: 0,33761, 148:-0,49173, 147:-0,64064, 146: 0,94948, 145:-0,29938, 144:-0,71735, 143:-0,12782,
                142: 0,60067, 141:-0,99779, 140: 0,28749, 139: 0,74668, 138:-0,54609, 137: 0,84661, 136:-0,99907, 135:-0,98655,
                134: 0,74225, 133:-0,12081, 132:-0,57952, 131: 0,67014, 130: 0,64665, 129: 0,59733, 128:-0,57604, 127: 0,16818,
                126:-0,76398, 125:-0,52188, 124: 0,38758, 123:-0,91443, 122:-0,73527, 121: 0,03742, 120: 0,10607, 119: 0,06046,
                118:-0,46454, 117: 0,59546, 116: 0,57222, 115: 0,09250, 114: 0,40066, 113:-0,51435, 112: 0,36861, 111:-0,54180,
                110:-0,65855, 109: 0,10542, 108:-0,55528, 107: 0,27180, 106:-0,60112, 105:-0,62216, 104: 0,82249, 103:-0,14646,
                102: 0,54179, 101:-0,91769, 100: 0,49731,  99: 0,89553,  98:-0,62948,  97: 0,24249,  96:-0,53434,  95: 0,45048,
                 94:-0,55885,  93:-0,14630,  92:-0,31621,  91: 0,17854,  90:-0,95339,  89: 0,12307,  88:-0,10919,  87: 0,39234,
                 86: 0,63587,  85: 0,92080,  84: 0,94661,  83: 0,22015,  82: 0,84827,  81:-0,95519,  80:-0,25018,  79: 0,79607,
                 78:-0,92314,  77:-0,66637,  76:-0,69294,  75: 0,57515,  74: 0,77308,  73: 0,68082,  72:-0,70476,  71: 0,60799,
                 70:-0,38379,  69:-0,92910,  68:-0,05052,  67: 0,49702,  66:-0,02000,  65:-0,75900,  64: 0,55568,  63:-0,44490,
                 62:-0,35261,  61:-0,74989,  60:-0,25248,  59: 0,81197,  58: 0,80094,  57: 0,78930,  56:-0,49957,  55: 0,53861,
                 54: 0,32596,  53:-0,41866,  52:-0,23893,  51: 0,11127,  50:-0,68479,  49: 0,68884,  48: 0,41036,  47: 0,70070,
                 46:-0,70297,  45: 0,37850,  44:-0,62539,  43: 0,49019,  42: 0,59394,  41: 0,68102,  40:-0,40436,  39:-0,90665,
                 38: 0,85786,  37: 0,65454,  36: 0,95327,  35:-0,58464,  34:-0,74539,  33: 0,22387,  32: 0,58738,  31:-0,61279,
                 30: 0,04827,  29: 0,35302,  28: 0,15991,  27: 0,46832,  26:-0,93838,  25:-0,85323,  24: 0,97903,  23: 0,38139,
                 22:-0,71143,  21:-0,39436,  20:-0,59279,  19: 0,69191,  18: 0,96692,  17: 0,42235,  16: 0,20464,  15:-0,79079,
                 14:-0,12589,  13:-0,94369,  12: 0,31081,  11: 0,05660,  10:-0,79434,   9: 0,91360,   8:-0,28497,   7: 0,08269,
                  6:-0,11230,   5: 0,75487,   4:-0,53499,   3:-0,83218,   2:-0,15527,   1: 0,32281
   174 |      | 150:-0,82195, 149: 0,90519, 148: 0,89922, 147: 0,37984, 146: 0,75126, 145:-0,47204, 144: 0,25098, 143:-0,80264,
                142:-0,16315, 141: 0,24697, 140:-0,20787, 139: 0,99864, 138: 0,68139, 137: 0,06994, 136: 0,27032, 135: 0,41211,
                134:-0,35778, 133:-0,53282, 132: 0,77999, 131: 0,85755, 130:-0,64008, 129:-0,97904, 128: 0,21913, 127:-0,74923,
                126: 0,12672, 125:-0,72538, 124: 0,65294, 123: 0,65377, 122: 0,10393, 121:-0,64099, 120:-0,45254, 119:-0,88514,
                118: 0,87836, 117: 0,14367, 116:-0,98820, 115:-0,24331, 114:-0,13018, 113:-0,93965, 112:-0,52631, 111: 0,30408,
                110: 0,63337, 109: 0,50058, 108:-0,55518, 107: 0,02628, 106:-0,88251, 105:-0,54173, 104:-0,04386, 103:-0,38765,
                102: 0,57929, 101: 0,55986, 100:-0,99232,  99:-0,80442,  98:-0,08964,  97: 0,02064,  96:-0,95932,  95:-0,23243,
                 94:-0,46109,  93:-0,36246,  92: 0,46314,  91: 0,02937,  90: 0,45017,  89: 0,45972,  88:-0,98577,  87:-0,44697,
                 86: 0,96577,  85: 0,08242,  84: 0,01206,  83: 0,48840,  82: 0,16165,  81: 0,93373,  80:-0,02413,  79: 0,24727,
                 78:-0,24627,  77:-0,15657,  76:-0,16451,  75:-0,79098,  74: 0,17070,  73:-0,49244,  72: 0,93121,  71:-0,11955,
                 70: 0,74838,  69: 0,13078,  68:-0,33221,  67:-0,24975,  66:-0,43951,  65:-0,98902,  64:-0,67738,  63:-0,27078,
                 62: 0,54478,  61: 0,63034,  60: 0,83371,  59: 0,26564,  58: 0,14377,  57: 0,96578,  56: 0,02669,  55:-0,54162,
                 54:-0,33369,  53: 0,29521,  52:-0,29216,  51: 0,52484,  50:-0,34463,  49: 0,34891,  48: 0,28223,  47: 0,36631,
                 46:-0,45864,  45: 0,86554,  44:-0,60751,  43:-0,46031,  42:-0,75239,  41:-0,38289,  40:-0,24389,  39: 0,30265,
                 38:-0,17063,  37: 0,95691,  36: 0,56070,  35: 0,44251,  34:-0,03785,  33:-0,36103,  32:-0,98909,  31:-0,99939,
                 30: 0,59513,  29: 0,80959,  28: 0,87380,  27: 0,71909,  26: 0,45560,  25: 0,96369,  24:-0,99251,  23: 0,80219,
                 22: 0,58998,  21:-0,39442,  20:-0,84150,  19:-0,58347,  18: 0,67188,  17:-0,79836,  16: 0,95732,  15:-0,94597,
                 14:-0,52932,  13: 0,63706,  12:-0,38394,  11: 0,52631,  10:-0,61678,   9:-0,80033,   8:-0,16667,   7: 0,81241,
                  6: 0,17164,   5: 0,54960,   4: 0,73701,   3:-0,61468,   2:-0,43766,   1: 0,16523
   175 |      | 150:-0,07997, 149:-0,15655, 148:-0,61489, 147:-0,69287, 146: 0,64279, 145: 0,40209, 144:-0,07378, 143:-0,71813,
                142:-0,99649, 141:-0,21965, 140: 0,21431, 139:-0,08356, 138: 0,10862, 137: 0,46488, 136:-0,89046, 135:-0,61688,
                134: 0,48923, 133: 0,58146, 132: 0,77520, 131: 0,72028, 130: 0,62869, 129: 0,92250, 128:-0,82094, 127: 0,49152,
                126:-0,65336, 125: 0,42574, 124: 0,72354, 123: 0,85231, 122: 0,02524, 121:-0,86182, 120:-0,00508, 119:-0,38900,
                118:-0,05817, 117:-0,21267, 116: 0,85333, 115:-0,14790, 114:-0,90436, 113: 0,94621, 112: 0,83897, 111: 0,71276,
