SNNS network definition file V1.4-3D
generated at Tue Jun  2 17:50:52 2015

network name : number
source files :
no. of units : 654
no. of connections : 77000
no. of unit types : 0
no. of site types : 0


learning function : Std_Backpropagation
update function   : Topological_Order


unit default section :

act      | bias     | st | subnet | layer | act func     | out func
---------|----------|----|--------|-------|--------------|-------------
 0,00000 |  0,00000 | h  |      0 |     1 | Act_Logistic | Out_Identity 
---------|----------|----|--------|-------|--------------|-------------


unit definition section :

no. | typeName | unitName | act      | bias     | st | position | act func | out func | sites
----|----------|----------|----------|----------|----|----------|----------|----------|-------
  1 |          | noName   | 241,00000 | -0,57166 | i  |  1, 1, 1 |||
  2 |          | noName   | 255,00000 |  0,36566 | i  |  2, 1, 1 |||
  3 |          | noName   | 247,00000 |  0,03234 | i  |  3, 1, 1 |||
  4 |          | noName   | 168,00000 | -0,90802 | i  |  4, 1, 1 |||
  5 |          | noName   | 86,00000 | -0,07987 | i  |  5, 1, 1 |||
  6 |          | noName   | 101,00000 |  0,08656 | i  |  6, 1, 1 |||
  7 |          | noName   | 176,00000 |  0,67889 | i  |  7, 1, 1 |||
  8 |          | noName   | 247,00000 | -0,23869 | i  |  8, 1, 1 |||
  9 |          | noName   | 255,00000 |  0,32363 | i  |  9, 1, 1 |||
 10 |          | noName   | 241,00000 |  0,39959 | i  | 10, 1, 1 |||
 11 |          | noName   | 248,00000 |  0,58561 | i  |  1, 2, 1 |||
 12 |          | noName   | 255,00000 | -0,51447 | i  |  2, 2, 1 |||
 13 |          | noName   | 123,00000 |  0,23825 | i  |  3, 2, 1 |||
 14 |          | noName   |  7,00000 | -0,04490 | i  |  4, 2, 1 |||
 15 |          | noName   |  0,00000 | -0,06381 | i  |  5, 2, 1 |||
 16 |          | noName   |  0,00000 |  0,60700 | i  |  6, 2, 1 |||
 17 |          | noName   |  2,00000 | -0,00664 | i  |  7, 2, 1 |||
 18 |          | noName   | 212,00000 | -0,43218 | i  |  8, 2, 1 |||
 19 |          | noName   | 255,00000 |  0,79180 | i  |  9, 2, 1 |||
 20 |          | noName   | 248,00000 | -0,14290 | i  | 10, 2, 1 |||
 21 |          | noName   | 246,00000 | -0,62443 | i  |  1, 3, 1 |||
 22 |          | noName   | 209,00000 | -0,13311 | i  |  2, 3, 1 |||
 23 |          | noName   |  0,00000 | -0,32845 | i  |  3, 3, 1 |||
 24 |          | noName   |  0,00000 |  0,93983 | i  |  4, 3, 1 |||
 25 |          | noName   | 72,00000 |  0,28610 | i  |  5, 3, 1 |||
 26 |          | noName   | 70,00000 | -0,00672 | i  |  6, 3, 1 |||
 27 |          | noName   |  4,00000 |  0,20280 | i  |  7, 3, 1 |||
 28 |          | noName   | 39,00000 | -0,30118 | i  |  8, 3, 1 |||
 29 |          | noName   | 243,00000 | -0,65993 | i  |  9, 3, 1 |||
 30 |          | noName   | 243,00000 |  0,51321 | i  | 10, 3, 1 |||
 31 |          | noName   | 240,00000 |  0,43383 | i  |  1, 4, 1 |||
 32 |          | noName   | 87,00000 | -0,10505 | i  |  2, 4, 1 |||
 33 |          | noName   |  0,00000 |  0,78931 | i  |  3, 4, 1 |||
 34 |          | noName   | 139,00000 | -0,39322 | i  |  4, 4, 1 |||
 35 |          | noName   | 220,00000 |  0,72701 | i  |  5, 4, 1 |||
 36 |          | noName   | 225,00000 | -0,98111 | i  |  6, 4, 1 |||
 37 |          | noName   | 56,00000 |  0,22268 | i  |  7, 4, 1 |||
 38 |          | noName   |  0,00000 | -0,48073 | i  |  8, 4, 1 |||
 39 |          | noName   | 195,00000 | -0,67215 | i  |  9, 4, 1 |||
 40 |          | noName   | 247,00000 |  0,78458 | i  | 10, 4, 1 |||
 41 |          | noName   | 219,00000 | -0,38872 | i  |  1, 5, 1 |||
 42 |          | noName   |  0,00000 |  0,05929 | i  |  2, 5, 1 |||
 43 |          | noName   | 44,00000 |  0,21380 | i  |  3, 5, 1 |||
 44 |          | noName   | 255,00000 | -0,84588 | i  |  4, 5, 1 |||
 45 |          | noName   | 255,00000 | -0,33657 | i  |  5, 5, 1 |||
 46 |          | noName   | 255,00000 |  0,20427 | i  |  6, 5, 1 |||
 47 |          | noName   | 120,00000 | -0,69989 | i  |  7, 5, 1 |||
 48 |          | noName   |  0,00000 | -0,87965 | i  |  8, 5, 1 |||
 49 |          | noName   | 73,00000 |  0,78799 | i  |  9, 5, 1 |||
 50 |          | noName   | 237,00000 | -0,47774 | i  | 10, 5, 1 |||
 51 |          | noName   | 212,00000 | -0,18963 | i  |  1, 6, 1 |||
 52 |          | noName   |  0,00000 | -0,25713 | i  |  2, 6, 1 |||
 53 |          | noName   | 99,00000 | -0,21120 | i  |  3, 6, 1 |||
 54 |          | noName   | 255,00000 | -0,18634 | i  |  4, 6, 1 |||
 55 |          | noName   | 255,00000 | -0,94690 | i  |  5, 6, 1 |||
 56 |          | noName   | 255,00000 | -0,15371 | i  |  6, 6, 1 |||
 57 |          | noName   | 218,00000 |  0,69341 | i  |  7, 6, 1 |||
 58 |          | noName   | 34,00000 |  0,07196 | i  |  8, 6, 1 |||
 59 |          | noName   |  0,00000 | -0,91303 | i  |  9, 6, 1 |||
 60 |          | noName   | 208,00000 |  0,63137 | i  | 10, 6, 1 |||
 61 |          | noName   | 208,00000 |  0,72211 | i  |  1, 7, 1 |||
 62 |          | noName   |  0,00000 | -0,70425 | i  |  2, 7, 1 |||
 63 |          | noName   | 171,00000 |  0,06539 | i  |  3, 7, 1 |||
 64 |          | noName   | 255,00000 |  0,53315 | i  |  4, 7, 1 |||
 65 |          | noName   | 255,00000 | -0,39343 | i  |  5, 7, 1 |||
 66 |          | noName   | 254,00000 | -0,12784 | i  |  6, 7, 1 |||
 67 |          | noName   | 255,00000 |  0,34228 | i  |  7, 7, 1 |||
 68 |          | noName   | 75,00000 |  0,83220 | i  |  8, 7, 1 |||
 69 |          | noName   |  0,00000 | -0,54957 | i  |  9, 7, 1 |||
 70 |          | noName   | 213,00000 |  0,99405 | i  | 10, 7, 1 |||
 71 |          | noName   | 145,00000 |  0,76735 | i  |  1, 8, 1 |||
 72 |          | noName   |  1,00000 | -0,33850 | i  |  2, 8, 1 |||
 73 |          | noName   | 179,00000 |  0,67719 | i  |  3, 8, 1 |||
 74 |          | noName   | 255,00000 |  0,94877 | i  |  4, 8, 1 |||
 75 |          | noName   | 254,00000 | -0,27037 | i  |  5, 8, 1 |||
 76 |          | noName   | 255,00000 |  0,56182 | i  |  6, 8, 1 |||
 77 |          | noName   | 255,00000 | -0,17438 | i  |  7, 8, 1 |||
 78 |          | noName   | 63,00000 | -0,01243 | i  |  8, 8, 1 |||
 79 |          | noName   |  0,00000 | -0,69339 | i  |  9, 8, 1 |||
 80 |          | noName   | 212,00000 | -0,93951 | i  | 10, 8, 1 |||
 81 |          | noName   | 142,00000 |  0,93157 | i  |  1, 9, 1 |||
 82 |          | noName   |  0,00000 | -0,00661 | i  |  2, 9, 1 |||
 83 |          | noName   | 136,00000 | -0,11485 | i  |  3, 9, 1 |||
 84 |          | noName   | 255,00000 |  0,85469 | i  |  4, 9, 1 |||
 85 |          | noName   | 255,00000 | -0,21605 | i  |  5, 9, 1 |||
 86 |          | noName   | 253,00000 | -0,76438 | i  |  6, 9, 1 |||
 87 |          | noName   | 255,00000 | -0,46484 | i  |  7, 9, 1 |||
 88 |          | noName   | 67,00000 | -0,92869 | i  |  8, 9, 1 |||
 89 |          | noName   |  0,00000 | -0,32638 | i  |  9, 9, 1 |||
 90 |          | noName   | 213,00000 |  0,33712 | i  | 10, 9, 1 |||
 91 |          | noName   | 203,00000 |  0,59329 | i  |  1,10, 1 |||
 92 |          | noName   |  0,00000 |  0,28499 | i  |  2,10, 1 |||
 93 |          | noName   | 54,00000 | -0,51248 | i  |  3,10, 1 |||
 94 |          | noName   | 255,00000 |  0,16960 | i  |  4,10, 1 |||
 95 |          | noName   | 254,00000 | -0,14065 | i  |  5,10, 1 |||
 96 |          | noName   | 255,00000 |  0,06871 | i  |  6,10, 1 |||
 97 |          | noName   | 219,00000 |  0,66124 | i  |  7,10, 1 |||
 98 |          | noName   | 21,00000 |  0,00406 | i  |  8,10, 1 |||
 99 |          | noName   | 42,00000 |  0,69022 | i  |  9,10, 1 |||
100 |          | noName   | 232,00000 | -0,07776 | i  | 10,10, 1 |||
101 |          | noName   | 228,00000 | -0,97735 | i  |  1,11, 1 |||
102 |          | noName   |  3,00000 |  0,92331 | i  |  2,11, 1 |||
103 |          | noName   |  0,00000 | -0,58343 | i  |  3,11, 1 |||
104 |          | noName   | 123,00000 |  0,60067 | i  |  4,11, 1 |||
105 |          | noName   | 255,00000 | -0,22387 | i  |  5,11, 1 |||
106 |          | noName   | 255,00000 | -0,41618 | i  |  6,11, 1 |||
107 |          | noName   | 129,00000 | -0,11503 | i  |  7,11, 1 |||
108 |          | noName   |  0,00000 | -0,19428 | i  |  8,11, 1 |||
109 |          | noName   | 124,00000 |  0,53457 | i  |  9,11, 1 |||
110 |          | noName   | 248,00000 |  0,00453 | i  | 10,11, 1 |||
111 |          | noName   | 239,00000 |  0,67697 | i  |  1,12, 1 |||
112 |          | noName   | 98,00000 |  0,59635 | i  |  2,12, 1 |||
113 |          | noName   |  0,00000 | -0,44462 | i  |  3,12, 1 |||
114 |          | noName   |  2,00000 |  0,55476 | i  |  4,12, 1 |||
115 |          | noName   | 120,00000 | -0,53130 | i  |  5,12, 1 |||
116 |          | noName   | 153,00000 |  0,94307 | i  |  6,12, 1 |||
117 |          | noName   | 28,00000 | -0,76603 | i  |  7,12, 1 |||
118 |          | noName   |  0,00000 | -0,11541 | i  |  8,12, 1 |||
119 |          | noName   | 188,00000 |  0,01606 | i  |  9,12, 1 |||
120 |          | noName   | 247,00000 | -0,15628 | i  | 10,12, 1 |||
121 |          | noName   | 246,00000 | -0,08363 | i  |  1,13, 1 |||
122 |          | noName   | 212,00000 | -0,35481 | i  |  2,13, 1 |||
123 |          | noName   | 58,00000 | -0,01391 | i  |  3,13, 1 |||
124 |          | noName   |  0,00000 |  0,12166 | i  |  4,13, 1 |||
125 |          | noName   |  0,00000 |  0,58075 | i  |  5,13, 1 |||
126 |          | noName   |  0,00000 |  0,71876 | i  |  6,13, 1 |||
127 |          | noName   |  0,00000 |  0,06347 | i  |  7,13, 1 |||
128 |          | noName   | 61,00000 | -0,74680 | i  |  8,13, 1 |||
129 |          | noName   | 242,00000 |  0,68164 | i  |  9,13, 1 |||
130 |          | noName   | 243,00000 | -0,16314 | i  | 10,13, 1 |||
131 |          | noName   | 248,00000 | -0,14106 | i  |  1,14, 1 |||
132 |          | noName   | 255,00000 |  0,66711 | i  |  2,14, 1 |||
133 |          | noName   | 243,00000 | -0,86873 | i  |  3,14, 1 |||
134 |          | noName   | 61,00000 | -0,79068 | i  |  4,14, 1 |||
135 |          | noName   | 21,00000 | -0,29411 | i  |  5,14, 1 |||
136 |          | noName   | 28,00000 | -0,69955 | i  |  6,14, 1 |||
137 |          | noName   | 71,00000 |  0,09837 | i  |  7,14, 1 |||
138 |          | noName   | 241,00000 | -0,30452 | i  |  8,14, 1 |||
139 |          | noName   | 255,00000 | -0,31935 | i  |  9,14, 1 |||
140 |          | noName   | 248,00000 |  0,69154 | i  | 10,14, 1 |||
141 |          | noName   | 229,00000 |  0,03018 | i  |  1,15, 1 |||
142 |          | noName   | 240,00000 | -0,51563 | i  |  2,15, 1 |||
143 |          | noName   | 243,00000 | -0,49355 | i  |  3,15, 1 |||
144 |          | noName   | 236,00000 |  0,48079 | i  |  4,15, 1 |||
145 |          | noName   | 200,00000 |  0,44749 | i  |  5,15, 1 |||
146 |          | noName   | 248,00000 | -0,14447 | i  |  6,15, 1 |||
147 |          | noName   | 252,00000 |  0,44094 | i  |  7,15, 1 |||
148 |          | noName   | 243,00000 | -0,65530 | i  |  8,15, 1 |||
149 |          | noName   | 241,00000 |  0,93398 | i  |  9,15, 1 |||
150 |          | noName   | 229,00000 | -0,21061 | i  | 10,15, 1 |||
151 |          | noName   |  0,00877 |  0,00445 | o  |  6,17, 1 |||
152 |          | noName   |  0,02828 | -0,05942 | o  |  7,17, 1 |||
153 |          | noName   |  0,06909 |  0,47631 | o  |  8,17, 1 |||
154 |          | noName   |  0,03875 |  0,10680 | o  |  9,17, 1 |||
155 |          | noName   |  0,00000 | -0,57793 | h  | 12, 1, 1 |||
156 |          | noName   |  0,00000 |  0,08679 | h  | 13, 1, 1 |||
157 |          | noName   |  1,00000 |  0,98124 | h  | 14, 1, 1 |||
158 |          | noName   |  0,00000 |  0,12092 | h  | 15, 1, 1 |||
159 |          | noName   |  0,00000 | -0,35138 | h  | 16, 1, 1 |||
160 |          | noName   |  0,00000 |  0,81626 | h  | 17, 1, 1 |||
161 |          | noName   |  0,00000 | -0,90916 | h  | 18, 1, 1 |||
162 |          | noName   |  1,00000 | -0,46659 | h  | 19, 1, 1 |||
163 |          | noName   |  1,00000 |  0,93205 | h  | 20, 1, 1 |||
164 |          | noName   |  1,00000 | -0,53456 | h  | 21, 1, 1 |||
165 |          | noName   |  1,00000 |  0,09416 | h  | 22, 1, 1 |||
166 |          | noName   |  0,00000 |  0,08533 | h  | 23, 1, 1 |||
167 |          | noName   |  0,00000 |  0,77556 | h  | 24, 1, 1 |||
168 |          | noName   |  0,00000 |  0,13214 | h  | 25, 1, 1 |||
169 |          | noName   |  0,00000 | -0,95133 | h  | 26, 1, 1 |||
170 |          | noName   |  0,00000 |  0,84985 | h  | 27, 1, 1 |||
171 |          | noName   |  1,00000 | -0,00446 | h  | 28, 1, 1 |||
172 |          | noName   |  0,00000 | -0,07417 | h  | 29, 1, 1 |||
173 |          | noName   |  1,00000 | -0,75522 | h  | 30, 1, 1 |||
174 |          | noName   |  0,00000 | -0,19902 | h  | 31, 1, 1 |||
175 |          | noName   |  1,00000 |  0,77691 | h  | 12, 2, 1 |||
176 |          | noName   |  0,00000 |  0,80850 | h  | 13, 2, 1 |||
177 |          | noName   |  1,00000 | -0,04005 | h  | 14, 2, 1 |||
178 |          | noName   |  0,00000 |  0,67596 | h  | 15, 2, 1 |||
179 |          | noName   |  1,00000 |  0,69057 | h  | 16, 2, 1 |||
180 |          | noName   |  1,00000 | -0,40296 | h  | 17, 2, 1 |||
181 |          | noName   |  1,00000 | -0,85135 | h  | 18, 2, 1 |||
182 |          | noName   |  0,00000 | -0,19523 | h  | 19, 2, 1 |||
183 |          | noName   |  0,00000 |  0,66752 | h  | 20, 2, 1 |||
184 |          | noName   |  0,00000 | -0,49782 | h  | 21, 2, 1 |||
185 |          | noName   |  0,00000 |  0,42776 | h  | 22, 2, 1 |||
186 |          | noName   |  0,00000 | -0,12568 | h  | 23, 2, 1 |||
187 |          | noName   |  1,00000 | -0,76626 | h  | 24, 2, 1 |||
188 |          | noName   |  1,00000 |  0,49627 | h  | 25, 2, 1 |||
189 |          | noName   |  0,00000 |  0,80687 | h  | 26, 2, 1 |||
190 |          | noName   |  0,00000 |  0,84755 | h  | 27, 2, 1 |||
191 |          | noName   |  0,00000 | -0,00897 | h  | 28, 2, 1 |||
192 |          | noName   |  1,00000 |  0,34960 | h  | 29, 2, 1 |||
193 |          | noName   |  1,00000 | -0,77678 | h  | 30, 2, 1 |||
194 |          | noName   |  1,00000 |  0,44865 | h  | 31, 2, 1 |||
195 |          | noName   |  0,00000 | -0,10932 | h  | 12, 3, 1 |||
196 |          | noName   |  0,00000 | -0,47222 | h  | 13, 3, 1 |||
197 |          | noName   |  1,00000 |  0,06695 | h  | 14, 3, 1 |||
198 |          | noName   |  1,00000 | -0,64530 | h  | 15, 3, 1 |||
199 |          | noName   |  0,00000 |  0,39467 | h  | 16, 3, 1 |||
200 |          | noName   |  0,00000 |  0,44176 | h  | 17, 3, 1 |||
201 |          | noName   |  0,00000 | -0,63941 | h  | 18, 3, 1 |||
202 |          | noName   |  1,00000 | -0,68843 | h  | 19, 3, 1 |||
203 |          | noName   |  0,00000 | -0,65314 | h  | 20, 3, 1 |||
204 |          | noName   |  0,00000 | -0,59960 | h  | 21, 3, 1 |||
205 |          | noName   |  0,00000 |  0,26981 | h  | 22, 3, 1 |||
206 |          | noName   |  1,00000 |  0,35482 | h  | 23, 3, 1 |||
207 |          | noName   |  0,00000 | -0,92032 | h  | 24, 3, 1 |||
208 |          | noName   |  0,00000 |  0,61186 | h  | 25, 3, 1 |||
209 |          | noName   |  1,00000 | -0,80449 | h  | 26, 3, 1 |||
210 |          | noName   |  0,00000 | -0,08630 | h  | 27, 3, 1 |||
211 |          | noName   |  0,00000 |  0,84064 | h  | 28, 3, 1 |||
212 |          | noName   |  1,00000 |  0,76392 | h  | 29, 3, 1 |||
213 |          | noName   |  1,00000 |  0,19921 | h  | 30, 3, 1 |||
214 |          | noName   |  0,00000 | -0,71934 | h  | 31, 3, 1 |||
215 |          | noName   |  1,00000 |  0,51975 | h  | 12, 4, 1 |||
216 |          | noName   |  0,00000 |  0,10242 | h  | 13, 4, 1 |||
217 |          | noName   |  1,00000 | -0,84210 | h  | 14, 4, 1 |||
218 |          | noName   |  0,00000 | -0,57156 | h  | 15, 4, 1 |||
219 |          | noName   |  0,00000 |  0,46306 | h  | 16, 4, 1 |||
220 |          | noName   |  1,00000 | -0,99296 | h  | 17, 4, 1 |||
221 |          | noName   |  1,00000 |  0,38716 | h  | 18, 4, 1 |||
222 |          | noName   |  0,00000 |  0,86116 | h  | 19, 4, 1 |||
223 |          | noName   |  1,00000 | -0,96313 | h  | 20, 4, 1 |||
224 |          | noName   |  1,00000 | -0,71007 | h  | 21, 4, 1 |||
225 |          | noName   |  0,00000 | -0,08743 | h  | 22, 4, 1 |||
226 |          | noName   |  1,00000 |  0,71982 | h  | 23, 4, 1 |||
227 |          | noName   |  0,00000 | -0,17921 | h  | 24, 4, 1 |||
228 |          | noName   |  1,00000 |  0,73995 | h  | 25, 4, 1 |||
229 |          | noName   |  1,00000 | -0,14505 | h  | 26, 4, 1 |||
230 |          | noName   |  1,00000 |  0,07506 | h  | 27, 4, 1 |||
231 |          | noName   |  1,00000 |  0,70907 | h  | 28, 4, 1 |||
232 |          | noName   |  1,00000 |  0,69411 | h  | 29, 4, 1 |||
233 |          | noName   |  0,00000 | -0,89003 | h  | 30, 4, 1 |||
234 |          | noName   |  1,00000 |  0,79161 | h  | 31, 4, 1 |||
235 |          | noName   |  1,00000 | -0,26364 | h  | 12, 5, 1 |||
236 |          | noName   |  0,00000 |  0,00182 | h  | 13, 5, 1 |||
237 |          | noName   |  0,00000 | -0,41829 | h  | 14, 5, 1 |||
238 |          | noName   |  1,00000 |  0,82628 | h  | 15, 5, 1 |||
239 |          | noName   |  0,00000 |  0,65645 | h  | 16, 5, 1 |||
240 |          | noName   |  1,00000 |  0,98513 | h  | 17, 5, 1 |||
241 |          | noName   |  1,00000 | -0,55401 | h  | 18, 5, 1 |||
242 |          | noName   |  0,00000 |  0,82422 | h  | 19, 5, 1 |||
243 |          | noName   |  0,00000 |  0,82649 | h  | 20, 5, 1 |||
244 |          | noName   |  1,00000 |  0,68885 | h  | 21, 5, 1 |||
245 |          | noName   |  1,00000 |  0,39316 | h  | 22, 5, 1 |||
246 |          | noName   |  0,00000 |  0,62808 | h  | 23, 5, 1 |||
247 |          | noName   |  0,00000 | -0,98806 | h  | 24, 5, 1 |||
248 |          | noName   |  1,00000 | -0,37416 | h  | 25, 5, 1 |||
249 |          | noName   |  1,00000 |  0,49376 | h  | 26, 5, 1 |||
250 |          | noName   |  0,00000 | -0,74871 | h  | 27, 5, 1 |||
251 |          | noName   |  0,00000 |  0,65234 | h  | 28, 5, 1 |||
252 |          | noName   |  1,00000 | -0,40902 | h  | 29, 5, 1 |||
253 |          | noName   |  0,00000 | -0,44893 | h  | 30, 5, 1 |||
254 |          | noName   |  0,00000 |  0,14755 | h  | 31, 5, 1 |||
255 |          | noName   |  1,00000 | -0,16959 | h  | 12, 6, 1 |||
256 |          | noName   |  0,00000 | -0,85248 | h  | 13, 6, 1 |||
257 |          | noName   |  0,00000 |  0,70232 | h  | 14, 6, 1 |||
258 |          | noName   |  1,00000 |  0,61131 | h  | 15, 6, 1 |||
259 |          | noName   |  0,00000 | -0,32314 | h  | 16, 6, 1 |||
260 |          | noName   |  1,00000 | -0,24438 | h  | 17, 6, 1 |||
261 |          | noName   |  1,00000 |  0,09913 | h  | 18, 6, 1 |||
262 |          | noName   |  0,00000 |  0,96376 | h  | 19, 6, 1 |||
263 |          | noName   |  0,00000 | -0,17568 | h  | 20, 6, 1 |||
264 |          | noName   |  1,00000 | -0,14320 | h  | 21, 6, 1 |||
265 |          | noName   |  1,00000 |  0,07594 | h  | 22, 6, 1 |||
266 |          | noName   |  0,00000 | -0,86963 | h  | 23, 6, 1 |||
267 |          | noName   |  0,00000 | -0,50732 | h  | 24, 6, 1 |||
268 |          | noName   |  0,00000 |  0,66320 | h  | 25, 6, 1 |||
269 |          | noName   |  0,00000 | -0,01606 | h  | 26, 6, 1 |||
270 |          | noName   |  0,00000 | -0,66732 | h  | 27, 6, 1 |||
271 |          | noName   |  0,00000 |  0,13686 | h  | 28, 6, 1 |||
272 |          | noName   |  1,00000 |  0,00536 | h  | 29, 6, 1 |||
273 |          | noName   |  0,00000 |  0,35443 | h  | 30, 6, 1 |||
274 |          | noName   |  0,00000 | -0,84990 | h  | 31, 6, 1 |||
275 |          | noName   |  1,00000 |  0,70030 | h  | 12, 7, 1 |||
276 |          | noName   |  0,00000 | -0,09184 | h  | 13, 7, 1 |||
277 |          | noName   |  0,00000 |  0,12147 | h  | 14, 7, 1 |||
278 |          | noName   |  0,00000 |  0,12854 | h  | 15, 7, 1 |||
279 |          | noName   |  1,00000 |  0,37260 | h  | 16, 7, 1 |||
280 |          | noName   |  0,00000 | -0,86439 | h  | 17, 7, 1 |||
281 |          | noName   |  0,00000 |  0,01002 | h  | 18, 7, 1 |||
282 |          | noName   |  1,00000 |  0,61076 | h  | 19, 7, 1 |||
283 |          | noName   |  1,00000 |  0,41942 | h  | 20, 7, 1 |||
284 |          | noName   |  1,00000 |  0,71432 | h  | 21, 7, 1 |||
285 |          | noName   |  0,00000 | -0,08800 | h  | 22, 7, 1 |||
286 |          | noName   |  1,00000 | -0,55399 | h  | 23, 7, 1 |||
287 |          | noName   |  1,00000 | -0,19636 | h  | 24, 7, 1 |||
288 |          | noName   |  1,00000 | -0,58828 | h  | 25, 7, 1 |||
289 |          | noName   |  0,00000 |  0,05445 | h  | 26, 7, 1 |||
290 |          | noName   |  0,00000 |  0,83264 | h  | 27, 7, 1 |||
291 |          | noName   |  1,00000 |  0,70778 | h  | 28, 7, 1 |||
292 |          | noName   |  1,00000 |  0,70261 | h  | 29, 7, 1 |||
293 |          | noName   |  1,00000 | -0,75725 | h  | 30, 7, 1 |||
294 |          | noName   |  0,00000 |  0,59957 | h  | 31, 7, 1 |||
295 |          | noName   |  1,00000 |  0,05347 | h  | 12, 8, 1 |||
296 |          | noName   |  1,00000 | -0,68699 | h  | 13, 8, 1 |||
297 |          | noName   |  0,00000 | -0,47397 | h  | 14, 8, 1 |||
298 |          | noName   |  0,00000 | -0,19060 | h  | 15, 8, 1 |||
299 |          | noName   |  0,00000 | -0,86005 | h  | 16, 8, 1 |||
300 |          | noName   |  0,00000 | -0,16046 | h  | 17, 8, 1 |||
301 |          | noName   |  1,00000 | -0,28334 | h  | 18, 8, 1 |||
302 |          | noName   |  0,00000 |  0,44554 | h  | 19, 8, 1 |||
303 |          | noName   |  0,00000 |  0,63339 | h  | 20, 8, 1 |||
304 |          | noName   |  0,00000 |  0,03792 | h  | 21, 8, 1 |||
305 |          | noName   |  0,00000 |  0,57432 | h  | 22, 8, 1 |||
306 |          | noName   |  0,00000 | -0,86438 | h  | 23, 8, 1 |||
307 |          | noName   |  0,00000 | -0,53526 | h  | 24, 8, 1 |||
308 |          | noName   |  0,00000 | -0,54645 | h  | 25, 8, 1 |||
309 |          | noName   |  1,00000 |  0,75717 | h  | 26, 8, 1 |||
310 |          | noName   |  1,00000 | -0,92029 | h  | 27, 8, 1 |||
311 |          | noName   |  1,00000 | -0,53419 | h  | 28, 8, 1 |||
312 |          | noName   |  0,00000 | -0,60909 | h  | 29, 8, 1 |||
313 |          | noName   |  0,00000 |  0,31136 | h  | 30, 8, 1 |||
314 |          | noName   |  0,00000 |  0,53600 | h  | 31, 8, 1 |||
315 |          | noName   |  1,00000 | -0,38643 | h  | 12, 9, 1 |||
316 |          | noName   |  0,00000 | -0,40221 | h  | 13, 9, 1 |||
317 |          | noName   |  0,00000 |  0,32106 | h  | 14, 9, 1 |||
318 |          | noName   |  1,00000 |  0,02769 | h  | 15, 9, 1 |||
319 |          | noName   |  0,00000 |  0,97624 | h  | 16, 9, 1 |||
320 |          | noName   |  0,00000 |  0,84336 | h  | 17, 9, 1 |||
321 |          | noName   |  1,00000 |  0,02640 | h  | 18, 9, 1 |||
322 |          | noName   |  0,00000 |  0,74733 | h  | 19, 9, 1 |||
323 |          | noName   |  0,00000 |  0,37259 | h  | 20, 9, 1 |||
324 |          | noName   |  1,00000 |  0,86816 | h  | 21, 9, 1 |||
325 |          | noName   |  0,00000 | -0,77123 | h  | 22, 9, 1 |||
326 |          | noName   |  0,00000 |  0,04667 | h  | 23, 9, 1 |||
327 |          | noName   |  1,00000 |  0,47051 | h  | 24, 9, 1 |||
328 |          | noName   |  1,00000 |  0,54920 | h  | 25, 9, 1 |||
329 |          | noName   |  1,00000 | -0,01891 | h  | 26, 9, 1 |||
330 |          | noName   |  1,00000 | -0,77525 | h  | 27, 9, 1 |||
331 |          | noName   |  1,00000 |  0,76069 | h  | 28, 9, 1 |||
332 |          | noName   |  1,00000 | -0,94694 | h  | 29, 9, 1 |||
333 |          | noName   |  0,00000 |  0,58379 | h  | 30, 9, 1 |||
334 |          | noName   |  1,00000 | -0,40235 | h  | 31, 9, 1 |||
335 |          | noName   |  1,00000 | -0,66421 | h  | 12,10, 1 |||
336 |          | noName   |  1,00000 | -0,74835 | h  | 13,10, 1 |||
337 |          | noName   |  0,99999 | -0,19165 | h  | 14,10, 1 |||
338 |          | noName   |  1,00000 | -0,19731 | h  | 15,10, 1 |||
339 |          | noName   |  1,00000 | -0,42925 | h  | 16,10, 1 |||
340 |          | noName   |  0,00000 |  0,69628 | h  | 17,10, 1 |||
341 |          | noName   |  0,00000 | -0,59645 | h  | 18,10, 1 |||
342 |          | noName   |  0,00000 |  0,92331 | h  | 19,10, 1 |||
343 |          | noName   |  1,00000 | -0,88580 | h  | 20,10, 1 |||
344 |          | noName   |  0,00000 | -0,33293 | h  | 21,10, 1 |||
345 |          | noName   |  1,00000 |  0,53560 | h  | 22,10, 1 |||
346 |          | noName   |  1,00000 | -0,96784 | h  | 23,10, 1 |||
347 |          | noName   |  1,00000 |  0,63544 | h  | 24,10, 1 |||
348 |          | noName   |  0,00000 |  0,79680 | h  | 25,10, 1 |||
349 |          | noName   |  0,00000 |  0,42195 | h  | 26,10, 1 |||
350 |          | noName   |  0,00000 |  0,48151 | h  | 27,10, 1 |||
351 |          | noName   |  1,00000 | -0,30548 | h  | 28,10, 1 |||
352 |          | noName   |  1,00000 |  0,96249 | h  | 29,10, 1 |||
353 |          | noName   |  1,00000 |  0,42454 | h  | 30,10, 1 |||
354 |          | noName   |  0,00000 |  0,46471 | h  | 31,10, 1 |||
355 |          | noName   |  0,00000 |  0,17019 | h  | 12,11, 1 |||
356 |          | noName   |  0,00000 |  0,45205 | h  | 13,11, 1 |||
357 |          | noName   |  1,00000 |  0,04893 | h  | 14,11, 1 |||
358 |          | noName   |  1,00000 |  0,23637 | h  | 15,11, 1 |||
359 |          | noName   |  1,00000 | -0,24719 | h  | 16,11, 1 |||
360 |          | noName   |  0,00000 |  0,78273 | h  | 17,11, 1 |||
361 |          | noName   |  0,00000 | -0,79381 | h  | 18,11, 1 |||
362 |          | noName   |  0,00000 | -0,40681 | h  | 19,11, 1 |||
363 |          | noName   |  0,00000 |  0,02295 | h  | 20,11, 1 |||
364 |          | noName   |  1,00000 |  0,25889 | h  | 21,11, 1 |||
365 |          | noName   |  0,00000 | -0,31435 | h  | 22,11, 1 |||
366 |          | noName   |  0,00000 | -0,00177 | h  | 23,11, 1 |||
367 |          | noName   |  0,00000 |  0,14452 | h  | 24,11, 1 |||
368 |          | noName   |  1,00000 |  0,82919 | h  | 25,11, 1 |||
369 |          | noName   |  1,00000 | -0,17257 | h  | 26,11, 1 |||
370 |          | noName   |  1,00000 |  0,60618 | h  | 27,11, 1 |||
371 |          | noName   |  0,00000 |  0,82931 | h  | 28,11, 1 |||
372 |          | noName   |  0,00000 |  0,76165 | h  | 29,11, 1 |||
373 |          | noName   |  1,00000 | -0,00604 | h  | 30,11, 1 |||
374 |          | noName   |  0,00000 |  0,63078 | h  | 31,11, 1 |||
375 |          | noName   |  1,00000 | -0,78909 | h  | 12,12, 1 |||
376 |          | noName   |  1,00000 | -0,09143 | h  | 13,12, 1 |||
377 |          | noName   |  0,00000 | -0,41669 | h  | 14,12, 1 |||
378 |          | noName   |  1,00000 | -0,57203 | h  | 15,12, 1 |||
379 |          | noName   |  1,00000 | -0,07858 | h  | 16,12, 1 |||
380 |          | noName   |  0,00000 |  0,10403 | h  | 17,12, 1 |||
381 |          | noName   |  0,00000 | -0,69259 | h  | 18,12, 1 |||
382 |          | noName   |  1,00000 | -0,49183 | h  | 19,12, 1 |||
383 |          | noName   |  1,00000 |  0,90940 | h  | 20,12, 1 |||
384 |          | noName   |  0,00000 |  0,73140 | h  | 21,12, 1 |||
385 |          | noName   |  0,00000 | -0,56562 | h  | 22,12, 1 |||
386 |          | noName   |  0,00000 | -0,18562 | h  | 23,12, 1 |||
387 |          | noName   |  0,00000 |  0,38323 | h  | 24,12, 1 |||
388 |          | noName   |  1,00000 | -0,60818 | h  | 25,12, 1 |||
389 |          | noName   |  0,00000 |  0,14426 | h  | 26,12, 1 |||
390 |          | noName   |  1,00000 | -0,89327 | h  | 27,12, 1 |||
391 |          | noName   |  0,00000 |  0,31269 | h  | 28,12, 1 |||
392 |          | noName   |  0,00000 | -0,46115 | h  | 29,12, 1 |||
393 |          | noName   |  1,00000 | -0,57038 | h  | 30,12, 1 |||
394 |          | noName   |  0,00000 |  0,49116 | h  | 31,12, 1 |||
395 |          | noName   |  1,00000 | -0,12868 | h  | 12,13, 1 |||
396 |          | noName   |  1,00000 |  0,03103 | h  | 13,13, 1 |||
397 |          | noName   |  1,00000 | -0,24980 | h  | 14,13, 1 |||
398 |          | noName   |  0,00000 | -0,94447 | h  | 15,13, 1 |||
399 |          | noName   |  1,00000 |  0,34337 | h  | 16,13, 1 |||
400 |          | noName   |  0,00000 |  0,87272 | h  | 17,13, 1 |||
401 |          | noName   |  0,00000 | -0,53852 | h  | 18,13, 1 |||
402 |          | noName   |  0,00000 | -0,51958 | h  | 19,13, 1 |||
403 |          | noName   |  0,00000 |  0,73730 | h  | 20,13, 1 |||
404 |          | noName   |  0,00000 |  0,51382 | h  | 21,13, 1 |||
405 |          | noName   |  0,00000 | -0,25654 | h  | 22,13, 1 |||
406 |          | noName   |  0,00000 | -0,65323 | h  | 23,13, 1 |||
407 |          | noName   |  0,00000 |  0,62069 | h  | 24,13, 1 |||
408 |          | noName   |  0,00000 | -0,52274 | h  | 25,13, 1 |||
409 |          | noName   |  1,00000 |  0,07409 | h  | 26,13, 1 |||
410 |          | noName   |  1,00000 |  0,85620 | h  | 27,13, 1 |||
411 |          | noName   |  1,00000 |  0,59124 | h  | 28,13, 1 |||
412 |          | noName   |  1,00000 |  0,76698 | h  | 29,13, 1 |||
413 |          | noName   |  0,00000 |  0,27719 | h  | 30,13, 1 |||
414 |          | noName   |  1,00000 | -0,27820 | h  | 31,13, 1 |||
415 |          | noName   |  0,00000 | -0,00649 | h  | 12,14, 1 |||
416 |          | noName   |  0,00000 | -0,56699 | h  | 13,14, 1 |||
417 |          | noName   |  1,00000 | -0,27299 | h  | 14,14, 1 |||
418 |          | noName   |  1,00000 | -0,79635 | h  | 15,14, 1 |||
419 |          | noName   |  0,00000 |  0,73599 | h  | 16,14, 1 |||
420 |          | noName   |  0,00000 |  0,25764 | h  | 17,14, 1 |||
421 |          | noName   |  0,00000 | -0,34274 | h  | 18,14, 1 |||
422 |          | noName   |  0,00000 | -0,50003 | h  | 19,14, 1 |||
423 |          | noName   |  1,00000 |  0,71798 | h  | 20,14, 1 |||
424 |          | noName   |  0,00000 | -0,82868 | h  | 21,14, 1 |||
425 |          | noName   |  1,00000 |  0,78634 | h  | 22,14, 1 |||
426 |          | noName   |  0,00000 |  0,02666 | h  | 23,14, 1 |||
427 |          | noName   |  1,00000 |  0,88213 | h  | 24,14, 1 |||
428 |          | noName   |  0,00000 | -0,43137 | h  | 25,14, 1 |||
429 |          | noName   |  1,00000 | -0,93300 | h  | 26,14, 1 |||
430 |          | noName   |  0,00000 | -0,69246 | h  | 27,14, 1 |||
431 |          | noName   |  1,00000 |  0,31099 | h  | 28,14, 1 |||
432 |          | noName   |  1,00000 |  0,00493 | h  | 29,14, 1 |||
433 |          | noName   |  1,00000 |  0,57138 | h  | 30,14, 1 |||
434 |          | noName   |  1,00000 |  0,25744 | h  | 31,14, 1 |||
435 |          | noName   |  1,00000 |  0,21757 | h  | 12,15, 1 |||
436 |          | noName   |  0,00000 |  0,11092 | h  | 13,15, 1 |||
437 |          | noName   |  0,00000 | -0,04900 | h  | 14,15, 1 |||
438 |          | noName   |  0,00000 | -0,70951 | h  | 15,15, 1 |||
439 |          | noName   |  0,00000 |  0,86999 | h  | 16,15, 1 |||
440 |          | noName   |  1,00000 | -0,76650 | h  | 17,15, 1 |||
441 |          | noName   |  0,00000 |  0,02939 | h  | 18,15, 1 |||
442 |          | noName   |  1,00000 | -0,13317 | h  | 19,15, 1 |||
443 |          | noName   |  0,00000 | -0,73932 | h  | 20,15, 1 |||
444 |          | noName   |  0,00000 | -0,96697 | h  | 21,15, 1 |||
445 |          | noName   |  0,00000 |  0,69762 | h  | 22,15, 1 |||
446 |          | noName   |  0,00000 | -0,54055 | h  | 23,15, 1 |||
447 |          | noName   |  0,00000 | -0,90266 | h  | 24,15, 1 |||
448 |          | noName   |  0,00000 |  0,74452 | h  | 25,15, 1 |||
449 |          | noName   |  1,00000 | -0,95756 | h  | 26,15, 1 |||
450 |          | noName   |  1,00000 | -0,64235 | h  | 27,15, 1 |||
451 |          | noName   |  0,00000 | -0,03365 | h  | 28,15, 1 |||
452 |          | noName   |  0,00000 |  0,21757 | h  | 29,15, 1 |||
453 |          | noName   |  0,00000 | -0,46443 | h  | 30,15, 1 |||
454 |          | noName   |  1,00000 |  0,81765 | h  | 31,15, 1 |||
455 |          | noName   |  0,00000 | -0,59832 | h  | 12,16, 1 |||
456 |          | noName   |  0,00000 |  0,32868 | h  | 13,16, 1 |||
457 |          | noName   |  0,00000 | -0,01039 | h  | 14,16, 1 |||
458 |          | noName   |  1,00000 |  0,64380 | h  | 15,16, 1 |||
459 |          | noName   |  1,00000 | -0,71730 | h  | 16,16, 1 |||
460 |          | noName   |  0,00000 | -0,47739 | h  | 17,16, 1 |||
461 |          | noName   |  1,00000 |  0,02257 | h  | 18,16, 1 |||
462 |          | noName   |  0,00000 |  0,86040 | h  | 19,16, 1 |||
463 |          | noName   |  0,00000 | -0,72861 | h  | 20,16, 1 |||
464 |          | noName   |  1,00000 | -0,33461 | h  | 21,16, 1 |||
465 |          | noName   |  1,00000 | -0,00553 | h  | 22,16, 1 |||
466 |          | noName   |  1,00000 |  0,47631 | h  | 23,16, 1 |||
467 |          | noName   |  0,00000 | -0,22736 | h  | 24,16, 1 |||
468 |          | noName   |  0,00000 | -0,86954 | h  | 25,16, 1 |||
469 |          | noName   |  1,00000 |  0,15471 | h  | 26,16, 1 |||
470 |          | noName   |  1,00000 | -0,08526 | h  | 27,16, 1 |||
471 |          | noName   |  0,00000 |  0,62618 | h  | 28,16, 1 |||
472 |          | noName   |  0,00000 |  0,10755 | h  | 29,16, 1 |||
473 |          | noName   |  0,00000 | -0,71822 | h  | 30,16, 1 |||
474 |          | noName   |  1,00000 |  0,17310 | h  | 31,16, 1 |||
475 |          | noName   |  1,00000 |  0,01756 | h  | 12,17, 1 |||
476 |          | noName   |  1,00000 |  0,00933 | h  | 13,17, 1 |||
477 |          | noName   |  1,00000 | -0,03726 | h  | 14,17, 1 |||
478 |          | noName   |  1,00000 | -0,40141 | h  | 15,17, 1 |||
479 |          | noName   |  1,00000 | -0,95557 | h  | 16,17, 1 |||
480 |          | noName   |  1,00000 | -0,99361 | h  | 17,17, 1 |||
481 |          | noName   |  0,00000 |  0,24926 | h  | 18,17, 1 |||
482 |          | noName   |  1,00000 |  0,94237 | h  | 19,17, 1 |||
483 |          | noName   |  1,00000 | -0,68823 | h  | 20,17, 1 |||
484 |          | noName   |  0,00000 | -0,92686 | h  | 21,17, 1 |||
485 |          | noName   |  0,00000 | -0,51276 | h  | 22,17, 1 |||
486 |          | noName   |  1,00000 | -0,56629 | h  | 23,17, 1 |||
487 |          | noName   |  1,00000 |  0,66070 | h  | 24,17, 1 |||
488 |          | noName   |  0,00000 | -0,63417 | h  | 25,17, 1 |||
489 |          | noName   |  1,00000 | -0,77149 | h  | 26,17, 1 |||
490 |          | noName   |  0,00000 |  0,56028 | h  | 27,17, 1 |||
491 |          | noName   |  1,00000 | -0,36544 | h  | 28,17, 1 |||
492 |          | noName   |  0,00000 |  0,64253 | h  | 29,17, 1 |||
493 |          | noName   |  1,00000 | -0,76233 | h  | 30,17, 1 |||
494 |          | noName   |  0,00000 |  0,33458 | h  | 31,17, 1 |||
495 |          | noName   |  1,00000 |  0,08478 | h  | 12,18, 1 |||
496 |          | noName   |  0,00000 |  0,10217 | h  | 13,18, 1 |||
497 |          | noName   |  0,00000 |  0,46782 | h  | 14,18, 1 |||
498 |          | noName   |  0,00000 |  0,57199 | h  | 15,18, 1 |||
499 |          | noName   |  1,00000 | -0,94696 | h  | 16,18, 1 |||
500 |          | noName   |  1,00000 |  0,26508 | h  | 17,18, 1 |||
501 |          | noName   |  0,00000 |  0,63750 | h  | 18,18, 1 |||
502 |          | noName   |  0,00000 |  0,32294 | h  | 19,18, 1 |||
503 |          | noName   |  1,00000 | -0,03424 | h  | 20,18, 1 |||
504 |          | noName   |  0,00000 | -0,89123 | h  | 21,18, 1 |||
505 |          | noName   |  1,00000 | -0,38889 | h  | 22,18, 1 |||
506 |          | noName   |  1,00000 | -0,46963 | h  | 23,18, 1 |||
507 |          | noName   |  1,00000 |  0,56214 | h  | 24,18, 1 |||
508 |          | noName   |  0,00000 |  0,84530 | h  | 25,18, 1 |||
509 |          | noName   |  1,00000 |  0,55697 | h  | 26,18, 1 |||
510 |          | noName   |  1,00000 |  0,38185 | h  | 27,18, 1 |||
511 |          | noName   |  1,00000 | -0,23437 | h  | 28,18, 1 |||
512 |          | noName   |  0,00000 |  0,68665 | h  | 29,18, 1 |||
513 |          | noName   |  0,00000 | -0,11899 | h  | 30,18, 1 |||
514 |          | noName   |  1,00000 | -0,92959 | h  | 31,18, 1 |||
515 |          | noName   |  0,00000 |  0,90945 | h  | 12,19, 1 |||
516 |          | noName   |  1,00000 |  0,36525 | h  | 13,19, 1 |||
517 |          | noName   |  0,00000 | -0,21242 | h  | 14,19, 1 |||
518 |          | noName   |  1,00000 |  0,86533 | h  | 15,19, 1 |||
519 |          | noName   |  1,00000 | -0,05640 | h  | 16,19, 1 |||
520 |          | noName   |  0,00000 |  0,70086 | h  | 17,19, 1 |||
521 |          | noName   |  0,00000 |  0,29216 | h  | 18,19, 1 |||
522 |          | noName   |  0,00000 | -0,16234 | h  | 19,19, 1 |||
523 |          | noName   |  1,00000 | -0,81910 | h  | 20,19, 1 |||
524 |          | noName   |  0,00000 | -0,75612 | h  | 21,19, 1 |||
525 |          | noName   |  1,00000 |  0,30375 | h  | 22,19, 1 |||
526 |          | noName   |  1,00000 | -0,68103 | h  | 23,19, 1 |||
527 |          | noName   |  1,00000 |  0,07412 | h  | 24,19, 1 |||
528 |          | noName   |  0,00000 | -0,94123 | h  | 25,19, 1 |||
529 |          | noName   |  0,00000 | -0,47223 | h  | 26,19, 1 |||
530 |          | noName   |  0,00000 | -0,55247 | h  | 27,19, 1 |||
531 |          | noName   |  0,00000 |  0,83930 | h  | 28,19, 1 |||
532 |          | noName   |  0,00000 | -0,41139 | h  | 29,19, 1 |||
533 |          | noName   |  1,00000 |  0,28475 | h  | 30,19, 1 |||
534 |          | noName   |  0,00000 |  0,94381 | h  | 31,19, 1 |||
535 |          | noName   |  0,00000 | -0,56829 | h  | 12,20, 1 |||
536 |          | noName   |  0,00000 | -0,21983 | h  | 13,20, 1 |||
537 |          | noName   |  1,00000 | -0,39342 | h  | 14,20, 1 |||
538 |          | noName   |  1,00000 |  0,74776 | h  | 15,20, 1 |||
539 |          | noName   |  1,00000 | -0,48854 | h  | 16,20, 1 |||
540 |          | noName   |  0,00000 |  0,23498 | h  | 17,20, 1 |||
541 |          | noName   |  0,00000 | -0,78065 | h  | 18,20, 1 |||
542 |          | noName   |  0,00000 | -0,74964 | h  | 19,20, 1 |||
543 |          | noName   |  1,00000 |  0,27245 | h  | 20,20, 1 |||
544 |          | noName   |  1,00000 |  0,04048 | h  | 21,20, 1 |||
545 |          | noName   |  0,00000 |  0,14903 | h  | 22,20, 1 |||
546 |          | noName   |  0,00000 | -0,31038 | h  | 23,20, 1 |||
547 |          | noName   |  0,00000 |  0,11042 | h  | 24,20, 1 |||
548 |          | noName   |  0,00000 |  0,55037 | h  | 25,20, 1 |||
549 |          | noName   |  1,00000 | -0,06251 | h  | 26,20, 1 |||
550 |          | noName   |  1,00000 |  0,70154 | h  | 27,20, 1 |||
551 |          | noName   |  1,00000 | -0,57253 | h  | 28,20, 1 |||
552 |          | noName   |  0,00000 | -0,88272 | h  | 29,20, 1 |||
553 |          | noName   |  0,00000 |  0,92050 | h  | 30,20, 1 |||
554 |          | noName   |  1,00000 |  0,08435 | h  | 31,20, 1 |||
555 |          | noName   |  0,00000 |  0,85788 | h  | 12,21, 1 |||
556 |          | noName   |  1,00000 |  0,49554 | h  | 13,21, 1 |||
557 |          | noName   |  1,00000 |  0,12702 | h  | 14,21, 1 |||
558 |          | noName   |  1,00000 | -0,66730 | h  | 15,21, 1 |||
559 |          | noName   |  0,00000 |  0,89523 | h  | 16,21, 1 |||
560 |          | noName   |  0,00000 |  0,15643 | h  | 17,21, 1 |||
561 |          | noName   |  0,00000 | -0,61386 | h  | 18,21, 1 |||
562 |          | noName   |  1,00000 | -0,57093 | h  | 19,21, 1 |||
563 |          | noName   |  0,00000 |  0,43812 | h  | 20,21, 1 |||
564 |          | noName   |  0,00000 |  0,39244 | h  | 21,21, 1 |||
565 |          | noName   |  0,00000 |  0,79353 | h  | 22,21, 1 |||
566 |          | noName   |  0,00000 | -0,53606 | h  | 23,21, 1 |||
567 |          | noName   |  0,00000 |  0,87982 | h  | 24,21, 1 |||
568 |          | noName   |  0,00000 |  0,09824 | h  | 25,21, 1 |||
569 |          | noName   |  1,00000 | -0,74379 | h  | 26,21, 1 |||
570 |          | noName   |  1,00000 | -0,16739 | h  | 27,21, 1 |||
571 |          | noName   |  1,00000 | -0,13217 | h  | 28,21, 1 |||
572 |          | noName   |  0,00000 | -0,76029 | h  | 29,21, 1 |||
573 |          | noName   |  1,00000 | -0,79063 | h  | 30,21, 1 |||
574 |          | noName   |  1,00000 |  0,68434 | h  | 31,21, 1 |||
575 |          | noName   |  0,00000 | -0,83058 | h  | 12,22, 1 |||
576 |          | noName   |  1,00000 | -0,03482 | h  | 13,22, 1 |||
577 |          | noName   |  1,00000 | -0,56808 | h  | 14,22, 1 |||
578 |          | noName   |  0,00000 |  0,85454 | h  | 15,22, 1 |||
579 |          | noName   |  0,00000 |  0,70775 | h  | 16,22, 1 |||
580 |          | noName   |  1,00000 | -0,75291 | h  | 17,22, 1 |||
581 |          | noName   |  0,00000 | -0,82654 | h  | 18,22, 1 |||
582 |          | noName   |  0,00000 | -0,71028 | h  | 19,22, 1 |||
583 |          | noName   |  0,00000 |  0,88384 | h  | 20,22, 1 |||
584 |          | noName   |  0,00000 | -0,98852 | h  | 21,22, 1 |||
585 |          | noName   |  1,00000 |  0,38156 | h  | 22,22, 1 |||
586 |          | noName   |  0,00000 |  0,79159 | h  | 23,22, 1 |||
587 |          | noName   |  1,00000 | -0,02981 | h  | 24,22, 1 |||
588 |          | noName   |  0,00000 |  0,52685 | h  | 25,22, 1 |||
589 |          | noName   |  0,00000 | -0,13397 | h  | 26,22, 1 |||
590 |          | noName   |  0,00000 |  0,29482 | h  | 27,22, 1 |||
591 |          | noName   |  0,00000 |  0,44257 | h  | 28,22, 1 |||
592 |          | noName   |  0,00000 | -0,02835 | h  | 29,22, 1 |||
593 |          | noName   |  1,00000 |  0,78294 | h  | 30,22, 1 |||
594 |          | noName   |  0,00000 | -0,39631 | h  | 31,22, 1 |||
595 |          | noName   |  1,00000 | -0,50733 | h  | 12,23, 1 |||
596 |          | noName   |  0,00000 | -0,40783 | h  | 13,23, 1 |||
597 |          | noName   |  0,00000 |  0,23325 | h  | 14,23, 1 |||
598 |          | noName   |  1,00000 |  0,01817 | h  | 15,23, 1 |||
599 |          | noName   |  0,00000 | -0,88579 | h  | 16,23, 1 |||
600 |          | noName   |  1,00000 |  0,81812 | h  | 17,23, 1 |||
601 |          | noName   |  1,00000 | -0,73775 | h  | 18,23, 1 |||
602 |          | noName   |  1,00000 |  0,26780 | h  | 19,23, 1 |||
603 |          | noName   |  0,00000 | -0,34870 | h  | 20,23, 1 |||
604 |          | noName   |  1,00000 |  0,43117 | h  | 21,23, 1 |||
605 |          | noName   |  0,00000 |  0,67434 | h  | 22,23, 1 |||
606 |          | noName   |  0,00000 | -0,94832 | h  | 23,23, 1 |||
607 |          | noName   |  1,00000 |  0,70556 | h  | 24,23, 1 |||
608 |          | noName   |  1,00000 | -0,94968 | h  | 25,23, 1 |||
609 |          | noName   |  0,00000 |  0,24151 | h  | 26,23, 1 |||
610 |          | noName   |  1,00000 | -0,11941 | h  | 27,23, 1 |||
611 |          | noName   |  1,00000 |  0,07886 | h  | 28,23, 1 |||
612 |          | noName   |  0,00000 | -0,44710 | h  | 29,23, 1 |||
613 |          | noName   |  0,00000 | -0,17093 | h  | 30,23, 1 |||
614 |          | noName   |  1,00000 | -0,82017 | h  | 31,23, 1 |||
615 |          | noName   |  0,00000 |  0,83360 | h  | 12,24, 1 |||
616 |          | noName   |  1,00000 | -0,41442 | h  | 13,24, 1 |||
617 |          | noName   |  0,00000 | -0,72454 | h  | 14,24, 1 |||
618 |          | noName   |  0,00000 | -0,69796 | h  | 15,24, 1 |||
619 |          | noName   |  1,00000 | -0,46947 | h  | 16,24, 1 |||
620 |          | noName   |  1,00000 |  0,35996 | h  | 17,24, 1 |||
621 |          | noName   |  0,00000 | -0,52323 | h  | 18,24, 1 |||
622 |          | noName   |  1,00000 | -0,49821 | h  | 19,24, 1 |||
623 |          | noName   |  0,00000 | -0,20452 | h  | 20,24, 1 |||
624 |          | noName   |  0,00000 |  0,80912 | h  | 21,24, 1 |||
625 |          | noName   |  0,00000 | -0,18438 | h  | 22,24, 1 |||
626 |          | noName   |  1,00000 |  0,54005 | h  | 23,24, 1 |||
627 |          | noName   |  1,00000 | -0,79319 | h  | 24,24, 1 |||
628 |          | noName   |  0,00000 | -0,29538 | h  | 25,24, 1 |||
629 |          | noName   |  1,00000 |  0,95802 | h  | 26,24, 1 |||
630 |          | noName   |  1,00000 |  0,63775 | h  | 27,24, 1 |||
631 |          | noName   |  0,00000 | -0,68828 | h  | 28,24, 1 |||
632 |          | noName   |  0,00000 | -0,73596 | h  | 29,24, 1 |||
633 |          | noName   |  1,00000 |  0,08336 | h  | 30,24, 1 |||
634 |          | noName   |  0,00000 |  0,42181 | h  | 31,24, 1 |||
635 |          | noName   |  1,00000 |  0,69626 | h  | 12,25, 1 |||
636 |          | noName   |  1,00000 |  0,35465 | h  | 13,25, 1 |||
637 |          | noName   |  0,00000 |  0,11827 | h  | 14,25, 1 |||
638 |          | noName   |  1,00000 | -0,53566 | h  | 15,25, 1 |||
639 |          | noName   |  1,00000 | -0,63510 | h  | 16,25, 1 |||
640 |          | noName   |  0,00000 | -0,17661 | h  | 17,25, 1 |||
641 |          | noName   |  0,00000 | -0,33452 | h  | 18,25, 1 |||
642 |          | noName   |  0,00000 | -0,61887 | h  | 19,25, 1 |||
643 |          | noName   |  0,00000 | -0,75817 | h  | 20,25, 1 |||
644 |          | noName   |  0,00000 | -0,56860 | h  | 21,25, 1 |||
645 |          | noName   |  0,00000 |  0,54803 | h  | 22,25, 1 |||
646 |          | noName   |  1,00000 |  0,32654 | h  | 23,25, 1 |||
647 |          | noName   |  0,00000 |  0,99110 | h  | 24,25, 1 |||
648 |          | noName   |  0,00000 |  0,98550 | h  | 25,25, 1 |||
649 |          | noName   |  0,00000 |  0,56476 | h  | 26,25, 1 |||
650 |          | noName   |  1,00000 | -0,58865 | h  | 27,25, 1 |||
651 |          | noName   |  1,00000 | -0,73677 | h  | 28,25, 1 |||
652 |          | noName   |  0,00000 |  0,64985 | h  | 29,25, 1 |||
653 |          | noName   |  1,00000 |  0,85707 | h  | 30,25, 1 |||
654 |          | noName   |  0,00000 |  0,11273 | h  | 31,25, 1 |||
----|----------|----------|----------|----------|----|----------|----------|----------|-------


connection definition section :

target | site | source:weight
-------|------|----------------------------------------------------------------------------------------------------------------
   151 |      | 654: 0,60989, 653:-0,65048, 652: 0,69147, 651: 0,29813, 650:-0,88152, 649: 0,16847, 648: 0,77471, 647:-0,16300,
                646:-0,62634, 645: 0,50668, 644: 0,75849, 643:-0,35000, 642: 0,31904, 641:-0,75208, 640:-0,00685, 639: 0,06220,
                638:-0,43698, 637:-0,16644, 636: 0,47877, 635: 0,48308, 634: 0,60011, 633:-0,70918, 632:-0,97147, 631:-0,05720,
                630:-0,26721, 629: 0,33351, 628: 0,24658, 627:-0,50688, 626:-0,55952, 625:-0,02341, 624:-0,95806, 623: 0,78768,
                622:-0,82020, 621: 0,61302, 620: 0,90771, 619:-0,18744, 618:-0,76634, 617:-0,03052, 616: 0,34623, 615: 0,76124,
                614: 0,60625, 613: 0,72581, 612:-0,48121, 611: 0,05872, 610:-0,13797, 609:-0,61291, 608: 0,01676, 607: 0,53823,
                606:-0,06711, 605: 1,06922, 604:-0,87749, 603:-0,42236, 602:-0,05680, 601: 0,47527, 600: 0,20426, 599:-0,18192,
                598: 0,93268, 597:-0,89026, 596:-0,14823, 595: 0,84671, 594: 0,46463, 593: 0,74615, 592: 0,68575, 591: 0,82405,
                590:-0,66384, 589:-0,75790, 588:-0,96866, 587: 0,37376, 586: 0,94015, 585: 0,69495, 584: 0,34562, 583:-0,22326,
                582: 0,42683, 581:-0,26827, 580: 0,23325, 579:-0,23035, 578: 0,84581, 577: 0,33868, 576:-0,62128, 575:-0,85810,
                574: 0,18017, 573:-0,22945, 572: 0,53272, 571:-0,77556, 570:-0,42261, 569: 0,79809, 568: 0,88502, 567:-0,04066,
                566: 0,23768, 565:-0,88698, 564:-0,91529, 563:-0,44924, 562:-0,84393, 561: 0,41025, 560:-0,10855, 559: 0,21933,
                558: 0,82782, 557: 0,60823, 556: 0,43222, 555:-0,55661, 554:-0,30879, 553: 0,32803, 552:-0,80493, 551: 0,46306,
                550:-0,19015, 549:-0,50735, 548:-0,35343, 547:-0,40497, 546:-0,63305, 545:-0,13168, 544: 0,22832, 543:-0,18623,
                542: 0,35980, 541:-0,03832, 540:-0,89324, 539: 0,88045, 538: 0,93297, 537:-0,01758, 536: 0,00258, 535:-1,01756,
                534: 0,69985, 533: 0,37725, 532: 0,61064, 531:-0,54988, 530:-0,59463, 529: 0,41624, 528:-0,54691, 527:-0,73860,
                526:-0,49068, 525:-0,74420, 524: 0,29585, 523: 0,98937, 522: 0,42975, 521:-0,07090, 520: 0,15113, 519:-0,09862,
                518:-0,15863, 517:-0,40318, 516: 0,65166, 515: 0,68327, 514: 0,92737, 513:-0,30882, 512: 0,59097, 511:-0,97141,
                510: 0,26080, 509: 0,25868, 508:-0,29408, 507:-0,72615, 506:-0,80343, 505:-0,41388, 504: 0,03924, 503:-0,66714,
                502: 0,92518, 501: 0,38541, 500:-0,24225, 499: 0,76688, 498: 0,69289, 497:-0,58082, 496: 0,89593, 495:-0,90635,
                494:-0,05806, 493: 0,93085, 492: 0,05192, 491: 0,10009, 490:-0,85853, 489:-0,64214, 488: 0,49606, 487:-0,26058,
                486:-0,22092, 485: 0,31493, 484: 0,95154, 483: 0,24164, 482:-0,98421, 481:-0,17761, 480:-0,71944, 479: 0,20064,
                478: 0,12040, 477: 0,91261, 476: 0,54020, 475:-0,37494, 474:-0,49610, 473:-0,45974, 472: 0,37738, 471: 0,52268,
                470: 0,76349, 469:-0,86912, 468: 0,18144, 467:-0,54590, 466: 0,64196, 465: 0,02900, 464: 0,88403, 463: 0,01662,
                462:-0,09956, 461:-0,18527, 460:-0,73952, 459: 0,37187, 458: 0,34381, 457:-0,44658, 456: 0,07576, 455: 0,81529,
                454:-0,49345, 453:-0,38662, 452:-0,15567, 451: 0,49141, 450:-0,00282, 449:-0,04652, 448:-1,01270, 447: 0,30645,
                446: 0,34739, 445: 0,08471, 444:-0,84264, 443: 0,06297, 442:-0,09286, 441:-0,50010, 440: 0,52759, 439: 0,48205,
                438:-0,98588, 437:-0,66836, 436:-1,04684, 435: 0,01034, 434: 0,70137, 433:-0,49125, 432:-0,45339, 431: 0,57276,
                430: 0,98921, 429:-0,79325, 428:-0,87298, 427:-0,40054, 426:-0,16870, 425: 0,54198, 424:-0,10560, 423: 0,06029,
                422:-0,11736, 421:-0,79348, 420:-0,86050, 419: 0,89137, 418:-0,28518, 417:-1,13893, 416: 0,98844, 415:-0,82771,
                414:-0,75662, 413:-0,02623, 412: 0,46244, 411:-0,71552, 410:-0,61078, 409: 0,78646, 408:-0,32280, 407:-0,49766,
                406:-1,03674, 405: 0,03380, 404:-0,96559, 403:-0,30712, 402: 1,05569, 401: 0,27621, 400: 0,73731, 399:-0,61398,
                398:-0,11953, 397: 0,15435, 396: 0,21072, 395: 0,84483, 394: 0,18944, 393:-0,43515, 392: 0,14757, 391:-0,61856,
                390: 0,70598, 389: 0,42325, 388:-0,92204, 387:-0,74811, 386:-0,74633, 385:-0,87510, 384: 0,19722, 383: 0,12358,
                382:-0,16379, 381: 0,41313, 380:-0,73371, 379: 0,12563, 378:-0,46481, 377: 0,36910, 376:-0,54216, 375: 0,26986,
                374: 0,22902, 373: 0,52286, 372: 0,26001, 371:-0,66939, 370:-0,61420, 369:-0,52443, 368:-0,18037, 367: 0,79969,
                366: 1,05355, 365: 0,05860, 364: 0,52042, 363:-0,79992, 362: 0,49360, 361: 0,69054, 360:-0,00552, 359:-0,59396,
                358: 0,81700, 357:-0,18928, 356: 0,73148, 355:-0,70435, 354: 0,10141, 353: 0,24802, 352:-0,06561, 351:-0,80540,
                350: 0,55189, 349: 0,94619, 348: 0,03707, 347: 0,58228, 346: 0,46308, 345:-0,81615, 344: 0,93761, 343: 0,82517,
                342: 0,77336, 341: 0,52280, 340:-1,02139, 339: 0,85691, 338: 0,73261, 337: 0,67037, 336: 0,74066, 335: 0,75666,
                334: 0,86015, 333: 0,42042, 332: 0,53723, 331:-0,07145, 330:-0,56186, 329:-0,64695, 328:-0,98175, 327:-0,78876,
                326: 0,93264, 325:-0,05481, 324: 0,17979, 323: 0,22850, 322:-0,10345, 321: 0,13514, 320:-0,19850, 319: 0,83656,
                318:-0,81603, 317: 0,27607, 316:-0,36411, 315:-0,07310, 314:-0,06235, 313:-0,56299, 312: 0,95634, 311:-0,96453,
                310:-0,78877, 309:-0,76959, 308: 0,19437, 307: 0,83978, 306:-0,84324, 305:-0,69307, 304:-0,81884, 303: 0,88850,
                302: 0,47534, 301: 0,51604, 300: 0,17968, 299: 0,90504, 298:-0,40936, 297:-0,53867, 296: 0,33901, 295:-0,53318,
                294: 0,97735, 293:-0,77378, 292: 0,68993, 291:-0,13649, 290: 0,43944, 289:-0,35696, 288: 0,86163, 287:-0,87832,
                286: 0,58223, 285: 0,59154, 284:-0,01274, 283:-0,73761, 282: 0,89191, 281: 0,07009, 280:-0,63376, 279:-0,94677,
                278:-0,41287, 277: 0,32432, 276: 0,27176, 275:-0,60372, 274:-0,90875, 273:-0,22532, 272:-0,82885, 271: 0,74134,
                270:-0,37182, 269: 0,63127, 268:-0,69301, 267:-0,15073, 266:-0,86033, 265:-0,73155, 264: 0,58669, 263:-0,38516,
                262: 0,25818, 261:-0,88476, 260: 0,75587, 259:-0,06768, 258:-0,03485, 257:-0,69871, 256:-0,48090, 255:-0,40445,
                254:-0,53348, 253: 0,44812, 252:-0,99038, 251:-0,02382, 250: 0,72727, 249:-0,74369, 248: 0,76689, 247: 0,17397,
                246: 0,89837, 245:-0,55305, 244: 0,06549, 243:-0,47096, 242:-0,63916, 241:-0,73881, 240:-0,57087, 239: 0,40751,
                238: 0,84095, 237: 0,29908, 236: 0,39972, 235:-0,73404, 234:-0,23584, 233:-0,83675, 232:-0,34360, 231:-0,14452,
                230:-0,15231, 229:-0,86948, 228: 0,53023, 227: 0,93669, 226:-0,80275, 225: 0,10013, 224:-0,90613, 223: 0,83943,
                222: 0,01133, 221: 0,63043, 220: 0,56894, 219: 0,50557, 218:-0,93765, 217: 1,00964, 216: 0,46975, 215: 0,02892,
                214:-0,26449, 213:-0,88636, 212:-0,22133, 211: 0,17521, 210: 1,06999, 209: 0,15074, 208:-0,73439, 207: 0,34806,
                206: 0,51995, 205:-0,10393, 204: 0,22698, 203: 0,13351, 202: 0,14724, 201: 0,92186, 200:-0,49858, 199:-0,90002,
                198:-0,79663, 197: 0,51118, 196:-0,07983, 195:-0,38960, 194: 0,98479, 193: 0,48087, 192:-0,75744, 191:-0,63770,
                190:-0,59024, 189: 0,72108, 188: 0,56995, 187: 0,51702, 186: 0,46624, 185:-0,43687, 184:-0,47130, 183: 0,48383,
                182:-0,22981, 181:-0,86327, 180: 0,79106, 179: 0,32191, 178:-0,29770, 177: 0,63251, 176:-0,07012, 175:-0,20201,
                174:-0,31231, 173:-0,21630, 172: 0,99406, 171:-0,37734, 170: 0,65030, 169:-0,18488, 168:-0,53335, 167:-0,56616,
                166:-0,17769, 165: 0,76823, 164:-0,88790, 163: 0,56073, 162: 0,78682, 161:-0,80043, 160: 1,02655, 159: 0,61466,
                158:-0,29621, 157:-0,45343, 156: 0,28262, 155:-0,80506
   152 |      | 654: 0,14515, 653: 0,30273, 652:-0,54849, 651:-0,74659, 650:-0,83050, 649: 0,40775, 648: 0,36874, 647:-0,24758,
                646: 0,56200, 645: 0,78351, 644: 0,26754, 643: 0,79538, 642: 0,27665, 641:-0,43536, 640:-0,39809, 639:-0,26275,
                638: 0,32302, 637:-0,12300, 636:-0,78217, 635:-0,01408, 634:-0,11769, 633: 0,78467, 632:-0,07398, 631: 0,89902,
                630: 0,66881, 629: 0,32517, 628: 0,43157, 627:-0,20174, 626: 1,06228, 625:-0,53227, 624:-0,11766, 623:-0,85413,
                622: 0,44684, 621: 0,07321, 620: 0,08609, 619: 0,58923, 618:-0,18409, 617:-0,68421, 616:-0,07197, 615: 0,67572,
                614:-0,26397, 613:-0,87746, 612: 0,86436, 611: 0,71454, 610: 0,49248, 609:-0,03052, 608:-1,31834, 607:-0,09646,
                606: 0,61860, 605: 0,41471, 604: 0,65498, 603: 0,04531, 602:-0,08672, 601: 0,05116, 600:-0,23832, 599: 0,67071,
                598: 0,26221, 597: 0,25352, 596: 0,50843, 595:-0,31341, 594:-0,05887, 593: 0,28735, 592: 0,81758, 591: 0,66739,
                590: 0,57699, 589: 0,48483, 588:-0,89734, 587:-0,24901, 586:-0,96866, 585: 0,58960, 584: 0,24339, 583: 0,79110,
                582: 0,55475, 581:-0,43728, 580: 0,84769, 579:-0,07954, 578: 0,49942, 577:-0,37196, 576: 0,56117, 575: 0,98260,
                574:-1,01549, 573:-0,45924, 572:-0,56766, 571:-0,98422, 570: 0,33190, 569:-0,60851, 568: 0,33557, 567:-0,87399,
                566: 0,56015, 565:-0,55568, 564: 0,16944, 563:-0,62446, 562: 0,89577, 561:-0,49580, 560:-0,53399, 559:-0,01830,
                558:-0,68227, 557:-0,79764, 556: 0,45041, 555: 0,05816, 554:-0,06750, 553:-0,68090, 552: 0,45891, 551: 0,12176,
                550:-0,49102, 549:-0,80909, 548:-0,41852, 547:-0,30282, 546:-0,63573, 545:-0,22504, 544:-0,47391, 543: 0,72779,
                542: 0,06682, 541:-0,01801, 540: 0,21997, 539: 0,04850, 538:-0,09886, 537:-0,73431, 536:-0,54132, 535:-0,24423,
                534:-0,42299, 533:-1,00253, 532:-0,08048, 531: 0,13491, 530: 0,19877, 529:-0,25224, 528:-0,72506, 527:-0,89743,
                526: 0,75477, 525: 0,07433, 524:-0,83511, 523: 0,86242, 522:-0,46756, 521: 0,07749, 520: 0,71351, 519:-0,89044,
                518:-0,35543, 517:-0,58956, 516:-0,77007, 515:-0,11972, 514: 0,38423, 513: 0,84966, 512:-0,72269, 511:-0,07546,
                510:-0,36276, 509: 1,30244, 508:-0,61297, 507: 0,39963, 506:-0,91735, 505:-0,78178, 504: 0,62430, 503:-0,18820,
                502: 0,81119, 501:-0,64656, 500: 0,11802, 499: 0,03284, 498:-0,40982, 497:-0,09038, 496:-0,34911, 495: 0,21564,
                494: 0,64542, 493:-0,80945, 492:-0,61615, 491: 0,55237, 490: 0,07082, 489:-0,32812, 488:-0,48055, 487: 0,36820,
                486: 0,25251, 485: 0,40663, 484: 0,39556, 483: 0,40756, 482: 0,20249, 481: 0,72132, 480:-0,16810, 479:-0,35750,
                478:-0,15975, 477: 0,56419, 476: 0,38470, 475:-0,83555, 474: 0,40088, 473: 0,73850, 472: 0,19134, 471:-0,84421,
                470:-0,44035, 469: 0,65131, 468: 0,49695, 467:-0,94976, 466: 0,70710, 465:-0,08101, 464: 0,48457, 463:-0,53013,
                462:-0,04089, 461:-0,71239, 460: 0,64756, 459:-0,01437, 458:-0,72392, 457:-0,59496, 456:-0,40003, 455: 0,99029,
                454:-0,26474, 453: 0,89272, 452: 0,10027, 451: 0,84612, 450:-0,82820, 449:-0,11901, 448: 0,76628, 447: 0,49976,
                446: 0,36452, 445:-0,88998, 444: 0,72983, 443: 0,83001, 442:-0,82266, 441: 0,38718, 440: 0,90652, 439:-0,77001,
                438:-0,80196, 437: 0,59333, 436:-0,61703, 435: 0,00207, 434: 0,15040, 433:-0,09918, 432:-0,59693, 431: 0,44770,
                430: 0,39394, 429:-0,15838, 428: 0,70116, 427:-0,62306, 426:-1,02947, 425: 0,72786, 424: 0,96602, 423:-0,07523,
                422:-0,70186, 421:-0,57834, 420:-0,53136, 419:-0,58417, 418: 0,45265, 417:-0,82477, 416: 0,03825, 415: 0,46369,
                414:-0,36062, 413:-0,04894, 412: 0,49764, 411: 0,01252, 410:-0,01589, 409:-0,61388, 408: 0,54709, 407:-0,97096,
                406: 0,98528, 405: 0,45538, 404: 0,20875, 403:-0,15861, 402: 0,18405, 401: 0,09491, 400:-0,22074, 399: 0,74453,
                398: 0,60488, 397: 0,71770, 396:-0,26777, 395: 0,29343, 394: 0,11010, 393: 0,39090, 392: 0,83730, 391:-0,52600,
                390:-0,10624, 389:-0,90749, 388: 0,70697, 387:-0,85343, 386:-0,02148, 385:-0,67601, 384:-0,89089, 383: 0,27320,
                382:-0,59184, 381:-0,44183, 380:-0,48180, 379:-1,09535, 378: 0,60765, 377:-0,92596, 376: 0,66373, 375: 0,93023,
                374: 0,17402, 373: 0,33392, 372: 0,64235, 371: 0,80490, 370: 0,85529, 369: 0,80200, 368:-0,41987, 367:-0,85240,
                366: 0,72250, 365: 0,93490, 364:-0,18965, 363:-0,68410, 362:-0,53715, 361: 0,47768, 360:-0,80905, 359: 0,80946,
                358: 0,56852, 357: 0,26017, 356:-0,68703, 355:-0,93042, 354: 0,50330, 353: 0,43265, 352:-0,78990, 351: 0,31775,
                350:-0,05232, 349: 0,32281, 348:-0,13835, 347: 0,24319, 346: 0,05809, 345:-0,46634, 344: 0,05006, 343:-0,02007,
                342:-0,56807, 341: 0,35828, 340: 0,08536, 339:-0,74739, 338:-0,48929, 337:-0,49082, 336:-0,28174, 335:-0,39552,
                334:-0,14271, 333: 0,45645, 332: 0,37716, 331: 0,85497, 330: 0,57459, 329: 0,03891, 328: 0,20175, 327:-0,31390,
                326:-0,66213, 325: 0,73757, 324:-0,58882, 323:-0,22810, 322:-0,71525, 321:-0,33234, 320: 0,08997, 319: 0,96262,
                318:-0,96498, 317: 0,03550, 316:-0,07338, 315: 0,60316, 314: 0,37575, 313: 0,67070, 312: 0,82576, 311: 0,71765,
                310:-1,03137, 309: 1,07813, 308: 0,74581, 307: 0,16998, 306:-0,24067, 305:-0,60593, 304: 0,08459, 303:-0,71802,
                302: 0,16281, 301: 0,28007, 300: 0,47653, 299: 0,26536, 298:-0,09245, 297: 0,35392, 296: 0,80194, 295:-0,93366,
                294:-0,45091, 293:-0,96164, 292: 0,08406, 291:-0,64919, 290:-0,31417, 289: 0,45042, 288:-0,58422, 287: 0,26766,
                286: 0,74848, 285:-0,47822, 284:-0,94849, 283:-0,34856, 282: 0,94415, 281: 0,13424, 280: 0,00313, 279:-1,01019,
                278:-0,28592, 277: 0,47527, 276:-0,48882, 275: 0,74077, 274: 1,04911, 273: 0,70807, 272:-0,87828, 271:-0,44130,
                270: 0,93001, 269:-0,90281, 268:-0,49887, 267:-0,83027, 266:-0,82336, 265: 0,58864, 264: 0,29768, 263:-0,69948,
                262:-0,82073, 261: 0,11549, 260:-0,50704, 259:-0,05440, 258: 0,19748, 257:-0,94150, 256: 0,54190, 255: 0,48119,
                254: 0,56716, 253: 0,03763, 252:-0,54698, 251:-0,15235, 250: 0,28107, 249: 0,57438, 248: 0,29845, 247: 0,91777,
                246: 1,01292, 245: 0,94432, 244:-0,66128, 243:-0,08283, 242:-0,61992, 241: 0,35120, 240:-0,20952, 239: 0,67314,
                238: 0,89844, 237: 0,91641, 236: 0,23262, 235:-0,57429, 234:-0,58603, 233: 0,63485, 232: 0,76479, 231:-0,97875,
                230:-0,35535, 229: 0,64424, 228: 0,77441, 227:-0,31825, 226:-0,10866, 225: 0,41952, 224:-0,34338, 223:-0,98993,
                222:-0,46630, 221:-0,79526, 220: 0,12690, 219:-0,67678, 218:-0,40327, 217:-0,77259, 216: 0,60703, 215:-0,24938,
                214:-0,56892, 213:-0,26883, 212:-0,17896, 211:-0,83212, 210:-0,21466, 209:-0,47457, 208:-0,71730, 207:-0,24945,
                206: 0,10292, 205:-0,36092, 204:-0,92268, 203: 0,65709, 202: 0,37203, 201:-0,85637, 200:-0,33608, 199:-0,82668,
                198: 0,23914, 197: 0,49874, 196: 0,02140, 195: 0,98142, 194: 0,74743, 193: 0,80779, 192:-0,85863, 191:-0,14095,
                190: 0,92458, 189: 0,89682, 188:-0,88456, 187: 0,90053, 186: 0,78609, 185:-0,08393, 184:-0,40595, 183:-0,71083,
                182: 0,30305, 181:-1,29519, 180: 0,10093, 179: 0,16552, 178:-0,53279, 177: 0,14796, 176:-0,91359, 175:-0,77927,
                174:-0,02950, 173:-0,68157, 172:-0,18299, 171: 0,38298, 170:-0,37771, 169: 0,19652, 168: 0,67611, 167: 0,42923,
                166:-0,94015, 165: 0,57017, 164: 0,82978, 163:-0,74246, 162: 0,08668, 161: 0,41475, 160:-0,61651, 159: 0,31890,
                158: 0,16756, 157:-0,08921, 156: 0,69904, 155: 0,32392
   153 |      | 654: 0,28050, 653: 0,17790, 652: 0,12864, 651:-0,07601, 650:-0,89750, 649: 0,31839, 648: 0,58594, 647: 0,42612,
                646:-0,05376, 645:-0,09768, 644:-0,87726, 643: 0,59586, 642: 0,27182, 641:-0,51620, 640:-0,77440, 639:-0,32189,
                638: 0,36267, 637: 0,67171, 636:-0,48667, 635: 0,49073, 634:-0,32340, 633: 0,98162, 632: 0,13548, 631: 0,95554,
                630: 0,58211, 629:-0,07405, 628: 0,82825, 627:-0,11688, 626: 0,84853, 625:-0,06075, 624: 0,18122, 623:-0,04741,
                622:-0,04207, 621: 0,45456, 620: 0,06559, 619:-0,55337, 618:-0,53230, 617: 0,10634, 616:-0,63895, 615:-0,61931,
                614:-0,24278, 613: 0,54087, 612:-0,16550, 611:-0,29883, 610:-0,30957, 609:-0,68838, 608: 0,58058, 607:-0,92878,
                606: 0,35028, 605: 1,18439, 604:-0,10682, 603: 0,53700, 602: 1,12376, 601:-0,31839, 600:-0,46839, 599:-0,20346,
                598:-0,20539, 597:-0,05436, 596: 0,69438, 595:-0,37078, 594: 0,93782, 593:-0,87508, 592: 0,69789, 591:-0,38490,
                590:-0,72690, 589:-0,72560, 588:-0,27344, 587: 1,02570, 586: 0,50730, 585: 0,79115, 584:-0,77722, 583: 0,41701,
                582: 0,41364, 581:-0,50303, 580: 0,85841, 579:-0,59661, 578: 0,39469, 577:-0,83408, 576: 0,01073, 575:-0,85677,
                574:-0,67598, 573:-0,24133, 572:-0,46794, 571: 0,62093, 570:-0,55647, 569: 0,98110, 568:-0,60489, 567: 0,63621,
                566:-0,36274, 565: 0,24364, 564:-0,67905, 563:-0,18290, 562: 0,85263, 561: 0,63026, 560:-0,94430, 559: 0,43591,
                558: 0,75522, 557:-0,40055, 556: 0,39803, 555:-0,94779, 554: 0,42058, 553: 0,16258, 552: 0,82554, 551:-0,14998,
                550:-0,75440, 549:-0,36076, 548: 0,39856, 547:-0,02754, 546: 0,37916, 545:-0,20780, 544:-0,08356, 543: 0,77362,
                542: 0,12080, 541: 0,09893, 540:-0,62441, 539: 0,11624, 538: 0,16519, 537:-0,47049, 536:-0,98405, 535: 0,52304,
                534: 0,74956, 533: 0,06723, 532:-0,07635, 531: 0,19102, 530: 0,84443, 529: 0,35065, 528:-0,81740, 527: 0,18506,
                526:-0,60098, 525:-0,58135, 524: 0,03931, 523:-0,80150, 522:-0,14239, 521:-0,21595, 520:-0,41771, 519:-0,16996,
                518: 0,34252, 517:-0,13214, 516:-0,57627, 515:-0,27684, 514: 0,65916, 513:-0,08583, 512: 0,15412, 511: 0,40762,
                510: 0,39670, 509: 0,75199, 508: 0,50481, 507:-0,23453, 506: 0,23364, 505: 0,39844, 504:-0,73932, 503: 0,49521,
                502:-0,19583, 501:-0,28788, 500: 0,78507, 499: 0,31247, 498: 0,75828, 497: 0,48323, 496: 0,76325, 495:-0,41764,
                494:-0,64348, 493:-0,16233, 492: 0,32559, 491:-0,10314, 490:-0,15415, 489:-0,14525, 488:-0,03805, 487:-0,83846,
                486:-0,89902, 485: 0,54706, 484:-0,85755, 483:-0,19810, 482:-0,91315, 481:-0,35812, 480: 0,28916, 479:-0,19396,
                478: 0,72473, 477: 0,49869, 476:-0,11797, 475:-0,60093, 474: 0,92020, 473:-0,13818, 472: 0,30850, 471: 0,70747,
                470: 0,02082, 469:-0,08315, 468: 0,55077, 467: 0,05577, 466: 0,30768, 465:-0,51799, 464:-0,35765, 463:-0,16820,
                462: 0,37595, 461:-0,30970, 460: 0,60980, 459: 0,12009, 458: 0,93007, 457: 0,02665, 456:-0,23467, 455: 0,85521,
                454: 0,32439, 453: 0,03590, 452:-0,38085, 451: 0,90478, 450:-0,48588, 449: 0,34656, 448: 0,40550, 447:-0,03498,
                446:-0,29972, 445: 0,11981, 444: 0,84141, 443:-0,08529, 442: 0,97741, 441:-0,24917, 440:-0,88476, 439:-0,42843,
                438: 0,23814, 437: 0,82767, 436: 0,66945, 435: 0,76138, 434: 0,88993, 433:-0,74310, 432: 0,38334, 431:-0,56641,
                430:-0,58120, 429: 0,80665, 428: 0,68152, 427:-0,03317, 426:-0,37042, 425:-0,82205, 424: 0,73957, 423: 1,12789,
                422:-0,82612, 421:-0,82059, 420: 0,23060, 419:-0,82910, 418:-0,74988, 417: 0,64533, 416:-0,89231, 415: 0,14826,
                414:-0,61365, 413: 0,42736, 412: 0,68606, 411:-0,08673, 410:-0,00417, 409:-0,19864, 408:-0,93497, 407:-0,65889,
                406: 0,04619, 405: 0,70195, 404:-0,72062, 403:-0,36891, 402:-0,31645, 401:-0,10008, 400:-0,44335, 399:-0,52440,
                398: 0,20854, 397:-0,67554, 396: 0,39514, 395: 0,24169, 394: 0,48344, 393:-0,19309, 392:-0,50821, 391:-0,77093,
                390:-0,78573, 389: 0,07763, 388:-0,35866, 387:-0,17525, 386:-0,44275, 385: 0,73193, 384: 0,39427, 383:-0,57315,
                382:-0,24438, 381: 0,36717, 380: 0,81580, 379:-0,39666, 378:-0,34772, 377: 0,20722, 376:-0,81979, 375: 0,10532,
                374: 0,09313, 373: 0,56288, 372:-0,05378, 371: 0,95530, 370: 0,07326, 369: 0,22575, 368:-0,01830, 367:-0,33916,
                366:-0,29993, 365: 0,68559, 364:-0,65474, 363:-0,80656, 362:-0,39915, 361: 0,55939, 360:-0,19129, 359:-0,56059,
                358: 0,63178, 357:-0,21947, 356: 0,19188, 355: 0,89399, 354:-0,34871, 353:-0,41361, 352: 1,01024, 351: 0,10553,
                350: 0,93477, 349:-0,12139, 348: 0,68096, 347:-0,54711, 346: 0,97456, 345:-0,34137, 344:-0,77125, 343:-0,82191,
                342: 0,58068, 341: 0,57027, 340: 0,58891, 339: 1,02715, 338:-0,10016, 337: 0,27962, 336: 0,90016, 335: 0,75288,
                334: 0,79826, 333:-0,63514, 332:-0,78141, 331: 0,36255, 330: 0,29911, 329:-0,18583, 328: 0,02185, 327:-0,18428,
                326:-0,20146, 325:-0,38820, 324: 0,02342, 323: 0,97856, 322:-0,09324, 321: 0,36583, 320:-0,39420, 319:-0,37798,
                318:-0,62197, 317: 0,91442, 316:-0,05914, 315:-0,00872, 314: 0,09482, 313: 0,66111, 312: 0,07609, 311:-0,33796,
                310:-0,73928, 309:-0,56630, 308:-0,49576, 307: 0,62950, 306:-0,32122, 305: 0,10090, 304:-0,02017, 303:-0,49350,
                302: 0,86927, 301:-0,62957, 300: 0,61548, 299: 0,16519, 298:-0,54409, 297:-0,99342, 296: 0,57160, 295:-0,06736,
                294: 0,24136, 293:-0,00292, 292: 0,10937, 291: 0,17359, 290: 0,39416, 289: 0,41807, 288:-0,07595, 287: 0,72303,
                286: 0,86480, 285:-0,99679, 284: 0,78423, 283: 0,82088, 282: 0,01063, 281: 0,90483, 280:-0,97804, 279:-0,64772,
                278: 0,13049, 277: 0,61230, 276: 0,81806, 275: 0,41522, 274:-0,73486, 273:-0,70717, 272: 0,85914, 271: 0,76507,
                270:-0,13844, 269:-0,55630, 268: 0,41814, 267: 0,13155, 266: 0,53152, 265:-0,78095, 264:-0,57001, 263: 0,10409,
                262: 0,85279, 261: 0,26334, 260: 0,38221, 259: 1,01710, 258:-0,33409, 257:-0,39747, 256: 0,75993, 255:-0,01793,
                254: 1,15138, 253:-0,15145, 252: 0,61575, 251:-0,08279, 250:-0,19857, 249:-0,07499, 248: 0,66567, 247: 0,67883,
                246: 0,42502, 245:-0,31280, 244:-1,01546, 243:-0,44771, 242: 0,64457, 241:-0,37774, 240: 0,17680, 239: 0,34719,
                238:-0,02012, 237:-0,40762, 236: 0,15592, 235:-0,97948, 234:-0,48619, 233:-0,15156, 232:-0,56916, 231:-0,00407,
                230:-0,60409, 229:-0,61357, 228:-0,72812, 227:-0,61946, 226:-0,03661, 225: 0,41406, 224:-1,18803, 223: 0,84398,
                222:-0,29373, 221:-0,53853, 220:-0,73526, 219:-0,55831, 218:-0,70074, 217:-0,00945, 216:-0,91144, 215:-0,85569,
                214: 0,15106, 213: 0,15098, 212: 0,65846, 211: 0,19726, 210:-0,43365, 209:-0,89223, 208:-0,76044, 207: 0,86003,
                206: 0,12276, 205:-0,37006, 204:-0,83331, 203:-0,27756, 202: 0,86552, 201:-0,42232, 200:-0,97591, 199: 0,80246,
                198:-0,32480, 197:-0,09888, 196: 0,42113, 195: 0,46085, 194: 0,66519, 193: 0,56209, 192:-0,14385, 191: 0,96941,
                190: 0,81857, 189: 0,68263, 188: 0,62917, 187: 0,34261, 186:-0,63781, 185: 0,29340, 184: 0,64458, 183:-0,71074,
                182:-0,56626, 181:-1,04748, 180: 0,22465, 179: 0,50148, 178:-0,02406, 177:-0,38892, 176:-0,68776, 175:-1,04385,
                174:-0,57853, 173:-0,40070, 172:-0,91306, 171: 0,09060, 170:-0,24063, 169: 0,99274, 168: 0,65010, 167: 0,85889,
                166:-0,70964, 165: 0,16974, 164: 0,07473, 163: 0,01338, 162: 0,49206, 161:-0,45039, 160:-0,37566, 159: 0,25691,
                158:-0,60357, 157:-0,29251, 156:-0,81728, 155: 0,16060
   154 |      | 654: 0,76297, 653:-0,91709, 652: 0,66947, 651:-0,57627, 650:-0,31709, 649: 0,60672, 648:-0,64045, 647: 0,81767,
                646: 0,84333, 645:-0,97500, 644: 0,84703, 643: 0,86382, 642: 0,72751, 641: 0,45628, 640:-0,82548, 639:-0,27070,
                638: 0,32708, 637: 0,85007, 636:-0,07954, 635:-0,13323, 634:-0,49372, 633:-0,36969, 632:-0,45058, 631:-0,95070,
                630: 0,40167, 629:-0,40460, 628: 0,49605, 627: 0,83501, 626:-0,61737, 625: 0,15590, 624: 0,69486, 623:-0,54799,
                622: 0,39831, 621: 0,67475, 620:-0,64796, 619: 0,12518, 618: 0,73877, 617: 0,95201, 616:-0,68082, 615: 0,87147,
                614: 0,72958, 613: 0,86257, 612:-0,44944, 611: 0,18478, 610:-0,70935, 609: 0,90018, 608: 0,53711, 607: 0,19473,
                606:-0,90415, 605: 0,88439, 604:-0,51382, 603: 0,80225, 602:-0,42187, 601: 0,79017, 600: 0,51356, 599: 0,82263,
                598: 0,79968, 597: 0,02484, 596: 0,24031, 595:-0,65211, 594: 0,61567, 593:-0,94493, 592:-0,47033, 591: 0,92410,
                590:-1,02710, 589:-0,91870, 588:-0,04089, 587:-0,57059, 586: 0,40112, 585:-0,59150, 584:-0,67119, 583:-0,67344,
                582:-0,82613, 581: 0,15079, 580:-0,18698, 579:-0,30636, 578:-0,47810, 577:-0,06508, 576: 0,21635, 575: 0,55282,
                574: 0,72976, 573:-0,68700, 572: 0,61535, 571:-0,77928, 570: 0,51837, 569: 0,36417, 568: 0,74599, 567:-0,36555,
                566: 0,43585, 565: 0,20898, 564: 0,37198, 563:-0,12266, 562:-0,36903, 561: 0,72097, 560:-0,71974, 559: 0,06442,
                558: 0,77775, 557:-0,64309, 556:-0,86346, 555: 0,07602, 554:-0,07463, 553: 0,20246, 552:-0,00769, 551: 0,21845,
                550: 0,71496, 549:-0,05144, 548:-0,95220, 547:-0,34608, 546: 0,71515, 545: 0,21701, 544:-0,82347, 543:-0,15133,
                542:-0,04020, 541: 0,55691, 540:-0,76966, 539: 0,73090, 538: 0,88159, 537:-0,27729, 536: 0,60277, 535: 0,72108,
                534: 0,52611, 533: 0,06916, 532: 0,29777, 531:-0,95005, 530:-0,52510, 529:-0,33975, 528:-0,90568, 527: 0,90497,
                526: 0,69602, 525: 0,69102, 524:-0,16636, 523:-0,91823, 522:-0,42273, 521: 0,62642, 520:-0,04066, 519: 0,13317,
                518:-0,21032, 517: 1,04555, 516:-0,39003, 515: 0,87345, 514:-0,77689, 513: 0,29351, 512:-0,52114, 511:-0,27154,
                510:-0,79324, 509: 0,19218, 508: 0,48602, 507: 0,48654, 506: 0,21555, 505: 0,48458, 504: 0,37610, 503: 0,74879,
                502: 0,11653, 501: 0,97276, 500: 1,01277, 499: 0,57292, 498: 0,57083, 497: 0,40590, 496: 0,14392, 495:-0,31324,
                494: 0,82028, 493:-0,64561, 492:-0,03954, 491:-0,64512, 490:-0,02738, 489: 0,46815, 488:-0,08080, 487: 1,05792,
                486:-0,66996, 485:-0,25875, 484: 0,63163, 483: 0,33175, 482: 0,85365, 481:-0,77927, 480: 0,01925, 479:-0,35255,
                478:-0,47744, 477:-0,61418, 476: 0,51920, 475: 0,69311, 474:-0,57330, 473: 0,81195, 472: 0,83874, 471:-0,39053,
                470: 0,10915, 469:-0,72074, 468: 0,62307, 467: 0,77290, 466: 0,34534, 465: 0,32811, 464: 0,16484, 463:-0,11670,
                462: 0,60818, 461:-0,22431, 460:-0,07972, 459:-0,59230, 458: 0,00670, 457:-0,68812, 456: 0,98208, 455:-0,21448,
                454:-0,17965, 453: 0,10795, 452:-0,35800, 451: 0,48873, 450:-0,25600, 449: 0,78201, 448: 0,14962, 447:-0,42941,
                446:-0,72028, 445:-0,71429, 444: 0,50496, 443:-0,04164, 442:-0,85575, 441:-0,25936, 440:-0,11393, 439: 0,33960,
                438:-0,39347, 437:-0,73707, 436:-0,64671, 435: 0,56773, 434:-0,38038, 433:-0,13943, 432: 0,17288, 431:-0,79369,
                430: 0,97420, 429:-0,73722, 428: 0,67918, 427:-0,21379, 426: 0,43372, 425: 0,78077, 424: 0,75204, 423:-0,70500,
                422:-0,21153, 421: 0,49108, 420:-0,12213, 419: 0,49048, 418:-0,55242, 417:-0,47828, 416: 0,53995, 415:-0,74451,
                414: 0,89834, 413: 0,69881, 412:-0,12763, 411:-0,85070, 410:-0,49460, 409:-0,54815, 408:-0,13623, 407:-0,04711,
                406:-0,38165, 405: 0,11000, 404:-0,28807, 403:-0,07380, 402: 1,04802, 401:-0,75608, 400: 0,78535, 399: 0,62846,
                398:-0,24349, 397: 0,60588, 396: 0,74894, 395: 0,61615, 394: 0,26743, 393:-0,40841, 392: 0,24376, 391: 0,19352,
                390: 0,48361, 389: 0,04233, 388: 0,33777, 387:-0,04608, 386: 0,37333, 385:-0,67439, 384:-0,20310, 383: 0,48660,
                382:-0,34230, 381:-0,54212, 380: 0,79740, 379: 0,29565, 378: 0,99027, 377:-0,06613, 376: 0,15121, 375:-0,71437,
                374: 0,90652, 373:-0,24307, 372:-0,10105, 371:-0,88742, 370: 0,28125, 369:-0,40261, 368:-0,58301, 367: 0,50502,
                366: 0,41844, 365: 0,86105, 364:-0,14398, 363: 0,33728, 362: 0,69201, 361:-0,72226, 360: 0,63333, 359:-0,40969,
                358: 0,54456, 357: 0,21103, 356:-0,33248, 355:-0,46008, 354:-0,18016, 353:-0,46969, 352: 0,90695, 351:-0,02431,
                350: 0,09195, 349: 0,09700, 348: 0,37439, 347:-0,36257, 346:-0,16776, 345:-0,78764, 344: 0,57666, 343:-0,48183,
                342: 0,28026, 341: 0,90112, 340:-0,75922, 339:-0,86068, 338: 0,14184, 337: 0,15536, 336: 0,79587, 335:-0,72376,
                334:-0,03753, 333:-0,42027, 332:-0,08714, 331: 0,58994, 330: 0,19313, 329: 0,42446, 328: 0,57993, 327:-0,81336,
                326: 0,16121, 325:-0,60387, 324: 0,85939, 323: 0,55104, 322:-0,47501, 321:-0,12492, 320: 1,18561, 319:-0,12171,
                318: 0,39198, 317:-0,21013, 316: 0,74936, 315:-0,29178, 314:-0,06290, 313: 0,72210, 312:-0,03172, 311:-0,40880,
                310:-0,22600, 309: 0,24040, 308:-0,76388, 307: 0,10488, 306:-0,83562, 305:-0,13042, 304: 0,88612, 303: 0,39733,
                302: 0,12778, 301: 0,57870, 300:-0,56194, 299: 0,27226, 298: 0,62186, 297:-0,03529, 296: 0,30531, 295:-0,90357,
                294: 0,07370, 293: 0,35427, 292:-0,86777, 291:-0,39847, 290: 0,13412, 289:-0,95396, 288:-0,49686, 287: 0,64918,
                286:-0,55841, 285: 0,07965, 284:-0,59650, 283:-0,62964, 282:-0,65047, 281: 0,50281, 280: 0,69330, 279: 0,74594,
                278:-0,57662, 277:-0,47972, 276:-0,60886, 275:-0,72633, 274: 0,81895, 273: 0,06501, 272: 0,35492, 271: 0,10613,
                270: 0,01085, 269:-0,22342, 268:-0,58155, 267:-0,93538, 266:-0,81974, 265: 0,30294, 264: 0,19114, 263: 0,78478,
                262: 0,80365, 261:-0,82341, 260: 0,21205, 259: 0,23646, 258:-0,81871, 257: 0,28052, 256: 0,06216, 255: 0,32264,
                254: 0,81793, 253: 0,07820, 252:-0,08211, 251: 0,39129, 250: 0,50804, 249: 0,20785, 248:-0,64033, 247: 0,66777,
                246:-0,44868, 245: 0,02070, 244:-0,20404, 243:-0,22937, 242:-0,67730, 241:-0,46685, 240: 0,75774, 239: 0,35883,
                238: 0,31698, 237:-0,48857, 236: 0,32697, 235: 0,52580, 234:-0,78429, 233: 0,70963, 232:-0,43834, 231:-0,52996,
                230:-0,30889, 229:-0,88658, 228: 0,83090, 227:-0,29975, 226:-0,04025, 225: 0,52901, 224: 0,04022, 223: 0,54057,
                222: 0,09349, 221: 0,57293, 220:-0,54768, 219:-0,36471, 218: 0,07571, 217: 0,04065, 216:-0,18102, 215: 0,85903,
                214: 0,67307, 213:-0,55012, 212: 0,67426, 211: 0,28819, 210: 0,88512, 209:-0,16377, 208: 0,35275, 207:-0,25424,
                206:-0,18957, 205: 0,97110, 204:-0,61796, 203:-0,89157, 202: 0,82977, 201: 0,69248, 200:-0,31486, 199: 0,79990,
                198: 0,95316, 197: 0,45251, 196: 0,21648, 195:-0,29797, 194:-0,07154, 193:-0,84153, 192:-0,82343, 191: 0,59466,
                190: 0,42480, 189: 0,08016, 188: 0,95930, 187:-0,79874, 186: 0,50521, 185: 0,27813, 184:-0,68288, 183:-0,37995,
                182:-0,19582, 181: 0,12386, 180:-0,57802, 179: 0,84337, 178:-0,53494, 177: 0,48363, 176:-0,41898, 175: 0,06335,
                174:-0,94145, 173: 1,00456, 172: 0,15596, 171: 0,32680, 170:-0,06915, 169:-0,42767, 168:-0,63008, 167:-0,09029,
                166: 0,93958, 165:-0,82763, 164: 0,93020, 163:-0,92972, 162:-0,23224, 161:-0,76899, 160:-0,90574, 159:-0,79389,
                158: 0,34802, 157: 1,03445, 156: 0,25948, 155: 0,91646
   155 |      | 150:-0,66366, 149:-0,97937, 148: 0,38220, 147:-0,62768, 146: 0,46421, 145:-0,07005, 144:-0,97921, 143:-0,80302,
                142: 0,52650, 141:-0,53032, 140: 0,03731, 139: 0,42778, 138:-0,05339, 137:-0,55199, 136:-0,43342, 135:-0,65695,
                134: 0,86865, 133: 0,76988, 132:-0,32831, 131:-0,75325, 130: 0,22380, 129: 0,15786, 128:-0,35090, 127:-0,99032,
                126:-0,69396, 125:-0,54311, 124:-0,10849, 123: 0,50981, 122: 0,67677, 121: 0,03495, 120:-0,46859, 119:-0,32938,
                118: 0,27675, 117:-0,16998, 116: 0,58622, 115: 0,93307, 114: 0,77612, 113: 0,05026, 112:-0,00721, 111: 0,24960,
                110:-0,08928, 109: 0,71807, 108:-0,82083, 107: 0,25385, 106: 0,33640, 105:-0,12918, 104:-0,62053, 103: 0,99266,
                102: 0,41664, 101:-0,08819, 100:-0,76023,  99:-0,48469,  98:-0,59381,  97:-0,63066,  96: 0,15724,  95: 0,36604,
                 94:-0,69888,  93: 0,10110,  92: 0,78940,  91:-0,55800,  90:-0,17998,  89: 0,11397,  88: 0,09610,  87:-0,76249,
                 86: 0,72026,  85: 0,89910,  84:-0,25558,  83: 0,83260,  82:-0,87257,  81:-0,84008,  80: 0,60930,  79:-0,61037,
                 78:-0,51514,  77:-0,40746,  76:-0,88656,  75:-0,15596,  74:-0,13344,  73:-0,07264,  72: 0,22452,  71:-0,98284,
                 70: 0,02343,  69: 0,62608,  68: 0,80264,  67:-0,19965,  66: 0,96403,  65:-0,27447,  64: 0,68220,  63: 0,27683,
                 62: 0,95300,  61: 0,51068,  60: 0,18134,  59:-0,26777,  58:-0,58009,  57: 0,57070,  56: 0,73646,  55:-0,81399,
                 54: 0,81588,  53: 0,83968,  52:-0,07832,  51: 0,23794,  50:-0,62401,  49:-0,65364,  48: 0,37633,  47: 0,20824,
                 46: 0,01121,  45:-0,59669,  44:-0,95014,  43:-0,54657,  42: 0,16737,  41:-0,93359,  40:-0,10980,  39: 0,71656,
                 38:-0,01649,  37: 0,01122,  36:-0,36700,  35:-0,07061,  34:-0,97777,  33:-0,97193,  32:-0,03595,  31: 0,19215,
                 30:-0,67423,  29:-0,43570,  28:-0,92588,  27:-0,96495,  26:-0,29886,  25:-0,02144,  24: 0,83393,  23:-0,50624,
                 22:-0,38667,  21: 0,16141,  20: 0,59949,  19:-0,85634,  18:-0,44302,  17:-0,92945,  16: 0,40597,  15: 0,82499,
                 14:-0,49503,  13: 0,58294,  12: 0,19609,  11:-0,69869,  10: 0,24849,   9: 0,34375,   8:-0,78798,   7:-0,87058,
                  6:-0,06868,   5:-0,63738,   4: 0,99338,   3:-0,65891,   2:-0,34518,   1:-0,25426
   156 |      | 150: 0,56015, 149: 0,03601, 148: 0,84026, 147:-0,11742, 146: 0,47647, 145: 0,41551, 144:-0,70698, 143: 0,53233,
                142:-0,60163, 141: 0,94350, 140: 0,08268, 139: 0,02753, 138:-0,70742, 137:-0,04034, 136: 0,87339, 135:-0,12161,
                134:-0,66314, 133: 0,39788, 132: 0,36627, 131: 0,84559, 130: 0,75162, 129:-0,10986, 128: 0,40393, 127:-0,44794,
                126: 0,39787, 125:-0,14939, 124: 0,03413, 123: 0,02297, 122: 0,33801, 121:-0,84697, 120:-0,41586, 119:-0,96203,
                118: 0,92054, 117: 0,67036, 116:-0,02778, 115: 0,17778, 114:-0,20857, 113:-0,45048, 112:-0,67830, 111: 0,44011,
                110:-0,96809, 109:-0,19335, 108: 0,69302, 107:-0,10440, 106:-0,98945, 105:-0,16313, 104: 0,05862, 103: 0,94912,
                102:-0,19367, 101:-0,54034, 100:-0,92800,  99:-0,96403,  98: 0,65757,  97:-0,08291,  96:-0,31136,  95: 0,97385,
                 94: 0,92176,  93: 0,09157,  92:-0,84868,  91:-0,55534,  90:-0,24664,  89:-0,57373,  88:-0,46811,  87: 0,21362,
                 86:-0,96277,  85:-0,53918,  84:-0,89341,  83: 0,50538,  82: 0,12539,  81:-0,58524,  80: 0,92090,  79: 0,52782,
                 78:-0,65536,  77: 0,26852,  76:-0,53294,  75: 0,32592,  74: 0,95527,  73:-0,25262,  72:-0,64773,  71:-0,89833,
                 70:-0,21145,  69:-0,52271,  68:-0,01417,  67:-0,22251,  66:-0,12981,  65: 0,35541,  64:-0,12850,  63: 0,11256,
                 62:-0,69821,  61:-0,60419,  60: 0,17617,  59: 0,09245,  58: 0,03195,  57:-0,46414,  56: 0,38338,  55:-0,13144,
                 54: 0,07005,  53: 0,21799,  52:-0,53861,  51:-0,72565,  50:-0,50001,  49:-0,87890,  48: 0,91881,  47:-0,77901,
                 46:-0,68233,  45:-0,13586,  44:-0,86989,  43: 0,18562,  42:-0,22077,  41: 0,53108,  40: 0,53879,  39:-0,05460,
                 38: 0,39756,  37:-0,30792,  36:-0,15490,  35:-0,14799,  34: 0,91101,  33:-0,52783,  32:-0,48045,  31: 0,74048,
                 30: 0,07180,  29:-0,07088,  28:-0,67657,  27:-0,74077,  26: 0,72505,  25: 0,36159,  24: 0,73809,  23:-0,48811,
                 22: 0,78546,  21: 0,52197,  20: 0,98672,  19:-0,28392,  18:-0,05728,  17: 0,43276,  16: 0,76521,  15:-0,31177,
                 14:-0,53524,  13:-0,49041,  12:-0,12480,  11:-0,28034,  10: 0,70663,   9:-0,08310,   8: 0,07357,   7:-0,54122,
                  6:-0,08840,   5:-0,00546,   4: 0,92507,   3:-0,81787,   2:-0,19121,   1: 0,69780
   157 |      | 150: 0,02782, 149: 0,22004, 148: 0,32205, 147: 0,82849, 146:-0,13528, 145:-0,60057, 144:-0,59887, 143:-0,52348,
                142: 0,24795, 141:-0,19360, 140: 0,17123, 139: 0,12680, 138:-0,08631, 137:-0,71930, 136: 0,00706, 135: 0,90774,
                134: 0,32475, 133: 0,62312, 132:-0,07860, 131: 0,93182, 130: 0,50403, 129: 0,02445, 128:-0,23634, 127:-0,32781,
                126: 0,67791, 125:-0,08258, 124:-0,12292, 123:-0,27332, 122:-0,22923, 121:-0,89965, 120: 0,43132, 119:-0,49900,
                118:-0,50118, 117:-0,50047, 116:-0,28164, 115: 0,06684, 114:-0,55612, 113: 0,96042, 112: 0,70220, 111:-0,28740,
                110: 0,06245, 109: 0,90117, 108: 0,88915, 107: 0,68355, 106: 0,90170, 105: 0,59849, 104:-0,98387, 103:-0,10524,
                102: 0,43108, 101:-0,96668, 100:-0,45605,  99: 0,48609,  98:-0,28081,  97: 0,48752,  96: 0,93359,  95: 0,87608,
                 94:-0,16962,  93: 0,99369,  92:-0,85546,  91:-0,73403,  90:-0,78904,  89: 0,99535,  88:-0,27157,  87:-0,43965,
                 86:-0,31679,  85:-0,47248,  84:-0,16882,  83:-0,47493,  82:-0,04447,  81: 0,38902,  80: 0,92755,  79:-0,77726,
                 78:-0,94597,  77: 0,31135,  76: 0,28846,  75: 0,78171,  74:-0,16396,  73: 0,36001,  72:-0,84866,  71:-0,79526,
                 70: 0,08717,  69: 0,70825,  68: 0,98450,  67: 0,95257,  66:-0,25607,  65: 0,63766,  64: 0,79880,  63: 0,59489,
                 62: 0,91444,  61: 0,93354,  60:-0,61751,  59:-0,03503,  58:-0,23404,  57:-0,29472,  56: 0,87238,  55:-0,55441,
                 54:-0,53711,  53: 0,67393,  52: 0,00705,  51: 0,62341,  50:-0,58867,  49:-0,10694,  48: 0,55281,  47: 0,35141,
                 46:-0,38897,  45:-0,88118,  44:-0,90651,  43: 0,93560,  42:-0,76567,  41: 0,19442,  40: 0,01057,  39: 0,80226,
                 38:-0,77819,  37: 0,09115,  36: 0,95622,  35: 0,59759,  34: 0,06947,  33:-0,96307,  32: 0,38048,  31: 0,62529,
                 30:-0,27655,  29: 0,50601,  28:-0,81662,  27: 0,14421,  26: 0,01976,  25:-0,06359,  24:-0,17243,  23:-0,95794,
                 22:-0,88593,  21:-0,26107,  20: 0,29778,  19: 0,38993,  18: 0,32506,  17:-0,52749,  16:-0,80289,  15: 0,39322,
                 14: 0,53365,  13:-0,34818,  12: 0,62017,  11: 0,21735,  10:-0,71352,   9:-0,65377,   8: 0,86828,   7: 0,42050,
                  6: 0,87729,   5: 0,00267,   4: 0,72885,   3: 0,51423,   2: 0,53394,   1: 0,41488
   158 |      | 150: 0,14642, 149: 0,31569, 148:-0,24332, 147: 0,13048, 146:-0,88323, 145: 0,09783, 144: 0,54684, 143:-0,42387,
                142:-0,14505, 141: 0,04453, 140:-0,58042, 139:-0,45992, 138:-0,01384, 137:-0,01779, 136:-0,10129, 135: 0,08650,
                134:-0,54828, 133: 0,10140, 132: 0,93010, 131:-0,48608, 130:-0,47322, 129: 0,23563, 128: 0,78929, 127:-0,17157,
                126:-0,42962, 125:-0,33053, 124:-0,12297, 123: 0,08730, 122:-0,05129, 121: 0,87704, 120: 0,72990, 119:-0,71161,
                118: 0,19190, 117: 0,92945, 116:-0,15263, 115: 0,53964, 114:-0,11610, 113:-0,54186, 112: 0,36760, 111:-0,66287,
                110: 0,25667, 109: 0,22641, 108: 0,56544, 107:-0,55699, 106: 0,08442, 105:-0,47011, 104:-0,89219, 103: 0,65023,
                102: 0,77458, 101:-0,91417, 100: 0,14905,  99: 0,74530,  98: 0,96275,  97:-0,17063,  96: 0,00496,  95:-0,63984,
                 94:-0,72383,  93: 0,44311,  92:-0,71279,  91:-0,20201,  90: 0,97848,  89:-0,38482,  88: 0,14461,  87: 0,01475,
                 86:-0,90167,  85: 0,34344,  84:-0,56521,  83:-0,04113,  82: 0,43222,  81: 0,25266,  80:-0,81219,  79: 0,66878,
                 78: 0,96081,  77: 0,32411,  76: 0,22336,  75:-0,31669,  74: 0,09659,  73: 0,88702,  72:-0,99183,  71: 0,24980,
                 70: 0,56547,  69: 0,70863,  68:-0,79694,  67:-0,13652,  66: 0,29615,  65: 0,84128,  64:-0,57568,  63:-0,78370,
                 62: 0,53774,  61: 0,12247,  60:-0,24074,  59:-0,41691,  58:-0,45816,  57:-0,76315,  56: 0,91535,  55: 0,96596,
                 54:-0,06960,  53:-0,31747,  52: 0,58840,  51:-0,57428,  50: 0,63241,  49:-0,74107,  48: 0,90394,  47:-0,54671,
                 46:-0,27740,  45:-0,48237,  44: 0,47127,  43:-0,99159,  42: 0,25451,  41: 0,47491,  40:-0,29814,  39: 0,04083,
                 38: 0,27245,  37: 0,54497,  36:-0,75227,  35:-0,49243,  34:-0,45555,  33:-0,33719,  32:-0,46557,  31:-0,26524,
                 30: 0,51935,  29:-0,24268,  28:-0,12442,  27: 0,60245,  26:-0,18097,  25: 0,71825,  24:-0,80431,  23:-0,35463,
                 22: 0,88261,  21: 0,66876,  20:-0,75280,  19: 0,48247,  18:-0,26044,  17:-0,61780,  16:-0,16691,  15: 0,76462,
                 14: 0,26600,  13: 0,02121,  12:-0,95896,  11:-0,65259,  10:-0,45807,   9: 0,76806,   8: 0,12023,   7:-0,03225,
                  6: 0,35288,   5:-0,62776,   4: 0,30131,   3:-0,82435,   2: 0,64771,   1: 0,96541
   159 |      | 150: 0,52259, 149:-0,53505, 148:-0,23579, 147: 0,66736, 146:-0,55657, 145: 0,96506, 144: 0,35932, 143:-0,24597,
                142: 0,32977, 141:-0,34252, 140:-0,68226, 139:-0,78433, 138:-0,05084, 137:-0,50495, 136:-0,27233, 135:-0,80969,
                134:-0,38095, 133: 0,43732, 132:-0,70279, 131: 0,73041, 130:-0,07025, 129: 0,47801, 128: 0,66533, 127: 0,07350,
                126:-0,10865, 125: 0,51498, 124:-0,03598, 123: 0,88513, 122:-0,74821, 121:-0,75370, 120:-0,56693, 119:-0,65907,
                118:-0,47700, 117:-0,65987, 116:-0,63699, 115: 0,29601, 114: 0,61855, 113:-0,80611, 112:-0,05991, 111: 0,60523,
                110: 0,63834, 109: 0,82032, 108: 0,08025, 107: 0,69873, 106:-0,54560, 105:-0,17008, 104:-0,75685, 103: 0,73009,
                102: 0,60853, 101: 0,58544, 100: 0,96538,  99: 0,60396,  98: 0,41172,  97:-0,24760,  96:-0,31860,  95: 0,71449,
                 94:-0,15099,  93:-0,56410,  92: 0,82944,  91: 0,70309,  90: 0,29068,  89:-0,43990,  88:-0,43494,  87:-0,45549,
                 86:-0,53491,  85:-0,79942,  84:-0,79114,  83:-0,97631,  82: 0,57086,  81: 0,21439,  80:-0,80276,  79: 0,55638,
                 78:-0,26563,  77:-0,86936,  76:-0,57075,  75: 0,37579,  74: 0,72399,  73: 0,16991,  72: 0,93204,  71: 0,55178,
                 70:-0,58316,  69:-0,83152,  68:-0,59260,  67:-0,01680,  66: 0,01084,  65:-0,28813,  64: 0,95856,  63: 0,41634,
                 62: 0,44790,  61: 0,95633,  60:-0,10225,  59:-0,63974,  58: 0,56024,  57:-0,63076,  56: 0,54908,  55: 0,31418,
                 54: 0,69646,  53: 0,28710,  52: 0,21933,  51:-0,52712,  50: 0,18724,  49:-0,98236,  48:-0,37894,  47: 0,66649,
                 46:-0,84024,  45:-0,14997,  44:-0,10783,  43: 0,01383,  42:-0,37258,  41:-0,65798,  40:-0,36344,  39: 0,06916,
                 38:-0,78139,  37: 0,58719,  36:-0,93324,  35: 0,22564,  34:-0,35201,  33:-0,30151,  32: 0,09882,  31:-0,93568,
                 30: 0,39090,  29:-0,24823,  28:-0,85169,  27: 0,12046,  26: 0,84192,  25: 0,09646,  24:-0,79535,  23: 0,25296,
                 22:-0,60143,  21:-0,15277,  20:-0,40300,  19:-0,82495,  18: 0,81945,  17: 0,01603,  16: 0,57271,  15: 0,62042,
                 14:-0,69760,  13:-0,97334,  12:-0,47150,  11: 0,61960,  10:-0,01795,   9:-0,91741,   8: 0,39134,   7:-0,85597,
                  6: 0,96108,   5: 0,24480,   4:-0,55606,   3:-0,70701,   2: 0,09737,   1: 0,23941
   160 |      | 150:-0,23512, 149: 0,13851, 148:-0,51658, 147:-0,81097, 146:-0,29442, 145:-0,50859, 144: 0,99399, 143:-0,00002,
                142: 0,60580, 141: 0,18798, 140: 0,68656, 139:-0,94965, 138: 0,40946, 137: 0,81322, 136: 0,53384, 135: 0,72186,
                134:-0,98303, 133: 0,49693, 132: 0,75859, 131:-0,14408, 130:-0,86624, 129: 0,11585, 128: 0,14701, 127: 0,34863,
                126: 0,38600, 125: 0,53067, 124:-0,16446, 123: 0,78834, 122: 0,10867, 121:-0,85352, 120:-0,91093, 119: 0,40977,
                118: 0,95129, 117: 0,68757, 116: 0,40976, 115: 0,76423, 114:-0,87839, 113: 0,74513, 112: 0,41497, 111:-0,87902,
                110: 0,99968, 109: 0,08322, 108:-0,56929, 107: 0,19455, 106: 0,32758, 105:-0,45315, 104: 0,65186, 103:-0,19267,
                102: 0,57250, 101:-0,24535, 100: 0,42166,  99:-0,79661,  98: 0,64878,  97:-0,81251,  96: 0,02416,  95:-0,73087,
                 94:-0,39307,  93:-0,20624,  92:-0,15037,  91:-0,52302,  90:-0,29468,  89: 0,75076,  88: 0,11831,  87: 0,05853,
                 86:-0,05542,  85: 0,51534,  84:-0,49368,  83: 0,23787,  82: 0,54356,  81:-0,69507,  80:-0,77086,  79:-0,34477,
                 78:-0,11065,  77: 0,89423,  76: 0,54361,  75: 0,17667,  74: 0,36446,  73:-0,03761,  72: 0,38672,  71:-0,29795,
                 70:-0,77176,  69: 0,13757,  68: 0,89868,  67: 0,55221,  66:-0,80428,  65: 0,25397,  64:-0,76679,  63:-0,41637,
                 62:-0,54715,  61: 0,53426,  60: 0,32469,  59: 0,11020,  58: 0,15014,  57:-0,77029,  56: 0,06654,  55: 0,92552,
                 54: 0,87130,  53:-0,38021,  52: 0,02901,  51:-0,00080,  50:-0,76283,  49: 0,16995,  48:-0,72520,  47: 0,78750,
                 46: 0,62006,  45: 0,95103,  44:-0,94681,  43: 0,47444,  42:-0,03756,  41: 0,64870,  40:-0,73113,  39:-0,16685,
                 38: 0,19137,  37:-0,25735,  36: 0,76511,  35: 0,77507,  34: 0,05059,  33:-0,86604,  32:-0,73004,  31:-0,95182,
                 30:-0,79795,  29: 0,26301,  28: 0,79977,  27:-0,72862,  26: 0,29390,  25:-0,57611,  24: 0,12542,  23:-0,89583,
                 22: 0,05130,  21:-0,27173,  20:-0,41762,  19: 0,81132,  18:-0,51926,  17: 0,71791,  16:-0,01520,  15: 0,10401,
                 14: 0,16642,  13:-0,77636,  12: 0,98652,  11:-0,11214,  10:-0,45409,   9: 0,36657,   8:-0,80375,   7:-0,11004,
                  6:-0,11803,   5:-0,65374,   4:-0,55989,   3: 0,33330,   2: 0,56010,   1:-0,03363
   161 |      | 150: 0,91639, 149:-0,30615, 148: 0,91897, 147: 0,52515, 146: 0,01018, 145:-0,74927, 144:-0,10627, 143:-0,59827,
                142: 0,37021, 141:-0,24242, 140:-0,40953, 139:-0,37780, 138:-0,88371, 137:-0,40437, 136: 0,05577, 135: 0,05226,
                134:-0,02875, 133:-0,42407, 132: 0,86622, 131: 0,57563, 130: 0,73453, 129:-0,20074, 128: 0,13165, 127:-0,28236,
                126: 0,85159, 125: 0,77248, 124:-0,33383, 123: 0,35780, 122: 0,44926, 121: 0,55175, 120: 0,57887, 119:-0,75367,
                118: 0,74444, 117: 0,47956, 116:-0,55947, 115:-0,13928, 114: 0,00621, 113: 0,73262, 112: 0,12516, 111:-0,79395,
                110:-0,25379, 109:-0,58800, 108: 0,46834, 107:-0,49878, 106: 0,29579, 105: 0,95083, 104: 0,62601, 103:-0,76562,
                102: 0,95097, 101:-0,98870, 100:-0,91763,  99:-0,84706,  98:-0,74364,  97: 0,26969,  96:-0,19634,  95: 0,61993,
                 94:-0,63054,  93: 0,18035,  92:-0,74530,  91:-0,92938,  90: 0,68893,  89:-0,74122,  88: 0,60753,  87: 0,59685,
                 86: 0,71873,  85: 0,07632,  84:-0,77108,  83:-0,06518,  82: 0,42940,  81:-0,88112,  80: 0,71891,  79:-0,79540,
                 78: 0,90455,  77:-0,81078,  76: 0,69950,  75:-0,07921,  74: 0,84241,  73: 0,04188,  72:-0,93120,  71:-0,75360,
                 70:-0,68202,  69: 0,50552,  68: 0,41592,  67: 0,78294,  66:-0,81917,  65: 0,19600,  64: 0,14565,  63: 0,87404,
                 62: 0,42841,  61:-0,05853,  60: 0,02849,  59:-0,65316,  58:-0,00265,  57:-0,23207,  56:-0,65927,  55: 0,63337,
                 54: 0,57944,  53: 0,42751,  52:-0,50531,  51:-0,48649,  50: 0,49996,  49: 0,34666,  48:-0,38803,  47: 0,42390,
                 46: 0,38022,  45:-0,96458,  44: 0,42951,  43: 0,90628,  42: 0,51045,  41: 0,60026,  40:-0,65737,  39: 0,75745,
                 38:-0,36621,  37:-0,63823,  36: 0,40999,  35:-0,37180,  34:-0,48465,  33: 0,67478,  32:-0,57020,  31: 0,94533,
                 30:-0,64491,  29: 0,01614,  28:-0,56615,  27: 0,24850,  26: 0,19115,  25: 0,03613,  24: 0,35788,  23: 0,39962,
                 22: 0,10540,  21: 0,50981,  20:-0,51623,  19: 0,09954,  18: 0,74078,  17: 0,57869,  16:-0,70412,  15: 0,10369,
                 14:-0,39398,  13: 0,10047,  12:-0,53628,  11:-0,75919,  10:-0,60408,   9: 0,74095,   8:-0,89725,   7:-0,51138,
                  6:-0,60689,   5:-0,77936,   4: 0,65022,   3: 0,03487,   2:-0,48030,   1:-0,90351
   162 |      | 150:-0,55385, 149: 0,13669, 148:-0,99773, 147: 0,24125, 146:-0,81999, 145: 0,88719, 144:-0,56989, 143:-0,09145,
                142:-0,98423, 141: 0,17082, 140: 0,10740, 139: 0,58743, 138: 0,25781, 137:-0,07430, 136:-0,33790, 135: 0,04484,
                134:-0,59769, 133:-0,23191, 132:-0,41563, 131:-0,74584, 130: 0,37863, 129: 0,96495, 128: 0,14975, 127: 0,33752,
                126: 0,41239, 125: 0,74076, 124:-0,20862, 123: 0,19103, 122: 0,34649, 121:-0,12295, 120: 0,87376, 119: 0,54592,
                118:-0,85807, 117:-0,93836, 116: 0,56397, 115: 0,97357, 114:-0,08518, 113: 0,87865, 112:-0,19178, 111: 0,05275,
                110: 0,80378, 109:-0,62773, 108: 0,75030, 107:-0,66504, 106: 0,16746, 105: 0,72309, 104: 0,37628, 103: 0,15159,
                102: 0,95364, 101: 0,48175, 100:-0,00216,  99: 0,01920,  98:-0,16494,  97: 0,02745,  96: 0,30967,  95:-0,73755,
                 94:-0,94619,  93: 0,25879,  92: 0,24723,  91: 0,36485,  90:-0,55565,  89:-0,93987,  88:-0,54115,  87: 0,88368,
                 86:-0,69103,  85: 0,68055,  84: 0,77411,  83:-0,03281,  82: 0,59864,  81: 0,95633,  80: 0,14137,  79:-0,44112,
                 78: 0,01428,  77:-0,77397,  76: 0,81672,  75: 0,26925,  74:-0,59951,  73:-0,96516,  72: 0,46981,  71: 0,17113,
                 70:-0,72442,  69:-0,71236,  68:-0,16304,  67:-0,00393,  66:-0,94695,  65: 0,65616,  64: 0,76637,  63: 0,47218,
                 62: 0,89305,  61:-0,17601,  60:-0,71517,  59:-0,02599,  58:-0,98566,  57:-0,10710,  56:-0,34997,  55:-0,08740,
                 54:-0,55628,  53:-0,91239,  52:-0,62900,  51: 0,06591,  50: 0,72928,  49:-0,82466,  48:-0,32703,  47:-0,44042,
                 46: 0,15495,  45: 0,93573,  44:-0,20056,  43:-0,29484,  42: 0,92696,  41: 0,03059,  40: 0,48644,  39: 0,17224,
                 38:-0,96983,  37: 0,96823,  36: 0,67180,  35:-0,17381,  34: 0,74621,  33:-0,94907,  32: 0,43265,  31: 0,35013,
                 30:-0,13032,  29:-0,46431,  28: 0,84762,  27:-0,13444,  26: 0,54047,  25:-0,69258,  24:-0,81282,  23: 0,07855,
                 22:-0,67642,  21:-0,47789,  20:-0,07092,  19: 0,94765,  18: 0,11297,  17:-0,43294,  16: 0,61798,  15: 0,96537,
                 14: 0,92056,  13: 0,73031,  12: 0,73634,  11:-0,62932,  10: 0,34670,   9:-0,12275,   8: 0,38016,   7: 0,99686,
                  6: 0,13521,   5:-0,31545,   4:-0,35077,   3:-0,92672,   2: 0,71850,   1: 0,34838
   163 |      | 150: 0,73614, 149: 0,98842, 148:-0,28615, 147: 0,51340, 146:-0,11120, 145: 0,02488, 144: 0,29604, 143:-0,36370,
                142:-0,45435, 141: 0,41939, 140:-0,70952, 139:-0,05631, 138: 0,08402, 137: 0,79728, 136:-0,70356, 135:-0,59897,
                134: 0,63607, 133:-0,27550, 132: 0,77222, 131:-0,19510, 130: 0,93091, 129:-0,65233, 128: 0,16386, 127:-0,08071,
                126: 0,52715, 125: 0,72743, 124: 0,93331, 123: 0,40969, 122:-0,12572, 121:-0,83963, 120: 0,37680, 119: 0,98143,
                118:-0,14826, 117: 0,02650, 116: 0,96750, 115:-0,45411, 114:-0,76430, 113:-0,56558, 112:-0,94103, 111:-0,43680,
                110: 0,34229, 109:-0,34065, 108:-0,99155, 107:-0,17004, 106:-0,66734, 105: 0,98065, 104:-0,73541, 103:-0,56645,
                102:-0,68990, 101: 0,83190, 100: 0,63611,  99: 0,08083,  98: 0,39486,  97: 0,39081,  96: 0,02185,  95:-0,12033,
                 94:-0,03944,  93: 0,97727,  92: 0,32431,  91:-0,58196,  90: 0,72317,  89: 0,42159,  88:-0,64353,  87: 0,81272,
                 86:-0,51665,  85:-0,65750,  84:-0,66656,  83:-0,38967,  82:-0,83589,  81:-0,12614,  80: 0,34704,  79: 0,99618,
                 78:-0,98500,  77: 0,54460,  76:-0,83634,  75:-0,16436,  74: 0,16234,  73:-0,10164,  72:-0,84331,  71: 0,42999,
                 70: 0,29153,  69:-0,90568,  68: 0,35761,  67: 0,46075,  66:-0,59489,  65:-0,37851,  64: 0,94042,  63:-0,97310,
                 62:-0,90747,  61: 0,75519,  60: 0,17813,  59: 0,70858,  58:-0,61257,  57: 0,26054,  56: 0,54518,  55:-0,36638,
                 54:-0,57673,  53: 0,78688,  52:-0,51467,  51:-0,84674,  50:-0,89623,  49:-0,51445,  48:-0,00008,  47: 0,17783,
                 46: 0,79015,  45: 0,61628,  44: 0,99854,  43:-0,13187,  42: 0,51104,  41: 0,68525,  40:-0,06474,  39:-0,73685,
                 38:-0,10506,  37:-0,71401,  36: 0,05259,  35: 0,74889,  34: 0,41014,  33:-0,99250,  32:-0,72258,  31:-0,11236,
                 30:-0,39290,  29: 0,14956,  28: 0,94418,  27: 0,04394,  26:-0,04246,  25:-0,42989,  24: 0,82913,  23:-0,87254,
                 22: 0,16846,  21: 0,71398,  20:-0,98699,  19: 0,44619,  18:-0,85485,  17:-0,92428,  16:-0,32044,  15:-0,39415,
                 14: 0,24344,  13: 0,27423,  12: 0,71346,  11:-0,76452,  10: 0,27661,   9: 0,21476,   8: 0,77860,   7:-0,64152,
                  6: 0,64818,   5: 0,04160,   4:-0,89333,   3:-0,09209,   2: 0,71967,   1: 0,70361
   164 |      | 150: 0,30995, 149:-0,62467, 148:-0,16387, 147: 0,43907, 146:-0,51177, 145:-0,97094, 144:-0,41982, 143: 0,25912,
                142:-0,00796, 141: 0,87712, 140: 0,09556, 139: 0,77221, 138: 0,29350, 137:-0,08894, 136: 0,46736, 135: 0,79891,
                134: 0,36291, 133:-0,52278, 132:-0,05280, 131:-0,00975, 130:-0,69852, 129: 0,44046, 128: 0,91480, 127:-0,53524,
                126:-0,37250, 125: 0,25281, 124:-0,60430, 123:-0,06496, 122: 0,47374, 121: 0,44262, 120: 0,64271, 119: 0,91324,
                118:-0,18724, 117: 0,76148, 116: 0,29899, 115:-0,09482, 114:-0,60592, 113: 0,01770, 112:-0,46343, 111:-0,46793,
